<?xml version="1.0"?>
<opencv_storage>
<my_svm type_id="opencv-ml-svm">
  <svm_type>C_SVC</svm_type>
  <kernel><type>LINEAR</type></kernel>
  <C>1.0000000000000001e-01</C>
  <term_criteria><epsilon>1.1920928955078125e-07</epsilon>
    <iterations>1000</iterations></term_criteria>
  <var_all>17640</var_all>
  <var_count>17640</var_count>
  <class_count>2</class_count>
  <class_labels type_id="opencv-matrix">
    <rows>1</rows>
    <cols>2</cols>
    <dt>i</dt>
    <data>
      -1 1</data></class_labels>
  <sv_total>1</sv_total>
  <support_vectors>
    <_>
      2.59888754e-03 3.14353174e-03 3.85542540e-03 2.22643302e-03
      -1.90860999e-03 -1.30854186e-03 -8.05494434e-04 -4.33825335e-04
      1.47070899e-03 4.69195424e-04 -2.14973302e-03 -3.19195766e-04
      -7.02706981e-04 -4.82336897e-03 -2.90561514e-03 -2.27199914e-03
      -1.87270402e-03 -1.68754850e-04 1.06185966e-03 3.24963825e-04
      1.59418094e-03 -6.86228392e-04 -2.03282107e-03 -1.06956984e-03
      7.11362576e-04 -3.41653904e-05 2.99553503e-04 -2.12235074e-03
      -4.11354844e-03 -3.19410465e-03 -3.88105353e-03 -7.46372854e-03
      -4.70481301e-03 -4.64107003e-03 -3.60267423e-03 -3.74718360e-03
      -1.62915545e-04 -1.53275277e-03 -7.50632957e-04 -9.93310008e-04
      -3.94719793e-03 -1.39090570e-03 -1.69898244e-03 -1.66446844e-03
      -3.93603143e-04 1.12673151e-03 1.29943737e-03 1.76182832e-03
      1.00732408e-03 4.66788741e-04 8.47530086e-04 -7.23577279e-04
      -1.66711956e-03 5.13580046e-04 -2.13295454e-03 -3.00554861e-03
      -1.87155977e-03 -1.46626460e-03 -5.50166052e-03 -3.77995218e-03
      -5.20370342e-03 -5.25246514e-03 -3.34616518e-03 -1.94602227e-03
      -1.18477736e-03 6.54329255e-04 5.04594995e-04 2.15251959e-04
      2.30253499e-04 -3.39318707e-04 -1.96754513e-03 -4.07034153e-04
      1.22908002e-03 1.85822241e-03 1.36123237e-03 1.03128521e-04
      -6.30367198e-04 -2.09289021e-03 -2.52829795e-03 -4.45586955e-03
      -1.73277233e-03 -6.58583653e-04 1.27682998e-03 1.03456201e-03
      4.34398331e-04 1.61897833e-03 4.69576422e-04 -1.57818955e-03
      -3.49776470e-03 -3.67322611e-03 -1.86613749e-03 -1.11376366e-03
      7.01255689e-04 -2.83674366e-04 4.84147167e-04 -3.58566118e-04
      -1.30583544e-03 -2.11717398e-03 -1.54604879e-03 7.88839898e-05
      2.43028553e-04 5.64464659e-04 -2.39851332e-04 1.30054879e-03
      3.76037933e-05 -6.81398669e-05 -1.94180897e-03 -6.05580688e-04
      5.90413634e-04 1.00925309e-03 1.04419980e-03 8.30194098e-04
      1.71157799e-03 2.08732439e-03 -4.17433772e-03 -5.23079187e-03
      -2.81094154e-03 -2.02278927e-04 1.04857318e-03 1.30823383e-03
      8.46808427e-04 1.27341948e-03 3.76095006e-04 -1.73184590e-03
      -2.53372849e-03 -1.78633479e-03 2.30810978e-03 5.85839502e-04
      6.67697284e-04 2.63491529e-04 7.30239961e-04 4.37892188e-04
      9.52495087e-04 -6.83758990e-04 4.33943642e-04 1.82073540e-03
      6.17974729e-04 8.57741747e-04 7.01538404e-04 2.34887237e-03
      8.73718964e-05 -1.14378880e-03 -2.64050346e-03 5.99722262e-04
      6.77255681e-04 5.21408336e-04 1.01704674e-03 6.16295089e-04
      1.62001024e-03 1.52204258e-04 -1.22383091e-04 -1.53681077e-03
      -1.81378389e-04 7.88884819e-04 1.65502162e-04 2.70830904e-04
      1.73956141e-04 1.16419955e-03 1.63369710e-04 1.86952657e-05
      -5.73636440e-04 2.02614290e-04 7.09019485e-04 6.17806159e-04
      1.15319481e-03 9.16938647e-04 -4.09376429e-04 -3.58924083e-03
      -3.68920155e-03 -1.76097418e-03 -1.29723875e-03 4.72194486e-04
      2.82068591e-04 2.68087722e-04 -2.07131496e-04 2.02293857e-04
      -1.30688632e-03 2.24669406e-04 -2.30111531e-03 5.05825272e-04
      7.20454147e-04 2.47683347e-04 7.57755770e-04 4.97511530e-04
      1.93521101e-03 5.94278681e-04 2.42927839e-04 -1.07279629e-03
      8.65268114e-04 1.48733612e-03 1.10419432e-03 1.78956834e-03
      1.50429714e-03 2.52446253e-03 1.28632400e-03 2.87259393e-03
      1.18303543e-03 1.42846885e-03 5.64874499e-04 -1.08277355e-03
      -8.45745963e-04 -2.43583438e-03 -2.97316536e-03 -2.75019230e-03
      5.42609370e-04 -3.70715605e-03 5.50192955e-04 2.01358506e-03
      7.13583664e-04 4.38023824e-03 2.11988785e-03 2.28409027e-03
      2.15286901e-03 3.78149934e-03 2.09953822e-03 2.37308512e-03
      1.20466540e-03 9.62713559e-04 1.27296103e-03 7.53764180e-04
      2.23849854e-03 8.23459472e-04 1.85265543e-03 9.31317103e-04
      1.10075425e-03 8.68323899e-04 5.30960737e-04 4.16183000e-04
      7.95122542e-05 1.98273873e-03 1.67532335e-03 2.03490653e-03
      6.85243576e-04 7.18459371e-04 3.07362247e-03 1.69450592e-03
      1.95916137e-03 6.80058147e-04 4.71196277e-03 3.09280865e-03
      4.37633507e-03 4.53003729e-03 3.96824395e-03 -2.86149967e-04
      2.02980428e-03 1.71361188e-03 8.03847797e-04 3.63100111e-03
      1.41307677e-03 2.57603382e-03 2.51142005e-03 -6.21554591e-06
      -1.49428728e-03 -2.29184818e-03 -2.11980497e-03 -1.04292273e-03
      3.26167257e-03 8.57259089e-04 2.32782192e-03 1.07195077e-03
      -5.74354606e-04 -3.07648722e-03 -5.68371033e-03 -5.71782235e-03
      -4.22699982e-03 -5.72293298e-03 -1.24999450e-03 -8.33241094e-04
      -3.91035603e-04 -2.57871184e-03 -2.55345460e-03 -8.05940107e-03
      -6.31532818e-03 -2.67820922e-03 4.92257439e-03 3.14068468e-03
      3.07410979e-03 2.18033674e-03 -1.51248497e-03 -2.94553465e-03
      -5.85856196e-03 -6.90292427e-03 -3.50124761e-03 -1.62786839e-03
      8.47845338e-04 1.27048092e-03 2.21890584e-03 -2.26477743e-03
      -5.76685369e-03 -6.81591267e-03 -6.71272632e-03 -5.72445150e-03
      -7.99757894e-03 -2.76309159e-03 -3.40791140e-03 -5.01797022e-03
      -4.73070098e-03 -2.03784858e-03 -2.28992081e-03 -5.41267509e-04
      -2.91620876e-04 -2.22264625e-05 1.54618733e-03 2.31706261e-04
      -1.45061500e-03 -7.81855080e-04 -2.92988913e-03 -3.95489577e-03
      -5.23824943e-03 -3.65693099e-03 -4.09675064e-03 -1.99422197e-04
      1.84377353e-03 2.74346792e-03 -1.76829530e-03 1.87253382e-03
      8.49243719e-04 9.08170652e-04 7.88514968e-04 2.33805360e-04
      1.17736438e-03 3.64673673e-03 3.93483182e-03 3.34180589e-03
      -3.15695582e-03 -3.65966489e-03 -6.59542042e-04 -1.92259753e-03
      -3.23491753e-04 -1.47554849e-03 -2.67524435e-03 -2.91205803e-03
      -2.53212918e-03 -1.37454295e-03 -2.65226699e-04 8.40584617e-05
      -1.20014709e-03 -9.84306564e-04 -2.67384155e-03 -1.58879254e-03
      -4.24226979e-03 -1.60189357e-03 1.62977155e-03 2.99859559e-04
      1.00820580e-04 -1.11232832e-04 1.36248476e-03 1.88866688e-03
      2.67935684e-03 3.09115485e-03 1.96414907e-03 3.91289406e-03
      2.14741263e-03 3.05731245e-03 1.31606287e-03 2.58515403e-03
      2.39086128e-03 2.73481128e-03 3.37336469e-03 4.33326093e-03
      1.18106464e-03 1.12832594e-03 -1.69290695e-03 -1.79423834e-03
      -5.69342216e-03 -2.29877420e-03 -2.19028234e-03 5.85103640e-04
      1.21075730e-03 2.07200341e-04 8.75849277e-04 1.41565572e-03
      1.02405658e-03 -2.10219063e-03 1.72785588e-03 -1.59961416e-03
      -1.98965403e-03 -5.78847888e-04 3.17493780e-03 2.09241174e-03
      3.14789568e-03 1.37114851e-03 1.92972948e-03 5.52030688e-04
      2.40906002e-03 2.56602094e-03 3.58334789e-03 2.20024283e-03
      1.51776185e-03 2.54554232e-03 1.50990894e-03 2.32162885e-03
      2.77077816e-05 -3.47489440e-05 -1.45460968e-03 1.37302699e-03
      1.04795489e-03 6.61607774e-04 1.17329531e-03 1.17471034e-03
      8.33148719e-04 7.31177570e-04 1.34471187e-03 8.33791331e-04
      1.85670343e-03 8.23950977e-04 -1.48013257e-03 -1.92696997e-03
      -2.58154492e-03 -2.50651129e-03 -1.87138247e-03 -9.76188094e-05
      -1.66352303e-03 1.29508134e-03 1.17605994e-03 1.21846737e-03
      2.56705214e-03 1.71743915e-03 8.96563055e-04 -1.86825971e-04
      -1.41885233e-04 -9.87751642e-04 2.44085604e-04 3.56679724e-04
      -6.20644423e-05 2.72084930e-04 -2.32419115e-04 -1.45215902e-03
      -2.04625400e-03 -2.95196800e-03 -3.62522900e-03 -1.79157581e-03
      8.14332685e-04 -8.59290245e-04 -1.06705213e-03 -1.93944189e-03
      -1.59507990e-03 -4.75895475e-04 4.97954199e-04 -1.73497119e-03
      1.22264435e-03 1.51530770e-03 6.88163680e-04 1.71208358e-03
      1.18417467e-03 4.30492824e-03 2.43634917e-03 4.50892188e-03
      2.84434389e-03 2.47458485e-03 -7.74642162e-04 3.63272615e-04
      2.95616774e-05 -5.74161240e-04 -7.31229596e-03 -2.03817314e-03
      -3.76763404e-03 -6.41936995e-03 -3.38568073e-03 4.63500910e-04
      2.52154481e-04 2.02127756e-03 1.46151497e-03 4.86288394e-04
      2.69960321e-04 -2.57993815e-04 -1.12274871e-03 6.38849451e-04
      8.67355848e-04 6.37292804e-04 1.40333013e-03 9.42035229e-04
      2.87292781e-03 1.91524939e-03 3.52741499e-03 2.12601689e-03
      1.80809863e-03 8.03461007e-04 1.07204856e-03 1.34570687e-03
      9.74028546e-04 4.15725773e-03 2.55259289e-03 2.56734923e-03
      1.76391925e-03 1.29787531e-03 2.03042320e-04 -1.04822626e-03
      1.81981100e-04 1.43710512e-03 -2.77542952e-03 -2.09780852e-03
      2.74933584e-04 -1.65601110e-03 -2.63522170e-03 -9.59032739e-04
      -1.60196435e-03 -7.60304974e-04 9.42944374e-04 4.61879233e-03
      3.09673394e-03 3.36645613e-03 1.64654851e-03 -3.23754881e-04
      -6.88299676e-03 -1.19681908e-02 -9.39212181e-03 -5.10499906e-03
      9.14304110e-04 3.35836411e-03 2.93459371e-03 1.22937642e-03
      -2.95462762e-03 -2.48647574e-03 -5.30811213e-03 -6.75309123e-03
      -1.53509120e-03 4.25164122e-04 8.40105466e-04 1.92960131e-03
      2.25368561e-03 -1.12507935e-03 2.55207904e-03 -6.51756069e-04
      -1.60113594e-03 -3.45398206e-04 4.71763546e-04 -2.44332739e-04
      1.29280810e-03 -3.34462005e-04 2.66079535e-03 5.14267618e-03
      4.59023658e-03 4.06390056e-03 1.06410345e-03 1.97089906e-03
      1.75746507e-03 2.49961158e-03 2.32972694e-03 5.57052251e-03
      -6.85803499e-03 -1.15845948e-02 -1.13168005e-02 -4.24509635e-03
      -8.47645011e-03 2.51701043e-04 4.98000765e-04 1.88512611e-03
      -6.52667508e-03 5.18436311e-04 2.91203498e-04 -5.15352076e-05
      4.29582578e-04 8.70421820e-04 2.77726748e-03 4.26314957e-03
      4.48338175e-03 2.48286827e-03 4.35303897e-03 3.48008727e-03
      2.48862989e-03 5.55718841e-04 1.81820663e-03 2.02910462e-03
      3.24198138e-03 2.62521463e-03 4.00505261e-03 3.93334357e-03
      3.24412528e-03 2.59803468e-03 5.51215489e-04 1.51775428e-03
      9.13967553e-04 2.59679439e-03 2.81851413e-03 3.64498026e-03
      2.35394808e-04 7.03993312e-04 2.49577308e-04 1.37874275e-03
      1.79827679e-03 1.69191556e-03 3.58323939e-03 3.82697675e-03
      9.45155916e-04 4.89165308e-03 2.31957878e-03 3.43390880e-03
      1.69612770e-03 -7.78756294e-05 1.60649244e-03 2.45585688e-03
      3.49306082e-03 5.26776351e-03 3.53153748e-03 2.76776380e-03
      2.65132799e-03 9.98911913e-04 1.92606263e-03 4.70972416e-04
      1.74532738e-03 1.75765157e-03 3.38287791e-03 4.11954476e-03
      1.85444125e-03 2.26978958e-03 1.61748193e-03 2.70525645e-03
      7.33519497e-04 2.06515635e-03 2.51273648e-03 4.07201238e-03
      5.52743906e-03 2.95196427e-03 4.69411490e-03 2.27846927e-03
      3.33022745e-03 4.18100564e-04 2.25386443e-03 3.41525744e-03
      6.53469237e-03 -3.00528744e-04 2.55438779e-03 3.23430821e-03
      1.61325070e-03 6.65655010e-04 -4.33979463e-03 -1.15320622e-03
      -2.63816025e-03 -1.91888388e-03 3.73585615e-03 1.60583772e-03
      2.37018196e-03 1.77041965e-03 3.13281920e-03 7.62846379e-04
      1.59630040e-03 2.19141878e-03 4.11298405e-03 1.38567528e-03
      1.06147910e-03 1.12568389e-03 2.44846247e-04 7.21055258e-05
      -4.24453872e-04 -1.77399709e-03 -5.06358447e-05 1.25417579e-03
      2.86562718e-03 3.10171861e-03 3.39606497e-03 2.70382548e-03
      1.33702462e-03 -3.57976678e-04 -6.41141261e-04 -2.58897089e-05
      2.23776675e-03 -3.03020439e-04 1.20114547e-03 1.54984882e-03
      1.32948696e-03 -3.13027971e-03 -5.07107656e-03 -5.66043751e-03
      -5.25099086e-03 -3.34112509e-03 1.54374016e-03 9.51765280e-04
      9.89687163e-04 1.74926899e-04 -1.46399450e-03 -9.50320973e-04
      -4.55334928e-04 7.49479877e-05 1.33243576e-03 9.01817111e-04
      -1.60501528e-04 5.76619001e-04 1.47834799e-04 -2.31967703e-03
      -7.18562864e-04 -1.67691696e-03 -1.40938023e-03 -3.90825706e-04
      1.15118548e-03 1.47905282e-03 2.10850104e-03 1.23481755e-03
      -2.06424086e-03 -8.21422203e-04 -2.26654345e-03 -2.80252891e-03
      3.01680091e-04 1.22724066e-03 5.17527515e-04 9.16621007e-04
      1.05658709e-03 -9.44712257e-04 1.84791337e-04 -1.52886772e-04
      -1.07028514e-04 1.82697992e-03 -2.68292148e-04 -3.78213357e-04
      7.34221598e-04 -3.88030254e-04 -4.25795093e-03 -1.48971484e-03
      -3.98434559e-03 -2.45633838e-03 1.90549799e-05 -6.35210366e-04
      -8.49866366e-04 -1.30149163e-03 -1.37099670e-03 -2.80097523e-03
      -2.46762484e-03 -3.36388359e-03 -1.80908269e-03 6.89269276e-04
      -9.39824211e-04 -7.88940466e-04 2.39246801e-04 1.14518253e-03
      -2.16130284e-03 -7.40138930e-05 -1.58680356e-04 -4.54263354e-04
      -6.46601373e-04 -1.02539780e-03 -1.43596064e-03 -8.26234056e-04
      8.34521488e-04 6.04544301e-03 3.89279076e-03 3.93450307e-03
      2.44471338e-03 -2.75158789e-04 -1.09291018e-03 -1.97801995e-03
      -2.91477214e-03 -2.56736903e-03 -5.08985203e-03 -3.89795122e-03
      -5.97240170e-03 4.30444634e-04 3.49874201e-04 5.19205991e-04
      -6.16533624e-04 -8.97865917e-04 8.71887823e-05 4.06753691e-03
      2.05990626e-03 5.32035716e-03 2.30973470e-03 1.22697465e-03
      -1.36608398e-03 6.47737528e-04 -1.16716512e-03 -2.34835572e-03
      -7.13295955e-03 -1.57907943e-03 1.97165250e-03 -3.93010152e-04
      -1.37281814e-03 4.15841816e-03 3.82552855e-03 3.41084832e-03
      8.04775103e-04 1.11895031e-03 1.69365725e-03 2.91576935e-03
      2.85817287e-03 4.63058380e-03 5.67911484e-04 2.18735123e-03
      1.57766545e-03 -9.59724712e-04 -3.64827551e-03 -1.49206247e-03
      -1.51553511e-04 -2.71463039e-04 1.75146677e-03 3.83555912e-03
      3.32035311e-03 2.75226566e-03 8.98200902e-04 1.36550865e-03
      1.68603030e-03 3.11538833e-03 2.63945176e-03 4.49080905e-03
      4.71836235e-03 3.89760756e-03 3.61342425e-03 1.32545282e-03
      3.29576689e-03 1.48894417e-03 3.15168616e-03 2.50009610e-03
      4.37630713e-03 3.32761393e-03 2.70028296e-03 1.77033397e-03
      3.09184543e-04 1.64751837e-03 1.09464733e-03 1.94293854e-03
      2.01301090e-03 3.35281203e-03 5.18646091e-03 2.92891776e-03
      2.19541439e-03 8.07136821e-04 2.90646800e-03 2.99014407e-03
      4.49654460e-03 4.16972535e-03 5.23660379e-03 2.63348897e-03
      1.15048699e-03 1.25290919e-03 6.76772266e-04 2.42955447e-03
      1.40394585e-03 2.97383196e-03 2.95489421e-03 3.49536538e-03
      5.33429673e-03 4.01775772e-03 3.47125484e-03 1.25369278e-03
      3.21723567e-03 1.83883402e-03 2.47967918e-03 2.06508674e-03
      5.08259283e-03 3.00502847e-03 1.91173772e-03 1.70161820e-03
      1.59486581e-03 1.88866560e-03 1.14286202e-03 1.61400449e-03
      1.47361087e-03 2.94094067e-03 2.28136661e-03 6.73533301e-04
      2.23992462e-03 1.26716250e-03 5.24199521e-03 2.78555648e-03
      3.96018894e-03 3.87370144e-03 2.71715038e-03 1.71913428e-03
      2.87743751e-04 3.31954914e-04 3.01643686e-05 6.88713568e-04
      9.55190044e-05 3.77634249e-04 2.48154305e-04 1.75621291e-03
      6.18119212e-03 2.26737722e-03 2.81800213e-03 3.53469304e-03
      3.13802692e-03 1.02535659e-03 1.94905431e-03 2.16176477e-03
      6.23711571e-03 1.91527724e-04 1.02534110e-03 1.08997442e-03
      3.11979966e-04 -5.22577623e-03 -2.59020273e-03 -1.49853388e-03
      -6.65875443e-04 1.15148250e-04 1.54837419e-03 1.06693711e-04
      1.30029614e-04 5.04180134e-05 1.02836413e-04 3.72538088e-05
      8.08772529e-05 2.17909983e-05 1.56908936e-03 2.54560582e-04
      1.19153992e-04 1.35222857e-04 1.35222857e-04 1.35222857e-04 0.
      -4.21457953e-05 -2.64816717e-05 2.16077446e-04 1.90711464e-03
      1.15414127e-03 1.23835099e-03 1.48291845e-04 -9.37399920e-04
      -9.99088283e-04 -1.76284136e-03 -5.12461120e-04 2.04814528e-03
      -3.96116549e-04 -5.56738989e-04 -4.28127096e-04 -2.34042418e-05
      -2.57924083e-03 -5.51927253e-04 -5.41891577e-03 -5.83981350e-03
      -2.03028717e-03 -3.02677709e-05 6.34544340e-05 6.36180557e-05
      7.97829634e-05 1.05401967e-04 -1.58746261e-05 -8.63429232e-05
      -4.08025626e-05 -6.13610246e-05 1.46014884e-03 4.16490657e-04
      2.77663901e-04 2.51605234e-04 9.91316978e-04 -7.37724244e-04
      -1.93194230e-03 -2.51354446e-04 1.57179625e-03 -1.05448824e-03
      -1.61964534e-04 -1.82228308e-04 -4.59617819e-04 -1.05511642e-03
      -1.95640232e-03 -3.23387375e-03 -7.91602186e-04 4.90659913e-05
      -1.50606595e-03 -4.85244382e-04 -1.35110400e-03 -1.33639493e-03
      -2.26860377e-03 -3.00968951e-03 -3.05993552e-03 7.41049735e-05
      7.10215594e-04 4.71810403e-04 3.33421805e-04 4.15801711e-04
      1.70424348e-04 -8.18344241e-04 -1.53001409e-03 -1.64120714e-03
      -6.20014267e-04 4.44739941e-04 -3.38995917e-04 1.18037988e-03
      8.89344432e-04 9.51821858e-04 -1.79870811e-03 -4.55345307e-03
      -4.21228725e-03 -4.65817191e-03 -8.54922459e-04 -9.69056273e-04
      4.34981688e-04 -9.79552977e-04 -5.06506825e-04 -2.52215867e-03
      -2.40135146e-03 -2.18815607e-04 4.99272137e-04 -2.43342671e-04
      3.64073203e-03 -1.63226126e-04 -5.99504390e-04 -4.97879402e-04
      4.87737963e-03 2.20359140e-03 5.69451135e-03 2.81999423e-03
      3.52625316e-03 -1.54310919e-03 1.32103707e-03 7.58102280e-04
      4.91822429e-04 -1.90388368e-04 -3.07610608e-03 -3.27569619e-03
      -4.30485746e-03 -1.54524215e-03 -3.82007891e-03 -8.40697787e-04
      -5.46247582e-04 -1.99603918e-03 9.89966560e-04 -4.53874411e-04
      -2.03239289e-03 -2.91089155e-03 -4.38892376e-03 2.90218787e-03
      3.18291015e-03 2.96389591e-03 1.30368408e-03 -7.32123060e-03
      -9.72744601e-04 7.33156630e-04 5.17958426e-04 2.92578922e-03
      3.69899976e-03 2.48524663e-03 2.67596403e-03 7.99935602e-04
      9.04185232e-04 1.29376596e-03 3.38125369e-03 4.89795720e-03
      3.70046590e-03 -1.46422081e-03 8.44062946e-04 1.26654096e-03
      4.37558832e-04 -8.55815876e-03 -2.47998629e-03 -2.62123696e-03
      -1.22592249e-03 -8.50528653e-04 1.93121098e-03 2.02391157e-03
      1.71938317e-03 4.58010763e-04 9.18682897e-04 7.77982292e-04
      9.25511878e-04 8.83059576e-04 1.22187985e-03 5.30821085e-03
      3.81559925e-03 3.12733068e-03 1.96255744e-03 2.89822766e-03
      1.35751499e-03 2.88023055e-03 2.62452639e-03 6.01337990e-03
      3.10903951e-03 1.20350090e-03 1.83608558e-03 1.12998043e-03
      2.86747352e-03 1.51254376e-03 3.21085472e-03 2.64171674e-03
      3.12144030e-03 1.12523278e-03 2.11275765e-03 1.56039384e-03
      7.63648830e-04 4.87723202e-03 9.00577055e-04 -7.23469944e-04
      1.21179364e-04 1.46839290e-03 2.30180915e-03 2.61642388e-03
      2.27335538e-03 5.72113204e-04 2.42451904e-03 1.29462371e-03
      3.39123863e-03 3.20302299e-03 2.62596528e-03 3.40048387e-03
      1.16145425e-03 2.96051404e-03 2.20106798e-03 4.50067967e-03
      1.87231810e-03 3.38918716e-03 2.86662905e-03 2.56575737e-03
      7.00428325e-04 6.03978406e-04 1.62144323e-04 2.83337304e-05
      6.57415367e-04 2.21483235e-04 7.11482309e-04 3.82872531e-04
      3.56736797e-04 -1.34508940e-04 2.10593478e-03 1.86165934e-03
      9.74188268e-04 3.93732078e-03 3.18249059e-03 5.05814096e-03
      4.55619162e-03 1.58622977e-04 1.75698847e-03 1.32069073e-03
      7.36478367e-04 2.14715925e-04 1.64983072e-03 9.08908609e-04
      2.15294026e-03 1.42246182e-03 1.52924750e-03 4.27546824e-04
      3.88408080e-04 1.62011202e-04 9.96285962e-05 8.52153695e-04
      3.82472470e-04 7.27147737e-04 4.83111595e-04 3.84845363e-04
      3.15909201e-05 3.73259245e-05 9.30402384e-05 3.34496326e-05
      1.78938979e-04 2.11434581e-05 3.29389804e-05 6.52281324e-06
      3.19253413e-05 1.88893487e-03 1.22969446e-03 1.11344655e-03
      9.09359893e-04 2.35885684e-03 2.58207810e-03 2.68796645e-03
      1.99310877e-03 1.03890116e-03 1.79087522e-03 1.04165764e-03
      1.96353139e-04 1.95844386e-05 4.04031569e-04 2.65588693e-04
      7.67777790e-04 7.86784571e-04 5.82271488e-04 3.16725636e-05
      6.16482503e-05 1.08609755e-04 9.96439994e-05 1.38450516e-04
      -1.53785845e-06 -3.52540228e-05 -1.92886182e-05 1.02380845e-05
      2.35592900e-03 4.46165010e-04 8.32180900e-04 7.63001037e-04
      -5.87278628e-05 -2.07516178e-03 -3.47117172e-03 -3.38411634e-03
      1.28322653e-03 5.30063349e-04 3.87835316e-04 7.33705529e-04
      1.29667547e-04 2.48032826e-04 8.51707682e-06 7.45769939e-04
      1.04473892e-03 5.49363554e-04 2.10959651e-03 2.42661918e-03
      2.65600951e-03 2.13945424e-03 2.19315384e-03 2.37964166e-04
      2.83885485e-04 2.26513424e-04 1.31522119e-03 1.43797917e-03
      6.53680763e-04 6.58820500e-04 6.15467608e-04 -5.54417085e-04
      -1.10515754e-03 -1.95087353e-03 -1.11232314e-03 9.40871832e-04
      1.71566301e-03 6.82614103e-04 9.04800836e-04 6.71534217e-04
      -2.80331774e-03 -3.28549044e-03 -3.68044735e-03 -6.60066400e-03
      5.29471261e-04 1.87573198e-03 2.09938455e-03 1.80690794e-03
      7.96010369e-04 8.30243807e-04 1.77512513e-04 1.90321021e-04
      1.73952038e-04 1.08461885e-03 3.89228528e-03 3.81953106e-03
      3.41467536e-03 1.03157526e-03 1.89005467e-03 3.76436423e-04
      -3.19073704e-04 -5.17117616e-04 2.21978547e-03 -1.91348454e-03
      8.36675870e-04 9.92675661e-04 7.20117008e-04 1.76598679e-03
      -5.05773642e-04 -2.56023044e-03 -3.37274536e-03 -2.19740067e-03
      -5.82046108e-03 7.43765500e-04 4.08919557e-04 -1.97352120e-03
      -1.85336836e-03 -1.35470077e-03 -2.86307279e-03 -3.69581557e-03
      -7.07360962e-03 2.09182873e-03 1.70001632e-03 2.10620556e-03
      6.60293736e-04 1.77650910e-03 5.38944034e-04 -4.57110436e-04
      -1.33878877e-03 1.63493899e-03 3.78544116e-03 4.12523374e-03
      3.34771164e-03 2.39938172e-03 1.87257212e-03 -2.25255196e-03
      -9.82751371e-04 -2.19049235e-03 1.42777059e-03 9.08714486e-04
      1.05119881e-03 1.50097802e-03 9.51368362e-04 -6.72010751e-03
      -1.53771648e-03 -1.24304299e-03 -8.27328709e-04 -4.65550838e-04
      8.36377265e-04 1.38096616e-03 1.23375049e-03 3.85502964e-04
      1.76556397e-03 1.67694502e-03 1.55330915e-03 6.29302696e-04
      1.25920901e-03 7.19444011e-04 -4.51705244e-04 7.74853805e-04
      -2.63086084e-04 -5.57399448e-03 -1.99904316e-03 -9.50329064e-04
      -1.95036374e-03 9.75963601e-04 1.18687062e-03 8.87699949e-04
      1.10646593e-03 3.17878497e-04 3.66408756e-04 2.94678705e-03
      2.71511101e-03 9.28789901e-04 2.18155910e-03 1.61481102e-03
      1.60709047e-03 1.42335752e-03 4.89447848e-04 1.68649782e-03
      6.39601261e-04 1.04858342e-03 3.46085988e-04 1.31054025e-03
      3.06208129e-03 2.45948182e-03 2.13588052e-03 4.82991367e-04
      2.64611049e-03 1.32094231e-03 1.66893832e-03 6.25446148e-04
      1.61532278e-03 -1.13481155e-03 1.16226217e-03 1.50917459e-03
      3.76511976e-04 1.11696613e-03 2.68237595e-03 2.61079613e-03
      3.15087172e-03 1.06077723e-03 2.93540070e-04 2.72903731e-03
      2.84628896e-03 1.24897331e-03 4.15464025e-03 1.38838298e-03
      1.71670923e-03 6.38697413e-04 6.29681570e-04 3.10283876e-03
      2.12028669e-03 2.25354289e-03 4.65524878e-04 2.57718307e-03
      2.15109484e-03 2.42715003e-03 1.69233500e-03 1.73838041e-03
      9.52683098e-04 1.27071433e-03 9.15285200e-04 2.39979272e-04
      1.67040003e-03 9.42719576e-04 1.79752475e-03 1.31471187e-03
      3.62496561e-04 7.35039997e-04 1.87281356e-03 2.38955510e-03
      8.00273789e-04 7.38681527e-03 3.10534774e-03 1.33169570e-03
      1.31204521e-04 7.58307870e-04 -1.41517760e-03 1.71114819e-03
      1.81794679e-03 4.46373131e-04 2.34127138e-03 1.59736339e-03
      1.74136017e-03 -5.07572986e-05 -8.09753721e-04 8.51676508e-04
      8.76159116e-04 1.02590013e-03 8.60281114e-04 1.58205093e-03
      1.13716978e-03 1.92775205e-03 1.56358059e-03 2.46897049e-04
      4.89618978e-04 4.17994161e-04 9.64722771e-04 4.08761669e-04
      7.00082979e-04 3.68272827e-04 7.94783118e-04 7.93856278e-04
      5.02577575e-04 -7.28917730e-05 1.28831051e-03 1.24448561e-03
      2.25814176e-04 2.28885165e-03 1.31326984e-03 1.04831761e-05
      -8.62085144e-04 9.90513654e-05 9.38409474e-04 3.30222934e-03
      2.76876800e-03 1.95302337e-03 3.42565216e-03 1.02185144e-03
      -2.45445129e-03 -2.83926982e-03 -8.68813717e-04 6.87234919e-04
      5.38768305e-04 1.12154568e-03 3.38229263e-04 5.56761457e-04
      1.77778769e-04 6.39814476e-04 7.88825273e-04 6.67013170e-04
      1.65479234e-03 1.83986861e-03 2.10276619e-03 8.85677233e-04
      1.26927032e-03 5.92541437e-05 6.83094200e-04 5.93788980e-04
      1.42105471e-03 7.38413481e-04 2.33813701e-03 2.35013501e-03
      1.07529282e-03 2.78186169e-03 1.58145465e-03 -4.71366430e-03
      -4.79097618e-03 -3.40298051e-03 1.60893705e-03 1.50432903e-03
      2.09406903e-03 1.42605719e-03 2.49077356e-03 7.41414493e-04
      7.11331610e-04 -1.24692207e-03 5.48344862e-04 1.60680269e-03
      2.38415878e-03 2.41938559e-03 1.12812989e-03 1.20907056e-03
      9.23868574e-05 3.63024767e-04 3.17431433e-04 1.08059600e-03
      8.79865140e-04 2.37007346e-03 2.54123309e-03 7.31189270e-04
      1.18421018e-03 3.39852821e-04 8.08786601e-04 5.74713456e-04
      8.91091302e-04 -3.17164045e-03 1.55291415e-03 2.40309141e-03
      8.31751851e-04 1.33155182e-03 2.61934969e-04 3.98408214e-04
      -1.57603459e-03 -3.66205676e-03 -1.52632280e-03 2.70130089e-03
      2.59218714e-03 7.50059087e-04 4.37159464e-03 6.54763717e-04
      3.04879999e-04 1.03435677e-03 -2.29327544e-03 3.83411115e-03
      2.10775970e-03 2.42815097e-03 7.26989296e-04 1.02541316e-03
      8.63367968e-05 5.12022001e-04 1.29957887e-04 3.59480572e-03
      -2.15507345e-03 3.08669545e-03 2.54414021e-03 2.36506201e-03
      -3.25142732e-03 -3.31540126e-03 -2.01150822e-03 -2.03150464e-03
      -2.34510750e-03 -6.34642842e-04 1.54867559e-03 1.64659251e-03
      9.06686706e-04 7.92153820e-04 4.14584007e-04 9.07253474e-04
      1.09966681e-03 -2.03976902e-04 -1.26168260e-03 -6.19058672e-04
      9.86175219e-05 -1.37758150e-03 -7.39794632e-04 1.11740141e-03
      1.55591709e-03 9.26949899e-04 -1.98899303e-03 -5.20051166e-04
      9.37984169e-06 7.44112127e-04 1.34204369e-04 -4.23781294e-03
      -1.54813332e-03 1.62247312e-03 -8.83046363e-04 1.10274774e-03
      -1.86856440e-03 7.09799526e-04 1.98920351e-03 7.65605306e-04
      1.56909751e-03 3.75972339e-03 2.69695860e-03 -1.36630586e-03
      6.35210599e-04 -6.82971790e-04 -1.13383057e-05 5.30546939e-04
      3.44312401e-04 -5.52843744e-03 -4.47041169e-03 -3.76678235e-03
      -3.15790181e-03 -1.51313865e-03 9.45382460e-04 1.04288489e-03
      1.58336177e-03 1.27535581e-03 -1.68155215e-03 2.72265988e-05
      1.31472712e-03 3.35059012e-04 -1.13466092e-06 -7.92401552e-04
      1.59967551e-03 2.47689709e-03 9.41641862e-04 8.67869996e-04
      1.38500636e-03 3.05169122e-03 1.23382430e-03 -1.30865420e-03
      -1.66217994e-03 2.32656347e-03 2.62265420e-03 6.65832893e-04
      4.32518963e-03 2.24661129e-03 1.77951530e-03 -3.33802280e-04
      -1.15021446e-03 -1.51879981e-03 1.51877524e-03 1.66854984e-03
      1.34176516e-03 -4.62399144e-03 -4.81801428e-04 -2.15608254e-03
      -1.52102916e-03 -8.62664543e-04 5.38729772e-04 6.76988158e-04
      8.00704060e-04 1.81215437e-04 4.97272005e-04 1.21791265e-03
      2.69806874e-03 3.08233313e-03 1.25249871e-03 -1.44234987e-03
      1.38038665e-03 1.76953513e-03 6.38701080e-04 2.77974969e-03
      1.64026010e-03 1.07637281e-03 -1.48219557e-03 -7.14674534e-04
      -5.57986961e-04 1.68628048e-03 1.50878367e-03 4.68748360e-04
      2.41527357e-03 1.60395983e-03 2.14188709e-03 1.06719715e-04
      1.21169163e-04 -3.99528071e-04 1.26925367e-03 1.50320551e-03
      9.14948978e-05 9.80487093e-04 2.04334245e-03 4.51704400e-04
      1.96570111e-03 1.36907212e-03 -2.95966165e-04 2.22843932e-03
      1.94068637e-03 -2.79971046e-05 -6.70525944e-04 9.21457773e-04
      3.13066994e-03 2.51686689e-03 -6.74158742e-04 -8.47540738e-04
      1.55139936e-03 1.45809038e-03 5.53748454e-04 1.78068876e-03
      6.83348742e-04 5.14914456e-04 -6.22273888e-04 -6.55560405e-04
      1.28026601e-04 1.71788270e-03 2.04609684e-03 1.21534022e-03
      2.71812151e-03 9.97912837e-04 -1.58563245e-03 -1.56351761e-03
      -7.24338286e-04 1.17668067e-03 4.59249975e-04 -6.93213427e-04
      3.82096216e-04 -3.23249056e-04 6.89994893e-04 3.72474920e-03
      3.25866952e-03 1.97751354e-03 -4.21722746e-03 -4.84860316e-03
      -5.03345206e-03 -7.19902222e-04 -3.79441102e-04 4.10759589e-04
      2.20472272e-03 1.50149674e-04 -4.25727339e-03 1.10391784e-03
      2.37502251e-03 2.28287559e-03 1.55790185e-03 2.20696465e-03
      5.15524822e-04 -7.16870942e-04 -1.23883190e-03 -3.06768517e-04
      5.43633592e-04 1.36957050e-03 1.61807495e-03 7.70643237e-04
      1.22200570e-03 4.84686898e-04 3.46499088e-04 -6.36125973e-04
      4.61932330e-04 -2.96252850e-03 -7.78925198e-04 -2.23233062e-03
      3.19181680e-04 3.96139128e-03 5.99027087e-04 1.16185250e-03
      4.52467997e-04 -3.70902917e-03 -4.91001178e-03 -2.38958187e-03
      -2.54971697e-03 1.04081526e-04 -2.25497672e-04 -1.80004979e-03
      -1.64107617e-03 -2.10499251e-03 -7.92548526e-03 2.75875977e-03
      3.01544275e-03 2.83610099e-03 1.16827048e-03 4.35910682e-04
      -1.69183695e-04 -2.81094952e-04 -9.81406658e-04 1.72625890e-03
      -1.43551675e-03 9.78463213e-04 3.77156859e-04 9.79205593e-04
      1.58255373e-03 4.61429154e-04 4.25350008e-04 6.75053161e-04
      -4.74396133e-04 -5.37569914e-03 -1.91923324e-03 -6.77219010e-04
      1.13770482e-04 -1.06371241e-03 -2.45522102e-03 -3.23810527e-04
      -2.59950338e-03 -6.52859593e-03 -2.17741611e-03 1.54235889e-03
      1.47016824e-03 1.23024872e-03 1.41752872e-03 1.11943216e-03
      2.20921589e-03 8.25289462e-04 -2.42865970e-03 -8.79697793e-04
      1.01845176e-03 1.46895647e-03 2.25811545e-03 2.82198889e-03
      3.52463539e-04 7.40091025e-04 8.93979275e-04 -2.13857929e-04
      -1.59560319e-03 -3.22493579e-04 1.07799948e-03 1.65630656e-04
      1.16739655e-04 9.15981873e-05 -1.14529421e-05 2.08530400e-04
      -9.12567833e-04 -5.55660855e-03 -3.08577364e-05 -8.76076228e-04
      1.31362560e-03 -3.32165771e-04 6.51180628e-04 1.21321727e-03
      8.29373254e-04 -5.28690359e-03 -5.94576867e-03 -1.01522135e-03
      -1.89585483e-03 5.89454503e-05 -5.07177785e-04 -3.81464080e-04
      -6.05422363e-04 -7.27337378e-04 -5.46363834e-03 1.80021988e-03
      1.94014108e-03 2.82325153e-03 1.44207291e-03 -1.58987509e-03
      -1.80464482e-03 -2.04176921e-03 -2.58786458e-04 6.27171248e-04
      2.28152727e-03 2.26377277e-03 1.20193290e-03 3.35147110e-04
      -4.31722822e-03 -3.80912703e-03 -2.55032163e-03 -1.32882013e-03
      8.47288116e-04 -7.79766007e-04 -4.87881043e-04 -9.38597135e-04
      1.52301230e-03 1.31721538e-03 -1.05124887e-03 3.44224427e-05
      4.41193930e-04 -1.38959382e-03 -5.35491668e-03 -4.28557117e-03
      -3.25188739e-03 -1.27998006e-03 -6.80625858e-03 -5.16886357e-03
      -3.64107522e-03 -3.65165668e-03 -7.36424094e-03 2.20021908e-03
      2.75642355e-03 2.09345832e-03 7.48293533e-04 -2.56834179e-03
      -2.06849608e-03 -1.38867064e-03 -1.68558350e-03 8.69474898e-04
      2.26954860e-03 1.80653972e-03 2.92817480e-03 2.48051784e-03
      1.76350167e-03 8.45252885e-04 -1.58836687e-04 -1.14502058e-04
      7.08738633e-04 -6.39102794e-03 -1.16941147e-03 -2.23354390e-03
      -1.46830804e-03 -6.73678424e-03 -6.09442079e-03 -5.66551322e-03
      -5.63685037e-03 -6.84413221e-03 -2.42015044e-03 7.22539786e-04
      8.79842206e-04 4.91438899e-04 -2.60499865e-03 -2.41801143e-03
      -3.08087864e-03 -3.87076195e-03 -2.79018050e-03 1.37744856e-03
      8.52912199e-04 2.05142726e-03 1.91143586e-03 -4.12516471e-04
      -2.38783564e-03 -2.76925624e-03 -1.96223939e-03 -2.30990932e-03
      -1.12083193e-03 1.40199868e-03 1.97446742e-03 1.23675377e-03
      -2.16445024e-03 -3.07962252e-03 -3.14652757e-03 -3.66201298e-03
      -4.53985669e-03 4.80541843e-04 5.42322057e-04 7.32831773e-04
      3.12995107e-04 -1.87527796e-03 -2.71480135e-03 -1.07492507e-03
      -1.45644613e-03 -1.11621898e-03 1.70143612e-03 1.43869617e-03
      1.03048352e-03 5.20217058e-04 -2.16888101e-03 -3.54502862e-03
      4.39522351e-04 -3.91782341e-05 -1.36084345e-04 -6.01458305e-04
      1.36986258e-03 1.07090070e-03 6.16613426e-04 -7.17498595e-04
      -2.28060968e-03 -3.73177882e-03 -2.65679159e-03 -3.77177726e-03
      1.62119791e-03 1.11750572e-03 2.19192263e-03 9.83438455e-04
      2.21735402e-03 4.34277201e-04 -1.07554812e-03 -2.44506751e-03
      -1.84189423e-03 1.92142848e-03 1.87898858e-03 1.13617000e-03
      5.97807113e-04 -1.54268206e-03 -3.50747490e-03 -1.37946615e-03
      -4.26172075e-04 7.65185396e-04 2.08563171e-03 1.12361519e-03
      1.09692372e-03 7.40758143e-04 2.16828636e-03 1.41857206e-04
      -2.74198770e-04 -2.06389325e-03 6.52874995e-04 2.28694989e-03
      5.44445065e-04 1.42942183e-03 6.71421119e-04 1.01076323e-03
      8.77225946e-04 -4.56711481e-04 -1.77908130e-03 1.64974132e-03
      1.68660912e-03 2.13148436e-04 5.85330476e-04 6.69532979e-04
      5.94912854e-04 8.37192172e-04 1.43040158e-03 -5.72017598e-05
      1.41193019e-03 -5.24018775e-04 6.40399870e-04 8.70196149e-04
      7.34158384e-04 -2.44201766e-03 -4.42009512e-03 -2.50267843e-03
      -5.16385818e-03 -2.57420237e-03 1.50849728e-03 7.41707685e-04
      9.60662786e-04 8.37728614e-04 3.21670930e-04 -1.43661874e-03
      -1.12712116e-03 -1.92062836e-03 -4.16837283e-04 9.56600066e-04
      2.26564385e-04 5.79788291e-04 5.15616033e-04 2.18936405e-03
      6.39423379e-04 3.04296939e-03 6.91379770e-04 6.64358144e-04
      9.30653187e-04 6.11741154e-04 1.36167323e-03 1.02003268e-03
      3.22871818e-03 1.47733593e-03 2.61433399e-03 1.69650640e-03
      1.14670396e-03 -1.38395536e-03 7.05179235e-04 9.47952678e-04
      6.12609787e-04 -3.45062418e-03 -2.85627699e-04 6.75614632e-04
      -1.61796238e-03 -3.87488236e-03 2.61615054e-03 2.33210344e-03
      2.49132025e-03 2.09620153e-03 3.01874964e-03 2.93329358e-03
      3.77413514e-03 3.21003958e-03 2.56163813e-03 4.12976398e-04
      4.60433017e-04 6.50973117e-04 5.33770130e-04 2.49642087e-03
      1.16782926e-03 2.77811196e-03 1.41817715e-03 5.81537781e-04
      3.61104612e-04 3.31542833e-04 4.12765308e-04 3.22229083e-04
      1.81330589e-03 1.17038877e-03 1.29489321e-03 6.67332264e-04
      4.74238273e-04 2.57728575e-03 1.82955083e-03 1.95160310e-03
      9.18608683e-04 5.44614950e-03 5.01219742e-03 6.85401913e-03
      4.91593918e-03 3.19153373e-03 2.15390464e-03 1.38164905e-03
      1.58613978e-03 1.26285839e-03 2.35138927e-03 2.31176824e-03
      3.95631557e-03 1.83488685e-03 2.23555113e-03 -5.66808798e-04
      -2.60317419e-03 -7.23076460e-04 1.84647110e-03 3.64602287e-03
      1.60834938e-03 1.60790759e-03 5.49466931e-04 -7.35313806e-04
      -5.97118167e-03 -5.45783248e-03 -4.22875723e-03 -2.24975450e-03
      -2.49727815e-03 -1.29879441e-03 -1.23596052e-03 -8.94092373e-04
      -5.71563048e-03 -5.69320796e-03 -6.85621658e-03 -5.03780087e-03
      -1.69690151e-03 1.20283221e-03 1.98163837e-03 2.30160216e-03
      1.54538825e-03 -1.12424849e-03 -3.31133651e-03 -5.29988669e-03
      -4.55139624e-03 -2.06853892e-03 -9.52623494e-04 6.74988551e-04
      2.38502689e-04 9.25366126e-04 -1.36289501e-03 -6.27814047e-03
      -3.32546025e-03 -2.42985459e-03 -2.42333114e-03 -5.25522977e-03
      -4.09171684e-03 -3.46818171e-03 -4.53416491e-03 -7.17379665e-03
      -3.89280170e-03 -2.48230994e-04 -9.11904499e-04 -1.08433061e-03
      -4.67204815e-03 -2.01125187e-03 -3.17691499e-03 -3.33971437e-03
      -3.49775841e-03 -2.21589627e-03 -1.78187899e-03 -3.20567214e-03
      -2.19570170e-03 -3.01496941e-03 -1.58372888e-04 1.37256295e-03
      1.46385259e-03 -1.33025914e-03 7.70346902e-04 2.02545241e-04
      -1.05673251e-04 -4.60290292e-04 -1.48772029e-03 3.77306897e-05
      1.03537249e-03 1.59772433e-04 1.63254072e-03 -2.43766553e-05
      -5.42350987e-04 -2.64730281e-03 -2.51151319e-03 -3.60132568e-03
      -3.60728311e-03 -2.63754977e-03 -3.70073854e-03 -8.75279307e-04
      1.62616617e-03 1.05176738e-03 9.93850175e-04 1.86095916e-04
      -3.08215129e-03 -3.72048793e-03 7.30032261e-05 -1.76860500e-04
      1.43711525e-03 -4.29010892e-04 -3.42866959e-04 -5.20007045e-04
      -1.44145102e-03 -1.04517885e-03 3.74914613e-04 2.43920076e-04
      1.11350935e-04 6.25094341e-04 2.64389743e-03 2.93198647e-03
      2.47461651e-03 8.98206956e-04 1.93614210e-03 2.24050065e-03
      1.48222828e-03 2.26508151e-03 3.04268487e-03 2.78813904e-03
      7.72450643e-04 7.25851743e-04 -3.19227147e-05 -1.89023581e-03
      -8.22869770e-04 -4.00611345e-04 1.43672791e-04 2.67201243e-03
      3.22346855e-03 9.65556654e-04 1.39352214e-03 6.46203989e-04
      -1.41888368e-03 -1.98476063e-03 -3.05319484e-03 -5.29284822e-03
      1.02433120e-03 1.79292378e-03 2.02417071e-03 7.54450681e-04
      -3.36048251e-04 -4.99792397e-04 1.52256095e-03 1.21936353e-03
      1.59921590e-03 1.90015091e-03 1.98478857e-03 2.30814493e-03
      2.00656429e-03 6.49859372e-04 6.86105341e-04 -6.31967792e-04
      -9.12570686e-05 1.49522981e-04 1.35944760e-03 9.05787863e-04
      7.96404202e-04 1.17135060e-03 1.10975676e-03 2.60820985e-03
      -6.11689175e-04 -9.20269988e-04 -9.41572944e-04 -2.84578477e-04
      -3.11817748e-05 4.55361413e-04 6.62537292e-04 5.69978321e-04
      -1.40515540e-03 -2.04485259e-03 -2.02538935e-03 -2.36817636e-03
      -2.82716029e-03 2.24638451e-03 2.05737702e-03 1.98108144e-03
      1.30657619e-03 2.31811893e-03 1.66638911e-05 2.71874887e-04
      -1.40008211e-04 7.82503863e-04 9.61561338e-04 8.90993746e-04
      1.43142976e-03 1.43325911e-03 -2.76721246e-03 -2.19328259e-03
      -3.17329913e-03 -3.18328990e-03 -1.39819039e-03 3.02875033e-05
      5.91873366e-04 7.30977335e-04 5.03365067e-04 -1.58275897e-03
      -1.14019052e-03 4.63778299e-04 -1.25115057e-05 -1.14485493e-03
      1.59206311e-03 1.52201264e-03 1.80069264e-03 1.01007125e-03
      3.52167338e-03 4.12874296e-03 5.27742924e-03 3.45987850e-03
      2.04197573e-03 -1.72546879e-05 7.37799681e-04 1.83050137e-03
      1.53511786e-03 -3.61219933e-03 -2.88855098e-03 -5.35319652e-03
      -6.03179820e-03 -3.35228210e-03 -6.08580827e-04 4.58997150e-04
      2.74954969e-03 5.46119118e-04 1.12178626e-04 1.59428944e-03
      1.18916319e-03 -2.18085409e-03 -1.40077900e-03 1.47587201e-03
      1.54791260e-03 1.64422125e-03 8.79651809e-04 2.73740478e-03
      3.55773419e-03 4.69600083e-03 2.32543796e-03 1.63904193e-03
      1.20295759e-03 8.58601183e-04 1.09501940e-03 8.95418285e-04
      2.95025832e-03 2.75611319e-03 4.02488047e-03 2.00320524e-03
      1.52462779e-03 -1.14985975e-03 -2.04959375e-04 1.08261406e-03
      5.29779121e-04 -5.34233823e-03 1.59183994e-03 -1.64560112e-03
      -1.21233996e-03 -1.80022931e-03 -1.75295933e-03 -8.82787223e-04
      -7.86338584e-04 -6.84518818e-05 3.41049326e-03 3.05834040e-03
      5.17618656e-03 3.64034576e-03 -1.04056858e-03 -6.43910794e-03
      -8.66440218e-03 -8.44470598e-03 -6.57937117e-03 -5.50848804e-03
      9.70872759e-04 1.91483961e-03 1.61299715e-03 -4.33110911e-03
      -3.22368788e-03 -3.44922440e-03 -2.92473380e-03 -1.53254427e-03
      -9.64299485e-04 6.45903463e-04 4.16471827e-04 9.60019475e-04
      -1.79747154e-03 1.39860890e-03 5.67639770e-04 -1.87582060e-04
      -4.83028940e-04 -4.32391372e-03 3.26295570e-03 4.17810585e-03
      3.73122306e-03 1.88342587e-03 4.43069031e-03 4.63290047e-03
      4.72977990e-03 1.07486441e-03 1.24196475e-03 6.73134986e-04
      3.47928284e-03 3.69359436e-03 4.14829608e-03 -5.39233629e-03
      -5.72714489e-03 -5.50519349e-03 -1.71382423e-03 -5.03932778e-03
      6.41994877e-04 7.50151667e-05 5.49615615e-05 -4.36368352e-03
      1.95915491e-05 -6.05500012e-04 -1.51122920e-03 -1.68187055e-03
      -1.62894907e-03 1.16263679e-03 -1.09210407e-04 2.27531302e-04
      1.57818408e-03 3.60457017e-03 3.33732087e-03 3.39476787e-03
      5.17162960e-04 8.81202635e-04 3.13472992e-04 2.81382608e-03
      2.99772783e-03 3.27521283e-03 4.22535837e-03 3.05813015e-03
      2.68950150e-03 2.69790384e-04 7.80226197e-04 4.30933171e-04
      3.40537052e-03 3.34660965e-03 4.69032722e-03 -1.19343901e-03
      -6.24803128e-04 -8.03477713e-04 -3.21867154e-03 -2.99566472e-03
      1.00897613e-03 1.16455730e-03 8.63868976e-04 -7.92960462e-04
      2.96402676e-03 2.58689211e-03 8.32957739e-04 5.53400932e-05
      2.67596240e-03 2.12613004e-03 1.65539142e-03 2.01675761e-03
      3.36324237e-03 3.74369021e-03 2.60100700e-03 2.54528224e-03
      5.30065794e-04 1.19957945e-03 3.90558474e-04 2.42376328e-03
      2.48302822e-03 4.18152520e-03 3.28956591e-03 2.50985031e-03
      2.41972203e-03 8.17753898e-04 2.37162458e-03 4.50641121e-04
      2.09912495e-03 2.42265291e-03 3.42644891e-03 2.03920319e-03
      2.14341562e-03 2.13220104e-04 -9.70504247e-04 6.55370299e-04
      1.77720783e-03 1.27316755e-03 1.30016473e-03 1.84079772e-03
      2.30980059e-03 2.85854540e-03 2.59747775e-03 5.89327014e-04
      -1.17668525e-04 -4.74264007e-03 -2.56519252e-03 -3.04830004e-03
      3.26558686e-04 3.02253105e-03 2.21808255e-03 1.79515698e-03
      1.18803640e-03 2.57223682e-03 3.76064738e-04 2.26888526e-03
      2.61345808e-03 2.69911345e-03 1.93717191e-03 1.70919125e-03
      1.41907879e-03 1.95850866e-04 1.17945501e-05 -6.60104211e-04
      3.37864098e-04 1.07522763e-03 2.08719983e-03 4.03699791e-03
      3.43681267e-03 3.42497230e-03 2.01474945e-03 3.12020909e-03
      1.12601112e-04 -8.51584889e-04 -1.32114859e-04 3.12387943e-03
      6.59733487e-04 1.54041580e-03 2.03812774e-03 1.03466434e-03
      -5.66357654e-03 -4.60277544e-03 -5.78763522e-03 -5.39941946e-03
      -1.26350578e-03 1.84581149e-03 1.03737402e-03 5.76315215e-04
      2.27857221e-04 -5.73859841e-04 -3.38408892e-04 3.93776223e-04
      1.33791147e-03 1.72416912e-03 1.04187534e-03 8.04746873e-04
      7.68027501e-04 8.75275291e-04 -3.16660432e-03 -1.31932134e-03
      2.77028623e-04 -1.82273355e-03 -7.70913393e-05 4.51521570e-04
      2.08619377e-03 2.55315169e-03 1.88192050e-03 -3.15716164e-03
      -1.11038110e-03 -4.20757895e-03 -5.11374464e-03 -1.11026759e-03
      1.35359028e-03 1.03658927e-03 1.97689026e-03 3.24198772e-04
      -5.65688824e-04 -4.81528026e-04 1.30282028e-03 -1.30160048e-03
      7.35192676e-04 4.62333846e-04 1.71368383e-03 1.54041278e-03
      1.41653162e-03 -1.42007531e-03 -1.09666027e-03 -1.75967149e-03
      -2.43094144e-03 -1.38666457e-03 -1.05703610e-03 1.45271828e-03
      2.60803010e-03 5.83700486e-04 -1.84898521e-03 -1.51201105e-03
      -3.11145349e-03 -3.87139060e-03 -2.87006982e-03 -1.01259269e-03
      4.31020708e-05 1.77418184e-03 5.02248062e-04 2.92504032e-04
      5.97775972e-04 2.18371657e-04 -7.59730639e-04 -1.38499914e-03
      -1.84847813e-04 -8.58801999e-04 -5.01711911e-04 1.73987413e-04
      5.26934536e-03 3.63674713e-03 5.64823765e-03 3.59530607e-03
      5.62816509e-04 -3.28897475e-03 2.85691116e-04 1.58307399e-03
      7.65817182e-04 -3.30623169e-03 -5.06076217e-03 -4.79811011e-03
      -4.61920071e-03 -3.39004234e-03 -2.49445613e-04 -6.47900088e-05
      5.77667844e-04 1.57886621e-04 2.35577626e-03 2.40667886e-03
      4.25308151e-03 1.85399025e-03 3.49363952e-04 -2.45750230e-03
      -7.96154432e-04 1.39368244e-03 -1.84078002e-03 -1.03038158e-02
      7.05071609e-04 2.45753839e-03 2.31621577e-03 -3.09856329e-03
      3.90470028e-03 3.06698866e-03 2.84491293e-03 6.84643514e-04
      1.59964198e-03 8.96292622e-04 3.70615115e-03 3.98895191e-03
      3.50707537e-03 1.16108870e-03 1.01474847e-03 2.69709434e-03
      -9.35527205e-04 -6.12450484e-03 -2.09821665e-04 3.10785975e-03
      9.20958817e-04 9.30953829e-04 4.16989950e-03 2.93738255e-03
      2.33628904e-03 9.23235493e-04 2.13850220e-03 1.07958727e-03
      2.53189309e-03 3.03317746e-03 4.76134289e-03 4.01857542e-03
      3.90512845e-03 3.25234164e-03 1.19901134e-03 2.11115601e-03
      5.57635736e-04 3.10647790e-03 2.98287137e-03 3.71447764e-03
      3.60311894e-03 2.86529982e-03 2.03429838e-03 3.54572549e-04
      1.44398131e-03 6.36686280e-04 3.38832662e-03 2.80752312e-03
      3.83223360e-03 5.64161828e-03 2.57538003e-03 2.13104952e-03
      8.31711921e-04 2.65397760e-03 1.91283959e-03 4.11630096e-03
      4.19621682e-03 5.63644432e-03 2.77625979e-03 1.97946979e-03
      1.92050415e-03 6.32009294e-04 1.95354596e-03 1.13534846e-03
      1.90458726e-03 1.87850150e-03 2.68455269e-03 4.32456611e-03
      4.09644749e-03 3.32586141e-03 8.26033647e-04 2.19395291e-03
      7.03866011e-04 3.27694160e-03 3.38559621e-03 4.83206473e-03
      3.54828243e-03 2.37696595e-03 1.90714654e-03 9.15279088e-04
      1.79975061e-03 2.35804895e-04 1.95595482e-03 2.13640346e-03
      3.21475975e-03 3.94481560e-03 2.20270338e-03 1.82775245e-03
      8.19871493e-04 4.81486693e-03 1.44009758e-03 1.28412293e-03
      1.61282870e-03 4.17735521e-03 5.95126650e-04 3.67889093e-04
      3.27441405e-04 2.05575743e-05 7.19358970e-04 8.20132191e-05
      6.40449056e-04 5.27512108e-04 5.26239804e-04 4.40914743e-03
      3.76516045e-03 2.51546106e-03 2.13806261e-03 3.01098963e-03
      1.03312595e-04 2.25825747e-03 2.82853539e-03 3.70184123e-03
      2.66822311e-03 1.15982734e-03 1.12176628e-03 1.86113670e-04
      -1.30971160e-03 -1.69121043e-03 1.09240855e-03 2.84715951e-03
      3.28251137e-03 4.67565056e-04 1.41189885e-04 7.00860764e-05
      3.12812995e-06 6.92181697e-04 9.94840207e-07 7.54028588e-05
      1.37245239e-04 4.67647944e-04 4.07490414e-04 1.68557046e-04
      1.77367736e-04 1.91173549e-05 3.29847360e-04 1.90147519e-04
      -7.64071956e-05 9.51494221e-05 4.28483385e-04 1.63039519e-03
      6.44562941e-04 2.73601123e-04 1.66761936e-04 -5.61801542e-04
      -6.87465479e-04 2.42690730e-04 9.53530136e-04 1.19239197e-03
      -2.69899010e-06 1.64462754e-03 1.51023839e-03 8.89354385e-04
      -3.87234567e-03 -1.02450547e-03 -3.45504680e-03 -1.99406990e-03
      -1.70850300e-03 2.30036676e-04 1.07294960e-04 9.98751711e-05
      1.67434355e-05 3.28497175e-04 1.44955309e-04 6.55091717e-05
      1.63730772e-04 2.09203281e-04 2.26640637e-04 2.95509933e-04
      2.70520279e-04 1.47699800e-04 -2.07056757e-04 -4.81461815e-04
      1.97897403e-04 7.85433804e-04 -9.87788226e-05 2.14387919e-03
      2.76664947e-03 2.71507632e-03 1.79002440e-04 -7.18908559e-04
      -1.99250248e-03 -1.59226148e-03 -1.56303868e-03 7.26199942e-04
      -2.78357486e-03 1.76753115e-03 1.48274063e-03 1.36592746e-04
      -4.27779602e-03 -2.11080257e-03 -3.67179886e-03 -2.33806530e-03
      -3.23609030e-03 6.42544474e-04 3.69918125e-04 3.68367881e-04
      1.41551747e-04 -8.25882365e-04 -1.78406830e-03 -1.72931846e-04
      1.60538417e-04 4.52193199e-04 1.57736382e-03 1.96333136e-03
      1.89477205e-03 9.81430872e-04 -2.93478323e-03 -3.26164276e-03
      -3.53221432e-03 -3.38042388e-03 9.45341715e-04 -2.06984347e-03
      3.47983296e-04 3.47977242e-04 -1.66692698e-04 -3.72408633e-03
      -1.65921485e-03 -2.17489223e-03 -1.60007342e-03 -2.84871017e-03
      1.14149053e-03 1.24366343e-04 1.00842176e-03 1.21863279e-03
      4.23842249e-03 2.32647895e-03 5.07351616e-03 1.65487430e-03
      1.85492449e-03 3.42049985e-04 1.67453464e-03 1.55222497e-03
      8.96181387e-04 -1.88090187e-03 -3.35586164e-03 -5.61048882e-03
      -5.47260791e-03 -5.18614843e-06 -8.46302486e-04 3.15717305e-04
      1.29198295e-03 1.06947066e-03 4.15519485e-03 9.14694217e-04
      1.07005157e-03 -1.79610297e-03 -4.57787712e-04 1.61937927e-03
      2.22869893e-03 2.30605039e-03 -6.83260805e-05 -5.82583994e-03
      -3.59088444e-04 2.05850159e-03 2.13872502e-03 1.85789412e-03
      4.14920505e-03 2.05543195e-03 2.16079829e-03 8.28226039e-04
      1.91839377e-03 1.03961607e-03 2.86078313e-03 3.07743764e-03
      4.57582576e-03 -1.91298383e-03 1.36728969e-03 1.59520167e-03
      -5.02053881e-04 -8.90297163e-03 -6.09089388e-03 -6.07350795e-03
      -3.37983551e-03 -8.52746249e-04 3.55903595e-03 1.52177212e-03
      1.53601205e-03 8.98741127e-04 2.14055949e-03 1.51390047e-03
      4.25738515e-03 3.55259166e-03 4.56876820e-03 5.76292491e-03
      3.40988231e-03 3.28280218e-03 1.56715768e-03 2.36104871e-03
      1.17281254e-03 2.69436464e-03 2.77190073e-03 6.47923676e-03
      3.10436962e-03 2.14016950e-03 2.27233209e-03 1.30552205e-03
      2.57706642e-03 7.97675923e-04 1.72752747e-03 1.38242578e-03
      2.48992792e-03 4.06151125e-03 1.70670950e-03 1.63865800e-03
      1.00377854e-03 6.82585314e-03 3.25479568e-03 3.61407199e-03
      4.30917507e-03 4.92556952e-03 3.55982804e-03 2.20982474e-03
      2.64046551e-03 1.68929063e-03 2.58016004e-03 6.32446492e-04
      2.71143345e-03 2.52601574e-03 4.21631243e-03 5.76271862e-03
      2.57515884e-03 2.21266458e-03 2.16141087e-03 4.30536550e-03
      7.20864569e-04 1.26696390e-03 1.12271030e-03 5.28669730e-03
      3.00961372e-04 3.94793053e-04 4.42684628e-04 6.51118826e-05
      6.94078568e-04 5.98945480e-05 4.00001998e-04 3.01302498e-04
      4.02328238e-04 4.93848836e-03 2.04135012e-03 2.45172530e-03
      2.30836705e-03 3.54291708e-03 9.67303233e-04 3.47261038e-03
      3.61872418e-03 5.62714832e-03 1.41097652e-03 9.18688136e-04
      4.71165782e-04 2.04617463e-04 1.46978348e-03 6.79307675e-04
      1.92149088e-03 2.27341452e-03 2.32464308e-03 1.21528974e-04
      3.66138374e-05 2.05618326e-05 0. 2.21777149e-03 3.90885798e-05
      2.08840895e-04 1.62605036e-04 3.23496934e-04 1.81521129e-04
      7.38187009e-05 9.79825927e-05 2.20761503e-05 3.43904278e-04
      2.61063862e-04 5.40183319e-05 1.31789318e-04 1.91851504e-04
      1.69008202e-03 3.62845080e-04 1.58338138e-04 1.66211776e-05
      3.61481193e-03 1.85336231e-03 1.59989251e-03 2.68933922e-03
      4.28430503e-03 3.45436740e-04 2.81586137e-04 9.85759252e-05
      2.50175508e-05 1.72369939e-04 2.74006394e-04 3.91207635e-04
      3.75792530e-04 3.71876056e-04 9.53747222e-05 9.13932236e-05
      9.13932236e-05 5.79519474e-05 2.60050205e-04 1.19958859e-04
      1.11999725e-04 1.55182977e-04 1.52814231e-04 -2.83165340e-04
      4.47194383e-04 3.48313915e-04 1.60962998e-04 -4.87851445e-03
      -4.43290483e-04 -7.41977594e-04 9.54165182e-04 5.65921888e-04
      3.26464273e-04 3.25888919e-04 1.52609253e-04 7.72898784e-05
      2.74060905e-04 1.95480578e-04 2.14361557e-04 2.53822567e-04
      2.81242625e-04 1.52596494e-03 1.62938843e-03 1.23938685e-03
      2.28497796e-04 1.25796243e-03 1.07561784e-04 2.80008215e-04
      4.26326762e-04 1.24242774e-03 6.81190984e-04 5.26078918e-04
      3.09928990e-04 9.69725370e-05 -2.85289360e-07 -8.93966528e-04
      7.24371130e-05 1.65390503e-03 1.03188318e-03 -8.30767036e-04
      1.97916850e-03 2.03276007e-03 6.67318527e-04 -1.85410201e-03
      -4.08326462e-03 -6.68253005e-03 -5.85725158e-03 -1.57267740e-03
      8.44637107e-04 7.21892167e-04 1.01167499e-03 2.63736991e-04
      1.50366788e-04 1.08337241e-04 1.43274388e-04 3.63857165e-04
      7.02186720e-04 2.54426501e-03 1.63118064e-03 1.70849019e-03
      1.33914221e-03 7.26059545e-04 -1.16186205e-03 -2.11122679e-03
      -1.84920081e-03 2.17350968e-03 -1.27965142e-03 1.43645238e-03
      1.62364368e-03 8.66447925e-04 -2.82173824e-05 -1.79089664e-03
      -4.15776717e-03 -4.28563496e-03 -2.15128018e-03 -2.62925308e-03
      1.30688178e-03 1.66018528e-03 9.26597742e-04 2.22158822e-04
      -2.32014037e-03 -1.00728299e-03 -3.68140754e-03 -4.15980723e-03
      3.58525722e-04 1.11635227e-03 1.22600037e-03 7.24596437e-04
      1.90084195e-03 -1.56967762e-05 -6.81333418e-04 -7.49362807e-04
      -5.53379767e-04 1.59518281e-03 1.35750021e-03 5.41613018e-03
      4.62690275e-03 3.59604624e-03 3.13977362e-04 -1.69023254e-03
      -1.78837765e-03 5.12388709e-04 2.34617293e-03 1.22911017e-03
      1.41239830e-03 3.23958171e-04 -5.98283205e-03 -3.68454098e-03
      -3.15682567e-03 -7.96834938e-04 2.99082370e-03 4.07936377e-03
      1.85966410e-03 1.26136479e-03 5.07461140e-04 3.01753101e-03
      1.87482499e-03 3.19635915e-03 2.49328581e-03 3.90910171e-03
      1.82691356e-03 2.00319546e-03 1.56907318e-03 1.62753669e-04
      -5.36771212e-03 -6.06714468e-03 -7.28362519e-03 -5.83479041e-03
      2.62488436e-04 1.97794568e-03 2.43150699e-03 2.34410889e-03
      7.12626788e-04 1.64766982e-03 1.66184665e-03 1.55406116e-04
      -3.23949091e-04 1.75834843e-03 3.63937952e-03 1.69695797e-03
      1.46203826e-03 7.94084393e-04 2.88461149e-03 1.10208290e-03
      3.22802318e-03 2.88787554e-03 3.86095629e-03 3.48885707e-03
      1.70965039e-03 2.02184380e-03 1.21786562e-03 2.24343664e-03
      1.09185989e-03 2.93220184e-03 2.70014163e-03 4.06928919e-03
      -1.77813490e-04 1.96021213e-03 1.63922249e-03 6.71201677e-04
      -1.12995680e-03 2.37256102e-03 1.52577460e-03 1.41399185e-04
      4.00978111e-04 1.63814810e-03 2.79904553e-03 1.85843674e-03
      1.36346987e-03 3.64330481e-03 2.63693114e-03 1.02176319e-03
      5.79642307e-04 2.34926512e-04 2.88732885e-03 1.40440860e-03
      1.25217857e-03 8.60703411e-04 2.75673834e-03 1.35637750e-03
      2.66570132e-03 2.87200231e-03 3.60389752e-03 1.03592197e-03
      5.92530356e-04 3.50107148e-04 1.24409824e-04 1.87669252e-03
      1.31018914e-03 1.83794741e-03 1.93341565e-03 1.72508589e-03
      -3.52169474e-04 2.97852932e-03 2.07472802e-03 1.84955599e-03
      4.93086223e-03 3.28844669e-03 2.56399042e-03 1.15519064e-03
      7.61401490e-04 -2.11949158e-03 1.13945792e-03 1.25847128e-03
      1.23837474e-03 3.51087097e-03 2.24335236e-03 3.29416175e-03
      2.51677120e-03 -1.20720861e-03 5.12979401e-04 2.59097404e-04
      1.62885714e-04 2.30725782e-04 1.80974277e-03 1.87169143e-03
      1.48203364e-03 1.50171795e-03 1.03636528e-03 2.93272373e-04
      1.98665832e-04 1.66411817e-04 7.39568350e-05 1.84917837e-04
      2.17223744e-04 7.02234334e-04 6.16868259e-04 3.08359275e-04
      -2.86516827e-03 -1.97259244e-04 8.38435546e-04 1.46098889e-03
      5.77390008e-03 3.40814725e-03 6.07523788e-03 2.05573766e-03
      -2.83756386e-03 -1.18968962e-03 2.63547292e-03 2.36334908e-03
      9.94787202e-04 2.16927682e-03 4.50702209e-04 1.57473108e-03
      2.64639122e-04 -1.15263276e-03 3.07889102e-04 2.24906078e-04
      2.22633025e-04 1.48091771e-04 2.89550138e-04 4.55118170e-05
      3.01545864e-04 4.75520268e-04 3.11676326e-04 8.69937241e-04
      8.70283286e-04 9.39147023e-04 2.76068808e-04 3.92569782e-04
      7.68891550e-05 1.95453627e-04 2.14137923e-04 7.42007978e-04
      -2.88567273e-03 2.27649836e-03 2.32744892e-03 7.96998269e-04
      1.71126833e-03 7.18747440e-04 1.71861006e-03 -5.38095250e-04
      -2.57382961e-03 4.69088042e-03 4.23259474e-03 3.90595198e-03
      2.29260093e-03 2.27939826e-03 4.30878892e-04 1.14913925e-03
      1.30807713e-03 3.22486483e-03 8.42302456e-04 1.16312678e-03
      1.17458357e-03 2.79390020e-04 2.29878249e-04 5.06966499e-05
      9.41332619e-05 1.21703190e-04 6.89940527e-04 2.37561268e-04
      1.85248931e-03 2.23190128e-03 7.74969521e-04 1.71517499e-03
      -6.75172138e-04 -2.83851102e-03 -2.19354965e-03 -8.30129313e-04
      3.46934912e-03 2.78607872e-03 2.12403177e-03 6.93882990e-04
      6.31827279e-04 1.94407534e-04 7.44348043e-04 8.03562521e-04
      2.84126657e-03 -6.90426969e-04 2.03256635e-03 3.64875351e-03
      2.67332396e-03 6.41170098e-03 6.16564881e-04 8.76850041e-04
      9.87958629e-04 -9.09332710e-04 1.09963969e-03 2.02410459e-03
      2.88230367e-03 1.57013605e-03 1.66890351e-03 2.34386753e-04
      1.95461165e-04 -7.47672864e-04 4.99881047e-04 -3.12097953e-03
      5.79160056e-04 2.84161652e-03 2.54858681e-03 2.95820006e-04
      -1.41440844e-03 -2.57609785e-03 -3.25040706e-03 -3.14164977e-03
      9.58544842e-04 1.40570872e-03 3.17291822e-03 1.39329582e-03
      2.01233220e-03 3.35183810e-04 8.60016560e-04 9.58477671e-04
      1.25635706e-03 -2.34391727e-03 -3.13757570e-03 -9.51699039e-04
      2.21776019e-04 7.35744776e-04 9.25236032e-04 1.89931202e-03
      -1.37030642e-04 -2.62681185e-03 1.19997992e-03 1.67551835e-03
      1.96388457e-03 8.58497166e-04 -3.64369061e-03 -1.90288108e-03
      -4.06555273e-03 -4.45214845e-03 -4.40605618e-05 7.80239468e-04
      1.99909462e-03 2.17970950e-03 7.75283028e-04 2.24468019e-03
      3.26824468e-03 7.79008085e-04 3.59178521e-04 1.78518926e-03
      1.26937273e-04 6.45390130e-04 1.04196370e-03 5.20430331e-04
      -4.85275453e-03 -3.41221481e-03 -4.29240009e-03 -4.08216054e-03
      -7.38845847e-04 9.42115963e-04 1.13022246e-03 1.79260771e-03
      1.34047808e-03 -1.28613831e-03 -7.21504271e-04 -5.65165246e-04
      -1.60943321e-03 3.51139926e-04 4.40387492e-04 1.72092172e-03
      1.82008941e-03 9.88847576e-04 2.76418589e-03 2.50726682e-03
      1.31978781e-03 9.75279952e-04 5.42818452e-04 8.87104601e-04
      2.52041686e-03 1.50093809e-03 8.98100785e-04 4.30668332e-03
      3.13509163e-03 1.67676446e-03 8.54664075e-04 1.49193057e-03
      -5.72765828e-04 1.83472270e-03 2.52577686e-03 1.56833103e-03
      -3.30802007e-03 -1.09046558e-03 -3.35048325e-03 -4.60484670e-03
      -3.75348167e-03 -2.72178371e-03 -5.57834974e-05 3.16658407e-04
      -7.32813613e-04 1.01420206e-04 5.02209354e-04 1.23471057e-03
      -1.55784073e-03 -2.79977196e-03 -8.40976136e-04 2.27096840e-03
      1.43850804e-03 8.57544015e-04 2.91753956e-03 1.54534832e-03
      1.67029747e-03 1.00455014e-03 3.21804517e-04 -6.03286142e-04
      8.49720964e-04 1.14240649e-03 8.40597262e-04 3.70277348e-03
      2.27790349e-03 3.52297886e-03 2.94235838e-03 2.93930323e-04
      -1.53426779e-03 1.57755218e-03 2.16768216e-03 -5.14892396e-04
      -9.37036879e-04 -2.18163113e-04 2.52261944e-03 9.86136030e-04
      -8.67065857e-04 -1.66584982e-03 4.00176010e-04 3.01540783e-03
      -3.12949577e-03 -2.35308311e-03 4.44929057e-04 6.98886346e-04
      8.64558970e-05 4.19620250e-04 -1.17131835e-03 4.19575663e-04
      8.72377597e-04 7.16359646e-04 1.37093605e-03 8.12310784e-04
      2.22146441e-03 1.67294557e-03 -5.84872963e-04 -9.31977993e-04
      1.41977391e-03 1.24163250e-03 6.44331391e-04 1.36397919e-03
      3.92743968e-04 1.27276953e-03 4.76509274e-04 -1.74207240e-03
      1.24211982e-03 9.13279189e-04 9.38098237e-05 -3.27863265e-04
      -4.16254421e-04 1.20375270e-03 2.43636942e-03 2.21183989e-03
      7.15604809e-04 -3.76074738e-03 -2.98658921e-03 -3.35804326e-03
      -1.99174788e-03 7.83274736e-05 3.63303930e-04 -1.18697050e-03
      -6.30113936e-04 -3.50683928e-03 5.84404625e-04 2.11316533e-03
      2.34782835e-03 9.64989420e-04 1.16033095e-03 -2.36949127e-04
      4.88268051e-05 -3.71175003e-04 -1.20441569e-03 2.40601995e-03
      2.92785978e-03 2.61571445e-03 1.49238994e-03 1.52244640e-03
      4.01269936e-04 9.01987718e-04 8.89973482e-04 2.13255477e-03
      -2.33129202e-03 3.19394894e-05 -1.58465118e-04 2.47696065e-04
      3.39113735e-03 -9.97473369e-04 -2.78852321e-03 -1.94455369e-03
      -3.41751869e-03 -1.77838095e-03 -8.16155749e-04 1.14326416e-04
      1.65239233e-03 3.59170814e-03 -2.50355294e-03 -1.42222096e-03
      -6.55617041e-04 -4.71044099e-03 3.24426335e-03 3.75637109e-03
      3.13110603e-03 2.06685602e-03 1.22941274e-03 1.73918263e-04
      7.74915447e-04 8.63821770e-04 2.57966155e-03 1.47799961e-03
      2.08483543e-03 2.00613099e-03 1.19534275e-03 8.21494614e-04
      2.44790397e-04 1.19456940e-03 1.15451519e-03 1.76907738e-03
      -5.20327408e-03 9.62156744e-04 2.12149680e-04 1.78298156e-03
      -1.74294715e-03 -1.63132010e-03 -1.21244264e-03 -3.96741042e-03
      -7.65388180e-03 1.17840798e-04 1.21003669e-03 5.73896104e-04
      2.56814295e-03 2.23691016e-03 1.10601773e-03 2.35809642e-03
      1.54666963e-03 -1.56368094e-03 2.71761604e-03 2.09286530e-03
      2.15657218e-03 2.21986137e-03 1.66585005e-03 3.39690945e-04
      1.57640793e-03 1.76883722e-03 2.00119591e-03 -3.07188020e-03
      -1.29256269e-03 -2.57431442e-04 6.20052568e-04 -7.96778768e-04
      5.86089212e-04 1.84293871e-03 1.59621937e-03 -1.08206691e-03
      -7.23345947e-05 -4.25074453e-04 -3.71294969e-04 1.32534909e-03
      7.46885256e-04 1.25311036e-03 1.81837124e-03 1.24071643e-03
      -6.52170624e-04 -6.03337400e-03 -5.02074370e-03 -1.74912449e-03
      -5.52857353e-04 -4.03821887e-03 9.85997263e-04 1.22693903e-03
      8.65136913e-04 -2.90530873e-03 3.30002117e-03 2.29340536e-03
      1.38005835e-03 1.59603695e-03 -3.26878275e-03 -1.41086848e-03
      -2.56391009e-03 -5.23449155e-04 1.87188934e-03 2.23835837e-03
      1.78245187e-03 1.49611488e-03 9.22533800e-04 -4.30651847e-03
      -2.75015971e-03 -3.60461581e-03 -1.52472453e-03 3.86192005e-05
      -2.10967078e-03 -1.09106151e-03 1.75598907e-04 8.68498173e-04
      -9.44627973e-04 -6.88776723e-04 -1.80806732e-03 -2.87124218e-04
      -1.19723415e-03 -5.19102765e-03 -2.50555063e-03 -1.86667393e-03
      6.90849556e-04 -4.09212057e-03 -3.57101834e-03 -3.33718071e-03
      -1.97055074e-03 -5.79184759e-03 1.69710419e-03 2.87345378e-03
      1.79023517e-03 1.47626537e-03 -3.23859765e-03 -1.36421481e-03
      -2.48616701e-03 -1.63003220e-03 -2.25658063e-04 3.87587243e-05
      1.76784187e-03 2.34638783e-03 6.26474139e-05 -2.47284467e-03
      -8.62995861e-04 -1.23506039e-03 -2.46021315e-03 -1.22160208e-03
      -2.98125506e-03 -2.27718661e-03 -1.98952481e-03 -7.54305147e-05
      -5.13856020e-03 -3.37242964e-03 -3.93976783e-03 -4.20025317e-03
      -3.96281667e-03 -1.96044985e-03 -6.24056920e-05 -1.27384672e-04
      -2.54843675e-04 -4.11142455e-03 -2.14410410e-03 -4.02546255e-03
      -3.79540003e-03 -3.71402176e-03 9.55104595e-04 1.88540888e-03
      2.45983130e-03 -2.54819024e-04 -1.46449113e-03 -2.67435820e-03
      -5.43873617e-03 -5.71261020e-03 -1.42659922e-03 -5.31983911e-04
      1.72783143e-03 2.09862576e-03 9.42531857e-04 2.20853463e-03
      -2.06296472e-03 -3.17645213e-03 -5.08211739e-03 -3.07077030e-03
      -3.65007181e-05 1.28390486e-04 4.91681988e-07 -9.29407950e-04
      -2.39727437e-03 -2.91530951e-03 -2.79337075e-03 -2.67836335e-03
      -1.25146529e-03 1.48302619e-03 2.08446663e-03 2.44841562e-03
      1.74008799e-03 1.05985440e-03 -2.32055574e-03 -2.22840719e-03
      -3.89686809e-03 -9.64035396e-04 7.80943519e-05 9.90343862e-04
      1.24067906e-03 1.09299156e-03 3.31734726e-03 -1.30313600e-03
      -5.39247924e-03 -4.95252246e-03 -1.45181874e-03 8.28810735e-04
      6.98779593e-04 1.84399413e-03 1.00268016e-03 2.78323446e-03
      -1.29484432e-03 -9.60447243e-04 -1.97879551e-03 4.75707813e-04
      1.66659802e-03 1.77550351e-03 2.01138319e-03 1.48096727e-03
      9.84336832e-04 -2.15540733e-03 -2.06945394e-03 -2.82276422e-03
      4.93964180e-04 5.02980605e-04 8.19376262e-04 1.05641445e-03
      6.47519541e-04 1.33505184e-03 -3.40938102e-03 -2.37922301e-03
      -5.64082526e-03 -1.29218702e-03 1.41476269e-03 4.83180338e-04
      1.03643397e-03 5.05531847e-04 2.36739335e-03 -1.30615605e-03
      -1.13984640e-03 -1.75198412e-03 2.01413920e-03 2.12998851e-03
      4.33665322e-04 1.82934385e-03 1.23659393e-03 3.37400194e-03
      2.58529047e-03 5.65340556e-03 1.88612100e-03 2.81094550e-03
      -2.16606213e-03 5.80611115e-04 8.21697118e-04 -4.18643729e-04
      -4.75216424e-03 -6.77478313e-03 -5.36745181e-03 -8.33419804e-03
      -4.16257791e-03 1.41343509e-03 8.02949537e-04 9.48169967e-04
      8.89376737e-04 1.63848384e-03 7.11997622e-04 1.05081266e-03
      -1.01135834e-03 1.89900503e-03 1.40360731e-03 3.24936118e-04
      1.23073847e-03 8.59143562e-04 2.57050176e-03 3.02694272e-03
      4.86964826e-03 2.06439942e-03 2.07924214e-03 8.32050166e-04
      7.52003049e-04 1.62155053e-03 1.06623140e-03 3.42405424e-03
      1.65546557e-03 3.36765358e-03 1.88058882e-03 1.37717335e-03
      4.87959624e-04 5.48903656e-04 9.90663422e-04 1.07300247e-03
      -7.52510084e-03 -5.17416745e-04 -9.84363724e-04 -2.18533748e-03
      1.41273683e-03 -1.43300497e-03 8.63788591e-04 2.85713468e-03
      3.27815325e-03 5.53219346e-03 3.60564212e-03 5.76524762e-03
      3.55824805e-03 -3.64970940e-04 7.05823884e-04 7.22081866e-04
      9.41858510e-04 5.99968538e-04 2.94481451e-03 1.38315931e-03
      2.66666571e-03 1.32382161e-03 9.87851643e-04 1.22171687e-03
      6.83280698e-04 1.04641367e-03 4.01473750e-04 2.45349226e-03
      1.50404708e-03 1.58851256e-03 7.52379186e-04 1.26457424e-03
      1.66087586e-03 6.23582862e-04 1.16693228e-03 1.43945520e-03
      6.68274658e-03 6.96957391e-03 8.25378485e-03 5.86135546e-03
      3.14852083e-03 2.58775632e-04 -3.59305006e-04 -1.92461637e-04
      8.20449030e-04 2.74337106e-03 2.22098338e-03 2.67561129e-03
      1.05731166e-03 5.83826797e-04 -3.91494995e-03 -2.70701363e-03
      -1.82734826e-03 -3.98458156e-04 2.43130210e-03 1.67043007e-03
      1.30763417e-03 9.19657061e-04 -1.46945321e-03 -7.48009654e-03
      -4.66922158e-03 -4.74768970e-03 -1.76927773e-03 -9.78707918e-04
      -9.61661513e-04 -1.32137176e-03 -5.67336043e-04 -5.03604719e-03
      -6.07829122e-03 -7.64396181e-03 -3.84444394e-03 -1.94965338e-03
      1.09539577e-03 2.10293010e-03 3.17254383e-03 2.91665713e-03
      -2.18819571e-03 -3.31939361e-03 -2.18101125e-03 -2.68537155e-03
      -5.21516195e-04 6.03945518e-04 5.34617051e-04 1.36549759e-03
      1.74917071e-03 -7.82268005e-04 -5.34104509e-03 -5.43297827e-03
      -4.99920268e-03 -3.54738184e-03 -5.56933461e-03 -2.68635643e-03
      -3.27363680e-03 -3.11306096e-03 -2.48218072e-03 -2.30890792e-03
      -6.96374336e-04 -2.10293289e-03 -1.23034650e-03 -5.08148829e-03
      -1.65156322e-03 -3.76300071e-03 -2.67632608e-03 -2.79407436e-03
      -3.24545824e-03 -9.87903331e-04 -1.55968091e-03 -1.48790074e-03
      -2.43116496e-03 -6.54397707e-04 9.00482875e-04 1.22670853e-03
      -1.39766827e-03 8.41327768e-04 3.92042042e-04 -6.84492523e-04
      -6.90149376e-04 -1.72661163e-03 7.50568113e-04 2.32860213e-03
      2.74295663e-03 1.91505870e-03 -9.52825008e-04 -4.17197298e-04
      -2.29494786e-03 -2.75317044e-03 -5.61806560e-03 -3.88902333e-03
      -5.16654830e-03 -2.84808688e-03 -1.86334236e-03 2.89819218e-05
      1.87249831e-03 2.25269445e-03 1.16871006e-03 -3.04847746e-03
      -2.93414854e-03 -7.20600970e-03 -4.51464346e-03 -7.98349094e-04
      3.26380919e-04 -4.04672493e-04 -2.15915241e-03 -2.68838648e-03
      -3.91617743e-03 4.24175436e-04 6.66159263e-04 1.99988601e-03
      1.02968153e-03 1.92873715e-03 2.89091654e-03 2.85405805e-03
      1.25613809e-03 7.56282243e-04 2.82444153e-03 3.18372878e-03
      2.85078981e-03 2.92023248e-03 -4.35477923e-05 1.62493589e-03
      1.35850580e-03 1.18778704e-03 -1.08772225e-03 -1.30930741e-03
      -3.10618221e-03 -3.04400921e-03 5.37072134e-04 1.23245246e-03
      1.12311170e-03 1.43325538e-03 2.35966218e-04 -3.75604536e-03
      -4.67948429e-03 -1.81133242e-03 -4.72322013e-03 -1.32134592e-03
      7.67778547e-04 2.10482324e-03 1.40399137e-03 8.11476668e-04
      3.58130026e-04 2.01953319e-03 2.15315772e-03 2.96925427e-03
      2.06400640e-03 2.62786355e-03 1.75208994e-03 2.29650806e-03
      1.11156155e-03 4.51380649e-04 -1.78911339e-03 -1.18413242e-03
      -1.82229164e-03 8.82727734e-04 1.39391224e-03 9.60774196e-04
      1.20910804e-03 6.54358359e-04 -1.13418966e-03 -1.94737141e-03
      -3.38611961e-03 -5.45626506e-03 -1.08633612e-04 2.33617541e-03
      5.59635926e-04 6.82550250e-04 3.55690310e-04 -1.71663851e-04
      -3.81336256e-04 -1.03628926e-03 -1.98601536e-03 2.50040181e-03
      2.63100280e-03 1.43374910e-03 2.09415960e-03 1.60342897e-03
      2.38308668e-04 -1.37673621e-03 -9.91261331e-04 -1.65502774e-03
      3.00156884e-04 1.00084511e-03 1.08950411e-03 1.14217121e-03
      1.11080706e-03 -1.79899880e-03 -3.48477159e-03 -4.22066450e-03
      -5.28414827e-03 7.72998756e-05 3.33554664e-04 6.31674775e-04
      7.86618912e-04 8.43253161e-04 9.19761951e-05 2.27461074e-04
      2.88453884e-04 -1.51522935e-03 9.40260012e-04 1.33844512e-03
      9.04709275e-04 1.71731238e-03 2.60772393e-03 5.97106945e-03
      4.32914309e-03 5.72335813e-03 3.38702626e-03 2.37280200e-03
      -1.40633190e-03 -9.88743777e-05 -2.81141518e-04 6.78823504e-04
      -5.09002525e-03 -6.57581585e-03 -4.97997971e-03 -6.33224612e-03
      -2.01991666e-03 -1.24398107e-03 -1.18309539e-03 -7.91792059e-04
      3.62883933e-04 3.46184988e-03 2.84398091e-03 6.85247185e-04
      -1.14785333e-03 -1.16177369e-03 5.19412395e-04 4.49457671e-04
      1.47018721e-03 1.46088970e-03 4.37783124e-03 3.36831156e-03
      5.18984115e-03 1.98405236e-03 1.72631629e-03 1.23811085e-04
      -6.02106666e-05 1.02679559e-03 1.28284248e-03 3.58742336e-03
      2.23423634e-03 3.09386826e-03 1.08264713e-03 4.82633506e-04
      -3.91724141e-04 -1.08461850e-03 -7.24476413e-04 2.67915253e-04
      -5.69563732e-03 3.85194365e-03 1.80791202e-03 3.78211704e-03
      1.21100282e-03 -7.03169906e-04 -6.33424032e-04 -4.47484999e-05
      -3.93398477e-05 3.94223770e-03 3.82882636e-03 4.27537411e-03
      2.51809810e-03 1.63075019e-04 -6.16662484e-03 -8.71889014e-03
      -6.17701095e-03 -3.81691009e-03 -3.51388869e-03 5.85132162e-04
      1.02668826e-03 1.17808674e-03 -4.29165270e-03 -2.69579701e-03
      -5.56966465e-04 -2.05170806e-03 -2.24923555e-04 -3.64916836e-04
      9.10209375e-04 1.39816268e-03 1.65377010e-03 -1.81439507e-03
      1.56470586e-03 -1.66373886e-03 -1.40602211e-03 -1.71406742e-03
      -2.64946069e-03 6.20205945e-04 9.38148529e-04 1.29116199e-03
      2.68886657e-03 5.39875496e-03 4.68651485e-03 3.41943838e-03
      8.76461272e-04 1.21471926e-03 1.15621276e-03 3.07016168e-03
      3.16927838e-03 5.74790360e-03 -5.58062736e-03 -2.84404471e-03
      -4.12068283e-03 -1.18972175e-03 -3.78982327e-03 4.13843896e-04
      8.90975120e-04 4.15285554e-04 -5.38839679e-03 -6.64856925e-04
      -1.48505380e-03 -1.80327066e-03 -1.75475271e-03 -6.58043020e-04
      1.67946413e-03 3.38848797e-03 -1.66739523e-03 -4.38753935e-03
      4.05012304e-03 3.29120364e-03 2.33591301e-03 8.70607619e-04
      2.32890691e-03 1.36181305e-03 3.51803284e-03 4.21179365e-03
      4.31968318e-03 4.22324752e-03 2.35686661e-03 1.86280103e-03
      3.31185991e-04 1.12176617e-03 7.25791906e-04 2.84640794e-03
      4.00742097e-03 5.03783580e-03 -2.17383285e-03 -2.68255430e-03
      -4.56405012e-03 -3.54877231e-03 -5.90506801e-03 7.08669657e-04
      1.90946041e-03 1.79121376e-03 -1.76188431e-03 2.45907973e-03
      3.69154103e-03 9.53795912e-04 2.66644551e-04 2.38598697e-03
      4.20629047e-03 2.74037058e-03 2.21195701e-03 2.87477882e-03
      3.69986705e-03 2.66703521e-03 1.75182696e-03 3.00445536e-04
      7.22649798e-04 6.35254313e-04 2.44012987e-03 2.93197646e-03
      3.80251487e-03 4.03831108e-03 3.07511003e-03 1.76825991e-03
      6.60855614e-04 1.72889722e-03 1.01261539e-03 2.59052287e-03
      3.07696755e-03 3.59081128e-03 2.23627570e-03 4.61031590e-03
      5.92776167e-04 4.04440128e-04 -9.25265267e-05 2.37299036e-03
      2.17036041e-03 3.14128771e-03 2.27059377e-03 1.53960404e-03
      2.40169279e-03 2.48229899e-03 1.35339820e-03 -4.09364048e-03
      -7.36130169e-03 -6.27237419e-03 -5.99839864e-03 -1.88378186e-03
      3.97139881e-03 3.26358643e-03 1.76265335e-03 1.16676837e-03
      3.02452198e-03 1.17538194e-03 2.83955736e-03 3.31043336e-03
      3.23125673e-03 2.39293766e-03 1.59495906e-03 1.60366879e-03
      5.58962987e-04 3.01216147e-04 -1.00961908e-04 8.57390056e-04
      1.52387156e-03 2.34369235e-03 3.94850876e-03 2.97200005e-03
      3.04568047e-03 2.31618737e-03 5.18105458e-04 -1.18864526e-03
      -1.77287788e-03 -4.33350971e-04 2.86867400e-03 8.52959114e-04
      6.53413532e-04 1.33624591e-03 1.33761484e-03 -3.82703682e-03
      -6.64599612e-03 -6.01317175e-03 -6.52259449e-03 -1.14386610e-04
      2.39900243e-03 1.46741606e-03 1.49971480e-03 6.57379220e-04
      -1.15669810e-03 -6.77644741e-04 -2.49611068e-04 4.39529802e-04
      1.55934494e-03 1.02974614e-03 9.69317625e-04 3.13776894e-04
      7.40381001e-05 -4.85283788e-03 -4.09668172e-03 -3.05949245e-03
      -2.47991551e-03 -3.13126104e-04 8.99747538e-04 5.33422681e-05
      2.46425101e-04 1.66796648e-03 -1.89942296e-03 -1.38765771e-03
      -3.48520791e-03 -3.91574623e-03 -4.87557263e-05 1.25121733e-03
      -5.11173916e-04 -1.20493537e-03 8.23118375e-04 4.08163341e-03
      3.29040992e-03 2.64037261e-03 1.86197937e-03 2.16613454e-03
      -8.56063270e-05 6.95493887e-04 -5.67979296e-04 7.22064404e-04
      -4.72702598e-03 -4.80295345e-03 -4.69432119e-03 -2.69736699e-03
      -1.10841589e-03 -1.36151747e-03 -4.89658909e-04 -1.77607115e-03
      6.83209859e-04 2.63278256e-04 -1.12628273e-03 -1.78576342e-03
      -1.21988880e-03 -8.85253190e-04 -1.20408693e-03 -1.18655397e-03
      -1.49490987e-03 9.22593972e-06 -2.89942231e-03 3.20383767e-03
      1.66356901e-03 1.75558520e-03 3.26633235e-05 -1.03526661e-04
      -1.37172814e-04 1.76167916e-04 3.25249945e-04 5.10322722e-03
      5.48574701e-03 5.18195145e-03 3.14446189e-03 1.01392320e-03
      -2.56554713e-03 -1.42626150e-03 -3.08092614e-03 1.39972987e-03
      -1.18707656e-03 -3.65853542e-03 -3.60964239e-03 -4.11840901e-03
      -2.04170076e-03 -2.83081154e-03 5.60822664e-04 1.25519722e-03
      1.37643714e-03 6.08888455e-03 4.91964258e-03 5.64167555e-03
      1.25001790e-03 -2.26294878e-03 -2.29553276e-04 -1.32238597e-03
      3.63049156e-04 -1.19213131e-03 -9.60856583e-03 8.19784997e-04
      1.95211067e-03 1.11908338e-03 -4.34541813e-04 5.31875622e-03
      3.68886767e-03 2.64646346e-03 7.12443027e-04 2.25124531e-03
      1.92937849e-03 3.47413355e-03 3.44068138e-03 4.90570860e-03
      5.25529787e-04 2.78995372e-03 4.24550520e-03 2.18890863e-03
      -9.35286097e-03 2.01415946e-03 1.34515646e-03 4.51557753e-05
      -5.83049201e-04 3.85029218e-03 2.99527333e-03 2.48798146e-03
      5.66597388e-04 2.92662694e-03 1.09997962e-03 2.65096826e-03
      2.12496775e-03 3.56202736e-03 4.80679050e-03 3.47374217e-03
      2.59023765e-03 1.93748716e-03 3.76654230e-03 1.13448070e-03
      2.91681127e-03 3.82191828e-03 4.67467029e-03 4.48889332e-03
      2.06138100e-03 1.41744479e-03 3.67086730e-04 2.08658748e-03
      1.44266011e-03 4.12415667e-03 5.27806068e-03 4.86256927e-03
      3.43342545e-03 2.24197796e-03 1.53161306e-03 3.78711266e-04
      3.21913883e-03 1.47938146e-03 2.43291864e-03 2.85681360e-03
      3.54787847e-03 2.76720757e-03 1.54539500e-03 1.40222034e-03
      7.47964776e-04 2.32455810e-03 1.25869503e-03 2.22428120e-03
      2.70308508e-03 3.07523273e-03 5.12424950e-03 2.83527514e-03
      1.73930440e-03 5.85069880e-04 3.55393882e-03 2.11422099e-03
      3.46837519e-03 4.09762189e-03 5.46699157e-03 3.21058813e-03
      2.23882054e-03 1.44331448e-03 1.94585358e-04 1.73596165e-03
      3.54877935e-04 1.62656477e-03 1.86901959e-03 3.36805591e-03
      3.10847093e-03 1.47873093e-03 1.67142658e-03 1.61800638e-03
      4.73488588e-03 2.73619802e-03 3.21615092e-03 3.47987819e-03
      3.39029869e-03 1.04231387e-03 5.84994501e-04 2.54888757e-04
      1.12291120e-04 5.11925959e-04 1.02554397e-04 4.28854371e-04
      4.52660548e-04 9.45073494e-04 6.09025126e-03 3.64362076e-03
      2.46404251e-03 1.03902223e-03 3.35456687e-03 6.64139574e-04
      2.58975313e-03 3.05926614e-03 5.78524452e-03 2.64081801e-03
      1.23037887e-03 1.17906486e-03 2.80870096e-04 -1.19878782e-03
      -9.76755051e-04 2.67843512e-04 1.15682383e-03 2.89974129e-03
      8.65163980e-04 4.35972092e-04 2.17816283e-04 2.57289344e-06
      6.92063419e-04 4.56318703e-05 4.13037196e-04 6.70315989e-04
      8.10671598e-04 5.49766293e-04 3.26688489e-04 3.06915026e-04
      3.86432403e-05 7.28837113e-05 -6.22550078e-06 2.13426720e-05
      4.09490458e-04 5.40273089e-04 1.51510048e-03 1.20038283e-03
      1.20723969e-03 4.73965425e-04 -6.22512889e-04 -4.22998884e-04
      -3.73025629e-04 1.40715856e-04 1.12293055e-03 6.31616975e-04
      1.08433829e-03 6.14125573e-04 -1.73617876e-03 -7.37777399e-03
      -8.85031745e-03 -4.65093087e-03 -4.24010772e-03 -1.56338199e-03
      5.31312835e-04 4.36109171e-04 4.77466616e-04 1.05124716e-04
      -1.95348839e-04 -9.62875711e-05 -1.61708856e-04 3.84630912e-05
      3.49838665e-04 5.48065524e-04 4.26560873e-04 8.60133208e-04
      3.87774518e-04 -3.36701726e-03 -1.45459198e-04 -1.34543271e-03
      -5.29985060e-04 -4.18961608e-05 -1.05629058e-03 1.45381701e-03
      7.41033466e-04 1.28000951e-03 -2.86019477e-03 -3.65508092e-03
      -4.41942550e-03 -3.43423313e-03 -1.66675181e-03 -3.64200049e-03
      2.51423044e-04 -6.80483994e-04 4.70098166e-04 1.27664837e-03
      5.91214164e-04 -1.35618611e-03 -1.94537034e-03 -4.74064983e-03
      -1.12141221e-04 4.16457275e-04 5.61408000e-04 2.56975443e-04
      -1.63681619e-03 -1.62382168e-03 -1.78515108e-03 -1.02234876e-03
      -1.29963388e-03 -1.69652712e-03 1.69849710e-03 1.77576835e-03
      8.22342641e-04 -2.11917752e-04 -2.57741218e-03 -2.11231993e-03
      -2.89390446e-03 -3.36280162e-03 -4.07803664e-03 5.54389495e-04
      -1.41975994e-03 6.93633629e-04 3.65635933e-04 -7.10969907e-04
      -7.84215983e-04 -1.62373181e-03 -4.86864196e-03 -1.60314911e-03
      3.82039550e-04 1.42717827e-03 1.56004436e-03 6.79346919e-03
      5.31564420e-03 4.72445181e-03 1.01281516e-03 -1.53296243e-03
      -2.60613603e-03 9.61247715e-04 9.82646015e-04 5.46345487e-04
      -1.64455525e-03 -1.58224092e-03 -2.98910285e-03 -3.12336138e-03
      -4.40529454e-03 -5.07927150e-04 9.12791409e-04 1.50212471e-03
      1.29750406e-03 4.13272204e-03 1.83864858e-03 4.52591019e-04
      -1.40579150e-03 -7.77761568e-04 2.38398183e-03 2.73540569e-03
      3.54780839e-03 1.48620619e-03 -9.36040375e-03 1.46611058e-03
      3.00169969e-03 1.91084552e-03 2.11173622e-03 3.02143651e-03
      2.06565741e-03 2.06725625e-03 8.77557788e-04 3.29742767e-03
      1.09891267e-03 2.72971136e-03 2.37870077e-03 3.55332997e-03
      -1.13197917e-03 5.41615882e-04 3.29205999e-04 -6.26591936e-05
      -1.11991270e-02 -3.87082109e-03 2.78258580e-04 -5.01836999e-04
      -6.72555994e-04 1.20753981e-03 1.60816358e-03 1.53025473e-03
      1.10613648e-03 3.95970233e-03 3.24591133e-03 5.00600040e-03
      2.84826057e-03 1.83533167e-03 5.75128663e-03 2.30829162e-03
      2.27153278e-03 5.31367084e-04 2.52472865e-03 6.99204276e-04
      1.79933256e-03 1.95763446e-03 6.33771578e-03 2.55776593e-03
      1.74169743e-03 1.66786602e-03 9.51892522e-04 2.37846281e-03
      1.12036662e-03 1.57976954e-03 1.40743621e-03 2.62698298e-03
      2.26004794e-03 2.10613455e-03 1.80753798e-03 7.54196546e-04
      6.40184665e-03 3.91077483e-03 3.94959655e-03 2.56483909e-03
      2.62386003e-03 1.23815564e-03 2.53892969e-03 2.68963818e-03
      1.04015914e-03 2.90691061e-03 1.52377761e-03 1.45826163e-03
      9.29669593e-04 1.57946779e-03 2.92189489e-03 1.86472118e-03
      1.94657606e-03 1.69072940e-03 4.10234137e-03 2.24423432e-03
      2.20676837e-03 1.09807856e-03 2.84636463e-03 1.74654284e-04
      3.76802673e-05 7.98683250e-05 1.15285271e-04 4.64865792e-04
      1.23401100e-04 9.15206110e-05 8.32697988e-05 2.52879545e-04
      2.15650140e-03 2.24743364e-03 2.43973942e-03 1.08424458e-03
      2.32529943e-03 1.92388077e-03 1.27601938e-03 5.26198710e-04
      2.02271482e-03 1.64139026e-03 5.93268232e-05 7.93047948e-05
      3.80779020e-05 1.05813856e-03 4.68738202e-04 1.34747534e-03
      1.54949899e-03 1.65630493e-03 1.56849885e-04 0. 0. 0.
      3.27596179e-04 1.83037428e-05 1.58831372e-05 1.75061268e-05
      1.63596094e-04 7.75114822e-05 5.82221546e-05 5.82221546e-05
      6.94519304e-06 5.82221546e-05 5.82221546e-05 5.82221546e-05
      5.82221546e-05 9.49770547e-05 4.07581637e-03 2.43447776e-05
      1.54106456e-05 0. 2.35825102e-03 9.38987418e-04 3.47424182e-03
      3.11331986e-03 4.44223126e-03 5.09865640e-04 1.05461993e-04
      3.72326167e-06 9.32298281e-05 4.53140790e-04 7.72397034e-05
      5.51552621e-05 8.70455769e-05 3.53018957e-04 5.87494360e-05
      6.01517131e-05 6.29541246e-05 2.85783972e-05 4.40372696e-06
      -1.35970613e-05 -2.11739083e-04 -3.94443996e-05 3.28414644e-05
      3.98004369e-04 1.29869906e-04 3.42902291e-04 2.34555206e-04
      -1.05413888e-02 5.55699051e-04 1.62466115e-03 1.24934560e-03
      8.67550378e-04 3.94741568e-04 2.11040533e-04 6.63109167e-05
      3.82876606e-05 1.81151932e-04 8.16647444e-05 5.70335178e-05
      1.01487261e-04 3.10310512e-04 1.69671420e-03 1.68169674e-03
      1.46339333e-03 2.53012986e-04 6.75320975e-04 2.92895158e-04
      1.27769701e-04 3.76025419e-04 1.00339495e-03 4.59940988e-04
      2.81772896e-04 3.80248995e-04 1.30405024e-04 -1.48838008e-04
      -7.54283101e-04 -8.81295942e-04 -9.24133565e-05 -5.75226441e-04
      -1.78635947e-03 5.79206622e-04 1.22426671e-03 4.91294544e-04
      -9.36802360e-04 -3.34144616e-03 -4.79283882e-03 -5.58629679e-03
      -3.78065114e-03 7.58735114e-04 9.42608167e-04 9.21454339e-04
      1.16926858e-04 4.00637859e-04 1.76441070e-04 -1.40470338e-05
      1.94531473e-04 2.72930280e-04 1.48314354e-03 2.16613780e-03
      2.91737053e-03 2.05565128e-03 2.16000457e-03 1.01103224e-05
      -8.16626183e-04 -9.83874197e-04 9.02334345e-04 -2.40210188e-03
      7.50621315e-04 1.17941771e-03 7.23391480e-04 -1.41292985e-04
      -9.81138553e-04 -2.91963504e-03 -3.17636854e-03 -2.97860918e-03
      -1.87835202e-03 6.61837927e-04 1.79962197e-03 1.79110188e-03
      3.75070842e-03 -3.97583499e-05 -2.82794307e-03 -3.92978592e-03
      -2.05122097e-03 -6.56605480e-05 1.50034460e-03 1.76390796e-03
      9.96272895e-04 1.90539844e-03 1.17709802e-04 -9.21165978e-04
      -8.27611715e-04 -3.68773442e-04 1.99870765e-03 1.83239160e-03
      3.47914197e-03 3.22193350e-03 2.01539230e-03 5.33122293e-05
      -7.94627849e-05 -1.26797298e-03 2.58592819e-03 -2.62051309e-03
      -7.82542862e-04 -1.19785964e-03 -4.90768580e-04 -9.16323159e-03
      -1.19438709e-03 1.83405587e-03 4.03823477e-04 -2.02252041e-03
      -7.91259576e-04 1.35372824e-03 1.06753514e-03 5.75162994e-04
      4.88521624e-03 4.38367389e-03 5.65729244e-03 3.02496273e-03
      -4.83543517e-05 2.16236585e-05 1.98873598e-03 1.50611543e-03
      2.72034900e-04 -8.40274245e-03 -4.92677977e-03 -3.48370057e-03
      -1.09777937e-03 2.48890166e-04 2.09931261e-03 2.94364034e-03
      2.94170389e-03 1.34698255e-03 6.33334927e-03 4.51585092e-03
      6.31742971e-03 4.66229906e-03 3.34709347e-03 -2.35072293e-04
      1.62951252e-03 1.31017086e-03 4.42827150e-04 4.51569725e-03
      2.63797492e-03 3.19113350e-03 1.17197458e-03 1.04234001e-04
      1.50870718e-03 1.76042959e-03 1.96079118e-03 5.77529543e-04
      2.40611215e-03 1.39432598e-03 5.38381457e-04 3.90973670e-04
      1.43930386e-03 2.48858635e-03 3.49086686e-03 3.46415350e-03
      1.60936965e-03 8.33097287e-03 6.11867197e-03 7.17301201e-03
      4.51842416e-03 3.40728136e-03 1.87506201e-03 3.09948251e-03
      2.80483952e-03 5.86648996e-04 3.10748629e-03 2.01493944e-03
      1.84751232e-03 1.40782632e-03 2.09337519e-03 1.76224811e-03
      1.30352587e-03 1.75070006e-03 9.13431577e-04 2.37136218e-03
      1.02949783e-03 5.98255952e-04 9.28749214e-04 1.71576149e-03
      6.95859781e-05 3.95043549e-04 6.06814341e-04 2.56243598e-04
      1.69555948e-03 7.37171271e-04 8.43303511e-04 8.60983273e-04
      5.93206787e-04 1.41488574e-03 2.97865109e-03 2.83276266e-03
      1.49871816e-03 5.99389756e-03 2.81003746e-03 1.95145875e-03
      1.32902933e-03 1.76056509e-03 -2.30498132e-04 1.56373333e-03
      2.05544126e-03 1.57293049e-03 3.59619223e-03 1.94764847e-03
      2.57058605e-03 1.67624210e-03 6.40488579e-04 -2.02422569e-04
      2.81012006e-04 8.53733975e-04 5.06140117e-04 2.36867741e-03
      8.16106331e-04 1.60234538e-03 1.02379872e-03 2.39971894e-04
      -2.91935110e-04 1.33989422e-04 1.57053873e-04 5.83381479e-05
      2.25998359e-04 5.69568183e-05 -2.06851337e-06 1.65767531e-04
      -2.95040343e-04 -4.73258784e-04 1.49332173e-03 2.56130914e-03
      1.85826083e-03 5.38138300e-03 4.57559619e-03 3.74775031e-03
      1.38415094e-03 1.77595543e-03 7.99698813e-04 3.02914041e-03
      3.54574015e-03 2.24070391e-03 2.50770291e-03 3.98819655e-04
      -2.52235192e-03 -2.50829570e-03 -8.60482687e-05 1.94061489e-04
      3.22334934e-04 3.99023847e-04 7.65808654e-05 2.10599639e-04
      6.64913314e-05 -4.70417908e-05 1.73863446e-04 2.04349650e-04
      -9.65193613e-06 1.00946310e-03 1.05014746e-03 3.58010147e-04
      6.77592587e-04 1.30652101e-04 3.84084880e-04 3.16881138e-04
      -5.49704884e-04 -2.03493051e-04 2.33805599e-03 2.86704535e-03
      1.76804664e-03 7.51943560e-04 -1.68798526e-03 -4.18903772e-03
      -4.23522992e-03 -8.13430466e-04 3.90673848e-03 2.29343912e-03
      2.04844540e-03 1.64822920e-03 5.16906031e-04 -4.48788633e-04
      1.71237902e-04 -3.36849567e-04 2.48802081e-03 9.75298462e-04
      1.12814934e-03 1.10496627e-03 4.05125291e-04 6.15288969e-04
      1.60031239e-04 1.39763230e-04 1.59843563e-04 3.01304099e-04
      -7.03391968e-04 1.79885444e-03 2.29355600e-03 1.19294680e-03
      -3.31657066e-04 1.68522168e-03 3.20564577e-04 -6.30581332e-03
      -1.43954670e-03 1.12020702e-03 2.93762237e-03 1.83527940e-03
      1.74586836e-03 -3.87384411e-04 4.70447005e-04 1.27166102e-03
      -1.64840417e-03 1.10391609e-03 1.93914038e-03 2.61242548e-03
      3.81050806e-04 3.59018799e-03 2.01083813e-03 7.52184656e-04
      2.10039061e-03 2.00650073e-03 1.98364118e-03 8.17349006e-04
      2.29124329e-03 2.88276514e-03 1.58064649e-03 1.76850054e-03
      6.98220902e-05 -1.65866950e-04 3.98992590e-04 -9.37196019e-05
      -1.61868124e-03 8.41905887e-04 3.53266252e-03 2.54780706e-03
      4.25459802e-05 -1.35325687e-03 -3.24764685e-03 -3.40945926e-03
      -1.73752266e-03 9.31830553e-04 2.08661449e-03 2.74121808e-03
      2.13160738e-03 2.99970317e-03 4.82406089e-04 1.62834150e-03
      1.51610759e-03 1.59054366e-03 -2.62900232e-03 -1.73730124e-03
      1.08478696e-03 -9.00279323e-04 1.30078720e-03 9.57613229e-04
      1.12690474e-03 7.04810445e-05 -2.29116785e-03 -1.40328403e-03
      2.02052062e-03 2.41800793e-03 1.84520101e-03 -3.58985597e-03
      -3.63787892e-03 -1.71410211e-03 -6.43839827e-04 -1.24879705e-03
      2.06179870e-03 2.76939734e-03 3.22056748e-03 1.81095628e-03
      6.93836296e-03 5.71904285e-03 5.89700975e-03 4.58383700e-03
      2.29256321e-03 -1.31226273e-03 5.64843533e-04 1.28858595e-03
      1.03621208e-03 -4.87304712e-03 -5.49502205e-03 -4.59548086e-03
      -4.08502901e-03 -3.82560957e-03 6.72645343e-04 1.60224549e-03
      2.09892401e-03 1.39584369e-03 -6.99713652e-04 1.04474579e-03
      1.98130566e-03 1.43511264e-04 -2.58459564e-04 2.11448106e-03
      2.59054196e-03 2.35036528e-03 1.12039130e-03 3.86184896e-03
      3.35572311e-03 5.21489559e-03 2.72108871e-03 1.73801498e-03
      -6.83799735e-04 2.66183144e-03 2.40001059e-03 7.19964853e-04
      3.42860608e-03 2.82630092e-03 7.34719040e-04 -8.39142303e-05
      -4.55473666e-04 -1.08698604e-03 1.92308018e-03 2.14403495e-03
      1.07794208e-03 -2.38599000e-03 -6.49023743e-04 -2.80113029e-03
      -1.35407620e-03 -1.62553904e-03 1.06030761e-03 1.13786140e-03
      1.17856509e-03 3.75704665e-04 2.40222886e-04 2.68009328e-03
      4.58218670e-03 3.33356764e-03 2.42881454e-03 -1.11854135e-03
      2.42613582e-03 2.14812928e-03 1.01421576e-03 2.59461557e-03
      1.75884098e-03 1.76937296e-03 8.29772558e-04 -6.95080846e-04
      -1.69656950e-03 1.76812941e-03 1.48631306e-03 1.08978362e-03
      4.15894063e-03 2.24081357e-03 2.40765396e-03 1.14636566e-03
      -3.80073179e-05 1.38071936e-03 9.15673794e-04 1.57330255e-03
      2.56936793e-04 1.21822068e-03 2.45694211e-03 5.55261923e-03
      3.83468578e-03 2.73639266e-03 -9.92858084e-04 -1.14615518e-03
      -4.71626350e-04 -7.09643646e-04 -2.02114135e-03 1.02777861e-03
      2.86908145e-03 1.99955166e-03 1.18402779e-04 -2.34972895e-03
      1.04293006e-03 1.82655570e-03 7.11613102e-04 2.19389866e-03
      9.15220124e-04 4.01973346e-04 -4.72785381e-04 -1.25573366e-03
      -1.04019535e-03 2.19084718e-03 3.24208429e-03 1.24849309e-03
      3.22222157e-04 -8.81836109e-04 -2.05246382e-03 -1.90968288e-03
      -2.09428975e-03 1.02139905e-03 4.72823740e-04 7.93761341e-04
      5.47307893e-04 1.11525133e-03 6.73450471e-04 2.45877355e-03
      2.75505963e-03 2.09321966e-03 -3.21061793e-03 -2.00459361e-03
      8.74254969e-04 -2.62374291e-04 -1.04531867e-03 -1.08973973e-03
      1.75362593e-03 1.48662785e-03 -2.64420127e-03 8.40663910e-04
      2.65812897e-03 3.09221842e-03 1.56918890e-03 2.89956961e-06
      -1.33690273e-03 -1.69493875e-03 -1.53354439e-03 6.37284938e-06
      1.03537622e-03 2.58743996e-03 2.46819993e-03 1.09076896e-03
      1.66134167e-04 -2.05952150e-04 5.76341234e-04 -1.38297037e-04
      3.64980282e-04 -4.13554301e-03 4.99239773e-04 1.49224757e-03
      1.06686866e-03 5.27791213e-04 -2.25417680e-05 1.40937162e-03
      1.25705346e-03 -3.62829026e-03 -3.47234681e-03 7.33450637e-04
      -5.55931882e-04 2.27513854e-04 1.79361366e-03 1.22829064e-04
      -1.99500821e-03 -2.43739760e-03 -4.94514732e-03 2.43914081e-03
      2.90510897e-03 2.84044934e-03 1.61243661e-03 1.12475606e-03
      4.09294647e-04 1.20722316e-03 1.09025641e-04 2.24774238e-03
      1.08183210e-03 1.95320509e-03 2.35141348e-03 1.83706533e-03
      2.71069515e-03 7.02968915e-04 1.34841341e-03 1.15656143e-03
      1.62376219e-03 -2.75026285e-03 1.06375979e-03 -3.83637904e-04
      -2.06325698e-04 1.84354710e-03 1.04731985e-03 -4.73817857e-03
      -5.50631713e-03 -5.52343577e-03 -2.07584002e-03 1.30445138e-03
      -3.58321086e-06 1.33954716e-04 -5.71448647e-04 1.04682927e-03
      -2.02929857e-03 -4.10869904e-03 -5.04889106e-03 3.51840252e-04
      1.83361536e-03 3.15309246e-03 2.10486911e-03 4.35385155e-03
      6.77906617e-04 1.40836218e-03 1.30648504e-03 1.11093710e-03
      -2.49851588e-03 -1.43239810e-03 1.44468388e-03 2.03588582e-03
      2.24808347e-03 7.41854776e-04 2.10795878e-03 1.64722011e-03
      -1.60834077e-03 -7.31378654e-03 -8.57052626e-04 -2.90458061e-04
      6.63334969e-04 -3.32916249e-03 7.93065876e-04 9.20132326e-04
      -1.03389553e-03 -7.28646200e-03 -2.88284151e-03 -2.72840890e-03
      -2.89471529e-04 1.91076763e-03 4.98575624e-04 -3.58156758e-05
      4.85754979e-04 -2.86660397e-05 -3.42389988e-03 2.36170460e-03
      1.91471726e-03 2.93028448e-03 1.87402242e-03 1.60693214e-03
      -3.90713685e-04 -6.89651875e-04 5.38679247e-04 1.89053384e-03
      1.23746775e-03 2.12558638e-03 3.11948219e-03 1.71282643e-03
      -6.82365242e-03 -2.28256779e-03 -2.69078091e-03 -9.28653521e-04
      1.13107171e-03 -2.15473608e-03 -1.18976657e-03 -3.37070553e-04
      -1.64106168e-05 2.26260439e-04 1.89327111e-04 -4.17077797e-04
      1.01737992e-03 -6.28247741e-04 -3.08867893e-03 -1.47846760e-03
      -1.02414680e-03 1.83327380e-03 -6.22291770e-03 -1.55260530e-03
      -3.87045415e-03 -5.88503713e-03 -4.54503763e-03 1.64415012e-03
      2.37772590e-03 3.06660449e-03 2.11401586e-03 -1.34758232e-03
      -1.76976738e-03 -3.08561185e-03 -1.18724990e-03 1.57982158e-03
      1.62599829e-03 8.41065019e-04 2.70274963e-04 6.21926738e-04
      -3.82053596e-03 -2.86915107e-03 -2.99712084e-03 -1.41403486e-03
      1.40832283e-03 -3.57754785e-03 -1.21997576e-03 1.18220481e-03
      1.71143201e-03 -6.94278628e-04 -1.89536437e-03 -6.07047835e-03
      -6.59381133e-03 -4.33158502e-03 -9.24805645e-04 1.35259714e-03
      1.15804619e-03 7.96498090e-04 -4.76654014e-03 -4.74529620e-03
      -7.88655132e-03 -5.79276821e-03 -2.58211372e-03 -1.42926583e-04
      1.79737993e-03 1.22429908e-03 1.81488669e-03 -3.13427718e-03
      -3.47728259e-03 -4.26406460e-03 -2.18139635e-03 -7.04631675e-04
      3.96242358e-05 1.54555019e-03 -6.51266091e-05 4.04344755e-04
      -1.80504809e-04 -2.52006529e-03 -4.03985428e-03 -2.89242109e-03
      -1.90820720e-03 6.22681167e-04 6.38820697e-04 5.10914309e-04
      5.49431599e-04 -5.03632566e-03 -4.72858921e-03 -6.23098109e-03
      -4.84485319e-03 -3.01013206e-04 1.42256543e-03 6.21772837e-04
      1.08631351e-03 1.34634739e-03 -3.69482557e-03 -3.15429550e-03
      -2.99151079e-03 -6.49730384e-04 -3.56238859e-04 1.27986108e-03
      1.47857156e-03 -6.57687051e-05 2.04440366e-04 4.71362873e-04
      -3.46504268e-03 -5.93167311e-03 -4.03354596e-03 -2.52964674e-03
      2.08808086e-03 8.83434084e-04 9.36493860e-04 5.30842168e-04
      2.49068951e-03 -2.25929916e-03 -5.83054498e-04 -1.05332013e-03
      -2.39103101e-04 7.34535337e-04 9.22887411e-04 1.12350879e-03
      1.54228962e-03 5.29157405e-05 -2.15841737e-03 -3.06386873e-03
      -9.14695614e-04 -3.56281409e-04 -1.31971348e-04 1.32009469e-03
      1.47010176e-03 1.18758308e-03 -1.88811834e-03 -2.90057668e-03
      -3.55860428e-03 -1.87266525e-03 -2.75281048e-03 1.28092745e-03
      6.82975573e-04 1.28699688e-03 9.89372726e-04 1.81068608e-03
      -1.70156534e-03 -2.19696178e-03 -1.02686964e-03 5.66451228e-04
      1.69887242e-03 5.54922153e-04 2.02372507e-03 1.02535146e-03
      3.01499595e-03 1.04906585e-03 3.60137271e-03 2.17697863e-03
      2.42708158e-03 -6.02187181e-04 1.11472153e-03 1.22402713e-03
      9.97477793e-04 -3.69901350e-03 -5.55323763e-03 -3.75194335e-03
      -3.48452944e-03 -4.94076265e-03 7.67933496e-04 6.14689488e-04
      1.50086847e-03 7.09481072e-04 7.88116828e-04 -1.30437640e-03
      -8.95893900e-04 -4.01976344e-04 1.52840308e-04 1.11778791e-03
      5.00981754e-04 1.51550258e-03 6.98766496e-04 8.06937634e-04
      1.81531475e-04 3.14232614e-03 2.11955607e-03 1.92197587e-03
      1.32973026e-03 1.12242915e-03 2.71139201e-03 1.17641874e-03
      5.37601393e-03 2.21364736e-03 3.00202542e-03 1.62293890e-03
      1.62216357e-03 -6.07075170e-04 1.08946126e-03 1.37383689e-03
      6.64488121e-04 -3.40385782e-03 -3.42005491e-03 -5.00903185e-03
      -5.36287948e-03 -3.00502009e-03 2.15893937e-03 1.56822742e-03
      3.15616420e-03 1.94184890e-03 5.50602609e-03 2.92896805e-03
      4.33027372e-03 3.50858970e-03 3.61998915e-03 1.57388649e-03
      1.37658056e-03 2.04735785e-03 1.02286646e-03 4.47162567e-03
      1.80280511e-03 2.78843124e-03 1.53375173e-03 1.35273638e-03
      1.88624766e-03 1.14064396e-03 1.50537235e-03 6.24999928e-04
      2.90350406e-03 1.21425581e-03 2.24481244e-03 1.66715286e-03
      1.91376323e-03 3.11196921e-03 1.51790213e-03 2.27127224e-03
      1.42283982e-03 1.97064364e-03 7.58886384e-03 8.30870681e-03
      6.35166001e-03 4.68178326e-03 1.79363543e-03 1.01920287e-03
      1.49796379e-03 8.35148909e-04 3.88613949e-03 2.26254831e-03
      2.94460566e-03 1.54782983e-03 1.77847210e-03 -2.30540545e-03
      -1.19764998e-03 -3.22598033e-04 1.55602128e-03 2.80213263e-03
      2.42367783e-03 2.37339130e-03 1.26810372e-03 -5.03118441e-04
      -6.91686803e-03 -1.63158705e-03 -2.45178374e-03 4.57357266e-04
      1.03867881e-03 1.71468325e-03 -4.57720278e-04 -1.36969518e-03
      -5.99403400e-03 -4.00863448e-03 -6.61694072e-03 -5.56585426e-03
      4.81899042e-04 2.87311198e-03 2.74102483e-03 3.25889233e-03
      2.62646331e-03 -1.32058957e-03 -4.03428916e-03 -2.54763127e-03
      -4.54387208e-03 -5.05058328e-04 8.28210032e-04 1.12287875e-03
      2.06671096e-03 1.60304620e-03 -3.94766685e-03 -4.26055863e-03
      -8.65455193e-04 2.44669057e-03 2.63971393e-03 2.82778242e-03
      4.77765789e-05 -4.31444403e-03 -4.11335612e-03 -5.59624331e-03
      -2.98349187e-03 -1.41107873e-03 -1.40055083e-03 -1.11917825e-03
      -5.69399074e-03 -2.91382545e-03 -5.95372636e-03 -3.85459256e-03
      -3.05955764e-03 -4.18524770e-03 -4.53881192e-04 6.98922595e-05
      2.71574245e-04 3.75843316e-04 2.21559036e-04 2.89283256e-04
      1.02772785e-03 -4.44612931e-03 -3.50427115e-03 -1.58176385e-03
      -1.38551393e-03 -1.49416109e-03 -2.87271710e-03 5.45935822e-04
      -8.21490656e-04 -3.47928755e-04 -3.48352361e-03 7.92844803e-04
      -1.54597429e-03 -4.05251095e-03 -3.26868775e-03 -8.41899216e-03
      -5.38444379e-03 -6.76791463e-03 -4.23089508e-03 -2.14276533e-05
      1.57699920e-03 4.45758400e-04 1.82129792e-04 3.63771163e-04
      -2.66139861e-03 -3.81909020e-04 -2.40925699e-03 -1.04416721e-03
      1.22564042e-03 -1.98426400e-03 -3.60474270e-03 -3.58401192e-03
      -4.29790281e-03 -7.14770146e-03 5.79116131e-05 -1.18582405e-03
      2.95439444e-04 -1.83728244e-03 2.71053775e-03 6.46684784e-04
      -1.60688287e-04 -1.23696605e-04 -1.11806497e-03 7.16857903e-04
      1.04252389e-03 1.24296034e-03 2.77053053e-03 9.05534253e-04
      1.12580182e-03 1.52816228e-03 1.40140869e-03 -6.38719939e-04
      -8.14304687e-04 -2.54242332e-03 -7.59841059e-05 1.36145813e-04
      -6.85827516e-04 9.42457176e-04 9.62355407e-04 8.15723441e-04
      -4.28690901e-03 -2.40570027e-03 -3.60173290e-03 -2.79162824e-03
      -2.20150035e-03 1.86058192e-03 -7.86965393e-05 -1.05176202e-03
      -5.63353766e-04 -1.00088061e-03 6.77793578e-04 -6.78903540e-04
      2.21710373e-03 2.15117703e-03 2.79117352e-03 1.14972179e-03
      4.36731469e-04 -3.35342629e-05 -1.09532999e-03 -6.09146431e-04
      -1.59200688e-03 1.34124479e-03 2.56743678e-03 1.18013029e-03
      6.97928248e-04 8.47668445e-04 2.80125794e-04 -2.87991809e-03
      -3.15317675e-03 -2.47469312e-03 -1.84304465e-03 -2.06137367e-04
      2.40329211e-03 8.47444811e-04 1.06291065e-03 6.05594891e-04
      6.28726557e-04 -1.36571797e-03 -1.45297102e-03 -1.16196170e-03
      2.18206970e-03 2.95322062e-03 2.47847545e-03 2.03513890e-03
      4.07170563e-04 -2.25036708e-03 -1.98732154e-03 -1.86438730e-03
      -5.26606280e-04 1.25020451e-03 2.75101210e-03 1.52122136e-03
      1.69272081e-03 7.67431746e-04 2.13854059e-04 -4.68875235e-03
      -3.28632258e-03 -3.26178013e-03 1.05896813e-03 1.60398718e-03
      1.27831451e-03 1.23603770e-03 6.94622227e-04 -7.55865840e-05
      -4.05644882e-04 -9.85824387e-04 -1.11148937e-03 1.85044867e-03
      2.26008333e-03 1.46696938e-03 2.34087231e-03 1.89044350e-03
      5.72037650e-03 3.96941882e-03 3.90706817e-03 3.14353849e-03
      3.56225437e-03 3.14059842e-04 1.08165690e-03 1.25356938e-03
      1.45035228e-04 -7.20857130e-03 -1.01201665e-02 -6.54859934e-03
      -5.50053874e-03 4.73509077e-04 -1.79765211e-05 3.28920840e-04
      1.35299296e-03 1.91113993e-03 3.21400352e-03 8.75723781e-04
      1.57349696e-03 1.06474145e-04 1.50817540e-03 1.42839155e-03
      1.16834568e-03 2.04584002e-03 1.62664813e-03 4.31499630e-03
      4.34977654e-03 4.47451090e-03 2.42179818e-03 2.24963482e-03
      1.68355554e-03 9.64974461e-04 1.42410886e-03 1.06994924e-03
      4.79534967e-03 2.37894733e-03 2.97791301e-03 1.01523625e-03
      1.68300187e-03 2.28300069e-05 4.18652431e-04 1.12123066e-03
      1.69066433e-03 6.81461708e-04 1.29509380e-03 2.44690833e-04
      -1.24597189e-03 1.76611939e-03 -7.46577745e-04 -3.32093885e-04
      6.21489133e-04 8.53378267e-04 5.61138708e-03 3.46197747e-03
      4.81678126e-03 2.08270270e-03 -9.83444508e-04 -4.43929248e-03
      -7.13032391e-03 -6.79171877e-03 -1.44118210e-03 -2.85628112e-03
      -4.59951407e-04 8.98733793e-04 2.26118020e-03 -9.80643905e-04
      -2.83686491e-03 -2.39035604e-03 -3.25523922e-03 -1.65940903e-04
      1.00135407e-03 9.03824053e-04 2.10461952e-03 8.52664409e-04
      -2.15149601e-03 4.09544073e-03 5.41739690e-04 -1.57917064e-04
      -1.96008151e-03 -3.92525969e-03 2.09163362e-03 1.90696784e-03
      3.15145100e-03 4.62045288e-03 4.20495169e-03 2.59960419e-03
      1.29452767e-03 6.20634382e-05 5.93511562e-04 6.98608055e-04
      3.37392790e-03 3.46916541e-03 4.25130315e-03 -4.07204777e-03
      -2.30068248e-03 -9.48860601e-04 8.27051757e-04 -5.35049615e-03
      6.91993220e-04 8.61378969e-04 1.50392167e-04 -5.53879142e-03
      -6.88161794e-03 -5.11081656e-03 -2.92988727e-03 -1.89092522e-03
      -4.11690166e-03 1.96644501e-03 -1.04559551e-03 4.64336918e-04
      -5.57147712e-03 3.78478901e-03 3.23411636e-03 1.94014737e-03
      4.45569982e-04 2.01337878e-03 7.43894314e-04 2.55704555e-03
      2.99193244e-03 3.66198295e-03 3.80341313e-03 2.34146742e-03
      1.45508931e-03 1.40816279e-04 1.35956204e-03 1.95126154e-03
      2.78641982e-03 3.95058468e-03 3.95002402e-03 -6.34033931e-03
      -9.31872707e-03 -5.55039197e-03 -6.43362664e-03 -7.82698672e-03
      4.25401784e-04 -9.14656674e-04 1.04045204e-03 -4.05915966e-03
      6.57230732e-04 -2.32579908e-03 -1.45884347e-03 -3.75374133e-04
      -2.24262313e-03 -8.90596071e-04 1.33656361e-03 1.04234950e-03
      9.52970237e-04 3.05057620e-03 2.49638967e-03 1.27545954e-03
      2.35911735e-04 1.46329170e-03 1.32832385e-03 1.85262272e-03
      2.43897364e-03 3.41596850e-03 3.02278134e-03 2.27903179e-03
      1.91047264e-03 5.17403008e-04 1.63408066e-03 7.37491471e-04
      2.23291945e-03 2.32376368e-03 3.66783142e-03 2.49948422e-03
      -7.43872544e-04 -1.43441104e-03 -8.91456788e-04 -1.71529886e-03
      8.72631208e-05 6.06849091e-04 2.18301243e-03 2.46880250e-03
