<?xml version="1.0"?>
<opencv_storage>
<my_svm type_id="opencv-ml-svm">
  <svm_type>C_SVC</svm_type>
  <kernel><type>LINEAR</type></kernel>
  <C>1.0000000000000001e-01</C>
  <term_criteria><epsilon>1.1920928955078125e-07</epsilon>
    <iterations>1000</iterations></term_criteria>
  <var_all>17640</var_all>
  <var_count>17640</var_count>
  <class_count>2</class_count>
  <class_labels type_id="opencv-matrix">
    <rows>1</rows>
    <cols>2</cols>
    <dt>i</dt>
    <data>
      -1 1</data></class_labels>
  <sv_total>1</sv_total>
  <support_vectors>
    <_>
      -1.34462724e-03 -1.91515149e-03 -2.50557438e-03 -2.55732192e-03
      -3.28907766e-03 6.05965208e-04 8.56720202e-04 -2.05136341e-04
      -1.39167369e-03 1.52581779e-03 1.16040069e-03 1.04466768e-03
      1.01232203e-03 -7.04677543e-04 6.59597339e-04 7.55766290e-04
      4.26717685e-04 1.26047689e-03 -7.78185553e-04 -2.08500796e-03
      -3.57183337e-04 -1.11992168e-03 -2.84910109e-03 2.49098375e-04
      8.20266607e-04 -1.83581040e-04 -1.70136814e-03 -6.86374842e-05
      -1.79407164e-03 1.27499702e-03 2.65609706e-03 2.23275926e-03
      7.95995235e-04 9.50117479e-04 -2.54432263e-04 -1.17020006e-03
      -6.74201365e-05 -5.71667857e-04 -1.09140819e-03 4.12229710e-04
      -4.54206206e-03 -3.74992560e-05 -2.91414646e-04 -3.70215246e-04
      -2.02705720e-04 2.54895468e-03 3.00480449e-03 1.77953218e-03
      1.21680007e-03 -8.50803044e-04 -4.95299348e-04 -2.90524302e-04
      9.10305880e-06 2.08480470e-03 -1.03964063e-03 -6.99234544e-04
      8.24547024e-04 1.92565902e-04 2.69127748e-04 9.87686450e-04
      1.23966939e-03 4.31086053e-04 -2.92050070e-04 -2.65490264e-04
      -6.52296643e-04 4.27381019e-05 1.60302955e-03 1.98907149e-03
      7.72333471e-04 1.55287620e-03 1.64799858e-03 -5.96746278e-04
      1.75797136e-03 1.57564227e-03 -1.01719960e-03 8.83636938e-04
      -2.59519380e-04 -5.29117882e-04 -7.99956033e-05 -8.08299956e-05
      1.10079732e-03 2.84466572e-04 1.47023099e-03 1.15431251e-03
      1.14500802e-03 7.87415949e-04 5.44393668e-04 1.25895499e-03
      4.14498994e-04 5.64928458e-04 -2.08034515e-04 -1.39223144e-03
      1.07107931e-04 1.01853476e-03 2.06706533e-03 7.77287583e-04
      1.46548462e-03 1.53248559e-03 -1.07290037e-03 -1.13603865e-05
      -9.24070016e-04 1.01105007e-03 1.58357352e-03 4.00242023e-03
      1.13586162e-03 2.01455643e-03 1.97795476e-03 -4.19981021e-04
      2.38640839e-03 1.83463853e-03 1.50464335e-03 9.12216608e-04
      2.40270398e-03 1.30266347e-03 2.62187881e-04 1.14145153e-03
      2.69893301e-03 -1.13707990e-03 -2.45115906e-03 -3.78637080e-04
      -3.06608941e-04 -7.15086586e-04 -4.75432869e-04 -2.48084287e-03
      -1.45246659e-03 1.11329777e-04 -4.88418387e-04 -1.51135586e-03
      -5.28677017e-04 7.00283796e-04 2.49551050e-03 8.53504753e-04
      2.10664957e-03 1.40902039e-03 -4.80487564e-04 8.06428376e-04
      -1.88797899e-03 -1.49313430e-03 4.14912181e-04 1.32374477e-03
      9.44618951e-04 1.99816795e-03 1.13979692e-03 1.72554539e-03
      -1.37194106e-03 -1.75662222e-03 -1.67507841e-03 -1.25752075e-03
      1.65743564e-04 4.59642470e-05 -1.65414077e-03 7.13039888e-04
      8.85941845e-04 -2.39600753e-03 3.22523469e-04 -3.75930904e-05
      -1.03563827e-03 -1.39976051e-04 1.06939790e-03 -1.97893078e-03
      -7.41807627e-04 5.59501001e-04 9.95482202e-04 -1.31968630e-03
      -6.66833250e-04 3.14604185e-05 1.36627932e-03 1.60135829e-03
      2.29757745e-03 1.94901170e-03 2.51125731e-03 3.19985083e-05
      -7.34079629e-04 2.68073927e-04 2.81741697e-04 1.10278907e-03
      1.32838124e-03 1.28317508e-03 9.10100061e-04 5.09234378e-04
      -3.48442933e-03 -5.40598587e-04 5.49928518e-04 -2.46943557e-03
      -2.58058542e-03 8.80268053e-04 -7.16778042e-04 -6.80362980e-04
      -1.99747947e-03 -5.91608055e-04 1.94976025e-03 2.12812214e-03
      8.79747851e-04 1.76311762e-03 2.78782262e-03 1.92928978e-03
      3.11005540e-04 -6.98075339e-04 3.76760610e-04 -1.04508933e-03
      -3.87869251e-04 -9.14982156e-05 1.73222902e-03 1.17376714e-03
      9.95735289e-04 9.95672191e-04 8.83815461e-04 6.50752976e-04
      6.88076718e-04 5.59415377e-04 5.07629069e-04 2.36841990e-03
      1.75792573e-03 1.01349282e-03 4.47049417e-04 2.94058787e-04
      -2.97584641e-03 2.61050533e-04 6.43814332e-04 3.78178403e-04
      3.33691598e-04 2.38151639e-03 1.11567590e-03 1.18759740e-03
      -3.07663181e-03 -4.21168935e-03 -9.60043573e-04 -7.16619485e-04
      -4.29069391e-04 -2.46974290e-03 -2.15769326e-03 -2.87568173e-03
      -1.60783366e-03 -4.27039294e-03 3.09696654e-04 4.58690163e-04
      6.10116113e-04 4.79281240e-04 3.39974510e-03 2.80423020e-03
      2.48335931e-03 1.98410242e-03 9.93666588e-04 -3.55008931e-04
      2.55767925e-04 -1.37770679e-04 4.29495936e-04 3.35002289e-04
      -6.44253509e-04 1.37646112e-03 4.47975355e-04 -2.08558005e-04
      -2.06590266e-04 -2.68041203e-03 -1.49847462e-03 -1.39384158e-03
      -5.72495768e-03 1.60904630e-04 7.42024102e-04 2.05134289e-04
      -3.57116456e-04 -4.06956406e-06 -8.75829195e-04 1.24700577e-03
      1.83161406e-03 1.55490951e-03 1.01444439e-03 2.08796514e-03
      1.21097255e-03 5.86593349e-04 -7.07024301e-04 -1.97932241e-03
      -2.10145698e-03 -1.50190794e-03 -6.34242874e-03 1.04101177e-03
      1.43714971e-03 1.67444861e-03 7.65196979e-04 -3.18072620e-04
      7.04773702e-04 1.88162015e-03 1.68783928e-03 2.27116654e-03
      7.40732241e-04 1.17634307e-03 1.33039395e-03 2.90947879e-04
      1.28612306e-03 1.62771321e-04 3.13551980e-04 -5.45549010e-05
      -7.66868878e-04 9.19249258e-04 9.84860817e-04 -5.79576990e-05
      1.73802359e-03 -2.06452882e-04 -8.32656515e-04 7.12411247e-06
      1.26209823e-04 1.36220746e-03 9.68338398e-04 1.72876555e-03
      1.83691841e-03 -9.62123391e-04 -9.28470035e-05 5.84497873e-04
      2.08840077e-03 1.52517832e-03 2.92073586e-03 1.52135035e-03
      1.59892859e-03 1.31026749e-03 2.96532700e-04 5.71224024e-04
      7.03082536e-04 1.68714859e-03 1.01749203e-03 1.75683363e-03
      7.42050412e-04 1.03828299e-03 1.02004514e-03 1.27878191e-03
      9.67209577e-04 -7.27601757e-04 1.12927542e-03 1.75500521e-03
      2.70837313e-03 6.77618489e-04 1.35360251e-03 1.08286855e-03
      2.98673112e-04 -5.97120554e-04 -1.19423016e-03 7.67197227e-04
      1.32547691e-03 4.17505624e-03 1.07657537e-03 2.75953417e-03
      1.76925829e-03 -1.06789602e-03 3.07682145e-04 1.30324916e-03
      2.18912354e-03 1.90863165e-03 2.53216946e-03 7.90579303e-04
      1.28805044e-03 7.81363051e-04 6.79496967e-04 6.99490658e-04
      1.79145986e-03 2.63514905e-03 2.50670011e-03 3.07350000e-03
      3.29729170e-04 7.25124381e-04 2.87084084e-04 4.26699058e-04
      5.75728714e-04 -2.05012504e-03 -6.34813390e-04 2.12167972e-03
      4.53956844e-03 7.37319060e-04 2.03928002e-03 9.17665428e-04
      3.74780589e-04 5.30425517e-04 -2.92458921e-03 -1.52749754e-03
      5.17928740e-04 1.64086791e-03 1.03231578e-03 1.67734234e-03
      1.38778507e-03 1.94281572e-03 4.50055464e-04 1.13240024e-03
      1.86148437e-03 1.97495846e-03 3.74255376e-03 4.46880731e-04
      9.59102705e-04 3.22976237e-04 2.92809535e-04 4.24509461e-04
      5.36337087e-04 6.69143279e-04 4.79504524e-04 1.58995227e-03
      6.03821652e-04 9.97427618e-04 4.01375873e-04 4.84247954e-04
      3.74948897e-04 -5.05487807e-03 -5.11917192e-03 6.67639193e-04
      1.74951286e-03 1.54030113e-03 2.10981257e-03 1.10830844e-03
      2.04594457e-03 3.16305493e-04 -1.52677367e-03 1.41406927e-04
      3.47156427e-04 2.22657947e-03 2.20045215e-03 9.21084604e-04
      6.86189916e-04 1.17716985e-03 5.37260843e-04 4.85320517e-04
      5.41744404e-04 3.31157848e-04 1.61321473e-03 8.98638857e-04
      1.06505398e-03 4.10588342e-04 5.00924652e-04 8.05112766e-04
      3.05141555e-04 4.59010014e-04 2.65700015e-04 1.77486241e-03
      5.82842506e-04 7.95198488e-04 4.96582536e-04 8.68607603e-04
      -4.67323186e-03 -1.03777891e-03 5.13197680e-04 3.83177685e-04
      2.12814240e-03 4.92770458e-04 6.14989200e-04 1.51244021e-04
      -3.30737187e-03 -2.95725162e-03 3.99379845e-04 2.02059484e-04
      4.08346532e-04 2.81451503e-03 2.74807215e-03 1.78245991e-03
      1.12800230e-03 -1.83760165e-03 9.17045982e-04 4.22049721e-04
      3.42334999e-04 1.18822398e-04 1.49217376e-03 3.11394397e-04
      4.64505778e-04 4.04696941e-04 9.03354608e-04 -4.45303653e-04
      9.57909215e-04 1.35636411e-03 5.46040188e-04 3.85886105e-03
      1.46373617e-03 2.01217295e-03 1.53308141e-03 -8.15659951e-05
      -8.52837344e-04 4.43131343e-04 3.51579045e-04 2.96465878e-04
      2.44273013e-03 1.74042187e-03 2.52982858e-03 1.61807099e-03
      -6.95678813e-04 -2.00479780e-03 4.55277448e-04 1.45034312e-04
      -4.29199681e-05 -1.47603208e-03 -7.92396779e-04 1.20541270e-04
      2.07878882e-04 -1.38058234e-03 1.41022855e-03 -5.63401190e-05
      6.35131786e-04 -4.97515321e-05 2.60328362e-03 1.63816230e-03
      2.43412331e-03 1.89331768e-03 2.07875320e-03 -2.14107777e-03
      -3.54622444e-03 -3.72754200e-03 -4.67558345e-03 -2.78732134e-03
      2.11817934e-03 2.90702377e-03 2.40845699e-03 -1.27546059e-03
      -1.42293784e-05 -1.04984851e-03 -2.31503230e-03 -2.57017091e-03
      -7.80725107e-03 5.30602352e-04 9.42222308e-04 1.58394012e-03
      -3.58667239e-05 8.99549224e-04 6.14256598e-04 1.40561583e-03
      1.17574714e-03 1.28366693e-03 5.73560770e-04 8.53628211e-04
      1.38027943e-03 1.44225219e-03 1.98333315e-03 -2.84919981e-04
      -1.06971932e-03 -2.38835905e-03 -6.72065979e-03 1.16850017e-03
      1.19742379e-03 1.77246367e-03 2.20495113e-03 3.29902908e-03
      3.66063928e-03 4.51269373e-03 2.34065298e-03 2.80300877e-03
      1.09061063e-03 1.32842455e-03 1.09844306e-03 2.86400458e-03
      -1.05972969e-04 5.41227579e-04 1.91476697e-03 2.63185543e-03
      4.71716048e-03 5.60266490e-04 1.03376328e-03 1.29023113e-03
      -4.50208288e-04 1.15825608e-03 2.47580186e-03 2.65915575e-03
      1.11312419e-03 1.70303730e-03 9.27564339e-04 1.10702007e-03
      1.18978648e-03 5.60643093e-04 2.84641422e-03 3.17770359e-03
      3.86868860e-03 2.20754324e-03 4.22653928e-03 8.79584579e-04
      1.17056223e-03 9.20647290e-04 2.17264774e-03 2.71279481e-03
      3.01970728e-03 3.03401542e-03 1.68523553e-03 2.19664793e-03
      4.62875527e-04 4.80776653e-04 4.66106314e-04 2.20022374e-03
      -6.69856614e-04 3.65229626e-03 3.60952877e-03 2.63061048e-03
      3.25151416e-03 1.17711059e-03 1.01655896e-03 7.58222013e-04
      -1.47875620e-03 1.49732409e-03 2.03962065e-03 2.30609649e-03
      1.75825856e-03 2.39338679e-03 1.83588490e-04 3.54171236e-04
      2.85188231e-04 1.08334888e-03 2.15984276e-03 2.41701072e-03
      2.14658421e-03 1.52547716e-03 2.50736275e-03 1.31656858e-03
      6.96492847e-04 4.37165058e-04 2.08328292e-03 9.21486295e-04
      9.91068082e-04 9.61183454e-04 4.87530109e-04 8.72799545e-04
      1.01925667e-04 1.98331240e-04 1.32026020e-04 6.70893060e-04
      1.72904553e-03 2.04731128e-03 3.15591367e-03 3.60853458e-03
      4.70710453e-03 2.40641442e-04 4.24489059e-04 3.17032944e-04
      1.35894713e-03 4.74511937e-04 3.31836753e-04 8.27049545e-04
      8.23442591e-04 1.68712868e-03 3.54995689e-04 7.84963719e-04
      5.23640832e-04 5.56364597e-04 6.34665368e-04 7.25421356e-04
      9.74883616e-04 5.72254125e-04 1.12348958e-03 1.73498673e-04
      2.43118237e-04 1.23142076e-04 3.96898395e-04 1.42942462e-03
      1.41126890e-04 7.58109614e-04 1.07620563e-03 1.40651048e-03
      5.29924582e-04 2.90754251e-04 1.33862806e-04 1.27345987e-03
      1.08215550e-03 8.19079229e-04 5.03329793e-04 5.17162727e-04
      1.84973388e-03 2.13817621e-04 4.74451925e-04 2.92285637e-04
      1.07021863e-03 1.98219158e-03 3.80007055e-04 7.31186359e-04
      3.88297194e-04 1.28392468e-03 1.80167975e-04 2.04991651e-04
      2.34271822e-04 2.00711051e-03 9.55306110e-04 1.29571214e-04
      4.98538197e-04 5.51430159e-04 1.07235776e-03 4.22243902e-04
      2.53667502e-04 1.17213211e-04 9.92398942e-04 1.63511781e-03
      -2.05322518e-03 -2.15720129e-03 -1.69101125e-03 5.88436495e-04
      1.76543035e-04 1.02325357e-04 1.18907708e-04 1.30813930e-03
      6.06563641e-04 3.32891737e-04 4.27329913e-04 1.74070883e-04
      7.44716264e-04 1.33152629e-04 1.99205053e-04 1.76886446e-04
      6.29800139e-04 6.08117436e-04 -7.83309981e-04 -3.77512595e-04
      1.42016550e-04 3.50951613e-03 2.29709595e-03 2.70154001e-03
      2.02333671e-03 1.45595917e-03 1.41354598e-04 -5.01664821e-04
      -1.47927296e-03 -1.00432860e-03 -9.29546601e-04 1.07158026e-04
      1.64152618e-04 1.06490952e-04 3.37297912e-04 -2.35110312e-03
      -6.09088782e-03 -3.26518086e-03 -2.06399849e-03 2.29970994e-03
      9.80606303e-04 1.12403999e-03 4.04497841e-04 -1.22484390e-03
      -1.54651279e-04 -1.46743166e-03 -7.19286443e-04 4.33105424e-06
      2.65743071e-03 1.11033116e-03 1.98504585e-03 1.35365513e-03
      6.70544745e-04 -2.16051179e-04 -2.59131542e-03 -1.12040807e-03
      -2.30152300e-03 4.35073860e-04 2.00154097e-03 3.34373442e-03
      2.38730852e-03 9.59313184e-04 -1.57409254e-03 -2.77585210e-03
      -1.84745644e-03 -5.56366751e-04 1.77354412e-03 8.54730315e-04
      1.09921605e-03 4.86084464e-04 -1.72343734e-03 -2.48234905e-03
      -8.16241663e-04 -3.07924842e-04 -4.44919860e-04 -7.29476687e-06
      -5.40547408e-05 1.05177262e-03 8.73731333e-04 -2.15438404e-03
      -9.56835866e-05 -2.05592019e-03 -1.77282596e-03 -2.46885046e-03
      -2.09534517e-03 3.92738875e-04 1.25337287e-03 1.75199867e-03
      -4.00001227e-05 2.66098208e-03 2.45308736e-03 3.48108448e-03
      1.50956772e-03 2.73715006e-03 1.13875465e-03 1.50344265e-03
      1.59914210e-03 2.59570894e-03 -3.55833303e-03 3.51482711e-04
      1.38099131e-03 -2.26208172e-03 -5.07036177e-03 -2.09717639e-03
      -1.78793736e-03 -6.86866173e-04 -3.36460909e-03 3.76298605e-03
      3.32636712e-03 3.80435702e-03 1.64299877e-03 3.41490144e-03
      1.15566165e-03 1.93434977e-03 2.07311823e-03 3.56442388e-03
      2.99949921e-03 2.76577356e-03 3.12447059e-03 1.82884245e-03
      5.96391549e-03 1.08662539e-03 1.47895387e-03 1.34970376e-03
      2.57723872e-03 1.51223934e-03 1.99592672e-03 1.99533231e-03
      1.12571300e-03 1.75137783e-03 6.37667894e-04 5.05449367e-04
      4.37347888e-04 1.21696584e-03 3.22424714e-03 3.02937836e-03
      3.00562941e-03 1.62368221e-03 6.02795416e-03 2.22488306e-03
      2.88350740e-03 2.67187064e-03 3.20456550e-03 2.31466047e-03
      1.99400354e-03 1.84394966e-03 1.04624673e-03 2.60487874e-03
      1.11454527e-03 1.62363192e-03 1.76374416e-03 2.47040438e-03
      2.23442120e-03 2.04407377e-03 2.26886687e-03 2.17592344e-03
      3.28217330e-03 1.08186051e-03 5.00934548e-04 3.75212432e-04
      1.56172807e-03 8.15214473e-04 5.04359021e-04 5.77565632e-04
      1.98751251e-04 5.43798320e-04 8.94705372e-05 1.03574748e-04
      7.15474962e-05 6.13144308e-04 2.90403445e-03 1.63176726e-03
      1.71228056e-03 1.12919684e-03 4.83288057e-03 2.06488324e-03
      2.39349995e-03 2.02656770e-03 3.27354530e-03 1.57931435e-03
      6.75351592e-04 7.99303234e-04 4.41778655e-04 1.12587714e-03
      2.51364982e-04 3.26591980e-04 3.02214467e-04 1.69376540e-03
      1.04964175e-03 6.89089298e-04 9.61270300e-04 5.37456945e-04
      1.35964411e-03 1.51787681e-04 1.69704115e-04 1.29597145e-04
      8.68421688e-04 5.49702905e-04 2.06467681e-04 6.40405924e-04
      9.21110739e-04 1.60318590e-03 1.00255234e-03 6.22507825e-04
      5.77138504e-04 1.00329670e-03 1.31796603e-03 6.12869451e-04
      8.62899004e-04 4.58630151e-04 1.04386045e-03 6.85652660e-04
      5.86672046e-04 4.65421355e-04 1.42008753e-03 -1.33554902e-04
      -5.31816331e-04 -1.24698784e-03 -1.79636036e-03 -4.69724368e-03
      5.18574147e-04 5.76248916e-04 5.79736661e-04 2.07034114e-04
      5.75256941e-04 1.47127837e-04 3.53243056e-04 4.28542931e-04
      1.07713917e-03 5.20787260e-04 3.89061228e-04 4.38816176e-04
      7.14886410e-04 3.45682289e-04 -2.80055392e-04 -1.12213672e-03
      -1.88204125e-04 5.16832457e-04 5.11933293e-04 4.54541499e-04
      5.39837289e-04 3.74428957e-04 6.29717484e-04 -4.08576481e-04
      -1.78533420e-03 -7.23292062e-04 -7.31064472e-04 2.52738944e-04
      5.81405533e-04 2.95440143e-04 6.53527852e-04 -2.66502681e-03
      -9.50868800e-03 -7.77145755e-03 -2.54119700e-03 -5.43784956e-03
      6.67212647e-04 -1.27443172e-05 -5.88388793e-05 -1.61820254e-03
      1.80619958e-04 -1.99733026e-04 -8.98810395e-04 -7.14759983e-04
      -1.21369353e-03 1.09360750e-04 2.56100670e-04 2.23904746e-04
      2.89707037e-04 -7.51446583e-04 -3.70778656e-03 -3.18352180e-03
      -3.25157563e-03 -2.50540837e-03 6.10827119e-04 6.68663532e-04
      5.62502712e-04 -5.96177473e-04 -9.58336459e-04 -2.66982010e-03
      -2.81449733e-03 -1.52353547e-03 -2.68698740e-03 1.00859797e-04
      2.97851715e-04 2.82113760e-04 -1.06172089e-03 -1.19268650e-03
      -4.22377168e-04 -2.34633265e-03 -1.42036402e-03 -5.75805141e-04
      -1.24629668e-03 -6.37762714e-04 -2.93031684e-04 -1.72435469e-03
      -1.08979526e-03 -3.42456880e-03 -2.23161490e-03 -2.41193548e-03
      -1.08294445e-03 6.60992111e-04 3.90497240e-04 3.87316395e-04
      -1.36176636e-03 -3.73243325e-04 -1.26564200e-03 -3.92668240e-04
      7.17699295e-04 2.36714305e-03 -4.88836231e-05 4.87689773e-04
      3.85893763e-05 -9.20384948e-04 -1.16154493e-03 1.20196870e-04
      4.15890318e-05 -1.03997381e-03 -1.47093856e-03 -9.94562637e-04
      -1.65026740e-03 -7.91152357e-04 -1.78785995e-03 6.82080572e-05
      1.59070955e-03 2.64956290e-03 1.84811291e-03 3.99598293e-03
      1.02662516e-03 5.17650682e-04 4.10154753e-04 -5.54052240e-04
      1.28528813e-03 8.43028014e-04 1.78241206e-03 3.53374817e-05
      1.95898884e-03 -6.49092428e-04 -1.63958222e-03 -1.38980395e-03
      8.67982861e-04 3.38174915e-03 3.07538803e-03 2.98635825e-03
      1.39508781e-03 3.11700231e-03 1.10292260e-03 1.68658886e-03
      1.50282553e-03 2.67130299e-03 -1.00938301e-03 2.33123521e-03
      2.45412299e-03 1.72091462e-03 2.62950128e-03 -4.53203591e-03
      -7.32093351e-03 -9.59156547e-03 -4.83376859e-03 -1.17991725e-03
      2.15147110e-03 2.08304008e-03 1.57958129e-03 2.98194727e-03
      -1.12539402e-03 -6.15283102e-03 -5.07912086e-03 -2.63921125e-03
      2.91667599e-03 3.37396236e-03 3.17784795e-03 1.82396523e-03
      3.61373764e-03 1.10839424e-03 2.02001818e-03 1.82008988e-03
      2.45295023e-03 1.73421868e-03 1.84175698e-03 2.04050145e-03
      1.09011133e-03 2.79416726e-03 1.18520483e-03 1.66970049e-03
      1.52237213e-03 2.05777423e-03 -3.13870562e-03 1.02781679e-03
      8.33553204e-04 1.30938122e-03 -6.55019935e-03 -4.71138209e-03
      -1.08302329e-02 -9.82875098e-03 -4.35821898e-03 8.37329659e-04
      2.12126411e-03 2.27512000e-03 1.54908583e-03 2.43950845e-03
      6.47441542e-04 5.05645294e-04 -3.06451766e-05 4.33896988e-04
      1.53275987e-03 1.54406903e-03 1.78905309e-03 1.30760460e-03
      3.35846283e-03 1.29720115e-03 1.85760343e-03 9.91384499e-04
      1.91369338e-03 1.01944944e-03 9.21274535e-04 8.63843947e-04
      5.93195728e-04 1.41871965e-03 3.74522933e-04 3.75595002e-04
      2.44201481e-04 8.92792246e-04 1.23493408e-03 2.18464667e-03
      2.51971371e-03 1.95947150e-03 3.55839031e-03 1.09726342e-03
      4.36784321e-04 1.76554182e-04 5.82518172e-04 2.28917855e-03
      1.16125226e-03 1.25614565e-03 1.50651415e-03 -2.19866005e-03
      1.10173994e-03 1.21561263e-03 1.30052248e-03 2.16189912e-03
      1.05403911e-03 6.50053145e-04 6.16101606e-04 5.33049402e-04
      1.03269692e-03 3.61574843e-04 4.18177777e-04 2.75480823e-04
      1.02635869e-03 8.88876908e-04 -1.90790743e-04 -1.82137778e-03
      -2.48070981e-04 3.13114724e-04 1.22751066e-04 5.72588469e-04
      7.17241375e-04 1.15663116e-03 2.31603626e-03 3.45240551e-04
      4.84115299e-04 8.37546133e-04 1.83539395e-03 5.73885103e-04
      1.41121878e-03 1.10354053e-03 2.50222883e-03 -1.78449636e-03
      -3.56359500e-03 -4.21243766e-03 -3.15034157e-03 7.53340428e-04
      7.07782747e-04 7.60525814e-04 9.02058673e-04 6.99100317e-04
      4.58792318e-04 -3.93488270e-04 -1.96921919e-03 -9.85459541e-04
      -1.17794564e-03 1.03622646e-04 5.83715679e-04 4.12193156e-04
      8.41119909e-04 1.97790010e-04 -2.60872301e-03 -3.32485000e-03
      -1.41943514e-03 -2.00831634e-03 2.62498885e-04 7.01698416e-04
      2.98516621e-04 6.65788422e-04 1.11066410e-03 -2.19307770e-03
      -3.06449505e-03 -2.02014833e-03 -2.77277897e-04 3.27284448e-04
      1.01210293e-03 1.20079773e-03 2.28891638e-03 -2.14153039e-03
      -8.25969689e-03 -7.38185970e-03 -4.98501118e-03 -2.50888825e-03
      1.01206428e-03 2.03845557e-03 1.43250020e-03 8.63800989e-04
      -3.71983013e-04 -4.29044338e-03 -4.26686648e-03 -2.30651931e-03
      -3.97849735e-03 -1.48311283e-05 1.66622413e-04 -1.31314955e-04
      -6.82692567e-04 -6.76615222e-04 -2.78221676e-03 -2.09675683e-03
      -4.13934962e-04 -1.49726484e-03 -9.27330344e-04 -1.16911030e-03
      -6.79388235e-04 -8.73858691e-04 2.60185188e-04 -4.48800204e-03
      -4.24775248e-03 -1.66848884e-03 -2.15201406e-03 7.24534679e-04
      1.10450317e-03 6.91369001e-04 8.80966953e-04 1.20460463e-03
      -1.16256869e-03 -3.82543876e-05 1.56567944e-03 7.71166931e-04
      4.30692860e-04 1.64733545e-04 -3.24155961e-04 2.83908332e-04
      7.07099098e-04 -9.10131552e-04 -4.50184289e-03 -1.84868625e-03
      -2.31904839e-03 -1.87744782e-03 -1.31738558e-03 -6.97033829e-04
      1.43483383e-04 -1.21257828e-04 9.05478082e-04 2.01313035e-03
      1.10111490e-03 2.48432765e-03 9.14620468e-04 2.60945002e-04
      1.69639316e-04 -5.48101962e-04 -7.32961867e-04 -9.10315255e-04
      1.39244163e-04 5.39596658e-04 -6.26370020e-04 2.69540062e-04
      -3.87088949e-04 -7.22977275e-04 -8.49851232e-04 -2.17146124e-04
      6.74775802e-04 1.19085913e-03 1.34438311e-03 2.75227265e-03
      7.56808615e-04 -7.24104830e-05 -4.65568184e-04 -3.40474944e-04
      -4.08483582e-04 2.64326180e-03 2.94439332e-03 1.91355182e-03
      4.15455550e-03 -2.49989284e-03 -5.18875429e-03 -5.80812851e-03
      -1.79256534e-03 -1.28813868e-03 1.64518575e-03 1.75395771e-03
      1.19066588e-03 7.25888065e-04 -2.45068106e-03 -4.68502706e-03
      -3.94119462e-03 -1.91856432e-03 -1.24349754e-04 1.44854002e-03
      1.75068679e-03 1.25882914e-03 3.42323794e-03 -1.15881346e-06
      -1.69360382e-03 -5.29689773e-04 5.43297967e-04 -2.46408023e-03
      1.56862327e-04 -5.01650793e-04 -8.23575829e-04 -1.71067764e-03
      -1.95871480e-03 -2.51427945e-03 -3.49368318e-03 -1.95026072e-03
      -1.24599889e-03 1.62956095e-03 1.38378993e-03 8.03058792e-04
      -2.81915208e-03 -2.59911828e-03 -3.33702471e-03 -2.36650789e-03
      -2.12294818e-03 1.57486391e-03 2.07118806e-03 2.61087739e-03
      1.35036686e-03 2.14116438e-03 2.76834209e-04 7.39294570e-04
      5.25843934e-04 1.53429422e-03 -2.71516945e-03 -4.22077160e-03
      -2.66789040e-03 -2.16301531e-03 -7.84954755e-05 -8.47077055e-04
      9.91121982e-04 -2.95412238e-03 -2.66256486e-03 -1.46444887e-03
      -1.98189309e-03 -1.94783803e-04 1.53200922e-03 1.16288837e-03
      8.66193615e-04 1.16311666e-03 -1.34512014e-03 -1.58514874e-03
      1.70347502e-03 1.97186368e-03 2.50269100e-03 1.76909834e-03
      2.30179168e-03 8.00033831e-07 6.81956299e-04 2.68838339e-04
      1.75464805e-03 1.06806238e-03 6.72330789e-04 5.88631257e-04
      8.85307963e-04 2.13517062e-03 7.91104510e-04 8.48395401e-04
      8.79930973e-04 1.15358119e-03 -1.52889127e-03 -3.21703288e-03
      -2.95712100e-03 -1.33415509e-03 1.24985422e-03 -2.57391774e-04
      9.76840500e-04 -1.85013912e-03 -9.03634762e-04 -5.44042746e-03
      -6.38818741e-03 -5.15513681e-03 -4.72510327e-03 -1.93921232e-03
      -4.32329369e-04 1.53412853e-04 -6.84038023e-05 -3.52870882e-03
      2.77661456e-04 -4.22336045e-04 -3.54839256e-04 -1.57111470e-04
      1.02527626e-03 4.83919954e-04 5.81695174e-04 8.16224085e-04
      8.30565812e-04 -8.17625492e-04 -3.06780613e-03 -2.63081049e-03
      -1.33416138e-03 1.84521894e-03 4.55825299e-04 5.47691598e-04
      7.06703577e-04 6.76166674e-04 -1.72571698e-03 -2.90473411e-03
      -5.05744480e-03 -3.59443598e-03 -4.66545764e-03 -1.07680797e-03
      -1.33672915e-03 1.47855573e-03 -2.32878025e-04 -1.76626828e-03
      -4.99336934e-03 -3.95917101e-03 3.69342131e-04 4.70832776e-04
      6.51869515e-04 1.05694123e-03 8.84125533e-04 -8.87157221e-04
      -1.18481636e-03 -4.33517527e-03 -3.94289754e-03 -3.40474304e-03
      -1.39012246e-03 2.36089254e-04 7.94879976e-04 1.02148682e-03
      1.34945184e-03 -8.41133588e-04 -5.12112211e-03 -5.22038387e-03
      -2.86699715e-03 -1.42098928e-03 -6.70779264e-04 3.97906115e-04
      4.82380536e-04 1.49032637e-03 -6.17296901e-05 -2.69841263e-03
      -1.80874194e-03 -1.14115921e-03 -4.21834498e-04 5.24516741e-04
      8.14025407e-04 8.48990283e-04 9.76736541e-04 2.74401857e-03
      -1.21782161e-03 -4.15395916e-04 -3.87226726e-04 1.20993856e-04
      -1.86237623e-03 -1.03934144e-03 -8.57972598e-04 2.70239078e-03
      -2.18951167e-03 -6.61824504e-03 -5.44466311e-03 -3.49454791e-03
      -7.52774905e-03 -2.03307762e-04 3.65705491e-04 1.98119160e-04
      -7.45121943e-05 -9.44015774e-05 -1.44460122e-03 2.66153511e-04
      8.80834588e-04 2.37228675e-03 2.43845192e-04 3.48800735e-04
      1.01742800e-04 8.20066998e-05 2.23335973e-03 -1.51413586e-03
      -6.83055492e-04 -7.67099846e-04 -3.38218466e-04 -1.14394247e-03
      -3.13384488e-04 -4.81259689e-04 1.93321216e-03 1.48258603e-03
      1.24191691e-03 2.97832745e-03 1.92481908e-03 3.36600235e-03
      5.59351058e-04 1.68133946e-03 1.16612751e-03 1.12251006e-03
      -2.58231745e-03 -1.80870469e-03 -1.17414718e-04 -1.39794685e-03
      4.33684239e-04 5.46882220e-04 -4.34760790e-04 -8.44255846e-04
      -3.57673649e-04 -8.07719480e-04 1.63868754e-04 5.77237050e-04
      9.97641589e-04 3.18916491e-03 9.43976687e-04 4.79600167e-05
      -4.52288601e-04 -8.69146432e-04 1.12911325e-03 9.44885483e-04
      2.16967613e-03 1.69370975e-03 3.85934021e-03 7.97322253e-04
      1.06842536e-03 7.55309768e-04 8.02199065e-04 1.98164093e-03
      1.58974621e-03 1.78851769e-03 1.28981273e-03 3.91541980e-03
      1.04491063e-03 1.13091175e-03 8.75024823e-04 1.72032602e-03
      7.43711658e-04 2.79302913e-04 5.17639739e-04 -3.71422968e-04
      -7.30960688e-04 1.16349827e-03 3.27022281e-03 1.14200183e-03
      1.72024022e-03 -1.83318974e-03 -2.93964613e-03 -3.09535256e-03
      -2.33961968e-03 -4.08571400e-03 -6.22710912e-04 1.60487310e-04
      -1.60392607e-03 2.38660854e-04 1.45468011e-03 -2.06030836e-05
      -7.16116774e-05 -7.99184199e-04 -1.49938371e-03 1.16783835e-03
      2.98741250e-03 1.50885968e-03 2.07547913e-03 2.67137686e-04
      -1.57295587e-03 -1.64555514e-03 -1.63450115e-03 -2.17489735e-03
      2.18584653e-04 1.40803400e-03 -7.63118849e-04 1.73764070e-03
      -2.93210591e-03 -4.45341691e-03 -3.34671233e-03 -2.11013271e-03
      -2.17230129e-03 5.94637706e-04 2.41059158e-03 -6.32393989e-04
      -9.77348536e-04 -1.51501293e-03 -2.05363682e-03 -1.59767317e-03
      -1.72575565e-05 1.68165204e-03 1.67908834e-03 2.36033951e-03
      1.43624464e-04 -9.24456690e-04 -8.92307551e-04 -2.36031506e-03
      -1.93026615e-03 -4.92903811e-04 -1.11589883e-03 1.82899192e-03
      2.46466254e-03 1.45990425e-03 1.42099569e-03 -6.98962773e-04
      -4.08585882e-03 -4.14566649e-03 -2.30892794e-03 -4.80275630e-04
      1.79495534e-03 3.56965396e-03 2.64321105e-03 2.07641837e-03
      -2.27964926e-03 -2.89429096e-03 -2.91950279e-03 -1.16616965e-03
      1.16378977e-03 6.23317435e-04 1.37764344e-03 -4.69524548e-06
      -8.52729892e-04 -2.83047487e-03 -4.49798210e-03 -4.16558562e-03
      -1.90103857e-03 1.11878850e-03 5.29761019e-04 1.16592727e-03
      1.13692519e-03 -2.29888959e-04 -1.49584390e-04 -5.63840382e-03
      -5.17718866e-03 -2.85808789e-03 1.97817525e-03 1.38546736e-03
      2.67538126e-03 3.83292208e-03 3.83597030e-03 -2.51497142e-03
      -4.17347346e-03 -3.97054572e-03 -1.45636906e-04 3.68749676e-03
      8.73121258e-04 2.14270689e-03 3.01009277e-03 1.28909375e-03
      -2.69300304e-03 -4.52458067e-03 -3.26172705e-03 -2.22345837e-03
      9.11087613e-04 6.53919531e-04 1.24799868e-03 1.37358462e-03
      1.98408816e-04 -6.94159302e-04 -4.66211187e-03 -3.27671389e-03
      -8.52987578e-04 1.23253244e-03 8.38967913e-04 1.30910845e-03
      1.16925116e-03 9.41046572e-04 -1.76569098e-03 -5.93123399e-03
      -5.50220581e-03 1.06558506e-03 3.68183968e-03 1.45821297e-03
      2.86142435e-03 2.71265744e-03 2.02690926e-03 4.43568599e-04
      -2.47759512e-03 -1.20224454e-03 1.77911716e-03 3.69940326e-03
      1.44772220e-03 2.08274066e-03 1.79947261e-03 2.51318747e-03
      -3.33354599e-03 -5.59879001e-03 -6.08450267e-03 -4.60316148e-03
      -1.61984120e-03 8.44573835e-04 9.83718201e-04 8.20118759e-04
      -1.41970604e-03 7.15934497e-04 -1.37823354e-03 -3.07886919e-04
      1.73661116e-04 2.02560611e-03 2.74843333e-04 6.09582348e-04
      4.60952753e-04 6.27274741e-04 9.18433303e-04 -1.50014460e-03
      3.29499366e-04 1.24580075e-03 2.55185040e-03 1.48670212e-03
      1.62988261e-03 1.45055586e-03 1.78491068e-03 1.32261019e-03
      3.93711380e-04 1.15769764e-03 1.79790985e-03 3.36761982e-03
      1.14984170e-03 1.53702230e-03 1.29784597e-03 1.89007819e-03
      2.58312770e-03 -2.87660700e-03 -2.03937036e-03 -1.46081881e-03
      -1.38281262e-03 -1.46948081e-03 -4.60328534e-04 9.46657165e-05
      1.45695021e-03 2.86428002e-03 1.41336175e-03 1.85295928e-03
      1.05742062e-03 2.36011553e-03 5.51945646e-04 1.74459280e-03
      2.09170720e-03 2.25271354e-03 2.35112081e-03 -5.79277345e-04
      -4.47662169e-05 1.19340501e-03 2.48463964e-03 8.54755344e-04
      1.55118934e-03 1.67545851e-03 1.98385399e-03 2.14267569e-03
      2.05983547e-03 2.35646171e-03 1.23971363e-03 3.18176299e-03
      9.63408151e-04 1.25654973e-03 1.34372525e-03 1.95704517e-03
      1.76220271e-03 2.02953559e-03 2.76399823e-03 2.73878500e-03
      6.02534786e-03 6.28266076e-04 1.33424823e-03 9.31219722e-04
      1.11488102e-03 2.58247252e-04 1.75484293e-03 1.82040571e-03
      1.18844071e-03 2.71643768e-03 9.04406828e-04 1.05988653e-03
      9.45468608e-04 -1.53904737e-04 1.48149312e-03 1.32201496e-03
      2.18876521e-03 1.38674560e-03 3.92229808e-03 1.10770902e-03
      1.27033959e-03 1.10046519e-03 1.58440298e-03 1.39210606e-03
      1.75369449e-03 2.04189750e-03 1.43506331e-03 1.98684679e-03
      2.64134142e-04 4.17686009e-04 4.37399722e-04 1.13909831e-03
      -1.77077297e-03 -2.57173576e-03 -3.74078355e-03 -3.20678856e-03
      -4.11527045e-03 5.47134317e-04 8.78396677e-04 4.48320730e-04
      -7.00942706e-04 1.30718958e-03 -5.01176633e-04 -1.25806371e-03
      -8.47472285e-04 -1.46760070e-03 9.20895953e-04 1.28359545e-03
      1.31560769e-03 1.33499410e-03 -2.12223991e-03 -4.55722678e-03
      -5.69823617e-03 -2.66666268e-03 -1.78867311e-03 -5.44698123e-05
      3.75619158e-04 4.88082762e-04 -1.13719795e-03 1.54510446e-04
      -4.28876694e-04 -1.18272868e-03 2.37585092e-03 1.64436956e-03
      9.12312302e-04 1.82975736e-03 2.07498809e-03 -5.52243961e-04
      -1.87171984e-03 -3.95986903e-03 -4.17478895e-03 -1.83177483e-03
      -5.49124368e-03 2.76386883e-04 7.92631588e-04 9.33832314e-04
      7.74051703e-04 2.45687057e-04 -6.49739988e-04 1.85498007e-04
      2.42990049e-04 -1.04782148e-03 -8.81535816e-04 2.42201859e-04
      6.93636830e-04 5.99961204e-04 7.26226717e-04 4.17794727e-05
      -3.87442095e-04 1.49332825e-03 1.62606360e-03 5.60321729e-04
      1.29418273e-03 1.45816593e-03 2.20547547e-04 1.75295013e-03
      1.31715462e-03 1.02667511e-03 1.81727519e-03 2.39495817e-03
      6.26873225e-04 1.77598966e-03 1.78933260e-03 1.48517184e-03
      5.83378773e-04 2.17378279e-03 1.75484875e-03 1.51832937e-04
      -1.05784496e-03 -6.05595822e-04 6.02898770e-04 8.77186249e-04
      2.92864948e-04 -4.06985957e-04 1.74394134e-03 1.34543551e-03
      8.75210564e-04 -2.16029678e-03 -2.90021696e-03 1.58943050e-03
      -2.12501409e-03 -2.74152658e-03 5.87183342e-04 1.02372281e-03
      1.63585588e-03 8.43740767e-04 1.64351636e-03 7.02090329e-04
      1.95555878e-03 2.02225475e-03 1.47006358e-04 5.60813991e-04
      1.59018848e-03 1.75325072e-03 1.52954319e-03 3.14955483e-03
      1.45278883e-03 2.95456103e-03 1.22896908e-03 -1.47618208e-04
      4.18876043e-05 1.86924386e-04 4.00450983e-04 7.55983638e-04
      4.25269362e-04 -4.64166333e-05 5.23564406e-04 -1.13316183e-03
      1.46371502e-04 -2.17489293e-03 -2.21793051e-03 -2.15411279e-03
      -8.08158191e-04 -8.09111341e-04 -1.27601565e-03 -2.42710812e-03
      -2.09036656e-03 -1.89610058e-03 1.68836006e-04 2.89467571e-04
      1.48356229e-03 9.22750100e-04 2.24917475e-03 1.28412794e-03
      2.33674003e-03 6.33559248e-04 -1.78361894e-04 1.85953759e-05
      5.21235517e-04 2.23076716e-03 1.38790568e-03 2.58687278e-03
      8.77708721e-04 1.94266345e-03 1.39385846e-03 1.13888667e-03
      -2.91996100e-03 -3.10019823e-03 -3.60772642e-03 -1.78727705e-03
      3.89113789e-04 -5.99328559e-05 3.78450350e-04 7.30201486e-04
      -1.38426863e-03 -2.52676033e-03 -3.07055976e-04 -1.59868432e-04
      -1.18099328e-03 5.17132539e-05 2.32756342e-04 4.78967122e-04
      9.16800229e-04 -1.15888193e-04 7.84531992e-04 5.90104668e-04
      1.42855756e-03 4.19225369e-04 2.07759137e-03 1.07748061e-03
      2.53663096e-03 2.39350018e-03 2.19875341e-03 2.04406097e-03
      1.65933347e-03 1.74593739e-03 7.09310116e-04 9.98446136e-04
      5.52943326e-04 1.86574878e-03 1.71449117e-03 2.10665585e-03
      -4.44263313e-03 -1.47249352e-03 1.49920909e-03 -2.50776880e-04
      -3.21020605e-03 9.00166342e-04 3.29360133e-04 5.62072848e-04
      -3.02450615e-03 3.84428102e-04 3.62749817e-03 2.95602693e-03
      7.51438609e-04 1.93314138e-03 1.86391361e-03 -2.25923737e-04
      -2.86884519e-04 5.41582587e-04 1.56338618e-03 1.27194030e-03
      1.20631594e-03 5.65001799e-04 1.42496091e-03 9.01508902e-04
      2.02941988e-03 1.77878549e-03 1.81023567e-03 2.51571881e-04
      4.79352660e-04 6.52581453e-04 1.91473300e-04 8.43136746e-04
      7.95026368e-04 5.46778436e-04 7.86592660e-04 -1.77458074e-04
      -3.50597053e-04 1.28213502e-03 1.24277500e-03 3.67345725e-04
      2.30622664e-03 2.47288612e-03 7.75218126e-04 4.57348448e-04
      -1.18693824e-04 -2.99398205e-03 7.65256118e-04 9.82360332e-04
      4.80191753e-04 -2.47673923e-03 -9.68095264e-05 -2.02156231e-03
      -3.93964490e-03 -5.37234964e-03 3.32055759e-04 4.80160961e-04
      6.51706767e-04 1.53955247e-04 2.29117135e-03 1.62893056e-03
      1.92659779e-03 1.48052024e-03 2.27888042e-04 -1.18547096e-03
      7.67748163e-04 1.03327190e-03 5.89931849e-04 -1.21748388e-04
      8.50355718e-04 -2.05718479e-05 -6.91811263e-04 -1.82135217e-03
      -1.33026519e-03 -4.91732918e-03 -7.23879831e-03 -5.68868173e-03
      -4.78143711e-03 -6.07010268e-04 1.11254099e-04 4.35125694e-04
      -7.05134065e-04 2.01888266e-04 -2.00567557e-03 -1.15630473e-03
      1.79567025e-03 2.06628535e-03 1.00363186e-03 2.05410947e-03
      2.23396858e-03 4.25418461e-04 3.05739697e-03 -5.45369519e-04
      -3.84731242e-03 -3.03756865e-03 -5.38462587e-03 6.16739562e-04
      8.94002675e-04 1.48062152e-03 2.78927898e-03 3.36810877e-03
      2.43688468e-03 2.16457364e-03 1.87250436e-03 2.55501620e-03
      6.21970859e-04 1.51245261e-03 1.75196864e-03 3.40667018e-03
      -5.20437490e-04 -1.00416143e-03 -5.62858302e-04 2.79167597e-03
      -7.67908117e-04 6.04759669e-04 1.30195124e-03 1.30671333e-03
      -6.66732958e-04 -8.29549172e-05 -9.33655538e-04 -3.41060259e-05
      1.42711063e-03 2.41368427e-03 5.29982906e-04 1.23923307e-03
      1.72242464e-03 1.31870806e-03 2.21666321e-03 1.96187897e-03
      2.72815349e-03 1.86941493e-03 3.88320163e-03 6.44639600e-04
      1.69356109e-03 1.14128762e-03 2.23935884e-03 2.08754046e-03
      2.39928602e-03 2.94683059e-03 1.83504971e-03 2.87984498e-03
      2.48059339e-04 5.03544812e-04 5.94483572e-04 1.96310715e-03
      -4.45416197e-04 -1.16951950e-03 1.04608422e-03 1.59866270e-03
      3.08430777e-03 7.71677645e-04 1.87047792e-03 2.17465404e-03
      -9.98722157e-04 3.08830291e-04 2.19083531e-03 2.46136589e-03
      6.90768880e-04 3.69065977e-03 1.80822983e-03 3.73291294e-03
      1.67200633e-03 -3.24252906e-04 2.16285535e-03 2.53227027e-03
      2.70255655e-03 1.31319009e-03 3.15415417e-03 6.14126853e-04
      8.00242589e-04 6.06415560e-04 1.63510221e-03 2.11577234e-03
      2.18704622e-03 2.47872481e-03 1.27892906e-03 2.38075899e-03
      4.36914037e-04 9.65278072e-04 4.52875393e-04 1.54548232e-03
      -1.38164207e-03 1.33770017e-03 3.10811028e-03 1.81161158e-03
      3.44842253e-03 1.08086830e-03 3.03631183e-03 2.41394009e-04
      -1.82923791e-03 6.21678890e-04 7.18693191e-05 3.40197864e-03
      1.97039871e-03 2.69391760e-03 1.50342437e-03 3.35288583e-03
      2.20574741e-03 6.24181703e-04 1.14211242e-03 1.40524702e-03
      2.01839558e-03 9.05519293e-04 2.06792238e-03 6.39920123e-04
      1.23211334e-03 4.63244447e-04 7.62708252e-04 6.43834763e-04
      8.83080240e-04 1.19916524e-03 6.85041014e-04 1.32218201e-03
      6.88593078e-04 1.09477446e-03 8.75995785e-04 7.85090146e-04
      9.12400777e-04 -6.88095053e-04 3.63087305e-03 2.95483833e-03
      2.57606688e-03 1.03994727e-03 2.56873248e-03 2.20703823e-03
      6.87518157e-04 3.36912740e-03 9.54409363e-04 7.21164281e-04
      2.59348570e-04 1.99542870e-03 7.97785295e-04 2.48375023e-03
      2.18515960e-03 3.60709429e-03 5.60181681e-04 5.80989057e-04
      9.64074687e-04 5.60542394e-04 1.35664013e-03 9.51813592e-04
      1.07960880e-03 1.02893414e-03 7.53029191e-04 4.16044495e-04
      2.33935512e-04 3.58479389e-04 1.65104560e-04 1.07421912e-03
      7.28246290e-04 1.36871589e-03 6.70965004e-04 5.59761073e-04
      1.95365632e-03 1.55420729e-03 9.42252285e-04 2.40076886e-04
      7.70217623e-04 5.05536271e-04 1.33751635e-03 1.08615006e-03
      2.00998457e-03 -1.69302861e-03 8.81083426e-04 7.20630924e-04
      5.80026943e-04 2.40309490e-03 6.98309042e-04 2.12562853e-03
      1.87302660e-03 -9.25104890e-04 6.58491452e-04 1.91412968e-04
      4.34478658e-04 1.31397450e-04 8.48654308e-04 5.79087413e-04
      1.12449948e-03 7.14065798e-04 8.04824638e-04 5.26416115e-04
      -2.32380978e-03 -2.35513295e-03 -1.06923515e-03 1.23213918e-03
      1.30930624e-03 2.08769972e-03 1.59462623e-03 6.88222761e-04
      7.04402220e-04 4.69620165e-04 3.52961011e-04 2.10863946e-04
      1.90871919e-03 1.07027136e-03 1.64669077e-03 1.10302644e-03
      3.55413038e-04 -1.37037679e-03 -1.10509351e-03 6.01058186e-04
      -5.00490423e-04 1.64077757e-03 1.59235206e-03 1.11371186e-03
      1.86340549e-04 -5.78484382e-04 1.01812428e-03 -7.60891300e-04
      -3.33241827e-04 -3.08625808e-04 1.78126618e-03 1.51061954e-03
      2.12639780e-03 1.88589201e-03 1.16352597e-03 -4.04938217e-03
      -3.86785809e-03 -3.91273899e-03 -4.79533337e-03 -7.83043681e-04
      1.31580746e-03 2.29636347e-03 1.09327782e-03 -3.41456616e-03
      -4.30886837e-04 -2.77930428e-03 -4.74537862e-03 -3.92598985e-03
      -8.21478292e-03 -7.20067939e-04 -3.51869348e-05 1.10445649e-03
      -6.79733115e-04 3.79362446e-03 2.62176502e-03 2.38996581e-03
      1.62664091e-03 2.30311207e-03 6.16844511e-04 1.31019275e-03
      1.30655989e-03 3.44889145e-03 -1.16225670e-03 8.26125208e-04
      2.69485381e-03 -8.05440941e-04 -6.39854418e-03 -4.36785223e-04
      8.06491880e-04 1.05406484e-03 -1.52225874e-03 3.79763264e-03
      3.48396832e-03 3.51598929e-03 2.14551343e-03 3.05616483e-03
      6.78301905e-04 1.77552330e-03 1.88468036e-03 3.45917558e-03
      4.52811923e-03 4.49950853e-03 4.52751201e-03 2.84788338e-03
      3.24306497e-03 5.60629414e-04 1.12035009e-03 1.11010228e-03
      4.09070961e-03 2.18236772e-03 2.00511958e-03 2.60140211e-03
      1.33564079e-03 2.19758623e-03 2.11319581e-04 3.87020671e-04
      5.88605122e-04 1.77058007e-03 3.77676357e-03 3.30651435e-03
      2.91542197e-03 1.79681112e-03 3.31475260e-03 9.92934569e-04
      2.48369644e-03 2.17280909e-03 3.79704754e-03 2.95620831e-03
      3.02574853e-03 3.27382702e-03 1.95542979e-03 2.48559751e-03
      3.59253725e-04 6.62085018e-04 7.21083314e-04 2.32795975e-03
      2.77360319e-03 3.37297563e-03 3.91382165e-03 1.99702964e-03
      4.09166515e-03 3.93553724e-04 4.54100460e-04 4.74555476e-04
      2.09888420e-03 1.29942887e-03 1.85361551e-03 1.94276043e-03
      6.01089152e-04 2.29692273e-03 9.07044960e-05 2.01967749e-04
      1.07609456e-04 8.93378747e-04 2.20352341e-03 2.41427240e-03
      3.22563341e-03 1.55000959e-03 3.49435792e-03 9.67968081e-04
      9.03282140e-04 7.65179517e-04 1.58018596e-03 8.50693556e-04
      1.04262540e-03 1.19224587e-03 4.54823865e-04 7.22685247e-04
      8.97633799e-05 1.10465618e-04 1.76107060e-04 6.85480773e-04
      1.82049617e-03 2.20887573e-03 2.34777248e-03 1.29084475e-03
      2.30397214e-03 3.70453374e-04 7.04683713e-04 2.08921076e-04
      1.50275731e-03 8.50122713e-04 7.72159663e-04 1.06081401e-03
      5.97355887e-04 1.82326708e-03 9.81668709e-04 1.23424688e-03
      1.19445205e-03 1.13060919e-03 6.72209077e-04 8.64862232e-04
      1.15517271e-03 2.91624136e-04 7.13565329e-04 2.30107995e-04
      2.56147498e-04 6.54017495e-05 5.53299207e-04 2.32992359e-04
      5.03145857e-04 4.35762136e-04 6.63388520e-04 1.14048284e-03
      3.46689398e-04 2.52377999e-04 1.15352261e-04 1.65865757e-04
      4.39331692e-04 9.99005977e-04 1.29738729e-03 9.91707435e-04
      1.91441539e-03 6.55026583e-04 7.54376466e-04 5.12071128e-04
      4.30083659e-04 8.88935872e-04 4.34816320e-04 6.50723174e-04
      2.38651686e-04 1.44653989e-03 8.52195255e-04 1.17515156e-03
      8.67178198e-04 1.00127666e-03 1.65456717e-04 3.62687599e-04
      4.89814207e-04 2.29605575e-04 7.12544192e-04 4.53711313e-04
      5.62984555e-04 1.83641634e-04 1.55931761e-04 -3.57284734e-04
      -1.44648051e-03 -8.53330886e-04 2.47586402e-04 -8.19781795e-03
      4.22420533e-04 7.65830977e-04 4.66901722e-04 -2.65943003e-04
      6.17890269e-04 2.87662726e-04 6.28872658e-04 1.65100995e-04
      4.47593600e-04 3.00953398e-04 7.41752272e-04 5.25481475e-04
      6.56575779e-04 1.61327142e-03 -1.84778718e-03 -1.70247070e-03
      -1.02415506e-03 1.25281163e-03 1.56579458e-03 2.15714448e-03
      1.73662405e-03 1.75159855e-03 -1.32955448e-03 -7.30471045e-04
      1.69298117e-04 -6.13862183e-04 -7.19044241e-04 1.08622022e-04
      3.87437874e-04 2.97194114e-04 -1.80828458e-04 -5.10104201e-07
      -6.52594538e-03 -6.55395957e-03 -3.53900739e-03 -3.18648317e-03
      8.60796776e-04 1.30551902e-03 7.61410221e-04 5.46123891e-04
      -2.44721072e-04 -1.14808709e-03 -9.02695581e-04 -9.25627246e-04
      1.51684135e-03 1.09754689e-03 1.76501402e-03 1.16788433e-03
      2.48025695e-04 2.03017466e-04 -2.02516117e-03 -1.95020332e-03
      -2.62856414e-03 1.85048627e-03 1.31739629e-03 2.46230350e-03
      1.71131094e-03 6.76397525e-04 -2.58561084e-03 -3.54791642e-03
      -3.05006700e-03 -2.00940529e-03 -3.05598020e-04 7.30220228e-04
      1.15415291e-03 1.09994574e-03 -1.54362130e-03 -1.75976357e-03
      -2.52409372e-04 1.52793666e-03 1.18534779e-03 1.00595516e-03
      -1.13810847e-05 9.25921719e-04 9.99689219e-04 -1.49477599e-03
      -1.47842057e-03 2.97517840e-06 2.55919853e-03 -5.49134042e-04
      -4.98293526e-03 -5.96661179e-04 1.26455084e-03 3.95059760e-04
      -1.66857394e-03 3.13579943e-03 3.00143845e-03 3.02661373e-03
      1.35371881e-03 2.21418659e-03 7.87785102e-04 1.65834872e-03
      1.69069122e-03 2.74350983e-03 -2.05563172e-03 1.35225488e-03
      2.50272965e-03 -3.20584833e-04 -6.86419010e-03 -2.30898638e-03
      -3.47523717e-04 -5.30723366e-04 -2.33272649e-03 4.04456304e-03
      2.85115163e-03 3.34431743e-03 2.00428930e-03 3.04918503e-03
      1.40609674e-03 2.25007813e-03 2.34804163e-03 3.80435144e-03
      3.37817939e-03 3.08211171e-03 2.63315439e-03 1.62646314e-03
      2.96658766e-03 9.51723196e-04 1.81390857e-03 1.63675612e-03
      2.75368546e-03 2.21714843e-03 2.07041577e-03 2.17191316e-03
      1.13172189e-03 1.88269746e-03 5.57701860e-04 8.45173781e-04
      7.71418447e-04 1.62984780e-03 4.11163876e-03 3.01035331e-03
      2.96106725e-03 2.02261540e-03 4.61011752e-03 2.27581151e-03
      2.95275613e-03 2.87497323e-03 3.39644705e-03 2.55775452e-03
      2.37447536e-03 2.32518325e-03 1.49583211e-03 3.09341354e-03
      1.13183039e-03 1.42506277e-03 1.30376022e-03 2.15145014e-03
      2.60073645e-03 2.78248824e-03 3.20003810e-03 2.03560223e-03
      3.04141990e-03 7.83017837e-04 1.35353336e-03 9.15642479e-04
      2.28704256e-03 5.45855961e-04 5.97269041e-04 6.84407481e-04
      2.48513243e-04 6.15318946e-04 1.53850051e-04 1.63764387e-04
      2.02149255e-04 4.87769837e-04 2.62012752e-03 2.18334212e-03
      2.15606764e-03 1.56218116e-03 4.15263185e-03 2.23230710e-03
      2.55661458e-03 2.44706776e-03 2.76166550e-03 7.02931953e-04
      8.00629554e-04 8.76496488e-04 5.45132789e-04 1.40234095e-03
      4.26509912e-04 6.51202979e-04 6.74366311e-04 8.75208585e-04
      9.56703967e-04 8.78467748e-04 8.86513793e-04 4.61758522e-04
      1.04367407e-03 1.01303653e-04 1.47527026e-04 2.17502486e-04
      9.71010362e-04 1.85810277e-04 1.39761090e-04 3.13381788e-05
      1.46482271e-04 2.06771097e-03 3.36909812e-04 3.36340570e-04
      2.04400189e-04 1.34888891e-04 8.95481207e-04 4.98541049e-04
      4.02304431e-04 2.99891864e-04 7.43118580e-04 5.82116423e-04
      7.87833822e-04 8.88337847e-04 1.21570425e-03 1.32023706e-03
      1.09558627e-04 -2.08639773e-03 -2.23624380e-03 -2.62522581e-03
      2.18034096e-04 3.73491901e-04 2.50071811e-04 1.29115663e-03
      2.72857957e-04 4.41631419e-04 2.53565231e-04 2.00332652e-04
      5.02983108e-04 3.78049794e-04 5.87245973e-04 3.26814275e-04
      3.83492064e-04 2.52342070e-05 -2.26985117e-06 6.85847772e-05
      -1.50723557e-04 -2.16363720e-03 4.67715174e-04 8.61493405e-04
      7.57397385e-04 5.47928386e-04 -2.51269812e-04 1.90136547e-04
      -1.20980211e-03 -1.15300424e-03 -9.75421397e-04 1.59526302e-04
      -7.90374062e-04 -3.78866156e-04 1.27480933e-04 -3.33834998e-03
      -5.11315512e-03 -6.58580381e-03 -4.22103517e-03 -4.18020226e-03
      4.29498701e-04 -7.26192025e-04 -7.71991152e-04 -2.33584596e-03
      -7.25257327e-04 -1.14166574e-03 -7.29415333e-04 -1.08948885e-03
      -1.60035677e-03 1.49522311e-04 4.18752315e-04 3.79532867e-04
      1.03926002e-04 -1.09038164e-03 -3.26412939e-03 -2.49822228e-03
      -1.52121636e-03 -2.27913330e-03 5.08597819e-04 9.59236815e-04
      6.22173131e-04 -1.44365011e-04 -1.59390795e-03 -3.44389305e-03
      -2.99100718e-03 -1.73771009e-03 -9.09354305e-04 1.47550949e-04
      -1.81101321e-04 1.59415169e-04 -9.27313056e-04 -1.14607834e-03
      -1.39634660e-03 -2.47557694e-03 7.58636394e-04 -1.80258311e-03
      1.34809714e-04 5.90710319e-04 4.64342273e-04 -1.62181794e-03
      -1.28243549e-03 -3.94708710e-03 -3.51063418e-03 -2.20772368e-03
      -2.19011493e-03 6.44697808e-04 7.62830430e-04 7.40904827e-04
      -1.02075655e-03 -5.50148543e-04 7.47301616e-04 1.76223554e-03
      1.93482172e-03 2.47024465e-03 9.83218662e-04 1.28491828e-03
      9.74452356e-04 -1.73404103e-03 -1.66580430e-03 -5.26384043e-04
      -1.15141924e-03 4.50888008e-04 -2.64808373e-03 -2.64151837e-04
      -1.24884054e-05 -2.38803725e-04 -1.56649016e-03 7.46510341e-05
      1.95222208e-03 3.31026036e-03 2.37669307e-03 1.54529698e-03
      1.40615704e-03 1.59601192e-03 1.23275665e-03 -7.35251582e-04
      1.68528210e-03 1.91564485e-03 2.38644588e-03 5.85145666e-04
      -2.17566616e-03 -3.71997798e-04 1.11956440e-03 6.11559604e-04
      5.15077671e-04 3.27459816e-03 2.71580298e-03 3.07005364e-03
      1.67007593e-03 3.07217892e-03 1.31323375e-03 2.06296868e-03
      2.11498234e-03 2.77697830e-03 -5.06617222e-03 2.24722526e-03
      1.53472961e-03 1.37741433e-03 -2.76484108e-03 -4.70673433e-03
      -5.42362593e-03 -7.99098238e-03 -7.23832566e-03 -1.63266703e-03
      1.09211227e-03 1.38556666e-03 2.01105885e-03 1.07187510e-03
      -6.56452961e-04 -2.10538460e-03 -3.26598645e-03 -2.73132860e-03
      3.19961295e-03 3.00023891e-03 3.44187510e-03 2.27971724e-03
      3.82267660e-03 1.54053408e-03 1.89164793e-03 1.72912225e-03
      2.53114104e-03 2.05745408e-03 2.30796286e-03 2.21927464e-03
      1.16214913e-03 3.19791678e-03 1.39570376e-03 1.67493348e-03
      1.07115461e-03 1.59937260e-03 -3.29657155e-03 -3.68268345e-04
      1.88092818e-04 2.04669172e-03 1.05716905e-03 -1.45160919e-03
      -5.01841493e-03 -4.63766372e-03 -4.40342352e-03 -1.36726117e-03
      -2.05169292e-03 -1.40028098e-03 1.29968149e-03 6.50333473e-04
      -1.80433388e-04 -5.12149301e-04 -1.23139020e-04 -2.03252584e-03
      1.70391297e-03 2.35227356e-03 2.05443497e-03 1.56696909e-03
      3.26235010e-03 1.58227049e-03 1.86124258e-03 1.31040101e-03
      1.81052554e-03 6.64270541e-04 6.14451710e-04 7.91566621e-04
      4.30022948e-04 1.46183441e-03 5.38875116e-04 7.13832094e-04
      7.18975381e-04 8.04914162e-04 -1.88506441e-03 -1.28680331e-04
      3.50758724e-04 1.69156829e-03 2.19888840e-04 -1.54559803e-03
      -1.70590371e-04 -6.20062347e-04 -1.64535898e-03 7.10809778e-04
      -8.67104682e-04 -3.50057497e-04 1.09196163e-03 1.00644853e-03
      4.72285319e-04 -2.92099576e-04 9.53825889e-04 7.16386305e-04
      6.06115209e-04 6.75045070e-04 5.18597721e-04 4.72393847e-04
      1.07117288e-03 4.63659933e-04 6.67471264e-04 5.11212100e-04
      6.58845762e-04 1.08646345e-03 3.76515993e-04 -1.17690337e-03
      -9.67356551e-04 -1.05617056e-03 4.12409136e-04 4.59239498e-04
      4.87656420e-04 1.01120013e-03 9.88703105e-04 -1.00997109e-04
      3.91839305e-04 1.13984221e-03 3.59462465e-05 -4.68630577e-04
      1.60083291e-05 5.41385671e-04 1.24279642e-03 -3.48110450e-04
      -4.75436216e-03 -5.24516450e-03 -4.38653026e-03 -2.76811444e-03
      4.00773773e-04 1.43187004e-03 1.51580037e-03 1.37900398e-03
      8.68651201e-04 1.26133658e-04 -1.35555165e-03 -1.12146803e-03
      -1.06630812e-03 1.40704360e-04 -2.89094751e-04 4.16150851e-06
      9.27380926e-04 -5.38829016e-04 -2.89655873e-03 -2.77373288e-03
      -2.52244226e-03 -2.60133157e-03 5.11987484e-04 -7.13581103e-04
      -2.40003268e-04 -1.78656497e-04 1.63582445e-03 -1.35235838e-03
      -2.52564345e-03 -1.55696250e-03 -1.43237493e-03 3.84890998e-04
      1.16880273e-03 1.03544339e-03 2.18224153e-03 1.53531355e-03
      -3.99514893e-03 -4.16221935e-03 -4.52112220e-03 -3.75179877e-03
      -1.17613934e-04 3.37545178e-04 4.98149719e-04 2.46682554e-03
      -1.65598874e-03 -3.95835610e-03 -2.81693344e-03 -1.88461086e-03
      -1.78249867e-03 1.86212768e-04 -6.47170760e-04 -3.17833998e-04
      -9.45789623e-04 -6.99462311e-04 -3.09038674e-03 -2.04653270e-03
      8.01666902e-05 -3.63896164e-04 2.22154937e-04 2.52800790e-04
      2.33790284e-04 1.66264304e-04 5.31316793e-04 -4.22623800e-03
      -3.58052691e-03 -2.47059460e-03 -2.13294639e-03 3.33971984e-04
      5.44633192e-04 3.28070542e-04 9.92764602e-04 1.74778642e-03
      2.35277930e-05 1.67322368e-03 4.01874859e-04 7.45909638e-04
      -1.25301900e-04 4.12756868e-04 -8.61952431e-05 1.38789730e-03
      -5.53954276e-04 -3.02020670e-03 -2.01858999e-03 -6.57612400e-04
      -1.88634859e-03 1.74200279e-04 5.94635203e-04 1.00427715e-04
      -1.66217051e-03 -4.15901508e-04 1.58334558e-03 2.57066474e-03
      2.44673481e-03 1.26947055e-03 1.13234832e-03 1.61144265e-03
      1.39345985e-03 -9.11716314e-04 1.96567358e-04 -5.04556578e-04
      1.04878354e-03 8.73071083e-04 1.27710173e-05 -2.26310774e-04
      1.78924820e-04 -1.58858486e-04 -2.51070072e-04 9.87719162e-04
      2.48817308e-03 2.50476040e-03 1.95698394e-03 2.43864744e-03
      7.14949158e-04 4.52426058e-04 4.09354427e-04 6.92016445e-04
      -6.88100874e-04 2.68525258e-03 2.88686855e-03 2.37735198e-03
      1.39361981e-03 -1.80673541e-03 -4.92482213e-03 -5.99470688e-03
      -4.34841961e-03 -1.42493320e-03 8.00597132e-04 8.26335861e-04
      1.74996594e-03 1.69344503e-03 -1.10023269e-04 -2.42055627e-03
      -4.04484104e-03 -3.17640719e-03 3.06479546e-04 1.89343269e-03
      1.95469940e-03 1.63978070e-03 2.79520918e-03 7.23163597e-04
      -1.08233572e-03 -2.65149842e-03 -1.09104067e-03 -3.92404757e-03
      -7.33162509e-04 -9.48320958e-04 -9.75830422e-04 1.70044776e-03
      -2.30915524e-04 -6.65555766e-04 -1.93404511e-03 -3.20014451e-03
      -1.49130705e-03 6.25953893e-04 5.95338177e-04 1.32143102e-03
      1.07166721e-04 -8.79182538e-04 -1.34183478e-03 -8.70300224e-04
      -2.62490567e-03 -3.86587344e-05 -1.04245823e-03 -8.88361756e-05
      1.12892874e-03 1.81617652e-04 -3.03166686e-04 3.16283928e-04
      5.96867292e-04 -2.31574217e-04 -3.69433290e-03 -3.66082950e-03
      -2.25167978e-03 -2.42163008e-03 -3.83084407e-04 1.96562312e-03
      1.55357434e-03 1.31514110e-03 -2.60070316e-03 -1.17790455e-03
      -2.89875688e-03 -2.74465280e-03 -4.20023280e-05 -1.49622350e-03
      4.17947798e-04 1.52679463e-03 1.82111270e-03 -1.10946631e-03
      -3.99367476e-04 -1.73112960e-03 -1.13108123e-04 1.35829067e-03
      5.27545926e-04 -8.93599296e-04 4.39798941e-06 -1.87123485e-04
      -3.59514845e-04 5.18752786e-04 -1.54349837e-04 1.13241535e-04
      1.47721067e-03 2.83014408e-04 6.52267132e-04 3.33768578e-04
      1.19135296e-03 7.30632339e-04 -4.57590533e-04 -3.95969069e-03
      -2.35216809e-03 -1.16118521e-03 7.84141303e-05 -5.38521563e-04
      2.77417304e-04 2.78550736e-03 1.03018002e-03 -1.95075094e-03
      -5.40921325e-03 -3.84523929e-03 -2.35008216e-03 -3.45527427e-03
      1.73571825e-04 5.83724759e-04 1.22811249e-03 -5.79870248e-04
      -3.73644325e-05 2.32002232e-04 -7.40338073e-05 6.57746335e-04
      -1.40002591e-03 -3.14774312e-04 1.05654013e-04 7.28197803e-04
      1.36329050e-04 -5.57986728e-04 -1.53278525e-03 -2.53586145e-03
      -1.77969865e-03 -8.69285432e-04 5.12334984e-04 1.30345521e-03
      1.44277140e-03 9.12606192e-04 1.22669793e-04 -1.56123179e-03
      -2.27044360e-03 -1.67160924e-03 -2.65129353e-03 -6.88921791e-05
      6.34471187e-04 1.49839872e-03 1.28471351e-03 4.84925375e-04
      -5.19843586e-03 -2.62520695e-03 -7.93499989e-04 1.07999623e-03
      1.01248093e-03 2.16946495e-03 2.40769191e-03 3.89924855e-03
      -9.60734149e-04 -3.21531994e-03 -3.55559029e-03 -3.25974124e-03
      -1.34872401e-03 3.74865165e-04 1.18350436e-03 1.65717490e-03
      1.01223320e-03 4.68900398e-04 -3.25882342e-03 -3.59910680e-03
      -3.27498233e-03 -2.48899148e-03 4.42269898e-04 7.62789452e-04
      7.23666220e-04 1.71214505e-03 9.26454813e-05 -2.50055711e-03
      -2.37572123e-03 -1.61275745e-03 9.17758560e-04 1.08648546e-03
      2.50770524e-03 2.64705089e-03 2.95320782e-03 9.05394147e-04
      -7.45389378e-04 -4.77799855e-04 -5.35924919e-05 1.29001739e-03
      1.42005167e-03 2.24662083e-03 1.73896458e-03 3.89254210e-03
      -4.45569865e-04 -4.60366858e-03 -4.17123735e-03 -3.74181359e-03
      -3.61627690e-03 3.45547480e-04 4.38830204e-04 2.45419124e-05
      1.66195165e-03 7.44888734e-04 -6.34476426e-04 1.04672508e-03
      2.10143349e-04 4.62733238e-04 -2.10001293e-04 3.39288497e-04
      -3.43274063e-04 6.67610730e-04 2.03197869e-03 3.34206212e-04
      2.15648688e-04 -6.78736891e-04 1.29594665e-03 1.84297690e-03
      2.49635172e-03 1.21699052e-03 2.94425874e-03 2.40641041e-03
      2.00615847e-03 2.78493133e-03 1.43926672e-03 1.99901545e-03
      9.70072695e-04 1.20846776e-03 9.13899450e-04 1.82263763e-03
      1.06280146e-03 -1.45183981e-03 1.03654247e-03 3.95138701e-03
      -3.49211646e-03 -1.68812563e-04 2.16170622e-04 -2.12420186e-04
      4.25758684e-04 -7.01107783e-04 1.83406228e-03 2.02413159e-03
      1.45240116e-03 2.35660840e-03 5.91752701e-04 4.32407614e-06
      7.58556707e-05 -1.10551901e-03 1.70857552e-03 1.50254485e-03
      2.09601084e-03 1.42157183e-03 1.69071287e-03 1.04530191e-03
      9.84528218e-04 8.42558569e-04 1.38063612e-03 1.15169480e-03
      1.26613292e-03 1.45632203e-03 1.22148299e-03 2.39491509e-03
      6.16855570e-04 3.71243252e-04 4.21475095e-04 6.82897691e-04
      -2.18073896e-04 1.00863155e-03 6.27559202e-04 6.48232308e-05
      9.52871749e-04 9.77171585e-04 1.22823892e-03 -7.36318994e-04
      -6.12479169e-04 -4.76466259e-03 -2.24097865e-03 -2.33786833e-03
      -3.24259861e-03 -3.02319718e-03 1.54914090e-03 1.45602564e-04
      -7.46382691e-04 -2.71456689e-03 7.58426322e-04 -2.80121865e-04
      -1.39053352e-03 -1.01823872e-03 -1.91288616e-03 -1.64068086e-04
      1.55390543e-03 1.36873662e-03 1.45706371e-03 8.72922654e-04
      -1.25475533e-04 -9.85411461e-04 -1.36472506e-03 -8.25219395e-05
      2.84034002e-04 2.74642254e-03 1.21081434e-03 1.38632790e-03
      -5.16282534e-03 -3.94818094e-03 -3.73466313e-03 -3.58532788e-03
      -2.12542713e-03 1.17539195e-03 2.43076053e-03 1.51778175e-03
      -3.34554561e-03 -1.51628966e-03 -3.64858401e-03 -3.44297686e-03
      -1.55797123e-03 -4.28982516e-04 1.89947023e-03 2.75107543e-03
      2.34445580e-03 -2.17553781e-04 1.02869223e-03 -5.88991330e-04
      -5.50134922e-04 6.64569161e-05 -6.51927432e-04 1.86201080e-03
      3.48870666e-03 3.07251443e-03 2.69405497e-03 -9.11628740e-05
      -3.10443807e-03 -3.92379053e-03 -7.14840426e-04 -2.84419133e-04
      2.74168933e-03 4.45711892e-03 3.46872979e-03 2.29937630e-03
      -9.06230416e-04 -3.21200280e-03 -2.65107770e-03 -2.41795485e-03
      -4.18092735e-04 8.64171539e-04 1.49817008e-03 1.66663073e-03
      1.35604793e-03 -1.91045972e-03 -3.17991036e-03 -2.20917119e-03
      -2.99847312e-03 -1.27740751e-03 7.28223880e-04 1.53254764e-03
      1.60223292e-03 7.90146994e-04 -2.33075768e-03 -4.07927949e-03
      -5.37205394e-03 -2.47101951e-03 2.29354901e-03 2.78688408e-03
      4.24468331e-03 3.00508155e-03 1.68729725e-03 -2.83481367e-03
      -4.28308360e-03 -3.53767676e-03 -9.82551719e-04 1.94410083e-03
      1.52810686e-03 1.76979147e-03 1.95179437e-03 9.13245487e-04
      -1.90604024e-03 -3.65136540e-03 -3.46492883e-03 -3.84428748e-03
      -2.57083704e-03 5.34399296e-04 1.39577675e-03 1.18165987e-03
      2.26489155e-05 2.47668126e-04 -2.50340765e-03 -2.16933899e-03
      -1.33332520e-04 1.05161662e-03 7.96638138e-04 1.73391192e-03
      1.58763479e-03 1.68300106e-03 -3.15632089e-03 -3.62544204e-03
      -2.86030676e-03 -7.79203197e-04 1.36098941e-03 1.22602424e-03
      1.65313669e-03 1.69254700e-03 2.19174079e-04 -6.90988149e-04
      -1.29078096e-03 -2.80468521e-04 1.82833639e-03 3.26388446e-03
      8.51111487e-04 1.46116456e-03 1.03655993e-03 2.72694672e-03
      -2.88363104e-03 -4.35150275e-03 -4.77698632e-03 -2.80868774e-03
      -1.88819889e-03 9.18264966e-04 1.80087448e-03 2.06949678e-03
      3.69188609e-04 -2.45729570e-05 -1.60961237e-03 -7.82343850e-04
      -4.88111327e-05 1.69092871e-03 1.06816331e-03 1.92582794e-03
      1.44489144e-03 2.30000052e-03 2.11550226e-03 -1.52421056e-03
      -1.05294178e-03 1.60171057e-03 2.31848401e-03 8.37047701e-04
      1.29820127e-03 7.99448695e-04 2.28110678e-03 1.71002198e-03
      5.36038366e-04 1.84789766e-03 1.09633023e-03 2.16299063e-03
      1.05146435e-03 1.45566557e-03 8.60328204e-04 1.93315686e-03
      -5.45480463e-04 -7.04463338e-04 1.00522244e-03 9.72492853e-04
      -2.16081459e-03 1.02659548e-03 1.59371051e-03 9.26147623e-04
      1.84878206e-03 1.91891822e-03 1.49316713e-03 1.96949765e-03
      1.14495365e-03 1.22880773e-03 8.45761970e-04 9.58842167e-04
      8.96296289e-04 1.38787006e-03 9.05948807e-04 4.83265816e-04
      2.62131239e-03 7.15523434e-04 2.52181385e-03 1.18674175e-03
      1.35557423e-03 9.51453869e-04 1.28087855e-03 1.32989802e-03
      1.33692811e-03 1.34759338e-03 1.06495270e-03 2.52615311e-03
      9.09060647e-04 1.10890123e-03 9.55250580e-04 1.36417581e-03
      3.06994142e-03 2.04039528e-03 2.29826593e-03 2.10749544e-03
      3.64839146e-03 7.91977567e-04 8.27123236e-04 6.23788976e-04
      2.39238609e-03 9.66806838e-04 9.78992553e-04 1.30427186e-03
      9.73196584e-04 1.70647947e-03 2.82653637e-04 5.12353959e-04
      2.96216633e-04 7.74862769e-04 1.25784241e-03 1.37162686e-03
      1.42238836e-03 9.88673419e-04 2.50878441e-03 1.16883137e-03
      1.05804764e-03 1.14708813e-03 1.38862350e-03 1.00810116e-03
      6.93347247e-04 9.24857042e-04 6.12618460e-04 1.21478445e-03
      6.66249078e-04 8.11427948e-04 7.70367158e-04 1.11297017e-03
      -3.46647482e-03 -2.36413325e-03 -3.95869697e-03 -4.54245880e-03
      -4.26441617e-03 4.05840547e-04 5.85189846e-04 3.44498985e-05
      -1.64718670e-03 9.19989718e-04 7.80771254e-04 6.50190166e-04
      3.88480927e-04 3.30481234e-05 6.46956207e-04 1.34567264e-03
      1.02075876e-03 8.49611708e-04 -2.65975436e-03 -4.10089095e-04
      -1.04902463e-03 -3.38878226e-03 -3.47608654e-03 3.07762559e-04
      8.62820772e-04 2.92987184e-04 -2.54498213e-03 1.75607903e-03
      4.12517181e-03 4.15307516e-03 4.07219213e-03 4.17006388e-03
      6.69748988e-04 2.18471931e-03 1.53499586e-03 8.87578819e-04
      -4.74211294e-04 -5.39143919e-04 -3.14584095e-03 -1.45098486e-03
      -3.57918697e-03 3.39237100e-04 1.57007354e-03 1.52770733e-03
      -5.95242658e-04 4.08261223e-03 3.22465412e-03 3.04791005e-03
      1.59318454e-03 1.58743234e-04 5.04530850e-04 1.19026273e-03
      8.77256680e-04 3.48806730e-03 1.57318753e-03 1.24028546e-03
      1.81550451e-03 2.01828848e-03 1.89758185e-03 2.28405086e-04
      1.60424691e-03 1.54581608e-03 1.39177300e-03 -3.84043669e-04
      -8.71207565e-04 -1.29441253e-03 2.05154694e-03 2.94832606e-03
      4.63102391e-04 1.32244173e-03 1.68067869e-03 -3.87533073e-04
      2.43666465e-03 2.52084993e-03 2.91746319e-03 9.53300041e-04
      -1.84073125e-03 7.47841957e-04 1.98608870e-03 1.16568455e-03
      1.83255470e-03 1.14604703e-03 2.41861632e-03 2.71132635e-03
      5.10907557e-04 -4.87218890e-03 7.78834277e-04 1.15506595e-03
      8.12974613e-05 1.24547153e-03 -8.40710360e-04 -1.49287298e-04
      1.61323624e-04 8.89888906e-04 1.59418513e-03 1.15194218e-03
      1.99720589e-03 1.95650198e-03 -1.00330927e-03 -8.24847142e-04
      -1.81484793e-04 1.00107235e-03 1.83866068e-03 2.78776349e-03
      1.83244480e-03 3.11722257e-03 2.49363249e-03 -1.09769986e-03
      2.64522294e-03 3.09294183e-03 3.00463103e-03 8.49252450e-04
      -4.83926531e-04 6.49170252e-04 8.17501626e-04 1.07740510e-04
      1.92229869e-03 -1.05541223e-03 7.53698812e-04 8.31879384e-04
      3.87668842e-04 -2.34817527e-03 -1.01589528e-03 3.90896079e-04
      -2.47752573e-03 -6.03193708e-04 -1.61536940e-04 -1.09245081e-03
      5.52106139e-05 1.11740024e-03 1.76176499e-03 1.12981792e-03
      1.94627314e-03 1.86653354e-03 1.19562588e-04 7.32257031e-04
      -3.10988049e-04 -5.50730096e-04 9.12143150e-04 1.36635208e-03
      9.32840980e-04 1.65106612e-03 1.69963844e-03 1.43056910e-03
      -2.07875762e-03 5.20343950e-04 1.00854575e-03 2.16522589e-04
      -8.13757943e-04 1.02742219e-04 8.07928911e-04 1.19917700e-03
      -1.16745511e-03 -2.64498126e-03 -1.88352409e-04 -1.41728390e-06
      7.17091723e-04 -6.14421384e-04 -1.65659899e-03 -1.83523458e-03
      -7.38723553e-04 -2.18972634e-03 1.76233205e-03 -1.16158754e-03
      -3.26140696e-04 -1.63987599e-04 8.35516199e-04 1.36596162e-03
      2.07625073e-03 1.94350746e-03 2.42390507e-03 4.25547332e-04
      -1.25814156e-04 9.10580216e-04 5.20046451e-04 8.28015734e-04
      8.36970401e-04 5.39668312e-04 6.59871148e-04 1.70978834e-04
      -2.66832206e-03 -1.52316084e-03 -2.17683846e-03 1.52638508e-03
      9.80882207e-04 -2.78162915e-04 -2.22224183e-03 -3.45193606e-04
      -1.41384255e-03 -2.71175778e-03 -1.14430347e-03 -9.30502894e-04
      8.88662355e-04 3.27108195e-04 3.92445305e-04 -1.12714479e-03
      1.05398649e-03 -7.07997475e-04 5.65335038e-04 -9.07851718e-05
      1.07922242e-03 1.01365312e-03 6.36957062e-04 6.25309884e-04
      3.45113338e-04 4.61943768e-04 3.41658684e-04 -1.90540843e-04
      8.69307318e-04 7.83991534e-04 8.31577869e-04 2.00283155e-03
      1.09555479e-03 8.05356074e-04 1.01065193e-03 -1.43820886e-04
      -5.49051818e-03 -7.06835126e-04 3.66929336e-04 7.92646460e-05
      -2.56249192e-03 1.67320750e-03 1.85305718e-04 5.85995440e-04
      -4.95131826e-03 -2.18878011e-03 4.98317058e-05 1.08256296e-04
      -1.12934911e-04 8.94162862e-04 2.84338719e-03 -1.45253507e-04
      -1.19489222e-03 -1.30676676e-03 -2.79701362e-05 1.13913452e-03
      9.28631402e-04 8.59491702e-04 2.62446492e-03 1.99753116e-03
      1.64635654e-03 1.57442305e-03 -1.27420280e-04 -2.30710348e-03
      5.75788959e-04 7.74377491e-04 3.84937099e-04 2.75111361e-03
      1.51173794e-03 4.99628135e-04 1.93954082e-04 -1.55221450e-03
      -7.49405241e-04 1.14227923e-05 -2.06002779e-03 -3.43482988e-03
      -7.10180122e-03 -3.23343818e-04 2.40235691e-04 1.40168151e-04
      -1.34376285e-03 4.41866403e-04 3.19923484e-03 3.91432690e-03
      2.51864316e-03 2.96928920e-03 7.02981488e-04 2.15089251e-03
      2.10843910e-03 -3.01027467e-05 -9.98667325e-04 -7.99482295e-05
      -1.89483631e-04 -1.24088081e-03 -6.65321946e-03 -5.57796797e-04
      -1.16951752e-03 3.00118147e-04 -1.10099127e-03 -7.30736938e-04
      1.34164630e-03 2.79718521e-03 1.56922266e-03 1.42671051e-03
      4.17481671e-04 9.57571319e-04 1.37471792e-03 -1.17495365e-03
      1.90653687e-03 3.71735240e-03 4.25514113e-03 3.84841650e-03
      6.04457129e-03 3.91128153e-04 1.80588674e-03 1.65970984e-03
      7.54576991e-04 1.22489000e-03 -8.75023426e-04 -3.04366520e-04
      1.74488011e-03 2.34697666e-03 5.89129282e-04 1.72251510e-03
      1.90476957e-03 1.12864305e-03 -1.37350103e-03 -3.23995027e-06
      2.08170689e-03 9.78766941e-04 1.60898245e-03 5.02059702e-04
      9.60578152e-04 1.02632341e-03 -1.51932775e-03 -4.19740856e-04
      -2.87308158e-05 1.21013774e-03 1.87820452e-03 2.35382072e-03
      8.25838128e-04 8.11254838e-04 1.02183525e-03 -6.65341722e-05
      6.27096975e-04 -8.73267709e-04 1.67858561e-05 1.32359727e-03
      2.66039278e-03 1.31040474e-03 1.83611747e-03 1.68775721e-03
      6.39490085e-04 7.86462799e-04 3.19710583e-04 1.94076239e-03
      1.46761071e-03 3.47050768e-03 2.30866647e-03 3.36463400e-03
      3.46309971e-03 8.77981423e-04 -2.55471641e-05 2.56357162e-04
      1.10393483e-03 1.64258515e-03 2.95880204e-03 1.00141997e-03
      1.05773692e-03 9.26003442e-04 -9.74112263e-05 6.83416671e-04
      1.79736631e-03 2.24298029e-03 1.86127645e-03 2.75498093e-03
      4.85571334e-04 6.44938264e-04 4.61516902e-04 -1.58453331e-04
      1.41002808e-03 -1.40027114e-04 1.09169749e-03 2.25370494e-03
      3.34753771e-03 1.12714898e-03 1.83534413e-03 1.67011702e-03
      1.29993807e-03 1.59412250e-03 -1.27367431e-03 -1.12591544e-03
      1.26551325e-03 1.91806315e-03 1.01858971e-03 1.88753731e-03
      1.68401957e-03 3.04566650e-03 -4.36485774e-04 1.48088566e-03
      1.85295672e-03 1.20560091e-03 2.28908961e-03 6.60285354e-04
      7.91821105e-04 5.22031332e-04 -5.70283155e-04 4.78745817e-04
      8.58187152e-04 1.04662718e-03 5.80586435e-04 1.37530908e-03
      7.59697636e-04 9.60849982e-04 5.95033285e-04 4.12065856e-04
      1.55570963e-03 -1.50267745e-03 -2.25330656e-03 4.39868221e-04
      1.80249719e-03 9.39538470e-04 1.83439790e-03 1.11189904e-03
      1.97691820e-03 2.12105107e-03 -2.76992127e-04 3.51886061e-04
      8.15007952e-05 -1.34708025e-04 8.36669351e-04 1.41538141e-04
      -3.25242494e-04 2.52308743e-03 6.96690753e-04 9.44642641e-04
      1.31086376e-03 5.73634694e-04 1.33006391e-03 8.96379934e-04
      1.10416638e-03 6.10672927e-04 7.19799660e-04 2.46110925e-04
      8.06165393e-04 8.54603597e-04 3.83288745e-04 1.19119871e-03
      8.32068268e-04 1.07769168e-03 7.35284586e-04 2.21243070e-04
      -9.54084331e-04 -7.12813402e-04 1.89303805e-03 1.28875521e-03
      -2.56527128e-04 4.71427891e-04 3.55375116e-04 4.03098587e-04
      -1.12331205e-03 -5.42780966e-04 1.22998841e-03 9.77980439e-04
      1.02986943e-03 2.58025969e-03 1.65424985e-03 -2.36617736e-04
      1.60698371e-03 1.29768916e-03 8.56869621e-04 7.48542836e-04
      4.31763998e-04 3.70339782e-04 8.67078954e-04 6.73839415e-04
      9.66788793e-04 8.07903707e-04 9.44887754e-04 4.22885991e-04
      -5.57057140e-03 -7.89422658e-04 1.19124434e-03 -1.31950830e-03
      9.20338032e-04 1.25312910e-03 1.26489054e-03 5.17684908e-04
      6.66198262e-04 9.53143521e-04 7.53396249e-04 7.18065014e-04
      2.34613079e-03 1.09996344e-03 1.20232848e-03 1.32811430e-03
      1.28869855e-04 -1.69068626e-05 -7.88353209e-04 -6.79266523e-04
      -4.34616872e-04 1.54898455e-03 -1.18440343e-03 -1.00319783e-04
      2.01705960e-04 -2.17582536e-04 6.12659031e-04 2.26710326e-05
      -4.60024545e-04 -2.93785008e-04 1.29554840e-03 1.12626643e-03
      1.59079360e-03 1.44963036e-03 8.77802260e-04 6.18804072e-04
      -2.85153068e-03 -2.93729827e-03 -1.81482558e-03 7.39166746e-04
      5.53099671e-04 6.25415938e-04 7.69459526e-04 2.75519094e-04
      -7.61628500e-04 -2.56893202e-03 -1.00959628e-03 -2.62755994e-03
      -1.03309583e-02 -5.20182715e-04 -1.13373382e-04 5.34874911e-04
      -8.41638830e-04 9.27191169e-04 7.45745783e-04 2.18498916e-03
      1.01282855e-03 1.45159662e-03 2.56441388e-04 6.33230840e-04
      1.02906011e-03 6.23449450e-04 1.72887847e-03 8.53169244e-04
      2.66671856e-03 1.41795631e-03 -9.23878793e-03 6.62531122e-04
      2.76144873e-03 1.98061275e-03 2.03123526e-03 4.40140208e-03
      3.86409904e-03 3.69756809e-03 2.24345317e-03 3.13308532e-03
      1.20543153e-03 1.88027625e-03 1.97823555e-03 4.03383467e-03
      7.58348324e-04 1.97105925e-03 3.06021050e-03 2.80518178e-03
      6.25856034e-03 4.82438278e-04 6.48815709e-04 7.12857349e-04
      5.99814637e-04 -1.12729649e-04 6.58539284e-06 6.86011685e-04
      1.34699629e-03 2.30563572e-03 8.22381058e-04 9.36646247e-04
      5.44821611e-04 -4.53067361e-04 3.36639816e-03 3.16275051e-03
      2.98223132e-03 1.50798983e-03 3.09111900e-03 1.38113520e-03
      1.53013389e-03 1.62496790e-03 3.19463038e-03 3.39001464e-03
      3.54868313e-03 3.68974567e-03 2.14622682e-03 2.68533477e-03
      1.15509075e-03 1.13821926e-03 4.74810338e-04 2.76197772e-03
      -1.12345762e-04 2.14696556e-04 3.49201320e-04 2.01066840e-03
      3.21527664e-03 8.32782069e-04 9.21458006e-04 6.63623447e-04
      -5.42509719e-04 4.01434605e-04 1.42945896e-03 2.10722000e-03
      1.01041992e-03 1.86251767e-03 5.72240388e-04 5.35772066e-04
      1.99988615e-04 1.15962823e-04 1.93765236e-03 2.28485046e-03
      2.90461932e-03 2.16265419e-03 4.20221779e-03 1.39608630e-03
      1.24294288e-03 8.55408958e-04 1.48870843e-03 7.78659130e-04
      1.15772139e-03 1.42399978e-03 8.60948756e-04 1.34716567e-03
      5.74681500e-04 6.31453411e-04 1.78814153e-04 6.16676349e-04
      2.64185411e-03 1.90977263e-03 2.72688991e-03 1.54594798e-03
      2.39513977e-03 7.74878310e-04 3.86218657e-04 1.95945468e-04
      2.05422752e-03 1.44884118e-03 1.37140136e-03 1.35431881e-03
      4.46877442e-04 1.63287565e-03 1.30281551e-03 1.61629939e-03
      9.73186456e-04 1.43339660e-03 6.64468331e-04 7.07588799e-04
      1.20240927e-03 1.21629180e-03 1.73177489e-03 1.03807042e-03
      2.64728442e-04 3.13737954e-04 6.23585249e-04 2.91646051e-04
      4.58910043e-04 4.15079732e-04 1.24891230e-04 5.79740445e-04
      1.13621376e-04 3.10988631e-04 1.18458622e-04 2.28236531e-04
      1.83402165e-03 2.11995770e-03 2.13087187e-03 1.01970404e-03
      1.86662003e-03 5.40296722e-04 9.98637406e-04 4.76130401e-04
      1.53712137e-03 1.51731446e-03 6.50668459e-04 6.48793357e-04
      3.83342471e-04 1.04483718e-03 6.99907134e-04 8.51286226e-04
      6.77411619e-04 1.58331124e-03 2.68604694e-04 1.57239090e-04
      2.77040926e-05 1.82912117e-05 3.66395805e-04 2.20405505e-04
      3.04806512e-04 2.02141062e-04 2.72635923e-04 -1.58225093e-03
      -8.30132165e-04 5.10609651e-04 5.89737494e-04 -1.06409239e-02
      2.91204342e-04 5.59499604e-04 4.15411108e-04 -1.47474732e-03
      6.11546100e-04 2.45508039e-04 8.27214462e-05 1.94994558e-04
      5.81883243e-04 3.52093019e-04 6.04373403e-04 5.07320452e-04
      7.21998105e-04 1.74271723e-03 -7.59009330e-04 -5.67320385e-04
      2.52172496e-04 1.24541449e-03 1.05418602e-03 1.59191177e-03
      1.41534605e-03 1.59784546e-03 -6.37386052e-04 -1.61691534e-03
      -1.71488849e-03 -4.89172351e-04 2.76529638e-04 2.10140846e-04
      4.33084002e-04 4.60660871e-04 4.78833390e-04 -2.23124656e-03
      -3.98212252e-03 -2.10191985e-03 -6.67593617e-04 2.14834930e-03
      8.36895022e-04 9.30881011e-04 3.79703182e-04 -2.03956687e-03
      3.43343039e-04 -1.27299060e-03 -1.29750441e-03 -1.53158617e-04
      1.60447904e-03 6.15740602e-04 1.24245870e-03 1.01412321e-03
      6.51252572e-04 1.15078979e-03 -1.98168587e-03 6.01357373e-04
      1.03945157e-03 1.33221364e-03 8.38155043e-04 2.48825032e-04
      1.12639915e-03 4.24524624e-04 -2.01468123e-03 -2.56142300e-03
      -1.41147955e-03 -6.35075558e-04 3.23895249e-04 5.39163186e-04
      7.42256001e-04 4.30805347e-04 -1.76367851e-03 -1.26310147e-03
      -2.20401236e-03 1.14406044e-04 2.36389926e-03 3.19802295e-03
      9.26475041e-04 1.48671120e-03 1.40304444e-03 -1.94004853e-03
      8.31016339e-04 1.48244167e-03 2.66048871e-03 2.06177426e-03
      -8.50577839e-03 6.10139221e-04 2.02858308e-03 1.29369216e-03
      8.05668882e-04 3.22628138e-03 2.83800182e-03 2.88125733e-03
      1.81450299e-03 2.90071429e-03 1.41701428e-03 2.21070345e-03
      2.00779759e-03 2.85351416e-03 2.81157758e-04 1.77155377e-03
      1.31219416e-03 5.36278065e-04 -7.90754519e-03 -3.89182358e-03
      -2.91498029e-03 -2.81410757e-03 -7.70345796e-04 3.67515278e-03
      3.44076334e-03 3.57691129e-03 1.82423869e-03 3.14571988e-03
      1.49701699e-03 2.17708340e-03 2.19785818e-03 3.15125124e-03
      3.38681461e-03 3.30495322e-03 3.12170596e-03 1.34658732e-03
      2.37473892e-03 9.97102936e-04 1.45050115e-03 1.21719716e-03
      2.98299245e-03 2.56827939e-03 2.81046657e-03 3.08457832e-03
      1.02788059e-03 1.36783242e-03 7.17392366e-04 9.18960432e-04
      6.64428517e-04 2.27755448e-03 3.60469916e-03 3.27241444e-03
      3.52915330e-03 1.39333331e-03 3.05174827e-03 2.03748443e-03
      2.33988417e-03 2.81723845e-03 3.02494108e-03 3.35757365e-03
      2.50997045e-03 2.65255151e-03 1.03353686e-03 2.25761952e-03
      1.10538816e-03 1.45287847e-03 1.77984673e-03 3.14884260e-03
      2.38452270e-03 2.87038530e-03 3.03968368e-03 2.27028434e-03
      4.24902607e-03 9.89301247e-04 1.23789499e-03 8.43512709e-04
      1.96278864e-03 5.74902922e-04 9.11847572e-04 1.53886667e-03
      9.29744274e-04 9.66344436e-04 2.77290790e-04 5.22064278e-04
      2.40266498e-04 5.03058021e-04 3.42026399e-03 2.17125751e-03
      2.58650538e-03 1.04775454e-03 3.91501095e-03 1.94600574e-03
      2.32179696e-03 3.42345680e-03 4.05780738e-03 1.08775147e-03
      5.15729422e-04 8.31296551e-04 3.36356403e-04 2.22940440e-03
      3.38845508e-04 1.13691646e-03 4.97429050e-04 1.26911048e-03
      3.43486143e-04 1.28000439e-03 2.09169625e-03 2.27705762e-03
      2.52510700e-03 6.81819511e-04 2.91037431e-04 2.56998173e-04
      3.64851760e-04 1.86957550e-04 1.60943440e-04 2.07283229e-04
      1.27583926e-05 5.26050979e-04 3.50786198e-04 3.85819614e-04
      4.04470804e-04 1.48958294e-04 9.93627356e-04 2.97740917e-04
      5.46781986e-04 7.10831839e-04 3.25155398e-03 5.33046899e-04
      4.67224250e-04 3.24420718e-04 1.00976636e-03 9.10840987e-04
      8.48451571e-04 4.14080801e-04 -4.61055781e-04 -2.25121941e-04
      2.57014442e-04 2.37116372e-04 1.94155640e-04 5.22056711e-04
      1.95553934e-04 1.60976386e-04 1.03742670e-04 -4.40208059e-05
      2.12285726e-04 1.96793655e-04 2.18657500e-04 2.21106879e-04
      2.83610192e-04 -4.13600064e-04 -1.41684094e-03 -1.79450959e-03
      -4.22035111e-04 -2.36173836e-03 3.53328069e-04 5.61784022e-04
      5.87280665e-04 3.52173607e-04 5.67270850e-04 2.76548264e-04
      -6.12070493e-04 -3.30449577e-04 -4.55574831e-04 8.41528818e-05
      1.15791983e-04 1.00772137e-04 4.38260846e-04 -3.96605814e-03
      -6.71693590e-03 -6.70011435e-03 -6.87965890e-03 -6.88821357e-03
      -1.85162469e-03 -8.00078677e-04 -3.86479631e-04 -1.52355747e-03
      -1.19699468e-03 -1.75842491e-03 -2.17509456e-03 -1.12215604e-03
      -1.34970748e-03 2.20539237e-04 4.54521069e-04 3.79555713e-04
      -1.74832807e-04 -3.58565804e-03 -3.08360439e-03 -1.56780507e-03
      -9.80148325e-04 -1.23434409e-03 4.27380000e-04 1.43763633e-03
      1.27172889e-03 -1.63153140e-03 -3.42259998e-03 -3.75497900e-03
      -3.58616025e-03 -3.38388933e-03 -3.31824645e-03 -2.81820918e-04
      -7.00140372e-04 -1.64330864e-04 -2.45709857e-03 -2.33196560e-03
      3.96357063e-05 -8.70218064e-05 2.31012143e-03 1.71471492e-03
      -2.29161931e-04 -7.56733818e-04 1.26414350e-04 -2.60902359e-03
      -5.18081198e-03 -2.79895961e-03 -1.19770761e-03 -3.27505782e-04
      -5.56894171e-04 2.61082227e-04 3.56575445e-04 1.97775022e-04
      -4.22648387e-03 -1.03420787e-03 -4.72799817e-04 1.30293693e-05
      1.64766994e-03 3.09568737e-03 1.10343960e-03 1.56153494e-03
      1.23497541e-03 -1.34759140e-03 -4.04848345e-03 1.35175345e-04
      9.86871892e-04 1.51870365e-03 1.22075784e-03 -4.65541758e-04
      -1.33792870e-03 -3.81243881e-05 -3.71290790e-03 -1.44603872e-03
      1.82518573e-03 3.18982825e-03 2.85010063e-03 4.48433729e-03
      1.38583488e-03 1.39995595e-03 1.06039015e-03 -1.85255753e-03
      1.73602067e-03 1.83081371e-03 4.79465496e-04 -1.09507027e-03
      -3.73020559e-03 -2.70560756e-03 -1.28199894e-03 -1.66057725e-03
      3.86004569e-04 2.99465237e-03 2.99021252e-03 2.95557245e-03
      1.18339143e-03 2.49243272e-03 1.80437521e-03 2.00586766e-03
      2.41983472e-03 2.63273087e-03 -2.47607334e-03 1.05919631e-03
      2.20185801e-04 -1.02274457e-03 -3.71991051e-03 -2.40111444e-03
      -3.82651179e-03 -4.44520684e-03 -3.26061365e-03 -1.03079889e-03
      1.89914636e-03 1.80396845e-03 1.22604647e-03 1.22096145e-03
      -2.02794836e-04 -1.26528658e-03 -2.27421086e-04 -1.76745257e-03
      2.42644059e-03 2.58662901e-03 2.67572934e-03 1.16230326e-03
      2.40179175e-03 1.12057745e-03 1.51036133e-03 1.83531176e-03
      2.07662070e-03 2.12135632e-03 2.18604552e-03 2.30346224e-03
      9.92133981e-04 2.80352565e-03 1.48984138e-03 1.90184207e-03
      1.75901689e-03 1.89175934e-03 -1.86117680e-03 7.39440613e-04
      1.42608129e-03 1.60596520e-03 -5.92720578e-04 4.10791457e-04
      -1.35721103e-03 -1.68026111e-03 -2.40803603e-03 -5.38243353e-03
      -2.69395276e-03 2.32009660e-03 1.63992704e-03 7.84018659e-04
      -8.75081518e-04 -3.67806497e-04 -5.52883066e-05 -1.52478425e-03
      2.26466730e-03 1.98790105e-03 2.15337845e-03 1.82955014e-03
      3.41444695e-03 1.56417501e-03 1.99427526e-03 2.22518109e-03
      1.89922296e-03 6.52934716e-04 5.85099508e-04 8.45800911e-04
      3.01513006e-04 1.80776021e-03 5.75986342e-04 1.03831489e-03
      7.89380050e-04 7.40461750e-04 -1.48068625e-03 8.24295799e-04
      1.50342064e-03 1.62573671e-03 -1.81824248e-03 -1.62190199e-03
      -2.75958562e-03 -5.41963149e-04 -1.26041251e-03 -8.68507312e-04
      -1.41961977e-03 -9.13053693e-04 1.02538941e-03 1.00891117e-03
      -2.45596893e-05 2.15449418e-05 1.90864666e-03 -8.41910718e-04
      8.31190264e-04 4.57657647e-04 6.17328158e-04 3.68369481e-04
      1.42515788e-03 2.79400876e-04 5.49307035e-04 6.72231952e-04
      8.34984647e-04 6.02128566e-04 8.25225899e-04 3.83324426e-04
      1.41865065e-04 5.59936052e-05 9.64454084e-05 1.95406581e-04
      3.41232721e-04 4.09326341e-04 -5.04390977e-04 -4.84950724e-04
      -2.33828207e-04 1.18614850e-03 9.02265368e-04 -1.24171423e-03
      -9.48080269e-04 1.85743510e-03 -5.44012000e-04 -1.94848049e-03
      -6.63162954e-03 -7.13302242e-03 -5.58287511e-03 2.75338255e-03
      7.56684982e-04 9.32328636e-04 1.76120026e-03 -1.02870988e-04
      5.98750659e-04 3.63220926e-04 -5.65530790e-04 -4.35624999e-04
      -6.97896234e-04 1.39521057e-04 1.96101682e-04 1.94438922e-04
      5.11245569e-04 -5.72160818e-04 -3.06412997e-03 -3.41257104e-03
      -2.87953299e-03 -4.43571806e-03 -1.01837963e-04 -9.16778572e-06
      2.90757525e-05 4.85926575e-04 2.14341190e-03 -2.02045101e-03
      -3.43284616e-03 -1.54983124e-03 -1.24093320e-03 5.58067346e-04
      9.77378804e-04 1.35530462e-03 2.61442363e-03 1.44786527e-03
      -6.08828245e-03 -5.36007667e-03 -4.97761834e-03 -3.30570829e-03
      8.01924325e-04 6.97960611e-04 3.28188995e-04 1.64592499e-03
      -1.51848607e-03 -3.38912755e-03 -4.02270071e-03 -3.61642730e-03
      -4.93718171e-03 -3.24190303e-04 -1.15006743e-03 -2.63989088e-04
      -1.30097324e-04 -1.65833582e-04 2.46459589e-04 -7.35193316e-04
      -1.97818968e-04 -1.24795828e-03 -6.81635429e-05 -9.63622238e-04
      -1.46030725e-04 -8.12491169e-04 7.19433418e-04 -4.36390424e-03
      -4.24510567e-03 -2.37700716e-03 -2.53189704e-03 1.86303223e-04
      -7.57315953e-04 -3.25433321e-05 9.11098556e-04 2.17820727e-03
      8.75413825e-04 1.29723176e-03 1.72790547e-03 1.15117198e-03
      -5.94285266e-05 -9.65889252e-04 -5.91265794e-04 9.03481734e-04
      -1.00798253e-03 -1.00885774e-03 -5.19357331e-04 1.09362089e-04
      -1.31851144e-03 3.72578012e-04 -2.67343037e-03 -4.60583018e-04
      -2.21489533e-03 -2.36571021e-03 1.06474804e-03 2.62889056e-03
      2.24110764e-03 4.04241588e-03 1.04478502e-03 1.72126433e-03
      1.25466427e-03 -2.85600219e-03 6.01080945e-04 1.84269960e-03
      9.35596356e-04 1.59676583e-03 -2.57426221e-03 -3.20615363e-04
      -1.31110451e-03 -6.88786153e-04 -6.06989954e-04 8.04243493e-04
      2.33489880e-03 2.62472173e-03 2.26419349e-03 3.34039656e-03
      2.77171144e-04 2.20438364e-04 -1.15127550e-04 1.89017534e-04
      -1.58389949e-03 1.97716313e-03 1.87721895e-03 1.02131057e-03
      -8.67092167e-04 -2.36249063e-03 -3.28047085e-03 -4.63951332e-03
      -3.74082802e-03 -8.22811504e-04 1.33167556e-03 1.72947708e-03
      1.57571072e-03 3.08194035e-03 -3.04134126e-04 -1.24967354e-03
      -1.50815176e-03 -2.88752420e-03 -7.22508470e-04 1.40600663e-03
      7.12246518e-04 3.49730690e-04 -4.95220360e-04 -4.33646346e-04
      -1.34100532e-03 -2.34108488e-03 -2.14079907e-03 -3.46393068e-03
      4.42097225e-04 1.67190214e-04 9.90631990e-04 2.92025739e-03
      3.90882895e-04 -9.49508336e-04 -2.52949889e-03 -5.07805031e-03
      -1.33169873e-03 4.52605542e-04 1.05164514e-03 1.36414892e-03
      -2.84169160e-04 -9.73044429e-04 3.08012211e-04 -9.36064753e-05
      -2.39674980e-03 3.24526736e-05 1.58744247e-03 9.79760196e-04
      1.07134844e-03 1.36397312e-05 -3.54410295e-04 2.61629684e-05
      8.25777126e-04 -4.07718791e-04 -2.62785261e-03 -3.11472313e-03
      -2.03274982e-03 -1.05489098e-05 1.75195956e-03 7.73841399e-04
      2.67962256e-04 -2.21285899e-03 -3.64870834e-03 -2.12479988e-03
      -2.28722394e-03 -3.07175796e-03 -2.99652718e-04 -1.33489817e-03
      3.16655845e-04 2.13701816e-04 1.15053367e-03 -9.64385283e-04
      5.95779798e-04 9.83692356e-04 -9.67749802e-05 6.61248690e-04
      -1.08755345e-03 -9.82226571e-04 -6.27746689e-04 7.09981890e-04
      2.01811039e-04 2.26484350e-04 -6.73769042e-04 -3.55358279e-05
      1.27077545e-03 3.78614117e-04 6.44824177e-04 1.29155349e-03
      1.36613369e-03 8.27016484e-05 -5.30863588e-04 -1.78139529e-03
      -3.42572597e-03 -1.82363368e-03 -1.58314372e-03 -3.47412017e-04
      1.28671131e-03 2.43945280e-03 6.28371781e-04 -2.74553103e-03
      -5.88096399e-03 -4.64458903e-03 -4.61301679e-05 -2.91820569e-03
      3.28135386e-04 1.32621150e-03 1.54987432e-03 -1.60591002e-03
      -4.13082307e-04 -6.65360305e-04 -3.22111271e-04 8.43864284e-04
      4.39827505e-04 7.43777418e-05 1.65872727e-04 9.06150672e-04
      -1.07386801e-03 -2.92947341e-04 -2.67960387e-03 -2.67704949e-03
      -2.41461070e-03 -8.16495682e-04 3.21717380e-04 1.36827235e-03
      1.31201150e-03 8.64308910e-04 -3.92948656e-04 -3.50013189e-03
      -2.98254564e-03 -5.97343082e-04 -3.70167341e-04 9.15394863e-04
      6.26260182e-04 2.00089253e-03 6.42970495e-04 1.26443116e-03
      -5.87761356e-03 -3.38273169e-03 -2.86158081e-03 -8.39438697e-04
      1.58691837e-03 2.71943142e-03 2.50248425e-03 1.91707595e-03
      -3.23767861e-04 -3.45042488e-03 -2.71402858e-03 -3.08714202e-03
      -1.56917982e-03 3.59865167e-04 1.53321668e-03 1.59252912e-03
      1.12992723e-03 1.00088329e-03 -6.00698637e-03 -5.18429186e-03
      -3.00433370e-03 -2.95246323e-03 1.01662090e-03 1.53134612e-03
      7.21428776e-04 1.63510861e-03 1.23929605e-03 -6.13843510e-03
      -5.27963135e-03 -1.99757586e-03 -7.55067565e-04 1.20360346e-03
      2.50661839e-03 1.80088310e-03 2.75333039e-03 3.54417367e-03
      -1.34452875e-03 -2.85412148e-06 7.59010029e-04 2.19413560e-04
      1.83415122e-03 2.15118309e-03 1.25325541e-03 3.87428980e-03
      5.37980988e-04 -6.68556103e-03 -6.04757294e-03 -5.90381632e-03
      -4.26915474e-03 1.06650323e-03 6.85451087e-04 6.34826356e-05
      4.83168551e-04 4.06905834e-04 1.04454666e-05 2.76778330e-04
      6.87305874e-04 5.64736605e-04 -2.99865060e-04 -5.93165634e-04
      -6.20225852e-04 -2.43979972e-04 3.03795817e-03 -2.03559641e-03
      -4.23875463e-04 -2.29213998e-04 5.10111568e-04 2.25155428e-03
      2.26046634e-03 1.60093314e-03 2.76233978e-03 2.54399423e-03
      2.12594587e-03 2.77401018e-03 2.29025702e-03 3.75871710e-03
      1.13291142e-03 1.31163211e-03 8.05669057e-04 1.81053788e-03
      4.29427112e-03 3.63708241e-03 8.17122869e-04 2.26146402e-03
      -4.09812899e-03 -1.78038372e-05 -8.26787029e-04 -7.00679899e-04
      1.16000918e-03 1.17649433e-04 1.14733586e-03 1.62840134e-03
      1.25958968e-03 3.15692299e-03 3.86553671e-04 2.49278994e-04
      -1.02211212e-04 -4.59805044e-04 1.39700924e-03 1.81269099e-03
      2.31424556e-03 1.91767619e-03 2.95157405e-03 1.10767945e-03
      1.01299409e-03 4.35716065e-04 8.14666215e-04 3.09387542e-04
      1.02355308e-03 1.14515668e-03 1.13656279e-03 2.91702058e-03
      8.65364913e-04 3.80244979e-04 4.08553606e-04 3.47933325e-04
      -1.00845878e-03 2.01625895e-04 -9.13062366e-04 -6.00533036e-04
      -1.02963694e-03 8.64079979e-04 3.10744712e-04 -1.67767250e-03
      -2.27781083e-03 -3.04812100e-03 -1.23127829e-03 -1.22452783e-03
      -1.28357438e-03 1.02399790e-03 2.86799343e-03 4.97976609e-04
      -5.14133892e-04 -1.97718176e-03 8.80778010e-04 -2.81489862e-04
      -2.03986536e-03 -1.11138518e-03 -2.66124122e-03 2.59072520e-04
      5.06104901e-04 1.04424788e-03 1.11813156e-03 1.05463878e-04
      -8.43415619e-04 -2.40615360e-03 -1.33870554e-03 -1.80455821e-03
      1.68408884e-03 1.93426816e-03 9.30018316e-04 8.65075097e-04
      -3.98778543e-03 -4.19050083e-03 -2.80888216e-03 -8.08706856e-04
      -6.65350060e-04 1.22451189e-03 -3.20686580e-04 -4.58978291e-04
      -1.95274502e-03 -2.48752697e-03 -3.56723764e-03 -3.86145478e-03
      -8.56089697e-04 -7.54137873e-05 1.44974713e-03 1.69865496e-03
      1.87771965e-03 3.14941135e-04 -6.07456896e-04 -7.89399375e-04
      -1.22393051e-03 3.71738715e-04 -8.96356476e-04 2.22612917e-03
      2.76863785e-03 2.23594671e-03 5.20280271e-04 -1.32183661e-03
      -3.01338895e-03 -2.52041314e-03 -9.96890943e-04 -1.15233648e-03
      1.35104312e-03 4.25558584e-03 3.95880174e-03 6.20955776e-04
      -1.94432365e-03 -2.88199098e-03 -3.34501383e-03 -1.76330656e-03
      -2.41447487e-04 4.08588647e-04 1.38427562e-03 1.51852914e-03
      3.09621915e-04 -2.06562644e-03 -4.05834941e-03 -2.47428962e-03
      -1.77710294e-03 2.61537993e-04 8.62954010e-04 2.07821350e-03
      1.74870074e-03 5.92065684e-04 -1.92855415e-03 -5.10962820e-03
      -6.11054525e-03 -2.67349067e-03 -2.25075331e-04 1.00060611e-03
      4.76286607e-03 4.35254071e-03 1.56273891e-03 -3.55474884e-03
      -3.14056594e-03 -2.03196332e-03 7.75875524e-04 3.11429962e-03
      1.24096777e-03 2.54245475e-03 2.28970265e-03 -6.70239795e-04
      -1.01195392e-03 -2.92398641e-03 -2.24029296e-03 -1.24057196e-03
      1.30379631e-03 1.03346573e-03 1.61019189e-03 1.62198185e-03
      4.22576210e-04 -2.16663742e-04 -5.42434258e-03 -4.27847728e-03
      -3.07979877e-03 9.14490025e-04 1.62327732e-03 2.21802853e-03
      2.16864375e-03 1.08931493e-03 -2.06845417e-03 -4.09083534e-03
      -4.04009968e-03 -2.40670837e-04 4.45935177e-03 1.57820655e-03
      2.51192320e-03 2.20225565e-03 6.22544205e-04 6.02473563e-04
      -1.33302959e-03 -9.75568953e-04 -1.19509723e-03 2.29785475e-03
      1.05637498e-03 2.43738946e-03 1.82552263e-03 1.63534470e-03
      -1.82622380e-03 -8.26415699e-03 -6.87411381e-03 -5.38471807e-03
      -1.42321433e-03 5.63307025e-04 1.91580702e-03 1.79127243e-03
      1.05240266e-04 1.76592148e-03 -1.86957908e-03 -1.05153675e-04
      4.62782686e-04 1.35641324e-03 1.51185133e-03 2.16144486e-03
      1.51654356e-03 2.04734923e-03 1.28808594e-03 -1.77618186e-03
      -1.65429153e-03 -1.58697774e-03 2.10009608e-03 1.18135731e-03
      2.33203406e-03 1.83138787e-03 2.10644095e-03 2.33132951e-03
      1.63823110e-03 2.93116015e-03 1.98446959e-03 4.44635795e-03
      1.51364389e-03 2.12050439e-03 1.58402976e-03 2.29677605e-03
      2.79372185e-03 -2.68942374e-03 9.69033805e-04 4.63151955e-04
      -4.44086920e-03 1.27794011e-03 1.80044014e-03 1.10510376e-03
      2.41503143e-03 2.26098404e-04 1.90528645e-03 2.22960371e-03
      1.69271592e-03 3.70968413e-03 9.92416637e-04 1.15004322e-03
      7.91024824e-04 -3.06252681e-04 2.06744904e-03 1.91801507e-03
      3.06923082e-03 2.65089981e-03 4.55458835e-03 1.61066954e-03
      1.39702018e-03 1.18068932e-03 1.57863530e-03 2.04523210e-03
      1.98951503e-03 2.20547523e-03 1.43410137e-03 4.14561667e-03
      9.76838171e-04 9.92672867e-04 1.02418358e-03 1.42640853e-03
      2.07625609e-03 2.97901849e-03 3.17538530e-03 2.81278649e-03
      4.02906910e-03 8.87172064e-04 7.19513220e-04 3.86819855e-04
      1.14007888e-03 4.14982314e-05 7.36122776e-04 5.76533668e-04
      9.70540103e-04 2.14206544e-03 4.01093246e-04 -5.57190506e-04
      -5.29842509e-04 -1.78449423e-04 1.82058045e-03 1.40021462e-03
      1.55007967e-03 1.18132250e-03 3.34713445e-03 7.68497819e-04
      1.02066901e-03 9.47000633e-04 1.22855394e-03 1.47091318e-03
      1.06425211e-03 1.01693836e-03 1.03739125e-03 1.78477832e-03
      2.66295829e-04 3.30308249e-04 2.47032789e-04 1.25540223e-03
      -2.03722576e-03 -3.58485477e-03 -5.35000302e-03 -4.82179178e-03
      -4.94069373e-03 5.05826087e-04 2.58206564e-04 1.69123188e-04
      -1.92613574e-03 6.20561186e-04 1.17830816e-03 4.86344623e-04
      1.24312716e-03 5.11138176e-04 6.77754928e-04 1.97371250e-04
      5.28462231e-04 -1.23442442e-04 -1.30349607e-03 -1.06550055e-03
      -2.99565447e-03 -3.05542862e-03 -3.11832712e-03 8.22139031e-04
      1.03151856e-03 9.89227206e-04 -1.58784748e-03 3.93961964e-04
      7.65824167e-04 5.06929937e-04 4.54136170e-03 4.78402618e-03
      1.25600642e-03 1.58292043e-03 1.78444455e-03 -1.01599807e-03
      -6.87520253e-04 -8.04841460e-04 -1.33800576e-03 -9.20765509e-04
      -4.19858750e-03 2.31565777e-04 -1.78138493e-04 -9.03969558e-05
      -1.53908925e-03 1.86140664e-04 2.10862933e-03 2.09992868e-03
      6.86421234e-04 -1.63870188e-03 2.35565429e-04 3.62814288e-04
      -5.93357428e-04 9.23628802e-04 -1.06191088e-04 9.23415646e-04
      9.43221676e-04 3.05752642e-03 3.76852346e-03 8.52764002e-04
      1.29662687e-03 1.37479324e-03 -2.65671479e-05 -6.09195151e-04
      3.74762749e-04 4.82260890e-04 -5.09875768e-04 1.44812907e-03
      6.21284475e-04 1.55861874e-03 1.12590601e-03 -2.86403665e-04
      1.71872845e-03 3.85765545e-03 3.07866884e-03 4.39583091e-04
      -1.27632532e-03 6.51145587e-04 -1.61994307e-04 -6.81624108e-04
      2.23489269e-03 1.93199900e-04 1.06788718e-03 -1.48318917e-03
      1.53829576e-04 -9.55622352e-04 -1.31602792e-05 -1.98577181e-03
      -9.76164418e-04 -5.66361356e-04 -3.71270638e-04 -6.23063766e-04
      -1.87394922e-04 -1.11850875e-03 1.62330514e-04 5.90166135e-04
      1.53934606e-03 1.17033534e-03 -3.39475344e-04 -1.99659684e-04
      -2.33420778e-05 3.89700464e-04 2.16078726e-04 1.87378400e-03
      7.98694673e-04 1.49167562e-03 1.41553220e-03 -3.60778904e-05
      1.02479430e-03 2.22469587e-03 -6.20574647e-05 -2.33012106e-04
      1.05696183e-03 6.24117907e-04 -1.23166502e-03 -3.71633214e-04
      -2.36660024e-04 -9.88182612e-04 -7.48164544e-04 -1.21366023e-03
      2.83716188e-04 5.30068588e-04 -2.59626715e-04 -1.73997984e-03
      -9.71213507e-04 -1.36338826e-03 1.70320600e-05 -5.22536502e-05
      1.56356386e-04 -6.75592746e-05 1.51571841e-03 9.76722571e-04
      1.24406954e-03 8.94544064e-04 1.91938467e-04 2.04748416e-04
      2.17922701e-04 1.68747385e-03 8.93106626e-04 2.26411526e-03
      9.15552140e-04 7.00190489e-04 4.12940251e-04 2.99633946e-04
      -2.02935096e-03 -1.26174861e-03 -1.81083218e-03 1.41091412e-03
      1.98629475e-03 5.23274706e-04 -1.43418860e-04 2.44895549e-04
      -4.74296306e-04 -4.11631132e-04 9.51030961e-06 -9.74535709e-04
      5.84315159e-04 1.11069053e-03 3.00439220e-04 -1.17713615e-04
      4.94056439e-04 1.90275940e-04 -2.80311355e-07 -1.18682755e-03
      6.17295154e-04 1.18606747e-03 2.37654150e-03 7.34026020e-04
      1.37495366e-03 1.45452970e-03 8.23635142e-04 8.81931395e-04
      -4.74513567e-04 8.75501952e-04 1.34007109e-03 2.01838883e-03
      5.16977219e-04 9.88182379e-04 1.16747280e-03 1.39881438e-03
      -2.52143742e-04 -1.31070393e-03 -1.43805984e-03 -2.57017603e-03
      -2.21766881e-03 -2.88506737e-04 -7.72452157e-04 3.03276960e-04
      -7.61453528e-04 -3.95908835e-04 2.91805761e-03 1.05566613e-03
      -4.58207447e-04 8.15845211e-04 -1.26837360e-04 -6.61336875e-04
      -9.88329266e-05 -1.83132550e-04 1.29654666e-03 -9.82606434e-05
      1.33449765e-04 9.01414023e-04 2.04969966e-03 6.00913889e-04
      7.58534647e-04 8.26270843e-04 9.78096155e-04 8.31486759e-05
      9.66813241e-04 1.19117380e-03 4.25671053e-04 1.38354115e-03
      4.67362959e-04 -4.02827427e-05 8.24731251e-04 -7.19024174e-05
      -1.61404943e-03 1.30039651e-03 4.89181315e-04 3.15125682e-04
      1.87819847e-03 1.77105621e-03 1.54179556e-03 1.87840778e-03
      -6.28947862e-04 -1.43993716e-03 2.43888018e-04 1.81997137e-04
      -2.50775192e-04 -2.78644613e-03 -1.80852285e-03 -2.76978849e-03
      2.05670076e-04 -2.19274149e-03 -3.16124380e-04 4.09774744e-04
      3.21669213e-04 1.87727870e-04 1.37532724e-03 1.06584630e-03
      5.69311203e-04 1.63058715e-03 -5.24983334e-04 -1.54309464e-03
      -4.64662211e-04 -5.22127957e-04 -8.37043044e-04 -2.05342169e-03
      -1.28291675e-03 1.17681315e-03 6.19640981e-04 -9.43274877e-04
      -1.27607584e-03 -7.48440623e-04 -2.43802974e-03 -3.89682385e-03
      -7.86199514e-03 6.51131326e-04 1.41020026e-03 1.25542388e-03
      -1.53401785e-03 8.12289189e-04 9.54873045e-04 9.25860601e-04
      2.79237470e-03 2.95402086e-03 7.83829251e-04 2.28759903e-03
      2.23672111e-03 -4.78505914e-04 1.50773732e-04 1.09806191e-03
      5.35487372e-04 -1.19876444e-04 -6.77776430e-03 5.31488389e-04
      1.16209767e-03 2.07736483e-03 -1.48941670e-03 8.14804051e-04
      1.13663403e-03 1.38294825e-03 1.66172697e-03 1.24420517e-03
      3.71890143e-04 7.67434423e-04 9.10215662e-04 4.58793045e-04
      1.80949643e-03 2.59644608e-03 2.82835122e-03 5.46691986e-03
      6.13111956e-03 9.71632777e-04 1.22533983e-03 1.63767079e-03
      6.05902111e-04 -1.68624771e-04 -4.97381552e-04 -7.01621873e-04
      7.85942480e-04 3.37174768e-03 7.98145600e-04 1.63060927e-03
      1.43961876e-03 5.75078535e-04 -3.63917847e-04 7.81755429e-04
      1.63626706e-03 2.36530695e-03 3.26935155e-03 4.07473795e-04
      4.79701703e-04 7.75160734e-04 1.07840286e-04 9.02407803e-04
      2.02699471e-03 2.16905354e-03 1.69190730e-03 2.54114810e-03
      5.81375265e-04 8.24139512e-04 8.90480645e-04 9.94080794e-04
      -3.95303825e-04 -2.33750045e-03 -2.09611794e-03 -4.60063486e-04
      4.15830407e-03 7.77033449e-04 1.99218676e-03 1.21459842e-03
      3.38896178e-04 8.60545377e-04 -4.97655303e-04 8.15499370e-05
      2.25946540e-04 1.24129164e-03 1.01546291e-03 1.37621968e-03
      1.20891049e-03 1.16148056e-03 4.81071387e-04 1.53513055e-03
      2.01085117e-03 1.33518013e-03 2.12974008e-03 1.01191096e-03
      1.30998064e-03 7.62534270e-04 2.16474145e-04 1.85761566e-03
      2.42728367e-03 2.75629689e-03 1.37864507e-03 3.08644003e-03
      7.05783721e-04 8.59180465e-04 4.74028115e-04 1.20049901e-03
      4.56848153e-04 -2.17769339e-05 7.75738445e-04 1.05556066e-03
      2.15358566e-03 9.97304800e-04 1.95230939e-03 8.40473745e-04
      7.81036972e-04 1.47653359e-03 7.48202903e-04 1.18418620e-03
      6.43036095e-04 2.11033295e-03 1.58356829e-03 2.64397962e-03
      1.57578837e-03 1.14605390e-03 1.07589783e-03 1.67330494e-03
      2.32081953e-03 1.18326861e-03 2.51613627e-03 7.57537433e-04
      9.04995308e-04 4.17142117e-04 5.41895453e-04 9.70767927e-04
      8.43339250e-04 1.11580512e-03 6.64831372e-04 9.78277647e-04
      3.00220621e-04 6.33436895e-04 5.01964591e-04 8.80667532e-04
      1.45725266e-03 -8.16083746e-04 1.10067823e-03 8.39402317e-04
      2.59019132e-03 4.85948054e-04 1.23882957e-03 9.66272273e-05
      1.30012538e-03 1.43647648e-03 3.66027118e-04 1.67086720e-03
      1.03256025e-03 1.79027522e-03 6.88335218e-04 1.27641065e-03
      4.10056644e-04 7.66082434e-04 7.89488899e-04 6.00187981e-04
      8.18684057e-04 5.71724784e-04 9.78941331e-04 4.44396515e-04
      8.80538428e-04 7.06372084e-04 7.14446476e-04 1.08838838e-03
      5.44015318e-04 6.92006026e-04 5.84703346e-04 1.29184418e-03
      5.98788320e-04 8.99528386e-04 6.89569744e-04 8.85641843e-04
      1.40737102e-03 1.34935172e-03 2.26066378e-03 1.24326441e-03
      1.52541453e-03 4.41792421e-04 8.90278432e-04 5.50404424e-04
      1.19099265e-03 -4.50570742e-03 5.73750294e-04 1.01015507e-03
      3.85632971e-04 1.34613947e-03 2.17240676e-03 1.12128444e-03
      3.32257710e-04 -4.14150674e-03 8.35384009e-04 2.97662744e-04
      5.28375676e-04 4.91538551e-04 1.03177177e-03 5.93724428e-04
      9.06516158e-04 6.74923882e-04 7.70974846e-04 -1.03200902e-03
      -1.20416249e-03 -8.58267536e-04 -2.14005192e-03 -9.63228988e-04
      6.94844523e-04 9.35453048e-04 6.32167852e-04 8.16974964e-04
      -5.31357888e-04 2.07709207e-04 5.52494777e-04 1.90223145e-04
      1.55883492e-03 5.02003648e-04 7.75171502e-04 7.20219046e-04
      -7.66595651e-04 3.79166508e-04 -1.23069552e-03 -2.80712207e-04
      -7.59853065e-05 2.03250162e-03 2.16912755e-04 -2.60751607e-04
      -6.23517088e-04 3.56200035e-04 -6.80830635e-05 -1.16192445e-03
      -1.57680921e-03 -3.93162394e-04 6.01081643e-04 9.63446451e-04
      1.27852976e-03 8.64419620e-04 4.29855747e-04 2.91467342e-03
      -2.20510527e-03 1.12666760e-03 -1.33054785e-03 -4.20142489e-04
      -1.18479875e-04 1.02528406e-03 1.02364563e-03 1.99729879e-03
      -2.40689283e-03 1.43010562e-04 6.82359314e-05 8.04337615e-04
      -4.16654721e-03 5.60440589e-04 1.39930844e-03 1.48657965e-03
      -3.17075895e-03 1.13208906e-03 1.81601476e-03 2.88799813e-04
      7.64480268e-04 2.02987646e-03 6.76279946e-04 8.63874098e-04
      1.22360908e-03 7.12491281e-04 8.02209077e-04 2.85177515e-03
      2.03055865e-03 6.30589726e-04 -6.68280618e-03 -2.51604384e-03
      -2.27817707e-03 -1.51736964e-03 -8.11323524e-04 3.74949304e-03
      3.43139656e-03 3.65342409e-03 1.87368633e-03 2.64380546e-03
      8.72082019e-04 1.35958905e-03 1.19937467e-03 3.29129142e-03
      -1.43221288e-03 6.01492310e-03 2.29776092e-03 1.13349769e-03
      1.32070342e-03 5.06479526e-04 5.45285817e-04 3.51099327e-04
      -2.78100837e-03 1.73236243e-03 2.07532081e-03 3.01253586e-03
      1.78467948e-03 2.03151652e-03 6.65436033e-04 6.55709708e-04
      3.25671281e-04 1.53469387e-03 3.98283917e-03 2.92457291e-03
      3.23884841e-03 1.40173954e-03 3.82334529e-03 1.81723142e-03
      1.82301435e-03 1.08158239e-03 3.75741650e-03 3.22067738e-03
      2.81804777e-03 3.68803367e-03 2.02679494e-03 2.23803753e-03
      1.09729916e-03 1.05704484e-03 7.07708416e-04 2.74140295e-03
      2.20340886e-03 3.01071582e-03 3.54286120e-03 2.22516526e-03
      2.66996562e-03 9.64722014e-04 8.94766185e-04 4.61531657e-04
      1.64574338e-03 1.99233741e-03 2.35694624e-03 1.95593783e-03
      8.90234252e-04 2.31247186e-03 6.58153207e-04 6.35852339e-04
      2.92103185e-04 1.23361661e-03 2.21049297e-03 2.34654639e-03
      3.52378236e-03 1.71434751e-03 2.16310075e-03 1.39883929e-03
      1.11067400e-03 8.18366418e-04 1.77348452e-03 9.19744081e-04
      1.14633725e-03 1.34174502e-03 2.73904967e-04 5.22437505e-04
      1.58583483e-04 3.70945025e-04 1.49875385e-04 7.00692646e-04
      2.62025534e-03 3.20140808e-03 2.52830167e-03 2.12376821e-03
      2.97349645e-03 4.84569959e-04 7.17047777e-04 2.03225907e-04
