<?xml version="1.0"?>
<opencv_storage>
<my_svm type_id="opencv-ml-svm">
  <svm_type>C_SVC</svm_type>
  <kernel><type>LINEAR</type></kernel>
  <C>1.0000000000000001e-01</C>
  <term_criteria><epsilon>1.1920928955078125e-07</epsilon>
    <iterations>1000</iterations></term_criteria>
  <var_all>17640</var_all>
  <var_count>17640</var_count>
  <class_count>2</class_count>
  <class_labels type_id="opencv-matrix">
    <rows>1</rows>
    <cols>2</cols>
    <dt>i</dt>
    <data>
      -1 1</data></class_labels>
  <sv_total>1</sv_total>
  <support_vectors>
    <_>
      -8.18452798e-04 -3.96233198e-04 -3.32547264e-04 -3.15678801e-04
      -3.97611002e-04 -2.51501706e-06 6.19425409e-05 2.07930148e-04
      -8.26593547e-04 -4.01436770e-03 -5.28450182e-04 -6.66940468e-04
      -3.73216099e-05 -1.38155257e-04 -6.70673326e-05 -1.55925518e-03
      -1.69613282e-03 -5.22730220e-03 -3.36322421e-03 -2.70358194e-03
      -1.59215578e-03 -1.12286955e-03 -2.82065803e-03 -1.33295206e-03
      -1.57162570e-03 -1.79060060e-03 -3.96897085e-03 -4.55595786e-03
      -1.70680124e-03 4.34002024e-04 1.87009876e-03 9.35075455e-04
      -4.31890570e-04 -3.66192288e-03 -4.77179606e-03 -4.81822947e-03
      -2.65008421e-03 1.20743387e-03 1.08782214e-03 6.82709797e-04
      -2.76345207e-04 -2.43065588e-04 -9.97063005e-04 -1.44547690e-03
      -4.03997721e-03 -5.90512820e-04 1.71531609e-03 1.35874504e-03
      -8.28934299e-06 -1.37158798e-03 -4.54208581e-04 -2.07584933e-03
      -2.65715877e-03 -1.81927963e-03 -5.06456662e-03 -7.90650258e-04
      1.41764141e-03 9.51881695e-04 4.64013574e-04 -4.44238132e-04
      -2.59696692e-03 -3.88596836e-03 -5.52642904e-03 -3.58506641e-03
      -5.66453673e-04 3.78029334e-04 7.65374803e-04 -8.55203689e-05
      -2.04428754e-04 -2.44384049e-03 -3.09899589e-03 -3.38842813e-03
      2.01181206e-03 9.74410505e-04 -7.68814643e-04 -1.16952020e-03
      -2.97915260e-03 -1.58681639e-03 -2.17352947e-03 -2.14386056e-03
      9.18516307e-04 2.75627826e-03 2.46115192e-03 3.07062379e-04
      7.88976438e-04 -1.10060279e-03 -8.26208910e-04 -1.48644554e-03
      -1.34644925e-03 1.06531661e-03 -3.69976694e-03 -1.38950301e-03
      -1.12453778e-03 -8.72425269e-04 -2.90132500e-03 -1.92028517e-03
      -2.90850853e-03 -3.66843701e-03 -4.06664470e-03 -1.03071867e-03
      3.16025718e-04 4.11018962e-04 5.50492085e-04 -1.51326612e-03
      -5.13781153e-04 -7.33335677e-04 1.15220813e-04 -3.57898098e-04
      -6.61437050e-04 3.28356097e-03 1.78850698e-03 1.23976741e-03
      3.18971986e-04 -4.42621968e-05 -4.15245211e-03 -4.22394136e-03
      -1.69998547e-03 -3.14870779e-03 7.51545129e-04 -7.71698484e-04
      4.07467684e-04 6.86078041e-04 -1.80397983e-04 -2.78804428e-03
      -1.66378124e-03 -3.72778741e-03 7.57928763e-04 9.24037304e-04
      1.21302856e-03 3.99995770e-04 -9.77963427e-05 5.03783172e-04
      7.83538097e-04 1.13431318e-03 1.27163366e-03 -6.94982649e-04
      8.76416860e-04 9.00722691e-04 6.64226653e-04 1.17290451e-03
      6.58408040e-04 2.87333038e-04 -3.80773854e-04 -9.42595128e-04
      -3.28682573e-03 -9.93525959e-04 -1.17458368e-03 5.50871715e-04
      1.65328197e-03 4.25015460e-04 1.94265929e-04 -9.88782267e-05
      -3.50645068e-03 -2.05012318e-03 -9.36063705e-04 2.29469777e-04
      1.13614695e-03 2.86566722e-03 2.08428502e-03 1.23767240e-03
      1.39367406e-03 -2.43812357e-03 -1.03681663e-03 7.89095648e-04
      1.06030900e-03 6.14969700e-04 1.62522320e-03 1.03567156e-03
      9.94274393e-04 -1.41080469e-04 -1.53541774e-03 -1.43692794e-03
      1.65887250e-04 1.05225539e-03 9.14074946e-04 1.17678416e-03
      6.76700962e-04 1.73622575e-05 -4.85586846e-04 -1.71925058e-03
      -2.92117172e-03 -1.02068775e-03 1.27261190e-03 1.53906120e-03
      3.10345716e-03 1.29449356e-03 4.55173198e-04 3.72722890e-04
      -3.08789616e-03 -1.97334308e-03 -9.15843702e-04 1.01412507e-03
      4.95087705e-04 2.17493833e-03 1.86213048e-03 7.50572653e-04
      9.42456609e-05 -9.75582632e-04 -2.09953566e-03 4.88119666e-04
      1.41261786e-03 8.37338972e-04 1.46922620e-03 9.26856592e-04
      1.58979368e-04 3.61864368e-04 -1.86979270e-03 -2.41885800e-03
      9.38455632e-04 1.23183394e-03 3.97335796e-04 9.43317427e-04
      9.30650567e-04 -9.01468098e-04 -1.44676678e-03 -2.56920885e-03
      -6.84057479e-04 -1.92219159e-05 7.05732615e-04 1.16591609e-05
      2.16549681e-03 1.28296157e-03 1.25347730e-03 9.71876318e-04
      -2.30802601e-04 3.66859429e-04 1.12619877e-04 -2.55084597e-05
      2.81012966e-04 -1.42935128e-03 -8.99331004e-04 -1.80126764e-04
      -7.13272602e-04 8.47422983e-04 -2.02904665e-03 7.60538387e-04
      8.16362794e-04 -2.69762706e-04 8.51139950e-04 9.04829532e-04
      -2.06680200e-03 -2.12665787e-03 -2.97760428e-03 2.19098700e-04
      3.60277028e-07 -1.89651837e-04 7.29698513e-05 -2.18195748e-03
      5.04900352e-04 -2.68658670e-03 -9.33348550e-04 -2.57879612e-04
      -1.40273839e-03 -9.92851914e-04 -1.20554084e-03 -6.11798256e-04
      -1.04353926e-03 -2.15551304e-03 -2.37328210e-03 -2.76620523e-03
      -2.56150961e-03 -2.70079193e-03 2.23711657e-04 1.27282215e-03
      1.89695123e-03 7.74788728e-04 -5.01073955e-04 -2.63032480e-03
      -3.26465769e-03 -3.77628068e-03 -2.87222117e-03 -1.40280800e-03
      -9.85897728e-04 -4.12534719e-05 3.72267765e-04 -7.74692598e-05
      -1.33116450e-03 -1.36556756e-03 -1.88775302e-03 -2.95272400e-03
      -5.14368876e-04 6.79924551e-06 8.65840761e-04 1.59702625e-03
      -3.90915520e-05 -2.09825463e-03 -2.15621898e-03 -3.26668983e-03
      -3.98248900e-03 3.13053577e-04 2.49471795e-03 2.78748688e-03
      2.43418547e-03 -5.78210864e-04 -2.59325700e-03 -3.22573213e-03
      -6.22286135e-03 -5.40221389e-03 -2.08324753e-03 -4.22854442e-04
      6.65339991e-04 5.69424476e-04 -5.38917920e-05 1.90399078e-04
      -1.02929957e-03 -5.23320027e-03 -3.54181114e-03 -9.38683981e-04
      -9.98716452e-04 6.81113917e-04 1.24193623e-03 7.90535778e-05
      -1.70972303e-03 -1.59995002e-03 -4.06297762e-03 -7.00117555e-04
      -1.78514038e-05 -2.56084662e-04 1.04480959e-03 2.70858698e-04
      1.78130053e-04 -4.90995590e-04 1.67589169e-04 -1.14966545e-03
      -5.45172906e-03 -6.31923974e-03 -1.74343702e-03 -6.74670388e-04
      -4.22850531e-03 -1.85421400e-03 -2.39274278e-03 -4.80382890e-03
      -5.38438419e-03 -2.02452578e-03 -1.50024204e-03 -3.84301093e-04
      -6.63201325e-04 -2.89921043e-03 3.16865247e-04 9.57374694e-04
      -3.44150874e-04 -3.94671224e-04 -1.12698902e-03 -1.14315611e-04
      3.83409904e-04 1.06039015e-03 -7.18294294e-04 2.00637165e-04
      2.40465830e-04 9.40633763e-05 -1.38859439e-03 3.79287667e-04
      1.46465225e-03 3.05961282e-03 2.46493588e-03 1.78276049e-03
      7.96040287e-04 1.60825904e-03 3.66402412e-04 6.17377402e-04
      3.89296561e-04 3.26756475e-04 3.01774242e-04 -1.62291038e-03
      -9.01684538e-03 -1.26308948e-03 4.85046505e-04 9.49555615e-05
      1.00177224e-03 1.07921974e-03 6.41405466e-04 9.58491233e-04
      3.99946439e-04 2.41319509e-03 7.35812238e-04 -5.85869828e-04
      4.69338876e-04 1.53680902e-03 4.84314398e-04 1.12204859e-03
      2.17049569e-03 3.17784282e-03 2.19672002e-04 1.73602975e-03
      1.56351994e-03 2.03130883e-04 2.03205214e-04 3.27138230e-04
      4.83802432e-04 6.89255132e-04 6.25104760e-04 1.29842339e-03
      3.89674562e-04 1.07723859e-03 9.53007722e-04 4.10542241e-04
      7.41139753e-04 9.41638544e-04 1.36143842e-03 1.03856926e-03
      1.00284489e-03 7.79199996e-04 1.39530643e-03 -3.74932366e-04
      1.62684919e-05 -2.44701863e-03 -5.52537676e-04 6.51973125e-04
      6.59992686e-04 1.46234245e-03 5.20987203e-04 -1.08184107e-03
      -1.63743237e-03 -1.84649078e-03 4.39874973e-04 4.56013455e-04
      4.76963149e-04 4.82349104e-04 9.59932804e-04 3.93357564e-04
      1.11912016e-03 9.05734662e-04 6.55819138e-04 9.27226967e-04
      1.53203408e-04 1.49326224e-04 1.51099652e-04 8.69494281e-04
      6.20496518e-04 1.90625619e-03 1.63154444e-03 1.22436392e-03
      -1.70264312e-03 7.20757293e-04 1.15710334e-03 8.39679793e-04
      2.63648387e-03 3.13233584e-04 -2.17414869e-04 -1.12738437e-03
      -2.35991203e-03 -2.86255893e-03 6.02006447e-04 7.99712085e-04
      1.28290747e-04 5.90727432e-04 6.45396300e-04 -1.87416561e-03
      -1.69302057e-03 -3.31092835e-03 1.14299310e-03 4.76414163e-04
      2.93368095e-04 9.86227606e-05 1.00474479e-03 9.25395347e-04
      1.95168261e-03 1.87276502e-03 1.54979853e-03 1.28427194e-03
      1.32134988e-03 1.22237625e-03 4.02470556e-04 4.35558788e-04
      6.61819067e-04 1.11615274e-03 -1.59096089e-05 1.09290518e-03
      -9.09191382e-04 1.47473489e-04 8.58769999e-05 -4.54018213e-04
      5.86892304e-04 5.08724130e-04 -9.25743312e-04 -1.66369812e-03
      -1.91904837e-03 -2.97532137e-03 -1.98867201e-04 -1.13520735e-04
      -5.03637944e-04 -4.41347249e-03 1.10068984e-04 3.27575835e-04
      7.48472172e-04 -2.66528782e-03 9.00131068e-04 1.16820540e-03
      7.95578933e-04 -1.60592754e-04 1.02678873e-03 5.27135562e-04
      9.13769545e-05 2.08711979e-04 5.21016831e-04 -1.77576533e-03
      1.68441783e-03 1.78720418e-03 8.21355323e-04 -3.06977821e-03
      -1.07662124e-03 -4.40066913e-04 -2.36077278e-04 -2.36651907e-03
      -3.23269423e-03 -1.34207716e-03 -1.14098925e-03 2.53761449e-04
      -9.64036793e-04 -2.47802764e-05 -9.98187112e-04 -3.39521765e-04
      -2.48449296e-03 -2.19207793e-03 -5.74812235e-04 -2.97152175e-04
      3.93121009e-04 1.73930812e-03 4.69690451e-04 -1.49195886e-03
      -1.27276371e-03 -1.93761336e-03 -2.58460874e-03 5.26537362e-04
      1.17416121e-03 -5.89026895e-04 -1.15366583e-03 -2.21239679e-04
      -4.99173813e-03 -3.72644980e-03 -4.09887545e-03 4.59099887e-04
      4.09837021e-03 4.62296559e-03 1.97453564e-03 1.74015190e-03
      -8.51419682e-05 -2.39832932e-03 -2.64782389e-03 -1.40152837e-03
      -3.32240760e-03 -2.20341282e-03 -2.32483656e-03 5.98993560e-04
      3.10805370e-03 3.90985486e-04 -9.10299539e-04 -9.61475947e-04
      -3.38815618e-03 -2.44435528e-03 4.63751436e-04 -9.19700979e-05
      1.00595423e-03 9.69970133e-04 1.46791004e-04 1.81868847e-04
      7.18396797e-04 -3.12764803e-03 -1.48118171e-03 2.18116725e-03
      2.30311439e-03 9.85297607e-04 -2.13656633e-04 -1.52641733e-03
      -2.57216999e-03 -4.01265407e-03 -2.06551934e-03 1.10557012e-03
      3.07807885e-03 3.57480696e-03 1.87708775e-03 2.45920662e-03
      7.28512416e-04 6.32905867e-04 -3.57977624e-05 9.21072206e-04
      -1.01966993e-03 3.43304040e-04 2.19895318e-03 1.70863105e-03
      -8.15995212e-04 1.92857507e-04 3.96493240e-04 7.63073040e-04
      -2.20751436e-03 -2.53463339e-04 1.24894606e-03 3.72387166e-03
      1.66787079e-03 -1.51617831e-04 9.90974586e-05 4.16123978e-04
      3.47905036e-04 -1.26302853e-04 -6.14799617e-04 1.47872535e-03
      1.43281720e-03 7.86458026e-04 6.06451416e-04 -3.58122597e-05
      -5.15494903e-04 -7.85940152e-04 -1.07734534e-03 -4.76100977e-04
      1.36460655e-03 1.50501984e-03 5.25240146e-04 -1.83403929e-04
      -3.72255599e-04 -1.57742310e-04 -5.62927569e-04 -9.07538168e-04
      -1.27520261e-03 3.23545979e-03 5.56401163e-03 5.55854104e-03
      1.21826725e-03 2.15322420e-04 2.87622504e-04 2.63601833e-04
      -1.62656640e-03 9.08500515e-04 5.24818781e-04 8.11618287e-04
      5.46880183e-04 1.26348122e-03 3.75281845e-04 1.43886323e-03
      1.43690803e-03 1.43744703e-03 3.93987837e-04 1.01087673e-03
      1.45268207e-03 5.77145373e-04 4.60005976e-04 -1.77024165e-04
      9.34561976e-05 -1.18784257e-04 8.41411747e-05 8.46099938e-05
      2.84742942e-04 9.16888530e-04 8.34141276e-04 8.08513141e-04 0.
      1.61928801e-05 1.01265268e-05 4.71214589e-05 1.23093021e-03
      6.55959710e-04 9.82734142e-04 9.47157154e-04 1.06522697e-03
      2.15218693e-04 3.66234948e-04 3.90567555e-04 1.25978421e-03
      2.29917816e-03 5.01165225e-04 5.81531494e-04 2.38349356e-04
      1.24410598e-03 4.39356256e-04 1.79593568e-03 1.66322652e-03
      2.73417891e-03 2.32125822e-05 1.67882929e-04 5.96739003e-04
      2.60369648e-04 7.98011373e-04 8.92797743e-06 7.08190373e-06
      1.71571219e-06 1.19242040e-05 2.43711605e-04 4.95720073e-04
      5.01228729e-04 3.61031445e-04 1.44815957e-03 1.80423085e-04
      1.97539208e-04 1.31852546e-04 1.42618708e-04 1.61498797e-03
      3.96156160e-04 3.51580209e-04 1.81731193e-05 1.25346484e-03
      4.48664447e-04 1.22822623e-03 7.61231000e-04 1.92220334e-03
      1.41911313e-03 7.29203515e-04 1.05847965e-03 4.50118852e-04
      -4.60240291e-03 1.39875183e-05 -4.42672404e-04 -4.65299498e-04
      1.39160163e-03 4.17919131e-04 4.17597999e-04 4.39207128e-04
      1.00558609e-04 1.22255587e-03 2.97267077e-04 4.33476671e-04
      3.07705574e-04 2.84300622e-04 1.96020422e-03 2.60108151e-03
      4.26431186e-03 4.01706854e-03 7.36369868e-04 6.49533293e-04
      7.53692468e-04 5.20171539e-04 6.39540551e-04 7.50997977e-04
      9.15754237e-04 9.33530333e-04 2.59479450e-04 3.01809632e-04
      -1.57670547e-05 4.31310997e-04 4.49736253e-04 4.89835802e-04
      -1.93339749e-03 9.06451722e-04 1.49727310e-03 2.71767232e-04
      -1.81187433e-03 -1.99702056e-03 -1.33395172e-03 -1.71371305e-03
      -2.51962338e-03 1.09485362e-03 1.25557301e-03 1.86510489e-03
      1.02033024e-03 7.37811497e-04 6.58539357e-04 1.63028264e-04
      3.13100638e-04 5.50652039e-04 -7.95110755e-05 1.89446600e-03
      2.78759305e-03 3.28367460e-03 1.10527815e-03 8.13688821e-05
      -4.26523591e-04 4.59994699e-05 -1.56365059e-04 -1.25367264e-03
      1.98230869e-03 2.76876613e-03 8.57364328e-04 4.61308373e-04
      2.98542349e-04 -3.30479839e-03 -3.78426909e-03 -3.98714794e-03
      3.66164953e-04 2.93973670e-03 3.29758483e-03 4.38805379e-04
      -2.01649009e-03 -1.70252941e-04 -3.12862569e-03 -2.64301756e-03
      -1.57354656e-03 -4.11027716e-03 -9.91327222e-04 -9.15515469e-04
      5.23374416e-04 2.51734746e-04 2.08973465e-03 -1.35648390e-03
      -2.04836810e-03 -3.85352247e-03 -3.84843885e-03 -9.78879048e-04
      -4.89027239e-04 -2.05436052e-04 -2.01138854e-03 -6.79915305e-04
      -3.37936124e-03 -2.91334954e-03 -4.25307034e-03 1.76448055e-04
      1.77058275e-03 2.38765567e-03 4.59502131e-04 -2.32534087e-03
      -5.76709048e-04 -4.05092863e-03 -2.48947949e-03 -1.04684045e-03
      5.98607527e-04 8.77970306e-04 1.36184890e-03 7.51271553e-04
      1.65526464e-03 1.14951131e-03 6.46919594e-04 -3.35177698e-04
      -5.90734999e-05 -3.55866412e-03 -2.22968613e-03 -2.35330313e-03
      -1.74867583e-03 -3.88853531e-03 -1.05152046e-03 -4.65820869e-03
      -3.95611115e-03 -4.08899132e-03 -1.91237894e-04 -8.55218328e-04
      -9.49302863e-04 4.59661707e-04 8.43251939e-04 9.30648588e-04
      9.24174208e-04 2.23914773e-04 -5.12246857e-04 6.82633254e-04
      -3.02577042e-04 -2.36044318e-04 3.06200644e-04 1.71484984e-03
      4.14148788e-04 -1.46903449e-05 -1.01062609e-03 -1.30713643e-05
      7.41729687e-04 3.13307508e-04 1.90354520e-04 6.76490235e-05
      -2.58482527e-04 -9.75136791e-05 -1.56859062e-06 -1.53444707e-04
      5.00417431e-04 -3.42792075e-04 -1.18177803e-03 -1.38205057e-03
      -3.15899873e-04 3.98205710e-04 6.35014439e-04 1.75671908e-03
      1.11820560e-03 -4.45890735e-04 -2.84338044e-03 -6.40561571e-04
      -1.03109726e-03 -1.97547095e-04 -1.02251885e-04 2.27874421e-04
      1.27448456e-03 8.58025742e-04 -2.37136288e-03 7.50025734e-04
      3.73764109e-04 4.56738955e-04 1.41233276e-03 1.16053841e-03
      1.76509231e-04 2.54502665e-04 1.78176924e-04 8.89455550e-04
      2.87926150e-06 3.11889671e-05 6.42862404e-04 3.68230947e-04
      3.45536333e-04 0. 0. 0. 2.87926150e-06 -6.92733936e-03
      -8.28295189e-04 -2.83877191e-04 9.62030841e-04 3.45292571e-03
      2.12597591e-03 1.38617749e-03 3.93426482e-04 -5.74906636e-03
      -4.87656239e-03 5.27161319e-05 5.60037384e-04 6.18465361e-04
      6.52358576e-04 4.00583012e-05 -1.04490574e-03 -2.09688488e-03
      -5.61408605e-03 2.58801811e-06 7.52031410e-05 4.44593024e-04
      3.95540526e-04 7.55028334e-04 2.46948548e-05 2.03132258e-05
      9.84527469e-06 2.21739924e-06 8.63737514e-05 2.37434680e-04
      5.19644294e-04 3.53363052e-04 1.22440129e-03 4.94912150e-04
      6.75678020e-04 6.75678020e-04 6.67296263e-05 -6.04652520e-03
      -3.23459390e-04 1.03486760e-04 5.01669769e-04 -3.51622491e-03
      -1.10716855e-05 -1.15595129e-03 -1.21986936e-03 -6.33643428e-03
      -1.77202874e-03 1.71588676e-03 2.54424545e-03 2.07968405e-03
      3.87195568e-03 5.53862810e-05 2.19789712e-04 2.22690534e-04
      -2.90748384e-03 5.83457004e-04 8.31996673e-04 9.27561894e-04
      6.74231793e-04 1.26592105e-03 1.73511973e-04 5.07258112e-04
      4.99481859e-04 5.43647388e-04 1.08942750e-03 9.03901760e-04
      2.32654042e-03 1.17595412e-03 -4.52389591e-04 9.95089067e-04
      1.06756482e-03 9.70435329e-04 8.74187623e-04 -9.62788938e-04
      1.13671715e-03 2.14246218e-03 9.79329809e-04 1.04037276e-03
      -1.73243752e-04 -1.69084451e-04 3.60766542e-04 -1.43662409e-03
      3.80719081e-03 3.40985204e-03 1.89869443e-03 -2.39241193e-03
      -1.21453649e-03 7.27089297e-04 9.70663037e-04 6.60398800e-04
      2.04445259e-03 2.14503682e-03 1.60938071e-03 2.10023229e-03
      1.71331188e-03 4.88410587e-04 5.19728055e-04 3.57626966e-04
      3.33417614e-04 1.55728427e-03 -1.12043973e-03 1.21006847e-03
      1.18094997e-03 2.31341016e-03 1.71364378e-03 5.74571779e-04
      1.22978410e-04 -2.82079476e-04 -1.34630606e-03 1.87826552e-03
      2.12066039e-03 1.52102788e-03 4.45437676e-04 -1.46622833e-05
      6.29263755e-04 1.20410707e-03 8.34050705e-04 1.32936076e-03
      -4.12653806e-03 -5.84479771e-04 -1.82520633e-03 -5.25493687e-03
      -3.28281848e-03 2.35627711e-04 1.63485040e-03 3.77738645e-04
      -4.84293886e-03 -3.90604488e-03 -7.13299611e-04 -2.71306490e-04
      7.16347015e-04 -4.54392954e-04 9.67016094e-04 -4.38433653e-06
      -5.46185009e-04 -3.64488433e-03 -3.77009902e-03 -1.37196085e-03
      -7.31967972e-04 -9.90897024e-05 -1.27628283e-03 5.02673560e-04
      -6.03651861e-04 -8.61027103e-04 -3.67033551e-03 -1.84654433e-03
      1.05270231e-03 -6.40082057e-04 7.82075163e-04 -9.69112662e-05
      1.92048459e-03 3.97778174e-04 3.49836948e-04 -1.94156938e-03
      -3.52061447e-03 -1.42742065e-03 -1.68610085e-03 1.36394205e-03
      6.31361385e-04 2.95869366e-04 -1.55553629e-03 -2.17212341e-03
      -4.36981674e-03 -1.80617999e-03 -1.55162415e-04 4.80669987e-04
      6.27777132e-04 -1.05712633e-03 3.42034909e-04 -2.68598349e-04
      -6.89200882e-04 -2.54925969e-03 -1.78199378e-03 1.46474922e-04
      9.99510288e-04 8.96006241e-04 2.07471219e-03 1.66588114e-03
      1.56270608e-03 9.49745416e-04 -2.11277348e-03 -5.14299143e-03
      -2.62568099e-03 -2.09344923e-03 2.06843863e-04 9.60710167e-04
      -3.17776758e-05 -1.07777130e-03 -2.86740367e-03 -6.72581093e-03
      -6.01711590e-03 -2.68498319e-03 -8.73372483e-04 6.93748007e-04
      1.19157461e-03 1.07836844e-04 1.73785444e-03 -4.73258755e-04
      -6.08111313e-03 -1.78457052e-03 -2.79220490e-04 1.40986126e-03
      8.62993242e-04 2.58101197e-03 1.76431949e-03 2.07646028e-03
      2.06995918e-03 -7.61130475e-04 -4.30685189e-03 -1.62991800e-03
      -7.65671139e-04 3.36599624e-04 1.81416981e-03 7.88129342e-04
      1.01592159e-03 5.71348995e-04 -2.90125888e-03 -4.89505380e-03
      -3.61426710e-03 -1.47471810e-03 3.85923631e-04 -7.88883830e-04
      2.21503363e-03 3.26327630e-03 1.33208942e-03 -4.54437826e-03
      -9.76356678e-03 -4.77140397e-03 -3.11035733e-03 4.50013526e-04
      7.38143339e-04 1.57222582e-03 2.01868871e-03 1.24150037e-03
      -4.20428859e-03 -4.53685317e-03 -1.58682780e-03 -4.00773861e-04
      1.21401530e-03 3.03209550e-03 1.26275525e-03 -3.13287019e-04
      -1.13756431e-03 -3.57278716e-03 -5.40274428e-03 -9.37994511e-04
      -6.87645457e-04 5.26473101e-04 5.15350781e-04 1.35552895e-04
      -2.06187484e-03 -3.13809258e-03 -5.77054359e-03 -5.49555011e-03
      -4.94591752e-03 -4.37599281e-03 7.86162505e-04 4.52084746e-03
      2.84346193e-03 1.98320858e-03 5.47060336e-04 -4.03339928e-03
      -7.72354612e-03 -4.71004844e-03 -4.12724586e-03 7.04404374e-04
      1.62044587e-03 2.30344129e-04 -2.77232588e-03 -4.91885096e-03
      -7.75071979e-03 -3.86799569e-03 -2.17428696e-05 1.79834271e-04
      4.85156343e-04 2.10809929e-04 -2.18459289e-04 -2.72517186e-03
      -3.16295214e-03 -5.04209101e-03 -1.61424186e-03 -5.05353819e-06
      1.46856450e-03 1.06068968e-03 1.51498639e-03 -3.76993325e-04
      -8.75671161e-04 -8.18099827e-04 -2.19660928e-03 -7.36946194e-03
      -1.59571390e-03 -1.06580893e-03 6.16366684e-04 -1.47834572e-03
      -2.79590767e-03 -5.51187899e-03 -5.64589165e-03 -8.89590289e-03
      -2.48232670e-03 1.27782254e-03 1.90743536e-03 4.37472668e-03
      5.71596087e-04 -3.13234911e-03 -5.86479716e-03 -5.79290977e-03
      -5.59556158e-03 -2.37200948e-04 8.42359092e-04 2.06725369e-03
      1.11080403e-03 1.49953621e-03 -3.98317206e-04 -1.58812362e-03
      -7.13644724e-04 -1.00356003e-03 2.52050976e-03 2.22873734e-03
      1.89095433e-03 1.04793326e-04 1.67442125e-03 1.20707753e-03
      6.16894336e-04 6.97430165e-04 1.39482867e-03 -3.45554133e-03
      9.37800578e-05 7.46746548e-04 1.47126196e-03 -3.22194444e-03
      -4.38519940e-03 -8.26161541e-03 -7.34379143e-03 -5.30573167e-03
      -1.18325255e-03 1.52786740e-03 9.04307642e-04 2.47300457e-04
      -5.42188762e-04 -9.56210133e-04 -4.10068780e-03 -2.39509111e-03
      -2.06841552e-03 3.49865202e-03 3.92931933e-03 2.85709160e-03
      5.67482668e-04 5.79238869e-04 6.42584520e-04 1.11386599e-03
      7.16195209e-04 1.85468362e-03 8.96859157e-04 9.11700539e-04
      -3.66622675e-03 -3.80093767e-03 -2.11586081e-03 4.00049903e-04
      9.51529073e-04 4.18646028e-04 5.40996436e-04 8.08465295e-04
      6.83897058e-04 -1.20736868e-03 -1.03079248e-03 -3.54796392e-03
      -4.53982386e-04 -1.59914547e-03 -4.91669925e-04 1.68298677e-04
      1.62030209e-03 -3.08152009e-03 -5.46344602e-03 -5.39064500e-03
      -3.75650520e-03 -8.25713447e-04 8.43756658e-04 1.14525668e-03
      1.70400972e-03 -2.81997351e-03 1.09799614e-03 6.75646224e-05
      1.04073889e-03 -5.79423038e-04 9.07101785e-04 -1.58020749e-03
      -1.40247832e-03 -3.18468339e-03 -6.34726742e-03 -2.66648526e-03
      -2.73847766e-03 4.22411278e-04 -3.23441200e-04 -1.50913271e-04
      -2.89605092e-03 -3.93238710e-03 -7.15452340e-03 9.36964934e-04
      1.75393315e-03 1.02177635e-03 1.58453500e-03 2.37234286e-03
      1.30407978e-03 6.66995358e-04 1.50966283e-03 2.44241673e-04
      -7.54593857e-05 6.71176240e-04 2.84141512e-04 4.06034058e-04
      1.44400750e-03 1.39475765e-03 1.00683281e-03 5.64622751e-04
      -7.87957048e-04 -7.87716359e-03 -3.23782838e-03 -2.33193603e-03
      1.21098140e-03 1.75390963e-03 3.62149221e-05 -6.58997160e-04
      -3.50355357e-03 -8.66369531e-03 -6.70030760e-03 -2.91769579e-03
      -3.25984583e-04 8.80113279e-04 1.71590538e-03 1.12025882e-03
      2.64564715e-03 2.36474574e-04 -7.16019515e-03 -3.58547375e-04
      -3.71379196e-04 -5.13776722e-05 -6.60817313e-04 2.47979746e-03
      2.94324290e-03 3.94953974e-03 2.16117082e-03 -1.17937685e-04
      -6.59069046e-04 9.24747495e-04 1.12501846e-03 8.54113197e-04
      3.10934731e-03 1.47089106e-03 2.27011391e-03 1.50715758e-03
      -6.40976941e-04 -7.79325562e-03 -5.31596644e-03 -2.73654773e-03
      1.08626205e-03 2.38821236e-03 1.11993344e-03 1.85214321e-03
      6.12642791e-04 -7.16649601e-03 -8.17737356e-03 -7.27214292e-03
      -4.34797257e-03 5.89699368e-04 3.03686736e-03 1.97314727e-03
      2.10474548e-03 1.79762312e-03 -5.57973050e-03 -8.47218733e-04
      1.75269350e-04 -4.95544402e-04 1.04061002e-03 4.40626824e-03
      2.39522336e-03 2.82701897e-03 2.02950090e-03 3.60848091e-04
      -1.42033957e-03 -1.16546093e-04 4.06625768e-05 2.13156734e-03
      4.92809387e-03 1.61269144e-03 2.36542802e-03 2.39550509e-03
      1.54609198e-03 -7.96011090e-03 -6.09672535e-03 -5.20695932e-03
      3.98172502e-04 2.55121989e-03 1.84318819e-03 1.48949714e-03
      2.96864659e-04 -6.03143871e-03 -8.85027274e-03 -4.46754647e-03
      -3.44382669e-03 5.16758417e-04 4.75208566e-04 -4.91772662e-04
      -3.89660336e-03 -5.26014902e-03 -7.86515139e-03 5.11763094e-04
      7.57212401e-04 2.36730077e-04 2.94128736e-03 5.47820935e-03
      2.56971992e-03 3.05445283e-03 3.11888359e-03 2.79851397e-03
      1.89426297e-03 2.09571401e-04 1.07907841e-03 1.67827099e-03
      2.95114424e-03 1.83653890e-03 1.89426274e-03 1.50767120e-03
      2.63786409e-03 -4.79089562e-03 -2.03058333e-03 -1.59592391e-03
      3.02184169e-04 -1.28149695e-03 -1.38292462e-03 -3.63979768e-03
      -3.88072571e-03 -6.46744017e-03 -3.76337836e-03 -1.52633048e-03
      -2.13225675e-03 6.27750938e-04 -2.94559356e-03 -2.99169566e-03
      -4.87663411e-03 -3.73386871e-03 -5.04574133e-03 1.35684363e-03
      8.34158345e-06 8.92624375e-05 1.99199174e-04 2.36306014e-03
      1.85332983e-03 2.71004415e-03 2.07470381e-03 2.69019767e-03
      4.05628467e-03 2.62223044e-03 1.16935116e-03 5.87273797e-04
      3.13440687e-04 7.56140798e-05 2.48584984e-04 7.91408005e-04
      3.41767818e-03 -5.80950233e-04 2.16097990e-03 1.30180630e-03
      1.94980588e-03 -3.24456277e-03 -2.07830290e-03 -4.51174285e-03
      -2.34738830e-03 -2.10442743e-03 -4.30083106e-04 -4.46264712e-05
      5.92603290e-04 8.50001106e-06 -4.48916247e-03 -1.24576245e-03
      -3.40806367e-03 -9.61770478e-04 -6.62472157e-04 2.67081312e-03
      5.52556827e-04 -9.52603004e-04 -1.74705440e-03 -3.24638397e-03
      5.17967565e-04 4.29026433e-04 1.09916518e-03 2.40088115e-03
      2.21244060e-03 6.54347677e-05 -1.27734162e-03 3.74684372e-04
      -4.32852563e-03 2.33670115e-04 1.35199749e-03 1.66940526e-03
      2.19116011e-03 1.28355692e-03 -4.57991729e-04 -1.50501786e-03
      2.14883388e-04 -1.40381558e-03 -1.66201484e-04 -1.06324069e-03
      2.74599064e-04 1.56068930e-03 1.14643574e-03 -2.53350614e-03
      -4.77706688e-03 -2.91802385e-03 -2.85980501e-03 4.91928426e-04
      1.25504308e-03 1.48474798e-03 1.87569158e-03 6.64123392e-04
      -1.87492336e-03 -3.05951945e-03 -2.09127809e-03 -3.89314163e-03
      3.57618061e-04 1.05848582e-03 8.73792625e-04 1.13088102e-03
      1.45052676e-03 -1.32286781e-03 -4.78208670e-03 -3.06650857e-03
      -3.11362534e-03 -1.09394350e-04 5.18521585e-04 1.06481323e-03
      1.91375753e-03 7.67925172e-04 1.37834309e-03 9.56903794e-04
      9.53458541e-04 1.50778343e-03 7.36466201e-04 7.13316782e-04
      8.72396631e-04 8.53756035e-04 5.08278317e-04 -4.86007601e-04
      6.11754740e-06 8.98272046e-05 3.41534871e-03 2.82114767e-03
      2.46249139e-03 1.21150527e-03 1.11493736e-03 4.66684840e-04
      7.92154635e-04 4.92755848e-04 8.26131582e-05 4.92439023e-04
      6.68903289e-04 2.02554441e-03 8.61855515e-04 3.43993102e-04
      4.04383318e-04 1.30814943e-03 1.15066324e-03 8.04125273e-04
      3.27624753e-03 1.55681220e-03 1.92735146e-03 1.28948642e-03
      5.39901201e-04 -1.01752963e-03 -3.10018600e-04 -1.00560836e-03
      -2.76502135e-04 2.57461076e-03 1.89012068e-03 2.11632461e-03
      1.29421300e-03 -9.44154628e-04 -1.71257788e-03 2.40889523e-04
      7.54518958e-04 5.13308332e-04 4.59347712e-03 1.97087019e-03
      2.81978655e-03 2.14604288e-03 -3.39429767e-04 7.80317467e-04
      1.56516380e-05 5.97263628e-04 8.84821056e-04 4.35871538e-03
      2.04215455e-03 1.58138725e-03 1.99556095e-03 1.00922189e-03
      2.25259014e-03 1.28006667e-03 1.84443675e-03 2.03361339e-03
      6.13842113e-03 2.22786446e-03 3.09052411e-03 2.57613137e-03
      3.11963866e-03 -1.81496213e-03 -6.60730584e-04 -7.27717918e-07
      1.18528050e-03 9.43252933e-04 1.16941577e-03 1.81490637e-03
      1.42857677e-03 -1.16096484e-03 -2.16088234e-03 -2.91944802e-04
      -5.03457966e-04 5.03826712e-04 3.44180735e-03 2.13262998e-03
      2.91719078e-03 2.34549027e-03 7.87455530e-04 2.68051471e-03
      1.44370552e-03 1.93429505e-03 1.73280365e-03 5.47169009e-03
      2.39601615e-03 3.11268494e-03 2.94698006e-03 4.14248882e-03
      3.17732082e-03 2.89621763e-03 1.05515146e-03 9.81969992e-04
      4.84982319e-03 2.29597930e-03 2.12059473e-03 2.89415405e-03
      3.83284851e-03 -4.16635396e-03 -3.17068421e-03 -2.59780558e-03
      1.31081149e-03 3.95566458e-03 2.07602535e-03 2.75327032e-03
      2.13841698e-03 -4.69575112e-04 6.85778738e-04 -5.79221873e-04
      -3.02907574e-04 5.03074087e-04 9.40323480e-06 2.44991900e-03
      3.00861732e-03 2.26583984e-03 2.47046142e-03 2.83730589e-03
      3.08266142e-03 3.56933312e-03 1.92533317e-03 5.19464165e-03
      2.50395411e-03 2.78433017e-03 3.63338017e-03 3.44822672e-03
      4.01429739e-03 3.65362945e-03 2.41019251e-03 1.49603048e-03
      9.78176366e-04 1.33344973e-03 1.72431930e-03 2.81640701e-03
      4.26781829e-03 -2.18477822e-03 -2.22618529e-03 1.40635020e-04
      7.55026354e-04 -1.04047207e-03 1.07466162e-03 1.88552798e-03
      1.35861745e-03 1.93987414e-03 7.26090919e-04 2.34490817e-05
      -7.36344547e-04 -1.89263979e-03 -1.44473789e-03 1.08230289e-03
      2.16099783e-03 1.47768308e-03 1.67249131e-03 3.38571193e-03
      2.24552304e-03 2.21264712e-03 6.15093275e-04 1.67403312e-04
      1.41162542e-03 1.68621913e-03 2.23522261e-03 3.59183457e-03
      2.06426298e-03 1.72643946e-03 1.58835406e-04 -8.69723503e-04
      -1.12694234e-03 -1.07718073e-03 -4.03372454e-04 5.47834439e-04
      2.57148384e-03 1.50305370e-03 -1.34615999e-04 -9.18324877e-05
      4.06516891e-04 -2.27664993e-03 2.16502362e-04 1.32147165e-03
      1.13313878e-03 1.50207931e-03 1.95882213e-03 3.50210699e-04
      -1.57204946e-03 -1.09742198e-03 -6.97456254e-03 -1.00569963e-03
      -1.23583290e-04 1.10328605e-03 1.35790696e-03 1.29664363e-03
      7.36531627e-04 3.49252696e-05 -7.22662138e-04 -1.64482335e-03
      -4.41067852e-04 -1.29674212e-04 7.45529658e-04 1.69861037e-03
      2.87309708e-03 1.27880380e-03 -2.31374448e-04 -7.48851453e-04
      -7.10851187e-03 -3.27433413e-03 -2.49352469e-03 2.30426129e-04
      2.39767623e-03 1.71362970e-03 -1.33451936e-03 -5.76140871e-03
      -1.44481694e-03 -6.33487431e-03 8.22723014e-05 1.22078462e-03
      1.31435064e-03 1.58797065e-03 2.10055383e-03 -1.38859497e-04
      -2.83213984e-03 -1.47913012e-03 -4.40086797e-03 3.02562490e-04
      5.80751221e-04 1.16997259e-03 2.02471507e-03 1.93783711e-03
      6.33496908e-04 -1.86497264e-03 -2.02702172e-03 -6.62881183e-03
      -2.07046792e-03 -1.11815264e-03 2.54540471e-04 1.45772076e-03
      2.26338650e-03 1.04639772e-03 -9.93242487e-04 -1.32121670e-03
      -4.29975428e-03 4.18514974e-04 9.12078889e-04 1.04584033e-03
      1.86175259e-03 -1.68673985e-03 4.67460166e-04 -9.01252730e-04
      3.77809600e-04 -2.28799472e-04 8.51318400e-05 -2.55586037e-05
      4.38772549e-04 -7.57909962e-04 -1.60329673e-03 2.64974573e-04
      -4.68947874e-05 1.07851101e-03 2.50075711e-03 4.50062944e-05
      -3.84794839e-04 3.48680915e-04 -2.27151695e-03 -3.54801887e-03
      -1.03578076e-03 -1.95007492e-03 -4.91618011e-05 -2.04865122e-03
      -8.89807299e-04 -1.67269644e-03 -3.82798986e-04 -2.87168915e-03
      -1.30512845e-03 4.99127142e-04 -2.73947197e-04 2.58553168e-03
      -2.83853291e-03 6.44583779e-04 -9.37587989e-04 -3.35887016e-04
      -1.37897045e-03 -9.30793642e-04 1.19140360e-03 -7.99258487e-05
      8.57939129e-04 1.01041328e-03 -3.30783660e-04 -9.98425880e-04
      2.24604024e-04 -2.08269013e-03 -1.21504022e-03 2.34156940e-03
      8.13534643e-05 3.97822936e-04 -5.85457077e-04 -1.41339851e-05
      -6.93366281e-04 -9.82048688e-04 -2.25583813e-03 -2.37465510e-03
      2.14999192e-04 -1.59538584e-03 6.23972446e-04 6.83634717e-05
      -6.04069392e-05 -1.09016988e-03 -6.13400945e-04 -2.49593030e-03
      -2.40074610e-03 3.64287815e-04 -3.37103906e-04 -4.55623318e-04
      -1.48103817e-03 -2.64116625e-05 -2.21609324e-03 -1.22281676e-03
      -3.09573743e-03 -1.29689672e-03 1.85657933e-03 2.23880692e-04
      -1.44028408e-03 -2.16745841e-03 -1.50088826e-03 -1.24670158e-03
      -4.44018224e-04 -1.91164797e-03 9.98729374e-04 3.61745944e-03
      2.21325178e-03 -1.24604660e-04 -8.30209989e-04 2.56832049e-04
      2.99325911e-04 1.93112891e-03 4.22397599e-04 -2.20772857e-03
      4.53212677e-04 -8.71688419e-04 -7.07513478e-04 -3.51932296e-03
      -1.34643156e-03 -2.69252155e-03 -1.10059534e-03 -2.55443458e-03
      7.48439925e-05 1.49455201e-03 3.48677975e-04 8.75205500e-04
      -4.01972575e-05 9.86758620e-04 1.87141681e-03 2.27423222e-03
      7.39257026e-04 8.95059144e-04 4.95468453e-03 3.30122560e-03
      7.04721431e-04 -3.83948849e-04 -2.58387823e-04 -2.18626740e-03
      -1.13703613e-03 -3.58804944e-04 -1.15919649e-03 2.67346599e-03
      1.25045399e-03 8.70488235e-04 1.86190510e-03 -1.20792552e-04
      -3.67289758e-03 -3.77199287e-03 -1.58777193e-03 2.70352204e-04
      6.65560889e-04 3.05774214e-04 9.63976636e-05 4.89963451e-04
      6.72428811e-04 1.39923720e-03 1.24129967e-03 5.62344212e-04
      -6.14184479e-04 1.04388187e-03 -4.60352923e-04 3.76532873e-04
      8.70327058e-04 5.15122723e-04 7.58209266e-04 -3.31973133e-04
      -1.11777766e-03 -7.79811060e-04 5.63098700e-04 -6.09487994e-04
      1.16976153e-03 3.24469991e-03 -9.46693326e-05 -4.01536049e-03
      -2.86582648e-03 -9.76807903e-04 -1.57080917e-03 -1.71992194e-03
      -1.44033262e-03 4.92950494e-04 1.98284211e-03 1.09362206e-03
      3.54004849e-04 3.16810241e-04 -1.89698441e-03 -1.25442015e-03
      7.26297440e-04 -3.66756576e-04 3.91334819e-04 1.75529346e-03
      6.12226315e-04 1.79300929e-04 1.08951528e-04 -1.24232739e-03
      -3.68947955e-03 2.64538194e-05 -1.39763462e-04 4.66429396e-04
      8.32567166e-04 7.26471480e-04 2.14950400e-04 -4.93603176e-04
      -2.98629492e-03 -3.18733463e-03 -1.87228085e-03 -9.46319560e-05
      1.33356266e-03 -4.27451741e-05 1.06938416e-03 1.55958219e-03
      1.15750078e-03 -2.40426208e-03 2.20021117e-03 8.50685930e-04
      1.05180184e-03 9.21163009e-04 1.20670383e-03 1.86105364e-03
      7.64648605e-04 1.57937349e-04 9.59138793e-04 -3.45563213e-03
      -1.01974649e-04 -1.03573466e-03 2.99617968e-04 6.82474580e-04
      1.04887679e-03 9.86184110e-04 4.56593043e-05 -2.45316909e-03
      -1.13936397e-03 3.57592973e-04 1.30784820e-05 -7.43765559e-05
      3.89630557e-04 3.74559721e-04 -7.48153834e-04 -1.82509748e-03
      -2.15395750e-03 1.14499219e-03 1.36586244e-03 -1.06556676e-04
      5.31245969e-05 2.19253101e-03 2.14199582e-03 -1.52948502e-04
      8.93862452e-04 6.47056731e-04 -8.01768678e-04 4.87150333e-04
      4.14774084e-04 2.40478712e-05 -5.49155171e-04 2.95737671e-04
      -4.99604852e-04 -3.11726704e-04 2.06334098e-05 -1.49598438e-03
      2.88157695e-04 1.21137113e-04 -6.36254088e-04 9.77517455e-04
      1.23985484e-03 -1.34955475e-03 -2.89253076e-03 -2.42371485e-03
      -9.13060736e-04 1.41901046e-05 -5.18974266e-04 -5.76412480e-04
      -3.16223362e-03 7.16069189e-04 -2.73211254e-03 -1.10967492e-03
      -1.02549209e-03 -2.62428261e-03 -1.47978135e-03 -2.43880856e-03
      -7.33314257e-04 -2.06487742e-03 -1.33757188e-03 -9.20690014e-04
      4.27060033e-04 -1.26218074e-03 -1.34410488e-03 -3.88004555e-05
      -1.16011623e-04 2.70132232e-03 2.71292920e-05 2.11594254e-03
      5.27874567e-04 1.84720394e-03 -1.06698018e-03 -1.19591469e-03
      -1.27653079e-03 -3.11397715e-03 -2.13448657e-04 -1.21941778e-03
      3.24020861e-04 -7.27216175e-05 8.98803468e-04 -8.52438621e-04
      -3.53241921e-03 -3.08128376e-03 -2.81453296e-03 1.49195280e-03
      -2.24650162e-03 2.81535118e-04 -1.04611833e-03 -8.64545116e-04
      -2.91720382e-03 -2.12760130e-03 2.44013536e-05 -8.15028790e-04
      2.31966190e-03 -9.51685361e-04 1.10491994e-04 -2.56166537e-03
      -1.70662836e-03 -2.54169921e-03 -1.77285576e-03 -7.57630856e-04
      -1.01165310e-03 -3.36910569e-04 -1.57545612e-03 4.07322979e-04
      -2.03780364e-03 -4.64773853e-04 -2.55237101e-03 -2.99049541e-03
      -2.15797266e-03 -2.23726337e-03 -3.15123762e-04 -1.28250010e-03
      8.81471715e-05 -2.17963802e-03 -1.81989721e-03 -1.90229935e-03
      -1.00033729e-04 6.39248639e-04 7.41895288e-04 7.87791464e-07
      -7.37252121e-04 -1.33902839e-04 -1.07239326e-03 -1.20593386e-03
      -2.44176103e-04 -5.15190512e-03 -2.28966540e-03 -2.56680092e-03
      -1.38761802e-03 -3.50039802e-03 -1.49265269e-03 -3.02985660e-03
      -1.69327285e-03 -4.31697862e-03 -5.08687750e-04 -1.69918625e-04
      4.33491106e-04 4.13006928e-04 -3.81722493e-04 1.62886491e-03
      2.57337210e-03 1.74723484e-03 -5.78043073e-05 -9.24273394e-04
      3.05554677e-05 1.00502663e-03 1.00104918e-03 -1.62332517e-03
      3.40372964e-04 1.10778667e-03 -5.45500254e-04 -8.62310815e-04
      -2.54679646e-04 1.50447281e-03 3.28604574e-03 2.12987512e-03
      1.54617650e-03 1.04587059e-03 1.91348791e-03 1.83499054e-04
      -5.58728178e-04 -1.60980388e-03 -3.31611605e-04 8.55025661e-04
      4.22544894e-04 -1.23715517e-03 1.93796947e-03 3.12558468e-03
      1.58153102e-03 -1.17092486e-03 -2.04297598e-03 7.05486396e-04
      1.39081280e-03 2.35291882e-04 2.02266267e-03 1.51645322e-03
      2.38166517e-03 -1.09248111e-04 -7.18855823e-04 -1.52689556e-03
      1.36438839e-03 4.02861228e-03 3.20164813e-03 3.18352878e-03
      2.07440765e-03 2.22225278e-03 4.66239813e-04 -1.73808436e-03
      2.92839628e-04 2.52290134e-04 6.55705284e-04 5.09008940e-04
      1.36459596e-03 5.26987424e-04 1.06402382e-03 6.92083209e-04
      5.07256482e-04 -7.56794412e-04 1.25434878e-03 1.89031067e-03
      -1.01750647e-03 1.96042983e-03 9.06947185e-04 1.45276077e-03
      1.72745436e-04 -1.19490270e-03 -4.61993273e-03 7.61777337e-05
      -9.97132738e-05 3.35263321e-04 -4.23965626e-04 1.12153852e-04
      -1.07566419e-04 -2.42845737e-03 -3.66981723e-03 2.91395176e-04
      1.58568233e-04 4.35324037e-04 4.38670308e-04 1.20203209e-03
      8.25443887e-04 1.14524318e-03 9.48626548e-04 4.83081269e-04
      4.90983424e-04 6.62643288e-05 4.58120776e-05 3.49114162e-05
      7.64404132e-04 6.47407025e-04 2.36629276e-03 1.80391094e-03
      8.73100536e-04 -5.44060953e-03 -2.05787746e-05 2.49513687e-04
      3.52349540e-04 -1.95324465e-04 1.23935824e-04 2.83434900e-04
      -7.84479664e-04 -5.95585257e-03 -1.77951320e-03 -6.56265693e-05
      4.60850919e-04 -2.79557746e-04 2.77367118e-03 1.15080446e-03
      -2.19817070e-04 -1.22628908e-03 -2.00918177e-03 8.26109550e-04
      1.14538670e-04 9.01133317e-05 8.83399916e-05 1.39286439e-03
      1.37522875e-03 2.42789974e-03 1.62237918e-03 1.12390309e-03
      2.85049668e-04 7.63392018e-05 4.43403314e-06 1.15369890e-04
      4.57991089e-04 1.22354555e-04 2.59546796e-04 -2.98162158e-05
      -1.77281006e-04 -1.04095205e-03 -4.90848943e-05 -1.00482437e-04
      -5.26066346e-04 -7.44501085e-05 6.71214482e-04 -5.10472339e-04
      -9.68920416e-04 -2.01151823e-03 -1.37660850e-03 -5.43624221e-04
      -2.75577931e-03 -1.89524388e-03 -2.76377262e-03 -4.63750272e-04
      -3.67810391e-03 -9.28437294e-06 -1.75109319e-03 5.37310378e-04
      4.67816979e-04 7.82133022e-04 2.39378802e-04 4.72075306e-04
      1.07173040e-03 1.05573435e-03 6.24011271e-04 7.24431156e-05
      -9.69417044e-04 1.40129530e-03 -6.51511073e-05 1.68377126e-04
      -3.52152181e-03 -1.22628151e-03 -2.37147603e-03 -1.57350150e-04
      -1.22122827e-03 -1.22335751e-03 -7.50924693e-04 -1.96403917e-03
      7.58056412e-05 -5.36742082e-05 4.64453566e-04 -1.46287726e-03
      -5.05094416e-04 -8.53197300e-04 -9.82450088e-04 -1.21095905e-03
      -6.14575110e-04 4.56083217e-04 1.04978401e-03 9.42364277e-04
      -7.41967233e-04 -1.07878551e-03 -9.44242522e-04 -3.31567228e-03
      6.72662805e-04 8.65195529e-04 5.05770091e-04 -2.27512341e-04
      -3.91017762e-04 -4.54800995e-03 -4.15968103e-03 -4.38250229e-03
      -1.26235373e-03 2.29068170e-03 2.04537832e-03 1.41117768e-03
      2.39608134e-03 5.27095050e-04 -2.30389554e-03 -1.87503011e-03
      -2.99414387e-03 -8.95882666e-04 -2.39892150e-04 3.11818236e-04
      7.75144319e-04 2.10329914e-03 7.58586102e-04 -2.98630010e-04
      -7.25457852e-04 -1.08602445e-03 3.39843886e-04 9.21681058e-04
      5.92174940e-04 5.18201909e-04 4.46279388e-04 5.38320346e-05
      -1.19222314e-04 -3.42363986e-04 -4.94028849e-04 -3.01080011e-03
      1.40552281e-03 -5.49406337e-04 -3.21728148e-04 -6.15966506e-04
      4.07848012e-04 -2.09811982e-03 -2.74005486e-03 -2.47580814e-03
      4.21327248e-04 3.00932094e-03 1.66860025e-03 1.71812810e-03
      1.68859004e-03 -4.07128275e-04 -9.39737249e-04 -9.01163963e-04
      -4.02546139e-04 1.33002654e-03 1.92829629e-03 1.89765531e-03
      2.39410158e-03 1.04819410e-04 3.30815283e-06 4.49949061e-04
      -1.77111709e-04 4.70024621e-04 1.81515410e-04 2.25625001e-03
      3.37314024e-03 2.04468495e-03 7.15470000e-04 3.10663250e-04
      3.98272561e-04 -7.63161079e-05 -3.53090320e-04 -1.03473745e-03
      1.79786130e-03 1.15238130e-03 1.13973925e-04 -9.15412616e-04
      -2.24699732e-03 -2.55218265e-03 -1.77801982e-03 -1.80527242e-03
      8.37055908e-04 1.43478077e-03 1.92135700e-03 6.06490532e-04
      4.29976280e-05 -6.56019198e-04 -1.15509301e-05 3.20927677e-04
      6.67789078e-04 -7.63898017e-04 3.52122588e-03 5.23118069e-03
      4.17449698e-03 1.59194681e-03 1.17625261e-03 8.61588225e-04
      5.12051301e-05 -1.19783834e-03 4.49277810e-04 4.80346498e-04
      7.29047228e-04 4.71265725e-04 1.54246273e-03 2.93457648e-04
      8.51432618e-04 1.50455080e-03 5.50932251e-04 6.17363257e-04
      9.39048012e-04 1.86736940e-03 5.40250563e-04 2.37256940e-03
      3.04457964e-04 5.90894022e-04 2.45892559e-04 8.74723017e-04
      2.47099641e-04 8.58024752e-04 8.07844568e-04 7.24621932e-04
      1.54757965e-03 3.27493467e-07 6.51453945e-07 1.12312563e-07
      2.27060547e-04 7.66878889e-04 3.94481438e-04 7.13948801e-04
      6.27736503e-04 1.49438484e-03 2.34930500e-04 7.25065824e-04
      5.36484702e-04 8.73844663e-04 9.49354086e-04 2.83473113e-04
      5.11181715e-04 1.69602019e-04 1.99735886e-03 1.23298366e-03
      2.43690889e-03 1.93618354e-03 1.29055150e-03 1.35949536e-04
      6.14373886e-04 1.02076086e-03 5.55038860e-04 7.44148390e-04
      3.76976714e-05 4.11543588e-05 1.43051775e-05 9.16463323e-05
      2.15032953e-04 5.33069368e-04 1.22303551e-03 6.52225339e-04
      6.94118033e-04 6.70106892e-05 5.85969072e-04 5.11291786e-04
      3.10645933e-04 5.48067153e-04 2.63683673e-04 3.75551434e-04
      2.98145955e-04 9.83318547e-04 8.76412960e-04 1.81065814e-03
      1.21862011e-03 7.83872732e-04 -3.83249309e-04 1.81591793e-04
      2.19114110e-04 2.44731491e-04 1.39492506e-03 1.75024976e-03
      1.36767130e-03 4.56839392e-04 -5.45243034e-03 3.03205539e-04
      3.04009736e-04 1.19283306e-03 7.64639699e-04 8.34850478e-04
      1.35664071e-04 5.84448921e-04 5.35923755e-04 4.85458208e-04
      1.67585944e-03 1.83129404e-03 2.27310392e-03 2.29742401e-03
      2.68843956e-03 5.55904116e-04 9.14049975e-04 9.03009786e-04
      1.55802886e-03 7.47478916e-05 4.30414220e-04 9.88591579e-04
      6.87280728e-04 3.19241110e-04 4.89589933e-04 7.51087209e-04
      1.17109332e-03 -1.11113019e-04 -1.26024964e-03 1.56146334e-03
      -1.60233642e-04 5.27342840e-04 -5.49211353e-03 -2.98335869e-03
      -1.07529003e-03 -4.07672545e-04 -1.85169105e-03 6.97175157e-04
      1.38953025e-03 2.05872417e-03 1.56839960e-03 2.58750794e-03
      5.52824698e-04 8.06043798e-04 1.03153673e-03 4.64243378e-04
      1.04240712e-03 2.90278136e-03 7.77828449e-04 2.01882282e-03
      -2.93480558e-03 -1.85801799e-03 -1.78384164e-03 -1.58874638e-04
      9.77149029e-05 -1.82383519e-03 2.18214886e-03 3.46394815e-03
      1.35499833e-03 1.16646395e-03 2.48866254e-05 -2.86565232e-03
      -3.62959178e-03 -4.06097015e-03 -2.27286224e-03 1.46653631e-03
      1.53789541e-03 6.92604401e-04 2.24261647e-04 3.09363240e-05
      -3.14780767e-03 -2.94149970e-03 -3.19143431e-03 -2.99723959e-03
      8.55220016e-04 -1.17281219e-04 -5.73172525e-04 9.86415398e-05
      1.79229164e-03 9.58633100e-05 -9.37227742e-04 -2.82877963e-03
      -2.85164081e-03 8.19544148e-05 -1.62806804e-03 9.21953004e-04
      -5.51266712e-04 3.94055212e-04 -1.42713601e-03 -1.04669947e-03
      -3.52221774e-03 -2.34869379e-03 1.77562144e-03 3.52969219e-04
      3.48511938e-04 -1.55253883e-03 -8.59656837e-04 -2.74085486e-03
      -2.76995357e-03 -2.68075964e-03 6.36141112e-06 1.37595122e-03
      8.85602261e-04 5.52936574e-04 8.93590914e-04 -6.32559386e-05
      -3.77313350e-04 -2.96523445e-04 -4.36375674e-04 -4.30072285e-03
      -1.24903780e-03 -3.56999645e-03 1.13913502e-05 -4.87914105e-04
      -1.41926284e-03 -1.49945007e-03 -1.25889434e-04 -4.42476152e-03
      -1.85813964e-03 -2.32812876e-04 -1.65153979e-05 2.33979794e-04
      1.44829624e-03 7.76939152e-04 8.22161208e-04 8.57563689e-04
      -2.10041413e-03 3.06590140e-04 7.17397779e-04 2.21667113e-04
      -2.75372819e-04 -2.29474128e-04 -1.09138584e-03 -1.05716567e-03
      -3.24315013e-04 -9.30277311e-05 7.28927029e-04 7.33789231e-04
      7.39807496e-04 2.76063838e-05 -1.69203384e-04 -8.55889739e-05
      3.59643251e-04 4.15099057e-04 7.51905318e-04 -1.99357234e-03
      6.43596984e-04 -3.24050750e-04 -2.12161522e-03 1.03434268e-03
      1.90029634e-04 3.97206168e-04 1.93685395e-04 -1.89949945e-03
      -2.61291652e-03 -4.26200684e-04 -3.25437286e-04 7.67156947e-04
      5.30353049e-04 4.54936438e-04 7.63456686e-04 3.05147318e-04
      -2.26527336e-03 1.28314318e-03 1.13054481e-03 2.01654527e-03
      6.77502889e-04 2.74189352e-03 1.81332231e-04 4.38465475e-04
      5.66683011e-04 1.19425438e-03 1.76827307e-04 1.66130994e-04
      3.20570776e-04 3.99030017e-04 1.45401678e-03 2.58409023e-06
      9.87467388e-07 1.42400143e-06 5.42950183e-05 -6.29360555e-03
      -2.01497623e-03 -4.53364220e-04 7.42002390e-04 3.31437541e-03
      1.01046974e-03 1.11523294e-03 -1.90647051e-03 -5.44615928e-03
      -4.81340429e-03 -1.26925833e-03 -1.00452756e-03 3.71393893e-04
      1.64215802e-03 -2.65886811e-05 -8.78037361e-04 -1.77919655e-03
      -5.23900054e-03 2.03883159e-04 3.93229071e-04 4.99901187e-04
      5.21454553e-04 8.96557001e-04 7.84947260e-05 8.41629735e-05
      7.90018457e-05 2.01256145e-04 3.85841558e-04 4.48370643e-04
      8.67315510e-04 5.79944695e-04 7.99072906e-04 1.00921774e-04
      7.00393459e-04 5.99412306e-04 5.51105361e-04 -5.93643915e-03
      -6.64127438e-05 -1.27215899e-04 3.81965598e-04 4.92644285e-05
      -1.81817886e-04 -1.01835886e-03 -1.87319657e-03 -5.95954899e-03
      -2.29106005e-03 2.75091827e-03 3.51359020e-03 1.31779094e-03
      3.13881785e-03 -1.14201830e-04 -2.44764466e-04 -4.14125243e-04
      -2.41503050e-03 3.41980543e-04 2.65095121e-04 6.71967631e-04
      1.55785994e-04 2.50870129e-04 1.37848965e-05 9.28109745e-04
      9.44875763e-04 6.84065162e-04 1.14981923e-03 1.19865488e-03
      2.30760360e-03 1.27598282e-03 2.45393557e-03 7.43186800e-04
      1.29816355e-03 1.18215836e-03 1.03131100e-03 -3.27188848e-03
      1.06146850e-03 2.49720039e-03 6.65010477e-04 -1.33577400e-04
      -7.30263419e-04 -3.22969921e-04 -2.39662695e-04 -3.51231289e-03
      1.43700582e-03 2.44282931e-03 3.65618704e-04 5.59005246e-04
      1.77504332e-03 4.03382699e-04 3.78971046e-04 1.19192398e-03
      1.82807422e-03 1.21984002e-03 1.92937802e-03 2.18821946e-03
      1.70895329e-03 3.11078876e-03 5.19959023e-04 8.30648234e-04
      6.77739910e-04 5.88409486e-04 -8.00012378e-04 9.07024893e-04
      -4.02796955e-04 2.02974258e-03 -1.69347913e-03 -2.92817480e-03
      -2.90756323e-03 -1.34447170e-03 -1.89562992e-03 2.13044626e-03
      8.92870827e-04 5.73795405e-04 2.95734179e-04 1.42729224e-03
      6.91453926e-04 1.79871032e-03 1.43593922e-03 2.27626436e-03
      -4.59618575e-04 -2.85684643e-03 -4.77807131e-03 -2.32015364e-03
      -3.44521669e-03 3.10511350e-05 1.58737414e-04 1.57596706e-03
      -8.59250140e-04 -2.15093209e-03 -4.51044529e-04 -1.88927026e-03
      -2.42630322e-03 -2.17737560e-03 9.79600358e-04 -7.80343369e-04
      -5.61107998e-04 -2.24652723e-03 -3.04947305e-03 -1.50990149e-03
      -2.70614657e-03 1.15534254e-04 3.28609458e-04 1.73545082e-03
      9.28610563e-04 1.15805026e-03 -3.42001393e-03 -1.65949902e-03
      8.20891582e-05 -1.03309937e-03 -5.41037356e-04 -1.25636370e-03
      1.53593929e-03 -1.59211596e-03 -1.65728701e-03 -1.70845736e-03
      -3.74964694e-03 -2.94257118e-03 -1.64903828e-03 1.32672128e-03
      1.52663118e-03 1.23675691e-03 -7.27705774e-04 -1.07712205e-03
      -3.63126094e-03 -3.33456974e-03 -4.04862658e-04 -1.93852861e-03
      1.76108466e-03 1.29767694e-03 8.53822450e-04 4.37269046e-05
      6.24912966e-04 -3.02232942e-03 -2.69222679e-03 8.02566865e-05
      1.64071171e-04 8.18258210e-04 3.65063129e-03 1.15721021e-03
      6.94836373e-04 3.17722297e-04 -3.36238160e-03 -3.17710917e-03
      -3.06300935e-03 -2.08020350e-03 8.49351753e-04 3.60192847e-03
      1.86232419e-03 2.52328377e-04 -5.67493902e-04 -3.82722751e-03
      -5.63747622e-03 -3.96723906e-03 -3.45478905e-03 -5.18830275e-05
      6.07823313e-04 1.06635049e-03 -1.55647902e-03 -1.61346188e-03
      -5.62127726e-03 -1.70942943e-03 7.49651692e-04 7.78697577e-05
      8.01966700e-04 2.90827383e-03 9.44413769e-04 9.44359461e-04
      5.98840648e-04 -1.68485218e-03 -4.38324921e-03 -2.08301912e-03
      -4.30782326e-04 1.01807388e-03 2.00862624e-03 1.01580983e-03
      1.00602547e-03 -1.41740238e-04 -3.71681596e-03 -5.20794373e-03
      -4.14100103e-03 -4.82321950e-03 -1.28468662e-03 5.90661773e-04
      8.40722816e-04 -9.02564556e-04 -1.18007150e-03 -4.53067105e-03
      -4.24081227e-03 -4.95229801e-03 -3.08444677e-03 2.19160225e-04
      1.22539303e-03 1.86946651e-03 1.44844491e-03 1.00757019e-03
      -3.75060714e-03 -4.51730471e-03 -1.04074145e-03 -6.28700713e-04
      1.19744625e-03 1.98756135e-03 1.02932751e-03 7.62959593e-04
      -1.03156571e-03 -4.27447027e-03 -5.43254474e-03 -1.43891154e-03
      -1.15852722e-03 2.57119216e-04 -1.87980331e-05 -1.65697405e-04
      -1.48165505e-03 -2.01812806e-03 -5.58114983e-03 -3.23843793e-03
      -3.10916896e-03 -2.97989883e-03 5.57479623e-04 3.18213878e-03
      2.39714398e-03 2.30754493e-03 2.05373578e-03 -2.27066572e-03
      -6.45437324e-03 -3.60273733e-03 -4.25702566e-03 -1.73461321e-03
      -2.03673122e-03 -1.31156994e-03 -2.29112059e-03 -2.49078847e-03
      -6.37030788e-03 -3.82691994e-03 -5.17589389e-04 -2.54689105e-04
      5.53524762e-04 9.49923357e-04 -6.04344881e-04 -1.92799442e-03
      -2.45811348e-03 -4.84022498e-03 -1.44005020e-03 -7.04378181e-05
      2.19604233e-03 8.87826027e-04 1.19357056e-03 -4.67526756e-04
      -1.11008785e-03 -1.37423305e-03 -2.39990605e-03 -7.70840747e-03
      -3.04176030e-03 -2.30182568e-03 -7.29116786e-04 -2.28754291e-03
      -3.83836566e-03 -4.47689136e-03 -6.24367828e-03 -7.21343607e-03
      -4.65464633e-04 2.62300088e-03 1.72738743e-03 3.43263661e-03
      -4.59252449e-04 -3.48381232e-03 -4.25184518e-03 -4.16314323e-03
      -3.77640268e-03 -8.68142815e-04 1.12914154e-03 2.78369454e-03
      1.04511809e-03 4.13320056e-04 -7.09016982e-04 -1.42751832e-03
      -1.34001230e-03 -1.65393250e-03 2.51914002e-03 2.64263060e-03
      7.73325737e-04 8.95925550e-05 1.33775186e-03 -7.43124110e-04
      -2.31329483e-04 8.30327917e-05 2.17781006e-03 -2.79118889e-03
      1.77763111e-03 2.08852557e-03 1.13668956e-03 -5.17244218e-03
      -7.00979307e-03 -7.64010800e-03 -6.36806758e-03 -4.66811331e-03
      1.07878074e-03 1.61546387e-03 2.40621204e-03 -3.96850024e-04
      -4.16235765e-03 -3.50631378e-03 -2.82988534e-03 -1.77831645e-03
      -3.61751881e-04 3.48864496e-03 3.42096807e-03 1.90648658e-03
      1.10241876e-03 1.29308982e-03 9.26617722e-05 1.01658585e-03
      8.00430367e-04 3.10617033e-03 5.35522588e-04 -5.46226453e-04
      -4.34231851e-03 -1.39253691e-03 -4.22233297e-03 1.62812450e-03
      1.67506002e-03 2.12483387e-03 6.73954375e-04 1.07913709e-03
      6.08751609e-04 -8.47105053e-04 -1.98308448e-03 -3.10236961e-03
      -4.27021703e-04 2.65155395e-04 5.91714634e-04 1.44552183e-03
      2.00155788e-04 -4.74871660e-04 -5.56709198e-03 -2.81001022e-03
      -3.99931334e-03 2.26748618e-03 2.83498364e-03 1.56829529e-03
      6.46420754e-04 -3.51924286e-03 7.12458161e-04 1.76309515e-03
      1.31531537e-03 -7.77681766e-04 2.19722133e-04 -3.96288373e-03
      -4.90558892e-03 -4.46607359e-03 -6.82364497e-03 -4.23224689e-03
      -2.98846979e-03 1.29980722e-03 2.28910986e-03 1.64727075e-03
      -1.05457474e-03 -2.76273768e-03 -7.12991133e-03 8.62069894e-04
      2.89296382e-03 3.48364096e-03 1.82455662e-03 1.49551907e-03
      5.83886576e-04 -2.58917920e-04 -5.09896607e-04 1.93226966e-04
      -1.22856209e-03 6.32217096e-04 1.64164521e-03 9.43958526e-04
      2.24334188e-03 1.78746891e-03 4.23123594e-04 1.48270017e-04
      -8.47850344e-04 -6.46609301e-03 -3.38913687e-03 -2.84797722e-03
      1.75454433e-03 3.69320880e-03 1.23199413e-03 2.84740963e-04
      -1.50254404e-03 -6.49078330e-03 -6.63126679e-03 -3.37549392e-03
      -2.88458494e-03 3.91801877e-05 1.39299454e-03 1.16862741e-03
      -9.59446188e-04 -4.38405754e-04 -6.39105216e-03 -1.09849381e-03
      1.03990035e-03 1.14826637e-03 8.41747387e-04 4.03565355e-03
      3.06755700e-03 2.59055989e-03 1.90017279e-03 -8.35752755e-04
      -5.68246876e-04 1.00651674e-03 3.34074255e-04 1.56226417e-03
      2.75761425e-03 1.04579749e-03 1.77941320e-03 1.20284909e-03
      1.96262658e-06 -6.65235752e-03 -5.30132605e-03 -5.50648803e-03
      -6.11474970e-04 8.87837028e-04 6.26409135e-04 -2.51312071e-04
      -4.24475642e-04 -6.29578577e-03 -6.72875158e-03 -5.07590594e-03
      -3.55038955e-03 8.62408197e-04 1.59875373e-03 1.30302319e-03
      8.65375507e-04 5.09914418e-04 -5.61872451e-03 9.65223822e-04
      2.73563870e-04 -5.82232431e-04 1.53122132e-03 4.95524984e-03
      1.98299810e-03 2.92086857e-03 2.53812037e-03 1.65117579e-03
      2.84565933e-04 -1.13707944e-03 -3.69947287e-04 2.33279844e-03
      4.54451237e-03 2.18791934e-03 2.29149568e-03 2.04985775e-03
      1.49715715e-03 -8.43568146e-03 -4.89247171e-03 -5.26543427e-03
      2.19198570e-04 1.70658459e-03 1.67199003e-03 1.58405327e-03
      7.19009782e-04 -6.93705538e-03 -8.00437853e-03 -3.64347151e-03
      -3.76812625e-03 -1.65949739e-03 -1.36372098e-03 -7.92736828e-04
      -1.76218140e-03 -2.78302911e-03 -8.20627809e-03 6.70925481e-04
      1.58524810e-04 -8.26836389e-04 1.55799801e-03 5.02966810e-03
      3.18809785e-03 3.55020491e-03 2.63429945e-03 7.66965619e-04
      4.10952093e-03 2.22558249e-03 6.11144817e-04 5.32858539e-04
      3.06193274e-03 2.99765216e-03 3.25736240e-03 2.93774647e-03
      3.81661439e-03 -4.03957954e-03 -3.10179684e-03 -1.76121423e-03
      -1.54412736e-03 -3.57893622e-03 -9.32059775e-04 -1.99201331e-03
      -3.39133339e-03 -6.36020629e-03 -2.34988937e-03 -1.17026051e-04
      -4.88362217e-04 9.35475400e-04 -3.47558362e-03 -3.32215056e-03
      -4.13257489e-03 -3.70660028e-03 -4.38293628e-03 2.68085604e-03
      1.12468377e-03 9.93840149e-05 -2.65947630e-04 1.04073423e-03
      3.40511953e-03 4.33283905e-03 3.79768317e-03 2.88215186e-03
      3.05045070e-03 1.99534139e-03 4.95906628e-04 4.85394470e-04
      -1.10120652e-03 -4.76246263e-04 1.21214089e-03 1.14196923e-03
      2.69295531e-03 4.83624404e-04 3.58927576e-03 2.19733152e-03
      2.14980170e-03 -4.73096501e-03 -3.29687051e-03 -3.83925159e-03
      -1.96764269e-03 -1.43863889e-03 -1.17192349e-05 -8.04668161e-05
      8.28137214e-04 -7.78267276e-04 -5.85931772e-03 -1.75933377e-03
      -2.83542927e-03 -4.04615974e-04 -4.38636343e-04 2.21168017e-03
      9.90700093e-04 8.32456280e-04 -7.84543052e-04 -4.93808370e-03
      -2.41452828e-04 9.23083280e-04 5.81735512e-04 1.65445928e-03
      2.72051897e-03 3.44621716e-04 -1.42929342e-03 -1.00174942e-03
      -6.45165611e-03 -9.91090317e-04 1.57688439e-04 1.46362989e-03
      2.54899776e-03 1.25564670e-03 -5.92236931e-04 -6.62700768e-05
      -1.48223247e-03 -5.49775502e-03 -1.89285973e-04 2.83262518e-04
      5.07019868e-04 1.80358591e-03 1.58424268e-03 -3.49205278e-04
      -3.98916192e-03 -3.16832308e-03 -4.59571276e-03 1.87018490e-03
      2.22252752e-03 1.58804038e-03 2.17114692e-03 5.78022096e-04
      -1.17031380e-03 -2.88136071e-03 -2.03081593e-03 -7.24983914e-03
      1.27226871e-04 9.32437717e-04 1.01222796e-03 1.11498998e-03
      9.80072771e-04 -1.08721328e-03 -4.15250193e-03 -2.52996664e-03
      -5.10190893e-03 8.88793205e-04 1.57140091e-03 9.96559043e-04
      1.12779974e-03 1.69359392e-03 2.67827557e-03 2.52369675e-03
      1.42277754e-03 1.00570603e-03 8.93102551e-04 5.53476450e-04
      1.22054575e-04 1.26714224e-03 5.15074818e-04 1.72749290e-03
      5.70332806e-04 -4.19836520e-04 2.76137213e-03 3.23537039e-03
      7.50040868e-04 1.34943228e-04 1.45919970e-04 2.34565651e-03
      1.77745055e-03 1.20424689e-03 7.84966222e-04 1.79642544e-03
      1.68542471e-03 2.00414006e-03 1.63779571e-03 2.31865887e-03
      1.18543522e-03 2.24772491e-03 9.69604414e-04 6.78769022e-04
      2.38163746e-03 7.88765319e-04 7.69669306e-04 2.30606049e-04
      -5.50225413e-05 -1.09654991e-03 6.45800086e-04 -4.26476588e-04
      -3.72770992e-05 1.88516732e-03 1.70689123e-03 1.24547561e-03
      9.36323137e-04 -1.35978649e-03 5.64017799e-04 1.12132973e-03
      6.20798848e-04 1.47942384e-03 4.36678343e-03 1.76083867e-03
      2.24159285e-03 1.56299467e-03 2.83965172e-04 1.03837787e-03
      1.33449899e-03 1.32181810e-03 1.01037230e-03 2.47769104e-03
      1.19687093e-03 2.32878048e-03 1.37093954e-03 7.84421922e-04
      1.64184021e-03 8.96853278e-04 1.87985832e-03 1.77005492e-03
      5.32546733e-03 2.23935791e-03 3.62314470e-03 3.05071706e-03
      1.89808267e-03 -1.54926558e-03 -8.03259085e-04 -1.58310577e-03
      1.02392503e-03 2.56061088e-03 1.31476892e-03 1.43371255e-03
      4.20584780e-04 6.05059213e-05 3.71666887e-04 -8.97670514e-04
      -2.56806682e-03 7.12600944e-04 2.38255877e-03 2.23052083e-03
      3.24301538e-03 2.06423830e-03 1.29237934e-03 1.73449691e-03
      7.84438278e-04 1.14162278e-03 1.19554158e-03 4.93233837e-03
      2.65849708e-03 4.33897320e-03 3.58329085e-03 2.38976558e-03
      3.30790714e-03 3.41738854e-03 1.46884168e-03 1.62029639e-03
      4.50199982e-03 4.81002644e-04 2.18059239e-03 2.04584654e-03
      2.94703618e-03 -3.21830413e-03 -2.99568498e-03 -2.56963330e-03
      -3.72003269e-05 3.05565470e-03 1.85798341e-03 2.53739813e-03
      1.58614409e-03 -1.89307553e-03 7.40822637e-04 1.91362039e-03
      -5.42978407e-04 -4.86304634e-04 -5.18029497e-04 2.60269502e-03
      3.39537207e-03 2.92772171e-03 8.22558883e-04 3.89453443e-03
      3.73288314e-03 3.60864727e-03 2.27411976e-03 5.12687862e-03
      1.47636048e-03 2.66212085e-03 2.30022939e-03 3.16812680e-03
      4.57602693e-03 3.83283407e-03 1.82234368e-03 2.71204946e-04
      1.49442721e-03 1.75420180e-04 1.14568428e-03 2.15211022e-03
      3.58366733e-03 -4.50087595e-04 -4.18644922e-05 -1.70161237e-03
      1.72828522e-03 2.45451555e-03 1.68593274e-03 2.27636681e-03
      2.29428243e-03 -7.58601702e-04 1.11154281e-03 1.83840268e-04
      -4.26368555e-04 -1.39639224e-03 -1.91549829e-03 8.13682564e-04
      1.29975576e-03 1.28217589e-03 1.72436109e-03 3.52743641e-03
      2.40213680e-03 1.98962749e-03 2.65758747e-04 2.86495034e-03
      2.09933240e-03 1.72778626e-03 1.76009047e-03 2.63007707e-03
      2.24446086e-03 8.27686163e-04 3.38382291e-04 -1.22589199e-03
      -2.13277224e-03 -4.23889374e-04 -5.75845770e-04 1.86234683e-04
      2.23762426e-03 2.21399823e-03 1.14187482e-03 2.15261336e-03
      2.53189883e-05 -3.32272984e-03 3.71446717e-04 8.64333997e-04
      7.44686695e-04 2.29682284e-03 3.34383151e-03 7.50462525e-04
      -2.49488512e-03 -9.37268895e-04 -6.97570201e-03 -1.64795050e-03
      -1.08114060e-03 1.00362021e-03 2.52610003e-03 2.05191085e-03
      6.44494547e-04 -6.44546002e-04 -1.44328712e-03 -4.07967903e-03
      1.93726679e-04 -1.87933547e-04 4.85830533e-04 2.15317588e-03
      2.24951142e-03 9.76044277e-04 -1.14417123e-03 -1.57895964e-03
      -6.35976018e-03 -2.57156743e-03 -2.45326944e-03 3.48292757e-04
      2.22223648e-03 1.65233098e-03 2.70097691e-04 -3.07628792e-03
      -1.91890937e-03 -9.23390500e-03 -1.06770509e-04 5.84937923e-04
      8.91994510e-04 1.21724489e-03 1.41495164e-03 -1.84866090e-04
      -1.10964314e-03 -6.38485770e-04 -5.84658375e-03 5.43076458e-05
      7.97610555e-04 2.37628978e-04 1.56903244e-03 1.41428935e-03
      1.53870453e-04 -1.72161800e-03 -2.64283014e-03 -6.95512863e-03
      -2.12301267e-04 3.84333805e-04 8.49938253e-04 1.63565704e-03
      1.00949663e-03 3.08842631e-04 4.83395474e-04 -1.10455498e-03
      -5.55049116e-03 6.05886860e-04 1.05506042e-03 6.69648638e-04
      1.33503985e-03 -1.19626580e-03 5.91013522e-05 6.64229447e-04
      7.37499737e-04 2.89202871e-04 4.44148376e-04 3.44607688e-04
      3.70676193e-04 -7.70275365e-04 -1.53851835e-03 1.09992013e-03
      1.94402266e-04 -1.17897801e-03 -1.38058455e-03 1.04721934e-04
      -1.07738643e-03 -9.70790512e-04 -2.18255632e-03 -3.91562749e-03
      -2.06236378e-03 -1.53944793e-03 5.55835722e-04 -1.76092237e-03
      -8.66113987e-04 -1.97387743e-03 -1.82015880e-03 -4.00358066e-03
      -5.79424901e-03 -1.71951088e-03 -1.44561031e-03 1.09058223e-03
      -8.36407417e-05 -9.60220874e-04 -4.19135485e-03 -3.11196758e-03
      -5.38139697e-03 3.98458767e-04 6.33636024e-04 1.32116504e-04
      -7.54043402e-04 -1.72941305e-04 -8.95512756e-04 -1.55466376e-03
      -1.17868034e-03 -3.27833783e-04 7.51069339e-04 6.96293777e-04
      3.73714836e-04 -6.28475624e-04 -9.44745552e-05 -1.07885920e-03
      -2.68220599e-03 -1.55610940e-03 7.77898123e-04 -3.39501002e-03
      -1.40062149e-03 -5.24621399e-04 -1.01015740e-03 -6.03339693e-04
      -8.90518015e-04 -2.54823524e-03 -2.07438623e-03 -4.00343817e-03
      -1.20926893e-03 -1.12104195e-03 -5.70735196e-04 -3.27533722e-04
      -3.87069420e-04 -1.33143039e-03 -3.81712336e-03 -2.66356184e-03
      -2.35297042e-03 -7.42341508e-05 -4.60575742e-04 -1.21067534e-03
      -1.64214789e-03 -2.77615315e-03 -1.43241894e-03 -2.79468973e-03
      -1.60099054e-03 -1.35243032e-03 7.47534214e-04 1.33014598e-03
      1.45362853e-03 4.88018210e-04 -1.09520252e-03 2.36317108e-04
      -1.42483343e-03 9.76605457e-04 1.31007179e-03 -7.83725758e-04
      -9.19654209e-04 -1.39579398e-03 -1.66296470e-03 -3.55202961e-03
      -2.51312135e-03 -3.39050544e-03 -2.50006793e-03 -1.93211820e-03
      2.17005867e-03 1.43152033e-03 1.51578838e-03 9.26173816e-05
      -6.79754186e-04 -5.19823690e-04 1.70462602e-03 1.64295768e-03
      2.98600341e-03 1.30532042e-03 2.60017160e-03 2.71414127e-03
      4.53826593e-04 -1.13194541e-03 -9.68124485e-04 -4.39632265e-03
      -3.02466773e-03 -5.54629252e-04 -2.43116030e-03 7.41789874e-04
      1.52231287e-03 -4.79824375e-05 -1.49557614e-04 -1.62848271e-03
      -5.21195633e-03 -5.50386123e-03 -3.50500597e-03 2.53422209e-03
      1.42707839e-03 1.28789304e-03 5.12231200e-05 1.01169245e-03
      7.48878287e-04 1.50449644e-03 1.63180020e-03 1.97561644e-03
      8.05799617e-04 1.52957311e-03 1.57948129e-03 8.48368742e-04
      1.14052207e-03 3.64410575e-04 -1.07987376e-03 -1.24821137e-03
      1.97336587e-04 -1.15133170e-03 -1.13770552e-03 -1.35140307e-03
      3.45653680e-04 1.39243365e-03 -1.42527933e-04 -1.67155731e-03
      -2.42456933e-03 -1.66199356e-03 -1.06505782e-03 -1.68853148e-03
      -2.07586586e-03 5.57349005e-04 6.02408836e-04 7.09304120e-04
      8.58661428e-04 -2.37673055e-04 1.86231016e-04 3.65831394e-04
      1.04599155e-03 1.63905963e-03 9.43874998e-04 1.64327293e-03
      7.91571685e-04 -8.43474350e-04 -7.79374735e-04 1.73052758e-04
      -1.65323529e-03 -1.67723527e-04 7.89357728e-05 4.36875533e-04
      7.46387872e-04 3.64003317e-05 -5.76553517e-04 -1.51452795e-03
      -1.48362410e-03 1.81412455e-04 -1.58580986e-03 -2.97315442e-03
      -1.84737321e-03 -3.19694355e-03 4.31586144e-04 1.30656757e-03
      9.05460853e-04 1.84152462e-03 1.85357558e-03 2.85904086e-03
      2.50339392e-03 9.55698197e-04 5.60067187e-04 1.02869421e-03
      1.69287389e-03 2.45569297e-03 2.36899778e-03 -2.11593392e-03
      1.15565075e-04 -2.13370993e-04 3.16614227e-04 2.64971139e-04
      -2.40993148e-04 -1.60222768e-03 -2.01857649e-03 -1.66294060e-03
      -3.03099444e-03 6.11825497e-04 2.53087230e-04 3.64023232e-04
      5.69974305e-04 5.60383305e-05 -1.71887653e-03 -1.75782270e-03
      -3.50429513e-03 6.82379701e-04 1.14066585e-03 1.13589736e-03
      4.31191555e-04 1.43493118e-03 8.84077977e-04 2.65567633e-03
      2.05813581e-03 8.99121980e-04 1.54255761e-03 2.84616108e-04
      2.54883576e-04 4.12556583e-05 -6.97889540e-04 6.52356190e-04
      2.06355006e-03 2.20095133e-03 1.86669768e-03 -3.32417269e-03
      -3.71682690e-04 -3.82583239e-04 2.30088452e-04 -4.13662114e-04
      -3.47988127e-04 -2.67239357e-03 -2.50547938e-03 -3.02559277e-03
      -3.69372172e-03 -2.40252190e-03 -1.68206883e-04 -1.31944742e-03
      -2.11082678e-03 -1.33495277e-03 -1.88453216e-03 -2.33416748e-03
      -3.51180369e-03 -1.40916568e-03 -1.37669023e-03 -9.42659331e-04
      5.38668945e-04 -2.15151929e-03 -6.83933496e-04 -1.30699773e-03
      -5.54525002e-04 -1.81531301e-03 -4.71179606e-03 -1.47415197e-03
      -1.12073321e-03 -2.87376042e-05 -4.41602344e-04 -3.60586389e-04
      -2.48695584e-03 -1.62226625e-03 -3.97922890e-03 -6.85199921e-04
      3.33762553e-04 -1.32232381e-03 -1.90605613e-04 -1.10671448e-03
      -8.03824805e-05 -3.96600866e-04 -9.30338792e-05 -4.88913269e-04
      -1.86350371e-03 -1.38584815e-03 -1.27236976e-03 1.45301584e-03
      7.32442713e-04 -8.57978768e-04 -1.53939310e-03 -1.49736076e-03
      -2.46679760e-03 -4.56530182e-03 1.33314068e-04 3.13273078e-04
      8.19534529e-04 1.75283779e-03 -8.07838107e-04 -2.98276311e-03
      -2.04501161e-03 -5.49016427e-03 -2.87088566e-03 -2.20069289e-03
      -1.69533619e-03 -1.40578288e-03 -1.16192631e-03 -7.46333622e-04
      -1.60729780e-03 -1.18798856e-03 -3.40566016e-03 -3.28356051e-03
      -1.65269733e-03 -2.32553319e-03 3.02394415e-04 1.11116190e-03
      -1.07753382e-03 -1.73855270e-03 -2.41755997e-03 -3.40800942e-03
      -3.97737487e-04 -2.31957438e-05 -4.43888304e-04 -3.99122859e-04
      9.32426017e-04 4.32385459e-05 -1.12647563e-03 -1.23937696e-03
      -7.88206642e-04 -3.46326572e-03 -3.39134084e-03 -2.54051271e-03
      -3.35574104e-03 -3.23140225e-03 -3.19394586e-03 -4.00885195e-03
      -3.64537793e-03 -4.28373972e-03 8.14073603e-04 -8.65228867e-05
      -7.00668397e-06 -9.30550974e-04 -4.53116954e-04 -3.14153003e-04
      1.61075825e-03 2.41916953e-03 1.45670015e-03 -2.12600501e-03
      -5.59253676e-04 -2.00950145e-03 -1.47756364e-03 1.63599034e-03
      1.10407636e-04 -6.38864818e-04 -8.87410133e-04 -2.10019294e-03
      5.34291845e-04 1.94289768e-03 2.59930687e-03 1.26979582e-03
      1.97077775e-03 5.62956848e-04 1.31884427e-03 6.34082127e-04
      2.48522061e-04 1.59613520e-03 5.44361072e-04 -6.96417352e-04
      -1.13840797e-03 -5.68471942e-03 -1.02175807e-03 1.39423052e-03
      2.49211001e-03 2.38968618e-03 -1.28736964e-03 1.21090503e-03
      1.27085904e-03 4.74749570e-04 2.41551595e-03 3.51699040e-04
      -1.03660440e-03 -1.17115024e-03 -9.22565931e-04 1.14980165e-03
      1.37226225e-03 2.41400790e-03 1.44914887e-03 -2.25504069e-03
      1.19914720e-03 1.64464000e-03 1.15060608e-03 1.15108525e-03
      1.36478862e-03 6.80434343e-04 8.57353501e-04 4.87682206e-04
      1.06090645e-03 4.49765677e-04 1.70505699e-03 1.55565795e-03
      1.51185098e-03 7.81829876e-04 1.96753372e-03 1.46602059e-03
      1.26143673e-03 1.53728027e-03 4.21362143e-04 -2.83037138e-04
      -1.57184433e-03 -1.04110179e-04 -1.39247719e-03 1.65960490e-04
      -4.46588645e-04 2.09257574e-04 -1.79996749e-03 6.41456747e-04
      -7.75967143e-04 -2.84831575e-03 -1.22842100e-03 1.03595422e-03
      5.41784742e-04 8.82859284e-04 6.04357861e-04 1.31505250e-03
      6.65705767e-04 1.47004984e-03 1.24662742e-03 1.08562235e-03
      5.60020271e-04 4.52077802e-04 5.98125043e-04 4.23857738e-04
      1.63396227e-03 9.60976409e-04 1.60080567e-03 1.43667660e-03
      6.73774863e-04 -2.91588041e-03 1.29799853e-04 -1.09372509e-03
      6.66946144e-05 3.92236427e-04 -2.77596439e-04 -1.01905735e-03
      -1.64110586e-03 -2.36404431e-03 -3.44925933e-03 2.80173292e-04
      -1.86386053e-04 4.45456797e-04 3.73913965e-04 -5.24999166e-04
      -1.40519731e-03 -1.04352878e-03 -2.14359933e-03 1.08086655e-03
      7.11702916e-04 2.80714885e-04 2.66813557e-04 1.78969337e-03
      1.32057606e-03 1.76819379e-03 1.92648813e-03 1.13251514e-03
      3.02945322e-04 6.94509188e-04 3.98706819e-04 3.50357644e-04
      2.94588879e-03 8.02263850e-04 3.96574411e-04 -7.28122322e-05
      -4.31095395e-04 -2.23020813e-03 4.92002509e-05 3.23144595e-05
      1.31467386e-04 -1.82247124e-04 -5.78835257e-04 -1.38070108e-03
      -2.65716785e-03 -3.21226567e-03 -1.14167924e-03 -2.08326569e-03
      -3.88467655e-04 -1.31883507e-03 -6.62525010e-04 -6.79481309e-04
      -1.78562943e-03 -2.74609076e-03 -2.74608354e-03 3.89534369e-04
      6.12326665e-04 4.54131165e-04 4.18867363e-04 9.85645689e-04
      8.99570936e-04 1.41249178e-03 3.30054696e-04 -2.87403323e-04
      1.03666482e-03 1.31165120e-03 5.93404111e-04 -4.19833523e-04
      -2.14907783e-03 -2.87079182e-03 -2.34269700e-03 -2.82119913e-03
      -1.99440541e-03 -2.47515342e-03 -1.17146282e-03 -2.96008261e-03
      -9.15563549e-04 -1.78373291e-03 -9.39511156e-05 -4.51949425e-04
      -9.55861877e-04 -2.47422117e-03 -2.01930921e-03 -1.36577780e-03
      -1.44639367e-03 9.06791596e-04 5.47101547e-04 -6.63166516e-04
      -1.21567247e-03 -7.59197748e-04 -2.15077051e-03 -2.87165795e-03
      -4.37453622e-04 -4.95922810e-04 -2.98240629e-04 -4.25244361e-04
      6.93684095e-04 -2.08112621e-03 -2.54382147e-03 -2.73058191e-03
      6.73998613e-04 2.27171951e-03 1.46697299e-03 2.31609074e-03
      2.79606273e-03 6.50722242e-04 4.07825864e-05 -5.08179539e-04
      6.04792614e-04 -4.07019909e-03 -1.93739904e-03 -2.09166226e-03
      1.45789690e-03 2.88385316e-03 -7.80520553e-04 -2.17237626e-03
      -3.19411303e-03 -4.63572657e-03 -1.59568840e-03 -5.76951250e-04
      -1.05258869e-03 -4.11622605e-04 7.77495501e-04 3.62022896e-04
      4.18038908e-05 -1.16792624e-03 -2.49371491e-03 6.59990241e-04
      1.13663997e-03 9.98231350e-04 1.31890085e-03 3.96816467e-04
      -2.90896307e-04 4.44140314e-04 3.77475633e-04 1.18373202e-04
      1.01951091e-03 2.35197763e-03 2.40958482e-03 1.89869583e-03
      1.36983220e-03 1.25895473e-04 -7.50063162e-04 -1.74497371e-03
      9.34156342e-05 -2.37522996e-03 -5.17589913e-04 -2.21076701e-03
      -6.86284038e-04 2.06640386e-03 3.74686904e-04 -2.96209706e-04
      -1.14335434e-03 -3.10951006e-03 1.63931120e-03 2.01504608e-03
      2.52743345e-03 1.11511827e-03 1.43796590e-03 1.98947775e-04
      5.16287146e-05 -7.93791696e-05 1.02811004e-03 -1.91084761e-03
      1.36589713e-03 1.55723025e-03 7.45592581e-04 -1.46066048e-03
      -8.98708415e-04 -2.03703530e-03 -2.38365494e-03 -2.77195591e-03
      1.65509482e-04 1.24201074e-03 1.25157309e-03 6.03527762e-04
      1.07598898e-04 2.76298117e-04 4.95544809e-04 3.08409944e-04
      -4.64637007e-04 3.42131895e-03 3.34249670e-03 3.73252784e-03
      2.92694871e-03 -1.96290272e-03 6.67037850e-04 3.94287141e-04
      2.27979661e-04 2.20920308e-03 1.30208221e-03 7.29898107e-04
      8.06053518e-04 4.24615486e-04 1.24534033e-03 1.32647145e-03
      1.82281702e-03 1.79747504e-03 1.36081025e-03 4.17400443e-04
      9.65126965e-04 1.02390687e-03 5.21117239e-04 1.14648277e-03
      2.31424448e-04 8.92531010e-04 9.89083201e-04 5.14132844e-04
      2.81331420e-04 7.61604402e-04 6.13228593e-04 1.78953342e-04
      8.26863281e-04 1.70446059e-04 2.25485477e-04 1.54226364e-04
      1.95063723e-04 1.03351905e-03 4.86096600e-04 8.41319154e-04
      6.25284330e-04 1.58535165e-03 5.11950057e-04 1.16070383e-03
      4.85404715e-04 1.11208495e-03 7.79397844e-04 4.64646757e-04
      4.38465417e-04 4.47329163e-04 1.54492597e-03 1.35099213e-03
      1.80018763e-03 1.37301651e-03 8.51833902e-04 4.98827721e-04
      4.80181043e-04 5.18834742e-04 2.61065055e-04 6.13763637e-04
      2.12996238e-04 3.25820845e-04 2.26079763e-04 4.58272727e-04
      5.20149246e-04 3.81941296e-04 7.45431520e-04 3.74328694e-04
      1.01422030e-03 7.44472898e-04 1.07497536e-03 7.88997218e-04
      5.52455080e-04 1.00173661e-03 6.87673164e-04 3.82607861e-04
      3.33119649e-04 1.34401233e-03 8.63621768e-04 1.57737266e-03
      1.24370318e-03 1.11838698e-03 -2.66796467e-03 7.08357955e-04
      3.96638759e-04 2.40577778e-04 2.68969173e-03 1.20264664e-03
      1.58586283e-03 3.92485294e-04 -2.57439166e-03 4.53150016e-04
      1.79177950e-04 1.64007157e-04 1.65302510e-04 9.55631898e-04
      7.88413105e-04 1.00276549e-03 8.37456028e-04 5.12499711e-04
      3.04974010e-03 3.17363697e-03 2.75910669e-03 2.93794833e-03
      4.13207198e-03 4.61557618e-04 1.21772126e-03 1.12974993e-03
      1.89308159e-03 5.15675172e-04 3.90062225e-04 4.16981755e-04
      4.97943256e-04 1.16363028e-03 6.38070283e-04 1.49442593e-03
      1.33716431e-03 7.48094753e-04 -3.01779551e-03 1.05567556e-03
      -2.93516088e-04 -1.33489678e-03 -7.39049586e-03 -5.33087784e-03
      -3.58196581e-03 -4.87713097e-03 -4.41183522e-03 1.53319282e-03
      1.99057860e-03 2.22462369e-03 1.12104323e-03 2.37256056e-03
      6.25845278e-04 1.30420178e-03 1.27785804e-03 1.33233261e-03
      2.96357181e-03 4.12212918e-03 3.73421540e-03 3.34861758e-03
      4.15175571e-04 -1.15345779e-03 -5.68605086e-04 6.05017558e-05
      2.25015334e-03 -9.08104295e-04 7.93372106e-04 7.02497375e-04
      1.25894148e-03 1.86186587e-03 -7.98383669e-04 -3.16312700e-03
      -2.94518424e-03 -1.44374149e-03 -8.04801239e-05 1.91937573e-03
      2.42970814e-03 1.20182126e-03 1.52596459e-03 6.59868878e-04
      -3.44410400e-05 -4.14860784e-04 -2.72608188e-04 -2.13791383e-03
      -2.18291301e-03 -2.60403496e-03 -1.76005648e-03 1.09927336e-04
      -7.44677556e-04 -3.73940100e-03 -3.42141790e-03 -2.22930149e-03
      -6.25534856e-04 1.96796740e-04 6.98644493e-04 8.05059040e-04
      -1.34732923e-04 4.84859891e-04 -1.47193880e-03 -9.90306959e-04
      -2.53401027e-04 -6.61257887e-04 -1.31307542e-03 4.54400259e-04
      1.10910845e-03 1.87442626e-03 -3.26937770e-05 2.74039106e-04
      3.44196538e-04 -7.15647649e-04 -9.99556942e-05 7.41825352e-05
      1.93413216e-04 1.01856107e-03 4.21492732e-04 -7.50721738e-05
      -3.99666926e-04 -9.12713178e-04 -3.79137637e-04 -1.82477510e-04
      5.21049195e-04 1.11637567e-03 3.39102058e-04 -1.45963882e-03
      1.40158413e-03 2.32326754e-04 2.10939604e-03 -5.55381528e-04
      -5.24234318e-04 -4.47226892e-04 -1.42612087e-04 1.06240029e-03
      7.03658559e-04 6.37321849e-04 6.55921525e-04 9.70926776e-04
      -5.53570222e-04 -2.06071432e-04 7.62084732e-04 7.62767915e-04
      1.02998572e-03 -5.13293722e-04 -8.27357057e-04 -1.58585585e-03
      -1.04109221e-03 -8.68730538e-04 6.35061064e-04 4.33101028e-04
      4.45903104e-04 3.31574818e-04 -6.33224496e-04 1.10469300e-04
      3.90909816e-04 3.73389339e-04 5.56253130e-04 -3.33101023e-04
      -6.45334309e-04 2.19827562e-04 6.49898371e-04 4.27945663e-04
      1.13953149e-03 9.95178591e-04 1.22061546e-03 -4.40076750e-04
      -1.88992999e-03 1.14788505e-04 -1.12621608e-04 2.90334196e-04
      1.43931841e-03 5.04827127e-04 1.03408133e-03 1.03216618e-03
      -1.54674856e-03 9.42149723e-04 6.04292669e-04 8.43788497e-04
      1.18370447e-03 1.59777515e-03 3.19643674e-04 3.34652374e-04
      5.78641426e-04 7.33346271e-04 2.84651760e-04 2.49436678e-04
      5.77833562e-04 9.49379610e-05 1.05514354e-03 3.11046228e-04
      4.59633564e-04 4.58560855e-04 3.69127287e-04 -4.66027856e-03
      2.37157132e-04 5.32735779e-04 7.39952142e-04 1.98220904e-03
      1.87533139e-03 2.08720611e-03 1.25766045e-03 -3.84243648e-03
      -3.06137931e-03 7.21503748e-04 7.75005086e-04 5.92542405e-04
      1.22469454e-03 1.15529008e-04 1.23036254e-04 -2.19713213e-04
      -3.14044487e-03 3.57811572e-04 3.75546981e-04 5.27432247e-04
      2.70205142e-04 7.54224136e-04 9.40626414e-05 2.92623678e-04
      2.77741114e-04 3.96491727e-04 5.71313198e-04 2.97513820e-04
      6.94036658e-04 2.93740566e-04 1.32309448e-03 7.82944204e-04
      1.22334633e-03 1.28597440e-03 7.16165698e-04 -4.82015172e-03
      1.74201396e-05 3.10909498e-04 3.10744537e-04 4.36490576e-04
      -2.26316624e-04 -3.78081371e-04 -9.27302055e-04 -5.11580985e-03
      -2.10009841e-03 1.43424456e-03 3.06572067e-03 2.15664669e-03
      3.11508146e-03 2.72004807e-04 4.13310598e-04 -2.11789142e-04
      -2.45411950e-03 6.80805650e-04 7.86552773e-05 4.44645848e-04
      4.02722624e-04 1.07090268e-03 6.00136118e-04 8.81219341e-04
      8.26672476e-04 8.62525660e-04 1.14931702e-03 1.64552208e-03
      2.93156016e-03 1.14626053e-03 3.63962213e-03 5.75544196e-04
      1.78735226e-03 1.76098547e-03 1.62695628e-03 -3.92204430e-03
      3.99112032e-04 1.93777494e-03 8.33916944e-04 9.35169810e-04
      1.84155506e-04 5.76044913e-05 -3.64532898e-04 -3.73724988e-03
      3.53897433e-03 2.79745390e-03 1.39651541e-03 2.34356019e-04
      2.11852603e-03 1.99726492e-04 8.98970640e-04 1.03028282e-03
      2.77659437e-03 1.35848811e-03 2.46304320e-03 2.74588005e-03
      1.45516766e-03 3.18404241e-03 3.71834845e-04 9.22468316e-04
      9.12517542e-04 9.78745637e-04 4.18749987e-04 2.70577404e-03
      2.07189494e-03 1.77910621e-03 2.18304130e-03 1.25201396e-03
      2.07526400e-03 1.42588455e-03 3.85489780e-04 1.82584859e-03
      2.18347507e-03 1.94097229e-03 7.36367365e-04 2.32595881e-03
      6.21536339e-04 1.32119330e-03 1.21690112e-03 1.70697772e-03
      -3.21387034e-03 -3.62575334e-03 -4.26716777e-03 -4.55434294e-03
      -2.78261467e-03 2.39917566e-03 2.38698581e-03 1.62188953e-03
      -3.79523751e-03 -2.43263436e-03 -8.19342502e-04 -2.17876979e-03
      -1.23577402e-03 -1.07621064e-03 2.28526827e-04 -2.25605862e-03
      -2.20711576e-03 -2.55860225e-03 -1.11796276e-03 6.65953208e-04
      -9.51316382e-04 -1.69832347e-04 3.47896450e-04 1.04478828e-03
      -1.23280061e-05 6.04528061e-04 -1.24803057e-03 -2.19212472e-03
      6.90688204e-04 -9.75166680e-04 6.17287180e-04 1.32307247e-03
      1.55453931e-03 -7.84747535e-04 -7.17554591e-04 -2.32437672e-03
      -5.40780975e-03 -1.94721320e-03 -3.10941623e-03 6.23126572e-04
      1.03319308e-03 3.83716921e-04 -1.04737874e-05 -1.01784157e-04
      -4.58430825e-03 -1.80023268e-03 9.23125190e-04 1.04283879e-03
      1.30283681e-03 1.71615230e-03 1.00678473e-03 1.38227118e-03
      1.51919841e-03 -1.46916695e-03 -1.01722323e-03 2.58942455e-04
      5.65602269e-04 1.51108135e-03 1.95806916e-03 9.30633745e-04
      1.10468944e-03 1.08123128e-03 -6.87186839e-04 -6.51937723e-03
      -2.58102641e-03 -3.94214271e-03 4.01616242e-04 2.11338978e-03
      1.47717446e-03 1.24476163e-03 5.83153218e-04 -6.57507032e-03
      -6.66697463e-03 -1.89140765e-03 -1.78872002e-03 6.80356403e-04
      5.40534907e-04 -1.29514560e-03 -9.15768032e-04 -1.84852374e-03
      -7.18227541e-03 -1.18877215e-03 8.85050860e-04 1.55815668e-03
      2.96269590e-03 3.62678245e-03 1.43685285e-03 1.44477817e-03
      1.24734896e-03 -1.19564484e-03 -3.74975312e-03 -2.71631579e-04
      1.24922473e-04 8.03713221e-04 2.00835965e-03 9.23938467e-04
      4.31640336e-04 1.12339221e-04 -3.42538767e-03 -6.00290345e-03
      -1.25652261e-03 -1.59837608e-03 1.55870453e-03 2.59013177e-04
      -3.97329452e-04 -5.05854667e-04 -1.96440588e-03 -6.53380342e-03
      -7.07448972e-03 -3.39105306e-03 -3.12368246e-03 -4.45474376e-04
      1.30974152e-03 1.68100826e-03 -9.37927907e-05 -9.73537215e-04
      -6.69857673e-03 -3.53597710e-03 -1.98748283e-04 9.77065181e-04
      1.52582722e-03 3.17913457e-03 1.22358347e-03 -1.81950654e-05
      -5.27526950e-04 -3.35462647e-03 -3.51413526e-03 -2.87110015e-04
      -4.62824071e-04 5.84278547e-04 1.07117847e-03 3.34674041e-05
      -1.37424760e-03 -1.18831708e-03 -4.08340013e-03 -5.87009033e-03
      -3.29956040e-03 -2.70000170e-03 9.53270122e-04 4.51452332e-03
      2.83533661e-03 -4.74111555e-04 -2.03911122e-03 -5.33908885e-03
      -4.77299560e-03 -4.31961194e-03 -4.18583164e-03 -5.37694665e-04
      2.30057957e-03 -8.48570140e-04 -4.21347097e-03 -5.51691977e-03
      -5.47650876e-03 -2.56709661e-03 5.17417429e-05 9.69105895e-05
      7.11427769e-04 8.41688132e-04 -5.85857379e-05 -1.91026775e-03
      -1.16256124e-03 -3.08685494e-03 -4.96829336e-04 3.16166523e-04
      1.62241887e-03 9.53254756e-04 1.53824722e-03 -2.47362659e-05
      -9.60422331e-04 -1.17048272e-03 -8.96855898e-04 -6.34309230e-03
      -1.54335401e-03 -2.64253514e-03 1.50872133e-04 -1.94365019e-03
      -3.32237268e-03 -6.17905706e-03 -6.52610185e-03 -6.32208632e-03
      1.80537449e-04 8.06870230e-05 6.81537436e-04 3.36654764e-03
      2.39990721e-03 -1.67663326e-03 -5.29649807e-03 -3.81416874e-03
      -2.81194760e-03 9.76930722e-04 1.33928889e-03 2.25840486e-03
      1.17802038e-03 1.16559491e-03 -1.08183202e-04 -1.30865490e-03
      -1.20523886e-03 1.89513827e-04 2.31102901e-03 2.70558917e-03
      1.20879500e-03 -6.72688839e-05 2.35262141e-03 3.80227866e-05
      7.51512009e-04 9.39432299e-04 1.84817077e-03 -2.44792039e-03
      -4.16495168e-04 5.05402568e-04 8.36310734e-04 -2.98581622e-03
      -5.30745694e-03 -7.49398535e-03 -4.67383256e-03 -5.21488627e-03
      -3.88668879e-04 2.15477339e-04 1.07008358e-03 -7.73616601e-04
      -6.12151925e-04 -1.44032133e-03 -1.69614644e-03 -1.93584914e-04
      -6.11268682e-04 2.85765599e-03 3.66627029e-03 2.64691818e-03
      8.47309304e-04 3.00307269e-03 3.56162200e-04 1.36449898e-03
      1.22464763e-03 2.28091818e-03 -3.97703952e-05 5.10099460e-04
      -3.12875235e-03 -2.85102683e-03 -2.17018812e-03 2.09424761e-03
      3.06004309e-03 2.37472192e-03 4.11469431e-04 -5.54787519e-04
      1.39344856e-03 -8.63008667e-04 -1.90324790e-03 -2.52489699e-03
      -9.77893244e-04 5.73463098e-04 -6.27691916e-05 -8.47312913e-04
      -1.03933259e-03 -1.92716729e-03 -4.55552572e-03 -4.17136075e-03
      -3.15086474e-03 2.11535618e-04 9.36439727e-04 6.05253037e-04
      -3.47031833e-04 -3.69416410e-03 7.08468782e-04 3.04173795e-04
      1.68203795e-03 2.02953978e-03 1.49987045e-05 -1.88977679e-03
      -2.58551911e-03 -3.87321156e-03 -5.69027010e-03 -3.52935563e-03
      -3.44783883e-03 5.73029276e-04 2.87631294e-03 6.32148818e-04
      -5.51675912e-04 -1.34921691e-03 -5.00518829e-03 -3.01346154e-04
      8.65238137e-04 1.31613947e-03 2.00255774e-03 2.23291735e-03
      1.03569555e-03 1.83652644e-03 6.23637170e-04 -1.39608106e-04
      -2.22318992e-03 -1.22115342e-03 -5.90110314e-04 1.40919769e-03
      2.04258203e-03 1.82346290e-03 2.19977717e-03 9.77070886e-04
      -1.00490567e-03 -7.08572287e-03 -3.09734745e-03 -3.68011557e-03
      1.13903673e-03 1.38428481e-03 3.85944993e-04 -1.44946884e-04
      -6.80289697e-04 -6.94925943e-03 -6.53764233e-03 -2.91717332e-03
      -2.97798729e-03 3.93589697e-04 3.17676167e-04 -3.93858063e-04
      -5.12725383e-05 -8.01805116e-04 -7.06987362e-03 -4.90034232e-04
      -9.01371590e-04 -4.09680215e-04 9.17928177e-04 3.53861577e-03
      2.75503215e-03 3.06188106e-03 2.12679454e-03 4.26381361e-04
      -1.14476762e-03 -9.07796610e-04 -3.86419386e-04 9.69103537e-04
      1.80490094e-03 1.45416474e-03 2.24605505e-03 1.49100972e-03
      -2.81741872e-04 -7.12440861e-03 -3.83067969e-03 -4.36589029e-03
      1.80753399e-04 1.36420445e-03 -5.43666654e-04 -3.88134096e-04
      -1.57995522e-03 -7.58898584e-03 -7.54270982e-03 -3.92824272e-03
      -3.72256385e-03 4.54238820e-04 2.37571588e-03 2.46984465e-03
      -2.21135007e-04 -1.11643923e-03 -6.42231060e-03 -1.66293595e-03
      -1.32903724e-03 1.85935696e-05 6.21818705e-04 4.19836072e-03
      2.60252994e-03 2.35854485e-03 2.33683106e-03 4.41254349e-04
      3.41900886e-04 1.08142581e-03 1.43082940e-03 1.54801633e-03
      3.90526978e-03 2.38675042e-03 2.31131539e-03 1.50122074e-03
      1.57512096e-03 -7.42195081e-03 -3.12592043e-03 -3.22675845e-03
      -2.51885765e-04 2.43399944e-03 2.06948258e-03 -2.44539260e-04
      -1.41341402e-03 -6.92319637e-03 -6.93200761e-03 -2.52899341e-03
      -3.11533501e-03 -1.06971485e-04 -2.79044558e-04 -8.70036194e-04
      -3.47488001e-03 -4.65114741e-03 -6.71288278e-03 -6.38400554e-04
      -1.06709625e-03 -1.43800653e-03 8.32755468e-04 3.20754386e-03
      2.72293878e-03 3.22192442e-03 2.10239273e-03 7.85092183e-04
      8.99650098e-04 6.15595549e-04 1.24945003e-03 2.20890855e-03
      2.94901524e-03 2.41713249e-03 2.74185045e-03 2.23796628e-03
      -2.38085922e-04 -3.23080062e-03 -1.47074764e-03 -2.53063720e-03
      1.65796839e-04 -2.03764462e-03 -1.58882362e-03 -3.13746114e-03
      -2.22073006e-03 -4.23095329e-03 -1.93712243e-03 -7.12811656e-04
      -1.24545477e-03 1.37865404e-03 -2.64995336e-03 -2.92878901e-03
      -5.08347945e-03 -3.15607782e-03 -2.76297028e-03 1.48270885e-03
      -5.51007048e-04 -6.92437170e-04 2.95315403e-04 7.82235351e-04
      2.57583056e-03 2.48695654e-03 2.87548522e-03 1.69247889e-03
      4.30202112e-03 1.86458370e-03 -8.83886241e-05 1.24817959e-03
      -3.12133110e-03 -1.44451542e-03 -5.08480123e-04 4.87449899e-04
      3.44643695e-03 1.32058980e-03 2.19380512e-04 -4.30231958e-05
      2.12691748e-03 -8.62265355e-04 -2.46951310e-03 -2.72612576e-03
      -8.40890047e-04 -3.57065845e-04 -1.04967994e-03 -1.26898743e-03
      -7.90326798e-04 -5.47452481e-04 -2.84060161e-03 -1.61832792e-03
      -1.10028451e-03 2.07208737e-04 -1.08119729e-03 3.27935303e-03
      9.05433786e-04 -6.28740003e-04 7.36893708e-05 -3.46647482e-03
      -1.24083948e-03 -5.15994907e-04 1.24549188e-04 2.68198666e-03
      2.35317531e-03 -1.09042961e-03 -1.56614289e-03 -1.32848148e-03
      -2.64943088e-03 7.01543933e-04 1.55571650e-03 1.10561028e-03
      2.71787774e-03 -4.42300778e-04 -1.04408107e-04 -2.38502235e-03
      -2.26121047e-03 -1.67614385e-03 -1.02613098e-03 -2.13011845e-05
      -6.68192282e-04 -5.93644683e-04 -3.68672278e-04 -1.07817701e-03
      -3.13562853e-03 -2.60973116e-03 -2.39879312e-03 -3.20615189e-04
      1.62294993e-04 -5.78961393e-04 -1.16472700e-04 1.06204976e-03
      -1.41307490e-03 -2.36583175e-03 -2.32012453e-03 -1.87587261e-03
      3.91847803e-04 7.85362150e-04 3.53321404e-04 9.35470394e-04
      -2.45217863e-03 -1.89674273e-03 -2.08796049e-03 -6.96725852e-04
      -1.13056204e-03 -9.41012753e-04 -1.23340881e-03 -7.51471263e-04
      -1.93424406e-03 9.31959134e-04 1.47955224e-03 1.06856297e-03
      1.08038471e-03 2.03041104e-03 1.07406243e-03 1.57334679e-03
      9.03411710e-04 1.38393661e-03 -2.66678340e-04 -1.99278016e-04
      -9.38925426e-04 3.22872831e-04 2.59316503e-03 2.48576002e-03
      2.90492107e-03 1.72796100e-03 5.41552319e-04 1.97107275e-03
      1.29894994e-03 6.69143221e-04 5.03366056e-04 -5.33186494e-06
      8.50710669e-04 1.59722730e-03 2.12121173e-03 1.29549392e-03
      1.02526648e-03 4.85970959e-04 -5.27024153e-04 -4.37999435e-04
      8.20089073e-04 1.16810366e-03 2.00093118e-03 2.46765488e-03
      1.46005524e-03 -1.59192889e-03 -6.22012711e-04 -3.46828485e-04
      -4.77170368e-04 1.92681758e-03 1.59588119e-03 2.09320197e-03
      3.96093674e-04 -8.56690749e-04 -1.50543882e-03 -3.36599536e-04
      -7.09630840e-05 -3.36603662e-05 3.46196140e-03 2.57972418e-03
      2.96469987e-03 1.95563165e-03 -8.06853001e-04 1.06803596e-03
      7.69464008e-04 -6.28210619e-05 -1.60812939e-04 3.31570324e-03
      2.04487052e-03 3.19650024e-03 2.89965724e-03 1.37832982e-03
      8.46572395e-04 1.33152120e-03 1.82949135e-03 9.07085370e-04
      4.52484516e-03 2.51859496e-03 4.77358047e-03 3.11517064e-03
      1.45075913e-03 -2.57285731e-03 -8.17115535e-04 -1.02202443e-03
      5.96354716e-04 2.22064042e-03 1.82604988e-03 2.70926557e-03
      1.52516272e-03 -1.48430804e-03 7.86290970e-04 -4.12164198e-04
      -1.14949851e-03 3.25429370e-04 4.32826485e-03 2.00657686e-03
      4.72332397e-03 1.77543319e-03 2.35098065e-03 1.00355851e-03
      5.48513723e-04 1.09725341e-03 5.85121277e-04 4.24387492e-03
      2.23668502e-03 4.02646884e-03 3.31695564e-03 2.26901891e-03
      2.42453977e-03 2.89372215e-03 2.13157572e-03 7.26015773e-04
      5.46166115e-03 4.36128787e-04 2.78506777e-03 2.40240688e-03
      2.76019238e-03 -2.13314733e-03 -1.49499823e-03 -1.52352103e-03
      7.37245602e-04 2.68121017e-03 1.58469926e-03 2.79848394e-03
      1.53858098e-03 -1.16278352e-04 4.37690789e-04 -6.98491058e-05
      -1.52176816e-03 -6.49557158e-04 -4.51890333e-03 3.88496486e-03
      3.93554289e-03 2.85070227e-03 6.58171892e-04 1.57887698e-03
      2.08471017e-03 1.92781794e-03 4.98906767e-04 4.00794065e-03
      9.88656189e-04 2.76309531e-03 2.41858209e-03 2.40480620e-03
      3.17467982e-03 3.29885236e-03 2.71644001e-03 2.94164609e-04
      1.05599625e-04 9.88639425e-04 2.04946660e-03 2.02121795e-03
      3.19892680e-03 3.04136542e-04 -6.16520119e-04 -7.81964278e-04
      1.40150590e-03 1.37347972e-03 1.92399661e-03 2.90001184e-03
      2.09813751e-03 -3.94306815e-04 2.36502429e-03 2.89797899e-04
      -3.73934326e-03 -1.51399989e-03 -7.28767505e-03 -6.71151851e-04
      3.71782808e-04 1.42216636e-03 2.11368687e-03 3.09784245e-03
      1.60461164e-03 1.87368586e-03 1.09179388e-03 7.89881975e-04
      1.77252316e-03 1.54246169e-03 2.26472900e-03 3.24697350e-03
      2.96392106e-03 4.69808612e-04 -6.81946476e-05 -1.11381570e-03
      -5.29023632e-03 -1.43700585e-04 5.43341012e-05 1.69829477e-03
      2.66686850e-03 3.40902177e-03 6.49580965e-04 -3.99335893e-03
      -6.27419940e-05 -4.38897824e-03 3.45355307e-04 1.35133334e-03
      1.59915152e-03 2.56362604e-03 -2.89460120e-04 -1.91399122e-05
      -1.95485703e-03 -1.92424213e-03 -3.08509171e-03 1.12313870e-03
      1.57703040e-03 1.17130391e-03 -1.00864354e-03 2.84280651e-03
      1.02422154e-03 -1.75455702e-03 -2.00797548e-03 -3.90625605e-03
      6.83349441e-04 1.37796567e-03 2.03380478e-03 1.96249783e-03
      2.88828090e-03 4.37748007e-04 -1.43210182e-03 -2.05886760e-03
      -4.22558375e-03 9.53300099e-04 1.47048221e-03 1.37530256e-03
      2.21277773e-03 1.42279419e-03 -4.47564805e-03 -3.86433443e-03
      -1.89567287e-03 -4.45576524e-03 8.88309442e-04 3.21497908e-04
      -5.05485456e-04 1.39320863e-03 -1.73064321e-03 -2.10725260e-03
      -1.39427755e-03 -9.89998109e-04 -1.30734558e-03 -6.01754698e-04
      -2.19947402e-03 -2.10246374e-03 -1.63848128e-03 2.05765152e-03
      -5.85653295e-04 -4.24364349e-03 -3.03156115e-03 -3.57145700e-03
      9.23407555e-04 1.15011341e-03 1.09750486e-03 1.46199635e-03
      1.34988828e-03 4.22394689e-04 -1.06493896e-03 -9.01635329e-04
      -8.10348545e-04 5.74601116e-04 8.73274228e-04 8.20202695e-04
      1.16891763e-03 -6.48227287e-04 6.48354180e-04 1.06343912e-04
      4.59147443e-04 -4.15551127e-04 7.46348989e-04 7.33241322e-04
      1.86656413e-04 -7.61100164e-05 -2.05695163e-03 5.75634011e-04
      5.27429045e-04 -4.73699387e-04 -1.70943257e-03 2.84417212e-04
      -4.40581527e-04 1.12993155e-04 -2.00084760e-03 -3.17995320e-03
      -1.87389750e-03 -3.27445334e-03 -2.60954141e-03 -1.96142984e-03
      6.00389903e-04 2.86705297e-04 -4.94045671e-04 -2.78753741e-03
      -3.29013448e-03 -1.07940519e-03 -2.95199244e-03 -1.80724740e-03
      -1.50660798e-03 9.16026591e-04 -2.22829869e-03 -2.32022861e-03
      -4.59054066e-03 -3.20815918e-04 -2.04521231e-04 3.32656491e-04
      -6.73579576e-04 -3.09864641e-03 -4.05242055e-04 -4.80946183e-04
      7.32706161e-04 -1.53419838e-04 1.61607494e-03 1.54201698e-03
      1.69271359e-03 2.99466628e-04 -2.93768547e-03 -5.78067033e-04
      -2.18376517e-03 -1.13129278e-03 7.09711923e-04 -3.05368099e-03
      2.55390332e-04 1.37781419e-04 -4.54122608e-04 -1.19202991e-03
      -5.78018880e-05 -2.30199634e-03 -2.01322976e-03 -3.78238689e-03
      -1.69761945e-03 -5.17234846e-04 7.22716431e-05 9.88866450e-05
      -9.84504703e-04 -1.26192369e-03 -2.67532305e-03 -2.13317177e-03
      -2.15974706e-03 1.81086769e-03 3.11303232e-03 2.33206665e-03
      3.13891709e-04 -1.94411760e-03 -9.84772458e-04 -3.20408121e-03
      -2.04847311e-03 -8.98313738e-05 2.07462138e-03 3.71659477e-03
      2.99223186e-03 1.46363676e-03 -1.47886085e-03 -2.53618578e-03
      -4.80286684e-03 -4.23402758e-03 7.98459456e-04 -1.53687387e-03
      -1.12293125e-03 -1.30050903e-04 -4.13870614e-04 -2.59139086e-03
      -1.00100739e-03 -1.47886632e-03 -1.73201784e-03 -1.95727893e-03
      1.04829480e-04 1.05367578e-03 1.37081766e-03 9.35282500e-04
      -1.00860151e-03 -4.87571488e-05 -1.55174395e-03 -1.24979042e-03
      -2.81196437e-04 1.85034296e-03 2.53556296e-03 1.11472572e-03
      1.61022786e-03 -4.52071719e-04 -1.35690789e-03 -5.98398037e-03
      -4.20851354e-03 -5.37823536e-04 -1.23344664e-03 -6.20078587e-04
      -7.31213717e-04 -2.28635647e-04 -8.24467454e-04 -3.62184539e-04
      -2.78605754e-03 -1.88891659e-03 -1.62618479e-03 -1.75769368e-04
      6.41488936e-04 -2.07739096e-04 5.02327748e-04 -8.94744124e-04
      3.68311557e-05 -4.92539548e-04 5.22807532e-04 -3.14139703e-04
      -7.63441843e-04 1.47900035e-04 -3.48692236e-04 9.20025050e-05
      4.37504932e-04 5.27917291e-04 -8.06102122e-04 -1.70863394e-04
      -1.20102917e-03 -2.17181467e-03 9.14476186e-06 -1.29866228e-03
      -2.45696447e-05 4.99048503e-04 3.90034285e-04 -2.43937969e-03
      -1.52384629e-03 -2.03840272e-03 -1.49701280e-03 4.49416024e-04
      -5.71340788e-04 8.73007230e-04 1.11368322e-03 1.08761818e-03
      -2.00445415e-04 -5.46526317e-05 -1.89787906e-03 -2.09575694e-04
      9.38082521e-04 -2.70221644e-04 2.96106737e-04 9.22766805e-04
      6.62573555e-04 -7.66977173e-05 -2.61549372e-04 -1.16557803e-03
      -1.58761349e-03 1.26992166e-03 1.07435766e-03 4.10793611e-04
      4.11174900e-04 -8.63408350e-05 -1.17098179e-03 -1.11102196e-03
      -1.84849172e-03 -8.68925476e-04 1.46902993e-03 1.09396737e-04
      1.00174779e-03 -1.26885506e-03 2.97975988e-04 -6.79209305e-04
      -5.58456173e-04 -1.65049150e-03 2.10518995e-03 2.25296360e-03
      3.41034494e-04 2.17406239e-04 -6.14438904e-04 6.31329429e-04
      5.36894659e-04 3.93236143e-04 2.31535407e-03 -1.81614922e-03
      7.47311162e-04 3.09364987e-05 1.77523951e-04 -2.38428882e-04
      -4.58266150e-04 -1.96374860e-03 -1.80320558e-03 -2.67322967e-03
      -2.17317999e-03 5.89421310e-04 -4.38023824e-04 -2.44234543e-04
      3.07364360e-04 -2.35610758e-04 -2.43039802e-03 -2.41737114e-03
      -2.48594419e-03 1.30882359e-03 8.81320040e-04 5.02241543e-04
      1.43323399e-04 1.86079962e-03 1.79048642e-04 3.89824418e-05
      1.48007984e-03 1.90584676e-03 1.54516206e-03 3.17268423e-05
      1.13514230e-04 2.33442173e-04 1.23678750e-04 7.51770509e-04
      8.32924736e-04 1.58010051e-03 1.25162432e-03 -2.54832767e-03
      -1.27403429e-04 -1.06105709e-03 -2.79758853e-04 1.05353782e-03
      3.27301212e-04 -2.68449285e-03 -2.44770199e-03 -3.24305193e-03
      -3.99718178e-04 1.98014139e-04 -8.25884286e-04 6.10340910e-04
      -2.25479063e-03 -1.32517365e-04 -3.35449190e-03 -7.75570341e-04
      -1.57771655e-03 -2.15594680e-03 -2.62170192e-03 -2.54032807e-03
      -2.50301952e-03 -2.85340962e-03 -1.30983535e-04 3.29386850e-04
      -1.97034504e-04 -1.50153320e-03 -2.71508656e-03 -1.37046538e-03
      -2.43214215e-03 -1.35258853e-03 -1.10050896e-03 6.30680734e-05
      -8.03562813e-04 -1.26536295e-03 -3.96201853e-03 -1.26638357e-03
      -1.37326412e-03 -1.92979549e-03 -3.74476163e-04 -1.68512168e-03
      1.03267514e-04 -3.58945283e-04 1.72691318e-04 -7.08184380e-04
      -1.06846506e-03 -7.13977963e-04 -1.76880159e-04 6.50752118e-05
      -7.03741272e-04 -7.23187753e-04 -1.19380804e-03 -1.09435769e-03
      -1.76926528e-03 -2.34282855e-03 4.15224815e-04 2.48058495e-04
      -4.76026325e-04 5.79784799e-04 -2.63122085e-04 -2.66849925e-03
      -2.67935242e-03 -3.66513571e-03 -3.25379288e-03 -2.00681924e-03
      -8.22550443e-04 -1.53363310e-03 -1.33279990e-03 -1.50053925e-03
      -3.37357470e-03 -2.94551300e-03 -3.46657704e-03 -1.90425897e-03
      -1.55936601e-03 -1.55871967e-04 -4.59535746e-04 9.25643311e-04
      -5.80614005e-06 -1.55185722e-03 -4.83399752e-04 -1.79172226e-03
      -2.66862335e-04 8.07586883e-04 7.85193697e-05 3.30935407e-04
      -4.92103049e-04 -2.45678762e-04 -7.26374681e-04 1.35007067e-04
      -4.43770477e-05 -2.04187189e-03 -1.74195960e-03 4.25584498e-04
      -1.67958776e-03 -7.71548785e-03 -1.65670738e-03 -3.20198759e-03
      -3.59011348e-03 -1.19043514e-03 -2.42063979e-04 -1.68006791e-05
      8.85605346e-04 9.21879109e-05 -1.17809814e-03 1.00760849e-03
      -3.66257882e-04 -1.13163856e-04 -1.08025875e-03 -1.27342530e-03
      1.05204585e-03 1.61673781e-03 -9.49707537e-05 -2.75303540e-03
      -8.28060904e-04 -5.18571411e-04 -5.13550767e-04 -1.50752638e-03
      1.01216475e-03 1.91165367e-03 2.72097299e-03 2.17418186e-03
      2.36960361e-03 8.86713387e-04 1.38123776e-03 7.89378188e-04
      2.66038551e-04 -2.09203735e-03 -8.61653418e-04 -8.37883912e-04
      -1.08076902e-05 -9.79070785e-04 -1.79649331e-03 -2.85197911e-03
      -1.67075382e-03 -1.79648108e-03 2.04657693e-03 -5.86968905e-04
      -1.02753949e-03 -8.67057388e-05 1.12279714e-03 6.85951149e-04
      1.20030432e-04 8.82736582e-04 2.11941823e-03 1.92892476e-05
      1.33922207e-03 2.42347410e-03 1.96826272e-03 3.16225388e-03
      1.21036323e-03 1.55838486e-03 9.14052012e-04 -4.20867786e-04
      1.09767262e-03 6.49108319e-04 8.51769699e-04 5.56058367e-04
      1.14661967e-03 2.53543141e-04 1.11261872e-03 9.56522708e-04
      1.26543629e-03 -2.08652811e-03 -2.11336557e-03 -1.81121519e-03
      -5.67240815e-04 1.90188177e-03 3.58640420e-04 6.84548169e-04
      4.67926147e-04 -8.92060576e-04 -2.22315220e-03 6.89808687e-04
      5.14329236e-04 3.40120110e-04 -2.75813771e-04 -7.63232994e-04
      -2.29067844e-03 -3.09849670e-03 -3.04451911e-03 7.74977263e-04
      5.81536558e-04 6.69803121e-04 6.53128605e-04 1.55825447e-03
      4.34984453e-04 1.10434974e-03 8.72475677e-04 8.62622401e-04
      3.41734878e-04 3.73397081e-04 4.87243611e-04 5.45307237e-04
      1.62621401e-03 8.85216694e-04 1.28379348e-03 9.40612343e-04
      2.87425559e-04 -2.71996460e-03 2.59044959e-04 1.10261992e-03
      1.18382988e-04 4.21008444e-05 -2.40627051e-04 -2.62988638e-03
      -2.26390059e-03 -4.00041696e-03 -1.36557105e-03 4.60332842e-04
      -1.08425564e-03 -2.44074705e-04 1.73351925e-03 1.90706356e-04
      -1.62332726e-03 -2.68918765e-03 -2.22430984e-03 2.12491272e-04
      1.89750615e-04 3.79914767e-04 7.57640053e-04 1.78516749e-03
      1.51539652e-03 1.49382208e-03 1.03349460e-03 1.00846308e-04
      -3.33744101e-04 1.33414567e-03 2.24459029e-04 1.03009595e-04
      1.42058404e-03 5.51523000e-04 9.17253274e-05 -3.40421015e-04
      -1.27379131e-03 -1.59441459e-03 5.69446245e-04 -9.60193458e-04
      -9.81939884e-05 9.51056136e-04 4.28691856e-05 -1.95640279e-03
      -1.92112348e-03 -2.44295341e-03 1.84867566e-03 3.18121951e-04
      -3.04567453e-04 6.15588971e-04 -1.41171017e-03 -2.69480306e-03
      -4.09441395e-03 -1.48886826e-03 9.69709130e-04 -5.30471909e-04
      3.21129453e-04 4.51554690e-04 2.23585535e-04 1.18668552e-03
      1.51652726e-04 -1.46034767e-03 -5.20913978e-04 -9.87328705e-04
      3.97356256e-04 2.32446240e-03 1.96269224e-03 3.01469653e-03
      -9.67323955e-04 -2.08035600e-03 -5.34692965e-03 -2.61982298e-03
      -2.04302650e-03 -2.58933101e-03 -1.84559252e-03 -1.24086940e-03
      8.38954817e-04 1.10119821e-04 1.12412171e-03 3.32872703e-04
      3.95488532e-05 -1.84473838e-03 -2.42591905e-03 -1.88632181e-03
      -1.14134059e-03 3.09468451e-04 2.70243589e-04 2.62847432e-04
      -6.38317533e-06 1.60027121e-05 -2.06614938e-03 -3.07023712e-03
      4.51451517e-04 8.50270560e-04 9.26054490e-04 2.58118729e-04
      1.01288047e-03 -2.04787240e-03 -3.06458771e-03 -2.90218578e-03
      -8.37746949e-04 2.41780584e-03 2.52113654e-03 1.17810664e-03
      1.67657540e-03 6.60836886e-05 -1.63652946e-03 -2.61281594e-03
      -2.23798430e-04 -3.72305349e-03 -1.35480531e-03 4.33315785e-04
      1.37316855e-03 3.85257322e-03 -2.85190545e-05 -2.79252912e-04
      -4.01928410e-05 -4.77191480e-03 -1.34057587e-03 8.51895602e-04
      8.66148213e-04 9.86943836e-04 6.62790320e-04 -5.82303270e-04
      -1.33873138e-03 2.35186919e-04 -1.54321711e-03 -4.77159303e-03
      -1.22988713e-04 6.22948748e-04 1.30674464e-03 1.08920108e-03
      7.47747195e-04 -1.93583919e-03 -2.77206022e-03 -4.50177211e-03
      -9.23991844e-04 1.62451703e-03 2.09235004e-03 1.98681094e-03
      1.34563108e-03 -2.89979012e-04 -1.51371828e-03 -1.10361946e-03
      -1.00802979e-03 -8.33534359e-05 2.19354616e-03 3.06210783e-03
