<?xml version="1.0"?>
<opencv_storage>
<my_svm type_id="opencv-ml-svm">
  <svm_type>C_SVC</svm_type>
  <kernel><type>LINEAR</type></kernel>
  <C>1.0000000000000001e-01</C>
  <term_criteria><epsilon>1.1920928955078125e-07</epsilon>
    <iterations>1000</iterations></term_criteria>
  <var_all>17640</var_all>
  <var_count>17640</var_count>
  <class_count>2</class_count>
  <class_labels type_id="opencv-matrix">
    <rows>1</rows>
    <cols>2</cols>
    <dt>i</dt>
    <data>
      -1 1</data></class_labels>
  <sv_total>1</sv_total>
  <support_vectors>
    <_>
      -2.76015187e-03 -1.51124713e-03 -2.69614998e-03 -2.97281938e-03
      -5.43010188e-03 -1.87463430e-03 -9.65731626e-04 -3.09138239e-04
      -2.60948739e-03 -2.26461189e-03 -8.02637660e-04 -8.05104384e-04
      -2.70700641e-03 -5.30111464e-03 -3.37017863e-03 -2.81442679e-03
      -3.06299934e-03 -2.03304691e-03 -1.08976045e-03 8.82559514e-04
      8.34844192e-04 5.93849072e-05 -1.87383243e-03 -1.87100610e-03
      -1.26960292e-03 -5.54193452e-04 -1.18203775e-03 3.69553850e-03
      2.38757906e-03 3.20131518e-03 -2.67844793e-04 -1.37913274e-04
      -2.03616475e-03 -1.66495785e-03 -2.03528631e-04 2.50088330e-03
      -1.48997386e-03 -1.77959795e-03 -1.46538031e-03 -2.05738982e-03
      -4.54780459e-03 -2.89592054e-03 -2.78720888e-03 -1.33726886e-03
      -2.41143210e-03 -1.67345128e-03 -2.38237204e-04 3.80858546e-04
      -1.56168142e-04 -3.98947345e-03 -1.97271304e-03 -1.62743658e-04
      -9.12540054e-05 -2.43068766e-03 3.41276755e-03 5.18787187e-04
      -1.23599937e-04 -1.69711420e-03 -2.06973148e-03 -1.88566849e-03
      -1.86958420e-03 8.71664437e-04 3.25723784e-03 7.79525319e-04
      1.15316291e-03 1.01790554e-03 7.14977970e-04 -6.97485521e-04
      -5.60000015e-04 8.89503572e-04 2.11647106e-03 1.75978336e-03
      -2.88258912e-03 8.42899244e-05 7.11163215e-04 8.77087470e-04
      -2.30732048e-03 -2.12538545e-03 3.66787339e-04 -2.32939361e-04
      -2.68733175e-03 -2.56702467e-03 1.47615804e-03 1.96413393e-03
      7.64786033e-04 6.95579103e-04 -1.08078425e-03 1.72451395e-03
      9.63265833e-04 -1.72411173e-03 -8.54128739e-04 2.72235193e-04
      7.41529744e-04 9.23030620e-06 -5.35268045e-04 -5.49393764e-04
      3.36571620e-03 -1.84377830e-04 -1.01304220e-04 -5.11234719e-03
      -3.36582598e-04 2.83567642e-04 -6.18941966e-04 -7.76120578e-04
      -3.61735641e-04 3.93424882e-03 1.24186650e-03 -3.77219915e-03
      -9.07334732e-04 1.62083271e-03 8.57923587e-04 1.05459115e-03
      1.00163498e-03 -5.37890592e-04 1.11953414e-03 1.33184413e-03
      -4.08665597e-04 -6.29978604e-04 1.28659967e-03 2.87602725e-03
      1.75727159e-03 3.62130767e-03 -1.00406655e-03 2.14079558e-03
      1.06603555e-04 -1.28148380e-03 -5.78340748e-03 -4.34560410e-04
      4.56214999e-04 -8.31933721e-05 -1.19764404e-03 -1.96385523e-03
      1.98142277e-03 4.47578233e-04 -3.08405817e-03 -2.36464175e-03
      1.11873867e-03 1.87178608e-03 1.29005313e-03 4.27777087e-03
      -7.38371280e-04 1.06669404e-03 -2.29153025e-04 -2.73877592e-03
      1.35894818e-03 2.17433949e-03 3.51333967e-03 1.95084291e-03
      3.75559600e-03 3.68505542e-04 1.98242394e-03 -1.56344046e-04
      -5.07004617e-04 2.18278263e-03 7.28908344e-05 2.33620987e-03
      1.31547544e-03 5.96277136e-03 2.05163960e-03 3.59159405e-03
      1.46292942e-03 2.40152888e-03 -3.26934201e-03 1.22413132e-03
      1.79473287e-03 1.34897523e-03 2.01450638e-03 -1.30830891e-03
      4.60602518e-04 -1.29788741e-03 -2.98916013e-03 -1.92798849e-03
      5.28064265e-04 7.80596281e-04 6.80189522e-04 1.57832471e-03
      -7.05089245e-04 1.60210615e-03 -8.41568632e-04 -3.41561809e-03
      1.73665071e-03 3.64519859e-04 1.01208419e-03 7.30193278e-04
      4.45127627e-03 1.67060771e-03 4.32852283e-03 1.33984489e-03
      1.72012602e-03 3.40026012e-03 4.20489494e-04 7.98678142e-04
      3.02988105e-04 2.62773177e-03 6.22818654e-04 2.76241661e-03
      2.96193664e-03 2.81778676e-03 -2.97390902e-03 7.40508331e-05
      6.53351599e-04 9.07696667e-04 3.57607089e-04 -1.38174475e-03
      1.97277474e-03 -1.35432614e-03 -3.67948925e-03 1.23784761e-03
      -1.31156892e-04 5.14159678e-04 9.05774767e-04 1.81131181e-03
      1.11906353e-04 1.69550057e-03 1.98992272e-03 1.49259751e-03
      2.15576426e-03 4.66753554e-04 5.09186881e-04 2.65968236e-04
      1.99104357e-03 4.49523184e-04 2.00388161e-03 2.81704403e-03
      3.32181482e-03 1.54252141e-03 3.03493143e-04 2.88580195e-04
      1.38910109e-04 2.54077301e-03 1.34673435e-03 2.20959866e-03
      2.75871879e-03 2.69646104e-03 2.46466976e-03 1.73092732e-04
      6.46625704e-04 6.26624853e-04 -2.10732641e-03 1.55600696e-03
      3.51629895e-03 3.35933501e-03 3.31000588e-03 1.53756852e-03
      1.48748062e-04 4.12103545e-04 2.99327425e-04 2.54059792e-03
      1.59397011e-03 2.44182581e-03 1.57959922e-03 1.40882016e-03
      -1.48608093e-03 6.48802088e-04 1.34791213e-03 1.89154613e-04
      -2.42983946e-03 -1.28681352e-03 -1.54209998e-03 -7.75045366e-04
      -1.39308337e-03 -3.58880934e-04 4.69263381e-04 1.00241031e-03
      -6.67527725e-04 -2.62988219e-03 -1.74071116e-03 -2.25439202e-03
      2.36944601e-04 1.94049790e-04 -2.66404357e-03 7.85247772e-04
      1.15771196e-03 1.41676760e-03 3.83526029e-04 -3.82051308e-04
      -1.45598233e-03 -1.14313094e-03 -4.61147446e-03 -8.17403488e-04
      9.52449802e-04 8.54789338e-04 1.71794102e-03 2.63164425e-03
      9.12844611e-04 1.33265590e-03 1.63543236e-03 -5.23377617e-04
      1.74051046e-03 2.03034666e-04 -1.14991120e-03 -1.94966211e-03
      -1.67242659e-03 -1.15784712e-03 -7.98788562e-04 -4.38375748e-04
      2.30721827e-03 -5.58964268e-04 -1.25696731e-03 -1.46129503e-04
      2.77251063e-04 -3.55971348e-03 -1.49078516e-03 -6.92903297e-04
      -1.22847137e-04 -9.63285740e-04 -4.11946297e-04 -2.35919957e-04
      -7.71298772e-04 -1.12692022e-03 -2.25788471e-03 -1.33004959e-03
      9.59496247e-04 1.09964143e-03 5.11321923e-05 1.32569156e-04
      5.26245276e-04 -3.61034821e-04 1.17218867e-03 -3.07010720e-03
      -1.57547521e-03 3.38244194e-04 7.79294875e-04 -2.00241455e-04
      -5.28076245e-03 -5.15091349e-04 2.65276362e-03 2.28279619e-03
      -1.44796900e-03 -5.39679422e-05 3.05515830e-03 1.28287240e-03
      -3.96648655e-03 -4.49572038e-03 -1.69498089e-04 1.45945858e-04
      -4.72152489e-04 -1.05438381e-03 3.26720823e-04 2.81940238e-03
      5.65824681e-04 -2.94179190e-03 -1.22090464e-03 1.28903182e-03
      2.96342216e-04 1.08152116e-03 -2.18341104e-03 -9.67687694e-04
      1.75629219e-03 1.18142401e-03 -1.30288803e-03 1.19385972e-04
      2.59034918e-04 6.46677916e-04 2.12445462e-04 2.25569253e-04
      5.32345613e-04 1.43932330e-03 1.39293412e-03 -6.57934230e-04
      -3.67055065e-03 -1.15222530e-04 1.09293091e-03 2.61813897e-04
      1.57323404e-04 -1.18523499e-03 1.36566523e-03 1.07191026e-03
      -2.51066708e-03 -2.71901977e-03 1.12078048e-03 1.95227785e-03
      1.01233623e-03 1.66038959e-03 -1.58785121e-03 2.12494982e-04
      -7.76322442e-04 -3.44184879e-03 -1.02216518e-03 -1.55197122e-04
      1.12942629e-03 -8.00880487e-04 3.42086219e-04 -9.73366143e-04
      -6.48693938e-04 4.39088268e-04 -1.49214512e-03 -2.72557634e-04
      6.16915233e-04 8.02158320e-04 -2.35238054e-04 -1.98506837e-04
      4.71296553e-05 1.69041904e-03 1.04977190e-03 -3.38192360e-04
      -8.71569617e-04 2.40287161e-03 2.58853007e-03 1.43916567e-03
      3.18445102e-03 -1.18855131e-03 1.50997844e-03 3.50350805e-04
      -2.03318708e-03 -2.73076608e-03 -6.76441821e-04 7.11597910e-04
      4.03117592e-04 8.80114734e-04 -1.34465902e-03 8.88479059e-04
      4.57638089e-04 -2.93045375e-03 -1.33177568e-03 6.55280426e-04
      1.39220967e-03 1.32335539e-04 9.15994984e-04 -1.00382452e-03
      3.73777759e-04 5.62775356e-04 -2.03837617e-03 -2.12904951e-03
      -7.38519710e-04 -6.69278495e-04 -1.20154745e-03 -2.02222902e-04
      -2.13132682e-03 -6.44448737e-04 5.56257262e-04 -3.51275015e-03
      2.94892845e-04 3.17826343e-04 1.34455122e-03 7.34362693e-04
      1.15756656e-03 -1.33279909e-03 1.29893539e-03 9.00413841e-04
      -4.76335001e-04 2.43011280e-03 1.22771598e-04 7.56135210e-04
      8.62189918e-04 9.28222260e-04 -1.64542266e-03 1.15389389e-03
      8.22950096e-04 2.34160549e-03 -4.49270196e-03 -2.72632402e-04
      -7.29723717e-04 -1.25020591e-03 -3.58131272e-03 -4.04334208e-03
      -2.58294120e-03 -2.19384767e-03 -4.42467770e-03 2.19761088e-04
      6.01991662e-04 1.14090974e-03 1.23808614e-03 1.00588251e-04
      -4.46116377e-04 1.64132274e-03 1.59932068e-03 4.33202862e-04
      1.00529578e-03 2.99948850e-04 6.82863349e-04 6.68324530e-04
      1.00001507e-03 1.18470623e-03 2.29248824e-03 1.45008322e-03
      8.67766212e-04 2.10939464e-03 3.33980075e-04 5.04096388e-04
      3.45399050e-04 4.19668294e-03 2.52284296e-03 3.53175262e-03
      2.10267492e-03 1.52205955e-03 6.00113650e-04 4.88260528e-04
      1.49224198e-03 9.58536228e-04 -7.60124007e-04 2.50851474e-04
      1.23745855e-03 -7.00979959e-04 2.78242456e-04 3.31657683e-03
      1.76731683e-03 2.87445472e-03 2.24093115e-03 3.28261591e-03
      -5.03562624e-04 1.69040950e-03 1.66121579e-03 2.62207072e-03
      -1.94577407e-03 6.77884091e-05 6.38195372e-04 5.55197359e-04
      -4.48466133e-04 -3.09605413e-04 -1.11977302e-03 -6.14976918e-04
      -2.96855066e-03 -1.49721757e-03 9.20940583e-05 -2.54378247e-04
      2.43670933e-04 -1.68502575e-03 -7.78437941e-04 1.70780078e-03
      2.45006010e-03 -1.85651763e-03 2.47899350e-03 2.23541609e-03
      2.89716152e-03 1.91220909e-03 -1.87515246e-03 -2.85832980e-03
      -6.05176145e-04 -1.36511793e-04 1.73536642e-03 3.03535233e-03
      2.73906463e-03 1.92170718e-03 -4.46143618e-04 -5.44856710e-04
      -1.14417064e-03 6.68895198e-04 2.48337304e-03 2.08148384e-03
      -1.02684577e-03 -6.78212265e-04 -5.02284791e-04 -1.26387237e-03
      -3.72264162e-03 -1.26879162e-03 1.40911073e-03 2.05082004e-03
      -1.74582936e-03 -2.34606734e-04 1.09708309e-03 1.29158696e-04
      -2.25378135e-05 -6.11549290e-03 -2.54498422e-03 -3.24950932e-04
      -5.25395270e-04 -1.15091528e-03 2.03948328e-03 2.68595433e-03
      -1.05230167e-04 -1.38252729e-03 -3.21483065e-04 -1.38250459e-03
      2.26343647e-04 2.14972533e-03 -3.59828628e-05 7.21996417e-04
      2.54077697e-03 1.13290106e-03 1.01208425e-04 -2.76909419e-03
      -6.30872266e-04 1.34760427e-04 7.24815531e-04 3.37017816e-04
      4.81806383e-05 1.71140477e-03 -2.38381588e-04 1.22825359e-03
      -1.02287414e-03 -1.30529783e-03 1.53358362e-03 9.21281346e-04
      -1.50299794e-03 -1.36736524e-03 6.48882182e-04 5.79432002e-04
      5.06785174e-04 1.49172381e-03 3.35887707e-05 5.76443505e-04
      1.52747589e-03 -1.80358661e-03 -1.23818568e-03 2.06684787e-03
      8.02988478e-04 9.96669289e-04 1.51643408e-05 -3.40640487e-04
      8.71609373e-04 5.53311838e-04 -1.76305708e-03 8.29895725e-04
      1.09377597e-03 2.60306057e-04 -7.59591785e-05 1.07748143e-03
      -1.71869353e-04 4.23338643e-04 6.32164418e-04 4.29759151e-04
      -6.50573813e-04 1.16478303e-03 1.94727816e-03 1.19370216e-05
      1.42326206e-03 1.86709178e-04 2.09436679e-04 1.91661727e-03
      -6.75302814e-04 8.08387587e-04 1.30475336e-03 1.35928963e-03
      2.71871802e-04 -1.27707573e-03 -1.68811530e-03 4.57637478e-04
      2.70299701e-04 6.65413216e-04 1.63211464e-03 4.45351412e-04
      -8.53587335e-05 2.36449850e-04 1.48852123e-03 3.83607810e-04
      6.77731587e-04 8.22342059e-04 1.15970685e-03 -1.53695093e-03
      -7.86859018e-04 -1.43567997e-03 -9.09731956e-04 -6.56649005e-04
      -1.74959050e-03 -2.45894794e-03 -1.63837534e-03 -1.60645763e-03
      2.19032145e-03 8.27210024e-04 1.19160442e-03 7.27977662e-04
      7.11144530e-04 -8.91278614e-04 1.14002090e-04 8.57143663e-04
      1.40266714e-03 7.11823406e-04 -6.03505934e-04 -1.60527695e-03
      -1.32272940e-03 -3.41992639e-03 -3.90864722e-03 -1.80649979e-03
      5.10657206e-04 -7.42371660e-04 -1.49860780e-03 -6.21299259e-04
      -1.36156927e-03 -1.09216594e-03 -1.52476446e-03 -1.95739791e-03
      -3.16055841e-03 -2.44883541e-03 -2.34013284e-03 -1.28589314e-03
      -9.88274114e-04 -1.88128499e-03 -1.29815144e-03 -3.78436828e-03
      -2.38594715e-03 -2.06863764e-03 -2.18658033e-03 -3.00645991e-03
      7.33805413e-04 1.75581983e-04 -6.51372597e-04 -6.49118330e-04
      -2.68767378e-03 -3.04941460e-03 -6.27324102e-04 -1.73966000e-05
      6.70277586e-05 -1.11751992e-03 7.57805479e-04 1.25648058e-03
      9.82573372e-04 1.50261924e-03 2.15846376e-05 1.65960111e-03
      1.91374205e-03 -4.32392553e-04 -2.18561990e-03 -5.37421074e-05
      -5.36566717e-04 -4.36452538e-04 -3.99986748e-03 -2.80650565e-03
      -3.11054289e-03 -3.01749120e-03 -4.66286112e-03 -9.89209395e-04
      9.66919761e-04 9.23610351e-04 2.30275473e-04 3.22206150e-04
      -1.54505181e-03 -1.94810645e-03 -1.75880652e-03 -1.96592836e-03
      2.96032900e-04 8.25834926e-04 1.39810040e-03 7.98397057e-04
      1.72654551e-03 3.56712408e-04 5.85181231e-04 1.27581763e-03
      1.72799759e-04 3.40397586e-03 1.43410836e-03 2.61542015e-03
      1.90754421e-03 2.46660737e-03 -4.66293626e-04 5.31938858e-04
      1.04352855e-03 2.24881014e-03 -4.50501824e-03 5.54401544e-04
      9.02954431e-04 3.58991150e-04 -2.79671140e-03 -4.44224663e-03
      -3.36194201e-03 -1.72282918e-03 -5.67057217e-03 2.81384354e-03
      2.06179544e-03 2.72604730e-03 2.37301528e-03 3.63702141e-03
      -2.29153287e-04 -3.62103383e-05 5.23680355e-04 2.28930567e-03
      1.89459312e-03 1.12600927e-03 2.08591274e-03 -4.73655004e-04
      1.71711261e-04 -8.29411088e-04 3.62631778e-04 4.96508379e-04
      2.29433412e-03 6.36870856e-04 -3.39404505e-04 -1.38896366e-03
      -2.82888883e-03 3.22211214e-04 2.49431672e-04 1.19866116e-03
      2.35563749e-03 1.34676741e-03 -6.03553490e-04 9.59367433e-04
      1.29799265e-03 -8.49901815e-04 -8.48257740e-04 -7.38023373e-04
      1.81247640e-04 -5.24403120e-04 -8.28029180e-04 -2.23005912e-03
      -1.54489919e-03 -1.97219756e-03 -3.81559972e-03 -1.59427800e-05
      -3.85521236e-03 -2.92219990e-03 -6.41055754e-04 -2.58208648e-03
      9.35522839e-04 1.46191916e-04 -1.08381268e-03 -3.73505545e-03
      -4.18950891e-04 5.20111993e-04 1.15235103e-03 1.75874378e-03
      1.88226125e-03 1.97620713e-03 1.66209904e-03 -3.26621994e-05
      -6.94094400e-04 -1.06374535e-03 4.80197050e-04 4.72400134e-04
      -2.07354300e-04 1.36589387e-03 -3.15632345e-03 -2.31854408e-03
      -3.10375588e-03 -3.42950621e-03 -2.40785908e-03 -3.52868647e-03
      -3.31324292e-03 -1.39829563e-03 -2.50238949e-03 1.24461285e-03
      -4.33250767e-04 7.84982185e-05 -6.40415936e-04 9.92982183e-04
      3.42618529e-04 1.84544784e-04 -6.60202873e-04 4.06477338e-04
      4.66843485e-04 1.97522342e-04 -1.52570661e-04 5.26850228e-04
      2.58250744e-03 1.82443927e-03 1.00900687e-03 -1.35013222e-04
      -1.02209789e-03 -2.03087562e-04 4.41828888e-05 -1.55324247e-04
      -3.54277698e-04 -6.96581730e-04 -1.27328094e-03 -2.60728807e-03
      -1.41022715e-03 -5.63127513e-04 1.65233482e-03 1.17249216e-03
      2.33852398e-03 2.39604572e-03 -6.09990850e-04 -5.21631679e-04
      -2.72548920e-03 -2.42421241e-03 7.80106464e-04 -2.15180935e-05
      3.58592981e-04 -1.54477340e-04 1.29397740e-04 2.14415573e-04
      -7.41051976e-04 -6.88865955e-04 -2.40911613e-05 -4.48403647e-04
      2.79111532e-03 -1.99524497e-04 -1.11210078e-03 -1.63792909e-04
      2.98052863e-03 2.14464017e-04 -1.31847206e-04 8.49318691e-04
      2.40924535e-03 -3.73247708e-03 -1.22463377e-03 -2.00156495e-03
      -1.03597925e-03 -8.08827113e-04 -1.62724126e-03 -1.79963000e-03
      -1.88057777e-03 -3.04755289e-03 1.14755367e-03 5.48491662e-04
      -5.48977987e-04 3.09604220e-04 7.14852358e-04 2.78492080e-04
      1.06767041e-03 -2.30132122e-04 1.14160427e-03 1.54615642e-04
      4.63784600e-05 -2.96361744e-04 -1.43780242e-04 1.42743665e-04
      1.68084109e-04 -9.44514759e-05 2.22896662e-04 2.54450460e-05
      -2.06049182e-03 -1.76932185e-03 -1.92919991e-03 -1.07821345e-03
      -1.92591432e-03 -2.04415247e-03 -3.23974458e-03 -1.95159344e-03
      -2.08150665e-03 -2.21998268e-03 -8.37114465e-04 -1.18035474e-03
      -5.80208667e-04 -3.96807492e-03 -3.96736292e-03 -4.79723560e-03
      -4.00338648e-03 -3.03709041e-03 1.47035345e-04 2.20283342e-04
      2.93532386e-04 6.53728130e-05 -3.06667425e-05 -3.82507074e-04
      -3.92614951e-04 -2.33542887e-04 -4.00231984e-05 7.87880970e-04
      1.73561706e-03 2.01263581e-03 9.46841901e-04 -3.27719655e-03
      -2.36276910e-03 -2.06206087e-03 -1.15110073e-03 -8.86736903e-04
      -1.85169850e-03 2.60627392e-04 -6.03971166e-05 -2.16607208e-04
      -3.45813832e-03 -2.80544604e-03 -2.35379231e-03 -1.48653612e-03
      -2.92397640e-03 -2.11543962e-03 1.11961307e-03 1.28359720e-03
      6.62360457e-04 -5.44519455e-04 -1.29158178e-03 -1.60467252e-03
      -1.80281140e-03 -2.86634057e-03 -3.08459887e-04 1.01171981e-03
      1.32845121e-03 5.17787354e-04 -2.94158608e-03 -2.44733039e-03
      -2.20556860e-03 -1.33546034e-03 -8.29340774e-04 7.53276923e-04
      3.17429681e-03 3.61446850e-03 2.53983657e-03 6.86311396e-04
      -1.41731161e-03 -2.01504468e-03 -1.74734893e-03 -1.32825109e-03
      -8.37927451e-04 7.87369732e-04 1.29857613e-03 7.85069191e-04
      8.14387924e-04 -1.30667747e-03 -1.10907631e-03 -4.84935008e-04
      -2.03986163e-03 3.58478341e-04 1.33152993e-03 2.19128071e-03
      1.97297381e-03 3.35933873e-03 -9.94538772e-04 1.02780003e-03
      1.42923277e-03 1.69168794e-04 -3.31516680e-03 3.78058350e-04
      1.38286082e-03 1.09115045e-03 3.00475745e-03 -7.81008799e-04
      -1.61491591e-03 -1.47969252e-03 -3.43044475e-03 -5.19369636e-03
      8.76585371e-04 4.54320718e-04 1.37492036e-03 4.42163879e-03
      -1.08539953e-03 -9.52573551e-04 -2.12921458e-03 -5.09813242e-03
      -1.33094832e-03 1.39342112e-04 1.33717852e-03 2.52887025e-04
      1.79190037e-03 -7.37096299e-04 3.38235259e-04 -3.64507054e-04
      -7.33461115e-04 -4.67963889e-03 -1.05637964e-03 -1.16273481e-03
      -7.96219741e-04 -5.67418872e-04 -3.61779379e-03 -2.25000666e-03
      -1.35101925e-03 -4.02365532e-03 -2.65602343e-04 -1.83816330e-04
      -1.53849673e-04 -1.28380232e-03 3.99340875e-03 1.59217080e-03
      2.59465957e-03 1.40418753e-03 -1.25032297e-04 -1.65194832e-03
      1.60909971e-04 5.23799623e-04 4.76384128e-04 6.78384502e-04
      -3.21549806e-03 -2.15434982e-03 -8.27780867e-04 -2.31527607e-03
      -1.29198690e-03 -2.74255843e-04 2.73112993e-04 4.70091705e-04
      -2.12742543e-05 -2.33000424e-03 -2.40177964e-03 -6.48753776e-04
      -1.46885635e-03 8.00259237e-04 2.73378741e-04 1.12115033e-03
      4.90670674e-04 5.09080244e-04 -4.74719011e-04 -2.22284789e-03
      -2.91097938e-04 1.38408446e-03 -2.65033194e-03 3.99155280e-04
      4.61722870e-04 -7.63002725e-04 8.54228274e-05 -2.73695379e-03
      -2.58028740e-03 -1.10423716e-03 -2.46720552e-03 -2.09361897e-03
      -9.07745387e-04 -1.65759760e-03 -2.63269222e-03 -2.91355187e-03
      -1.40331045e-03 -2.59567774e-03 -2.16186327e-05 -1.42757664e-03
      4.81919572e-03 2.05962174e-03 2.52445508e-03 1.99108617e-03
      -4.88779973e-03 -9.50980757e-04 -2.55670049e-03 -4.75827052e-04
      3.62221780e-03 -4.06286417e-04 1.47911269e-04 5.38740598e-04
      2.42169826e-05 1.75056004e-04 -3.72470968e-04 -4.79058712e-04
      -4.13609028e-04 -5.90993965e-04 -9.51852126e-05 -7.00028671e-04
      -2.27135769e-03 -2.71766214e-03 -5.92556130e-03 -1.64191949e-03
      -2.80485163e-03 -1.37594435e-03 -8.10316647e-04 -1.72898918e-03
      2.28579156e-05 -2.44478142e-04 -4.81221650e-04 -1.19903998e-03
      -4.42255929e-04 -2.28534656e-04 -7.70614657e-04 -2.02461123e-03
      3.74916330e-04 -4.43329802e-04 4.02113888e-04 -1.37975250e-04
      5.12587198e-04 2.71043042e-04 1.84963879e-04 -4.88119927e-04
      -4.31045453e-04 -5.27300523e-04 8.46706098e-05 3.95726383e-04
      -2.38137567e-04 -2.83475849e-04 -4.62739175e-04 -3.02915723e-04
      -3.25900444e-04 -1.42712059e-04 -3.00419820e-03 2.07414269e-04
      -5.33433231e-05 -1.62831356e-03 -2.46538525e-03 -7.73887907e-04
      -2.16151844e-03 -3.68433236e-03 -3.28290835e-03 1.36289618e-03
      2.00352282e-03 1.37299008e-03 9.79577235e-05 -1.25848153e-03
      -2.67414958e-03 -1.17220997e-03 -6.18263672e-04 -1.75859372e-04
      5.18958608e-04 4.96298366e-04 4.66428144e-04 4.11713263e-05
      6.03587541e-05 -2.16926055e-04 -2.11633494e-04 1.42447549e-04
      4.39685129e-04 1.04769180e-03 9.16256453e-04 1.40194618e-03
      4.25592414e-04 -4.29757312e-03 -1.92308519e-03 -2.34653096e-04
      -9.20104358e-05 6.72648835e-04 -6.78616168e-04 1.92971597e-03
      1.52213592e-03 -6.19604427e-04 -1.77673716e-03 -3.09240352e-03
      -9.77167161e-04 -1.03425689e-03 -1.14560395e-03 2.25891219e-03
      2.68321531e-03 2.59832037e-03 3.34206293e-03 1.90832710e-03
      -3.75344134e-05 1.13121688e-03 7.16179900e-04 1.33434625e-03
      -1.01945153e-03 9.56310832e-04 1.17902050e-03 5.21838199e-04
      -1.83678372e-03 -1.54268381e-03 -8.65648966e-04 -7.10768276e-04
      -1.99067150e-03 -6.61533233e-03 1.05717848e-03 1.43604889e-03
      1.00258761e-03 8.95167876e-04 -3.17662745e-03 -3.30500235e-03
      -3.21060000e-03 -7.09724054e-03 2.26323120e-03 2.96771852e-03
      2.52604135e-03 9.82386060e-04 1.90762593e-03 7.88216654e-04
      9.46702377e-04 1.63142860e-04 1.11353467e-03 -3.83691746e-04
      1.99743197e-03 2.18647649e-03 1.08583205e-04 3.65545135e-03
      1.15070061e-03 1.23673875e-03 9.82714351e-04 -8.99029546e-04
      -4.50323522e-03 3.52087693e-04 6.20893727e-04 9.40508908e-04
      3.32955737e-03 -3.03994573e-04 -1.03639800e-03 -9.45385662e-04
      -5.07154968e-03 -6.02208497e-03 -3.22903448e-04 1.63536740e-03
      1.44563615e-03 4.29627392e-03 -2.25439109e-03 -2.33381265e-03
      -3.64723033e-03 -5.71642397e-03 -2.47961842e-04 1.54442503e-03
      1.94998051e-03 -1.44377525e-04 3.86196515e-03 1.10993627e-03
      1.85273984e-03 1.36647827e-03 -1.82291493e-04 -2.28189956e-03
      1.66330676e-04 2.86374427e-03 2.01116176e-03 6.37664087e-03
      2.07067025e-03 3.24266497e-03 2.26550386e-03 -1.78071484e-03
      -8.19412235e-04 1.17150997e-03 4.97437955e-04 -2.44859810e-04
      2.51070131e-03 4.03491489e-04 2.06578057e-03 1.68306159e-03
      -3.12335033e-04 -2.72856373e-03 -4.69388724e-05 -1.10797642e-03
      -9.67673026e-04 -1.69492944e-03 -5.33456076e-03 -5.10075828e-03
      -2.01073568e-03 -1.07780506e-03 8.07574717e-04 1.57498615e-03
      8.86944472e-04 1.48793310e-03 4.60953545e-03 2.76531279e-03
      3.20213963e-03 2.80927937e-03 1.36512145e-03 -1.31155923e-03
      6.04174566e-04 4.28536325e-04 -1.37598731e-03 -2.01233989e-03
      -1.17178517e-03 -8.73074110e-04 8.69324664e-04 -2.87920149e-04
      -2.87255947e-03 -2.43020302e-04 -8.00066569e-04 -3.17866885e-04
      2.00981725e-04 -1.22540246e-03 -1.12254790e-03 -1.91049039e-04
      -2.07299367e-03 -2.04103673e-03 -1.16867875e-03 -2.84483703e-03
      -2.75794812e-03 -2.96905730e-03 5.83435933e-04 8.19001114e-04
      9.08397080e-04 -1.82653964e-03 -9.30267095e-04 4.66184254e-04
      -4.72842403e-05 -1.60800031e-04 9.40710714e-04 9.93128866e-04
      1.43872073e-03 1.64422800e-03 -3.24216817e-04 -3.11159347e-05
      2.17166235e-04 -1.21006940e-03 -1.82630413e-03 -2.14186101e-03
      -1.58436247e-03 -6.48209534e-05 2.56793835e-04 -1.27891847e-03
      -8.69953015e-04 -2.39404454e-03 -3.79886874e-03 -4.63169953e-03
      -5.09876059e-03 5.13478066e-04 -1.05472493e-04 1.58783660e-04
      -9.66000138e-04 -1.92876079e-03 -8.34392195e-05 4.86176905e-05
      -8.87191505e-04 -1.60059123e-03 -2.69549870e-04 -4.72662796e-05
      1.20455392e-04 -1.68433797e-03 1.31350243e-04 1.58801407e-03
      5.34691790e-04 -8.92706739e-04 -2.57739215e-03 -3.17993894e-04
      9.05591180e-04 8.73158919e-04 1.49570133e-05 5.26897384e-05
      8.49108619e-04 -1.44349717e-04 8.77798710e-04 1.16236333e-03
      -5.99869782e-05 9.94824921e-04 1.42914674e-03 -1.00033719e-03
      -1.27925549e-03 -2.79375672e-05 1.27289066e-04 -1.09268050e-03
      -2.51116743e-03 -1.55854924e-03 -6.88447268e-04 -6.36968063e-04
      -1.46267563e-03 1.14633108e-03 2.08092295e-03 1.55592710e-03
      -1.88667967e-04 -7.29536870e-04 -1.34321488e-03 -5.49331657e-04
      -5.28365897e-04 -8.23715876e-04 -1.43000321e-03 8.46207186e-05
      5.86102309e-04 1.12795140e-04 -2.58710375e-03 -9.44826170e-04
      -4.01113561e-04 1.71297885e-04 -2.13906192e-03 -8.08180659e-04
      1.62363204e-03 1.68118696e-03 -7.28873478e-04 -7.23424368e-04
      -2.95758434e-03 -1.53837528e-03 -8.28355202e-04 -3.11147701e-03
      1.28250266e-03 2.10421276e-03 1.80880178e-03 3.96408315e-04
      -3.01636872e-04 -1.57517416e-03 -5.47084899e-04 -1.68638755e-04
      -5.30303223e-04 1.36411283e-03 2.57120724e-03 2.85697961e-03
      1.24924141e-03 -3.82127531e-04 -8.30393808e-04 -5.11803257e-04
      -6.66540058e-04 1.76617934e-04 -7.86870427e-04 3.10742855e-03
      1.32782862e-03 -6.05051697e-04 -5.01437439e-03 -5.53172920e-03
      -3.92874330e-03 -7.24973041e-04 -2.43508257e-03 4.80743311e-03
      6.21507922e-03 6.15278957e-03 4.43772739e-03 2.68848240e-03
      -1.16282376e-03 -6.86767598e-05 -6.42226252e-04 3.98785155e-03
      6.48237125e-04 2.49599968e-03 3.01229069e-03 1.89393992e-03
      2.48813606e-03 8.54797399e-05 1.55579241e-04 -5.43200993e-04
      -5.87635324e-04 -8.80885927e-05 7.26738246e-04 1.19663705e-03
      -8.03540112e-04 4.77534859e-03 8.07348231e-04 6.62289443e-04
      -4.74734998e-06 -3.62740364e-04 3.83611216e-04 3.96021968e-03
      3.83949000e-03 2.57378421e-03 6.24197361e-04 -2.22174916e-03
      -8.26185336e-04 -1.73385523e-03 -1.41872698e-03 4.51092701e-03
      3.47041339e-03 2.40197894e-03 1.83883065e-03 1.18701544e-03
      1.22823101e-03 2.12787301e-03 1.74100557e-03 3.34623712e-03
      -6.54463831e-04 2.59030657e-03 3.48288217e-03 -6.58400386e-05
      2.42541451e-03 9.38139332e-04 2.02824152e-03 1.33679667e-03
      -3.12616292e-04 -4.12658136e-03 8.63895868e-04 1.14927744e-03
      1.16599607e-03 2.19066371e-03 1.77879864e-03 3.12315905e-03
      1.74641830e-03 -3.20803677e-03 3.23231495e-03 2.63767969e-03
      1.38881756e-03 4.10571491e-04 -8.46373441e-04 1.11581956e-03
      1.98931876e-03 1.48263539e-03 2.97502452e-03 1.72698824e-03
      6.66337583e-05 -1.32960465e-03 -1.23660243e-03 9.04884655e-04
      2.16372591e-03 3.65722622e-03 2.18358333e-03 8.21112131e-04
      3.80230864e-04 8.65276321e-04 1.35137956e-03 9.07033798e-04
      3.77551047e-03 1.54379138e-03 2.47610151e-03 2.26095412e-03
      1.26222195e-03 -7.45634432e-04 8.01658141e-04 9.23182059e-04
      -1.46112085e-04 -6.45878632e-03 -3.61952116e-03 -2.74392823e-03
      6.71441376e-05 -7.91921630e-04 1.31627067e-03 2.59207911e-04
      1.39759865e-03 2.59164808e-04 2.90856184e-03 -2.29495454e-05
      1.43409963e-03 6.80080033e-04 1.33214658e-03 1.99733954e-03
      1.79663068e-03 1.59800285e-03 5.94618963e-04 2.11370832e-04
      6.97236217e-04 1.76009943e-03 1.34458207e-03 2.10388214e-03
      3.37540521e-04 4.45172394e-04 -7.02814665e-04 -6.01675536e-04
      -3.66169843e-03 -6.30864932e-04 -2.87659350e-05 8.73608515e-04
      -1.23718608e-04 -1.84897182e-03 2.02377606e-03 1.59297138e-03
      -7.51995714e-04 -1.23674364e-03 -1.30564137e-03 -2.64083268e-03
      -1.47851161e-03 -2.77629076e-03 1.92169787e-03 2.42498983e-03
      1.74599525e-03 9.81212477e-04 5.46670868e-04 9.90599976e-04
      1.08474400e-03 1.00974075e-03 1.87057932e-03 2.19951989e-03
      1.63927721e-03 5.76384948e-04 1.32074358e-03 -1.03678531e-03
      2.60580506e-04 1.21434894e-03 2.29481817e-03 1.68525416e-03
      1.63091661e-03 1.50960532e-03 2.73903599e-03 1.20224117e-03
      -1.23243197e-03 -1.78467645e-03 4.20424301e-04 8.76476057e-04
      1.42076437e-03 -6.27710368e-04 -2.79934146e-04 4.61853866e-04
      4.84776974e-04 -1.87939685e-03 -2.45385175e-03 -1.72761828e-03
      -9.97130293e-04 -2.02740799e-03 1.61948579e-03 1.13753427e-03
      1.52895157e-03 1.47902209e-03 1.23730127e-03 4.80767660e-04
      1.47855887e-03 2.50483863e-03 2.71461811e-03 -2.81319069e-03
      -3.20720457e-04 -9.42059851e-04 -8.56970320e-04 -3.50558577e-04
      -2.83718924e-03 -8.13503459e-04 6.09919254e-04 -1.88998785e-03
      1.81245225e-04 -9.09586379e-04 2.08075246e-04 3.56385775e-04
      -1.91972853e-04 -1.20825076e-03 7.58089067e-04 1.29795051e-03
      -3.62804305e-04 4.05650440e-04 6.12129865e-04 6.46193803e-04
      -1.98393172e-04 -4.85480326e-04 -2.89931544e-03 -1.85402844e-03
      -3.79279314e-04 3.18290840e-04 -2.44794390e-03 -8.79672065e-04
      -1.03962317e-03 -1.64381065e-03 -8.08134791e-04 -2.47305748e-03
      -1.61584490e-03 6.91139081e-04 -6.11115072e-04 7.97328539e-04
      -1.56823115e-03 -4.38110495e-04 -1.52991764e-04 7.00021337e-04
      -3.29498667e-03 -1.18009152e-03 -3.66268447e-04 5.20450412e-04
      3.48399888e-04 2.83657876e-03 1.72967254e-03 -3.65700573e-04
      -1.36730308e-03 -3.87459807e-03 -3.48498439e-03 -1.56497897e-03
      -5.21873008e-04 1.63733435e-03 3.34929628e-03 4.64014011e-03
      1.47096429e-03 1.63529464e-03 -1.23460998e-03 -1.06122636e-03
      -9.80358222e-04 1.19602504e-04 8.35759623e-04 -4.40788543e-04
      -1.99351390e-03 -1.37391500e-03 -3.25962465e-04 -2.88369437e-03
      -1.58412987e-03 -8.65007751e-04 6.17462094e-04 -4.15243732e-04
      -3.74106807e-04 -5.45417832e-04 -1.20738905e-03 1.14300041e-04
      -2.57275254e-03 -2.30688858e-03 -1.96379609e-03 -8.48786091e-04
      2.83660181e-03 4.92213666e-03 4.39158781e-03 1.29472313e-03
      1.26984657e-03 -1.32528308e-03 -5.59518521e-04 -3.17539903e-04
      1.55174802e-03 1.47177174e-03 2.61949352e-03 2.95887981e-03
      5.81889821e-04 6.98099495e-04 -4.59319344e-05 3.60473525e-04
      3.91789712e-04 1.22347055e-03 -3.36384110e-04 1.48848470e-04
      7.75412889e-04 -1.32958498e-03 -3.74306546e-04 -2.20195740e-03
      -1.95644819e-03 -6.46680593e-04 -9.52839560e-04 -1.18718226e-03
      1.77148730e-03 6.69119239e-04 -2.24714098e-03 -1.57811958e-03
      -2.44085374e-03 -1.88655010e-03 -8.87674221e-04 -1.37100683e-03
      3.36834695e-03 2.10148888e-03 1.36477768e-03 2.05208035e-03
      1.19229988e-03 1.62169395e-04 8.32469435e-04 5.45846298e-04
      2.42425315e-03 1.40252954e-03 8.91505450e-04 3.22449167e-04
      -1.35596399e-03 -3.16352292e-04 1.05423830e-03 1.66937301e-03
      1.22164865e-03 1.24808203e-03 -6.27251749e-04 1.60962087e-03
      -9.09575727e-04 -2.19601998e-03 -7.74370274e-03 -4.84535750e-03
      -1.34413957e-03 -9.48494999e-04 -2.32096086e-03 3.53015639e-04
      6.34983357e-04 -3.28711816e-04 -1.13418524e-03 -2.07792153e-03
      3.41608771e-04 9.76850715e-05 1.54477835e-04 -4.19454736e-04
      -6.12742919e-03 -4.15542675e-03 -4.53852350e-03 -4.46256297e-03
      -3.95643804e-03 -1.26170204e-03 -1.55817717e-03 -8.38787411e-04
      -6.07460504e-03 -5.74434409e-03 -1.78190426e-03 -1.18885515e-03
      -2.58370652e-03 -1.58783095e-03 -4.97358618e-03 -4.97722719e-03
      -2.29297276e-03 -5.49164228e-03 -2.42346257e-04 1.05673948e-03
      8.03195871e-04 -7.41446711e-05 -2.22898810e-03 -6.53947704e-04
      -1.06411160e-03 7.62498297e-04 -7.45558180e-04 2.35375552e-03
      3.48853576e-03 2.88474769e-03 6.71565474e-04 3.81581462e-03
      -4.96663444e-04 -8.03666699e-05 4.36991177e-05 4.18607873e-04
      -3.79585265e-03 -1.32159621e-03 -4.79811803e-04 -2.36719404e-03
      -2.81884545e-03 -4.34454065e-03 -3.19762877e-03 -1.61743339e-03
      -3.82160884e-03 -3.14715505e-03 -8.88271665e-04 -7.02897378e-04
      -1.50693813e-03 -8.57902050e-05 -1.49495364e-03 -9.69969333e-05
      -2.68176547e-04 -2.48093344e-03 9.18713631e-04 1.49564131e-03
      3.80199577e-04 -2.13078037e-03 -2.99496576e-04 -1.29865971e-03
      -3.99966637e-04 8.26304313e-04 1.11816288e-03 -1.98913904e-06
      -1.37725117e-04 -1.64419098e-03 -1.55128899e-03 1.97136099e-03
      1.01841532e-03 2.43247813e-03 2.58368324e-03 -5.21631795e-04
      -1.92646717e-03 -5.59199485e-04 -1.03857426e-03 -5.19682944e-04
      8.71943368e-04 -9.73372487e-04 1.17122859e-03 1.21021597e-03
      -1.60332932e-03 -1.22050184e-03 1.86599558e-03 2.29532016e-03
      1.44417898e-03 -2.68081366e-03 -3.91755905e-03 -1.15187617e-03
      -1.52784726e-03 -3.41626187e-03 -3.86537227e-04 3.62183753e-04
      -6.27673930e-04 -6.47168636e-05 2.16375268e-03 1.59407372e-03
      2.84946058e-03 2.10219831e-03 -4.49322019e-04 -2.80015101e-03
      1.40579417e-03 1.33005914e-03 4.08103981e-04 -1.99112037e-04
      -3.94915463e-03 -1.09354325e-03 -4.68080339e-04 -3.50342225e-03
      7.68374477e-04 2.84929015e-03 3.73761030e-03 1.25494367e-03
      -1.29665679e-03 -3.46546294e-03 -8.69112439e-04 3.79507655e-05
      -1.81256491e-03 2.66272412e-03 2.78619537e-03 2.52373889e-03
      6.93938229e-04 -1.00422803e-05 -6.54109695e-04 4.81401396e-04
      2.40461697e-04 8.37239029e-04 -1.44464674e-03 7.62691139e-04
      7.70564249e-04 -1.40908363e-04 -2.41196249e-03 -5.13075292e-03
      -2.10140808e-03 -1.66661758e-03 -3.22720292e-03 -2.19660299e-03
      8.16589047e-04 1.16592168e-03 -3.39007202e-05 -1.90255989e-03
      -2.77088815e-03 -2.00988702e-03 -2.23385124e-03 -3.62752727e-03
      1.44930556e-03 2.22873967e-03 1.59130548e-03 2.93063524e-04
      5.64417103e-04 8.47476767e-04 1.51684682e-03 4.63484961e-04
      -8.89713177e-04 2.49620061e-03 1.78760325e-03 1.82073237e-03
      7.28534244e-04 2.79721711e-03 1.93900941e-03 4.60224552e-03
      3.96981789e-03 1.96639402e-03 -1.69053953e-03 4.80449322e-04
      7.38051196e-04 -4.09181870e-04 -4.39697970e-03 -4.73511405e-03
      -3.55974492e-03 -3.61304451e-03 -3.96283297e-03 4.85031953e-04
      6.29295828e-04 8.65747454e-04 2.29925179e-04 -3.14692938e-04
      -3.63356201e-04 1.26257318e-03 9.80424695e-04 -7.07693165e-04
      1.89502956e-03 1.64602010e-03 1.86711131e-03 1.39331631e-03
      2.98991823e-03 7.44405959e-04 2.73132464e-03 2.69175950e-03
      1.92679197e-03 2.22668494e-03 7.60274474e-04 1.13115238e-03
      7.67705380e-04 2.43857363e-03 -2.16841028e-04 2.49584788e-03
      2.62024882e-03 2.61386973e-03 -2.12091114e-03 4.56697628e-04
      5.95428981e-04 3.62777879e-04 1.58736482e-03 7.25457678e-04
      2.01459671e-03 4.34926449e-04 -4.84943623e-03 -1.19334611e-03
      -1.28264981e-03 -7.81737152e-04 -3.30428913e-04 -2.16108547e-05
      1.70555613e-05 1.92197956e-04 9.89012304e-04 -4.08794993e-04
      1.68396370e-03 3.29337781e-04 6.17407844e-04 4.36223461e-04
      1.33646699e-03 -5.98139479e-04 2.05571088e-03 2.09197262e-03
      2.42734863e-03 1.35135697e-03 3.13863973e-04 3.52022966e-04
      1.09833461e-04 1.69680885e-03 1.41383673e-03 1.82908389e-03
      1.95263163e-03 2.05694069e-03 -6.23326807e-04 -1.19097752e-03
      -9.60788457e-04 -1.30446206e-04 6.70926238e-04 2.04951991e-03
      2.87917047e-03 -2.26267439e-04 1.96421359e-04 1.00784912e-03
      -1.64310302e-04 -6.53793104e-05 -1.05588770e-04 1.15444791e-03
      -6.83167818e-05 6.25793298e-04 7.98804249e-05 -2.54796672e-04
      -2.13603093e-03 -3.63213418e-04 2.84788912e-05 -9.63434111e-04
      -2.22966843e-03 -1.01023517e-03 -1.68271584e-03 -2.92212091e-04
      -3.51093989e-03 7.74330110e-05 1.60127750e-03 1.64546480e-03
      -2.78213738e-05 3.85435973e-03 -2.52960221e-04 8.21294496e-04
      9.23629777e-05 -1.36904814e-03 -3.04802437e-04 8.87808623e-04
      1.71808049e-03 2.45198986e-04 -1.71015412e-03 -3.61675117e-03
      -1.93083251e-03 -1.55096943e-03 -1.18639669e-03 7.05042097e-04
      1.98247633e-03 2.53485749e-03 -6.90587098e-04 1.92759233e-03
      -3.93254479e-04 2.29042629e-03 2.69290479e-03 8.86098715e-04
      -2.66606687e-04 8.75219353e-04 1.94688269e-03 -2.50905659e-03
      1.03145675e-03 -7.27576262e-04 3.59898026e-04 8.32451915e-05
      -4.56913869e-04 -1.64234184e-03 -1.68522249e-03 -2.50619021e-03
      -2.48633232e-03 -5.11354941e-04 5.79903484e-04 3.32040060e-03
      2.36335536e-03 -1.13807723e-03 -2.13578879e-03 4.98349313e-04
      8.28349788e-04 -1.73602696e-03 -8.51630059e-04 -1.79003133e-03
      1.80799176e-03 1.46296958e-03 -9.16598132e-04 5.69061318e-04
      5.08079771e-04 3.78000077e-05 4.93186526e-04 -6.20720748e-05
      -3.35399905e-04 3.43230576e-03 2.91253440e-03 8.53640493e-04
      -2.32599923e-04 1.26357935e-03 5.47430129e-04 -1.21728168e-03
      5.70012431e-04 9.32230323e-04 3.63618275e-03 2.65596691e-03
      -9.55621654e-04 -4.34023468e-03 5.93429431e-04 2.27000593e-04
      -3.02077678e-04 -4.03775880e-03 -6.63243979e-03 -1.67665898e-03
      -1.84882525e-03 -4.39572195e-03 2.67455424e-03 2.21052440e-03
      1.73356035e-03 1.33348117e-03 -7.63993710e-04 8.15375883e-04
      3.42340139e-03 2.38594459e-03 2.95865000e-03 1.81417936e-03
      2.06280313e-03 2.20982125e-03 1.36839878e-03 1.98781211e-03
      6.27169211e-05 3.18066473e-03 3.42659443e-03 1.88226264e-03
      -1.18798204e-03 9.12957184e-04 8.51401826e-04 2.84452817e-05
      -9.56246164e-04 -3.48781189e-03 4.92946245e-04 8.29581404e-04
      -1.94062921e-03 -2.62573524e-03 9.93594411e-04 1.38700695e-03
      5.76331106e-04 -3.15373600e-03 -4.18585259e-03 -2.68822676e-03
      -3.07769002e-03 -2.70947348e-03 1.99869694e-03 1.81395293e-03
      1.52239564e-03 1.69564504e-03 1.68649736e-03 -7.03642610e-04
      2.01948802e-03 3.73197789e-03 2.50193360e-03 3.23453499e-03
      1.92996731e-03 1.79469772e-03 1.11928408e-03 -3.03648785e-03
      -3.42567475e-03 -6.70234847e-04 8.42867070e-04 2.60528503e-03
      8.50286102e-04 4.29039705e-04 4.03836981e-04 3.52508272e-04
      -1.85591192e-03 -4.51128511e-03 -2.66964594e-03 -6.15424942e-04
      3.24650609e-04 -8.50863580e-05 8.15149338e-04 6.81295234e-04
      -6.10172901e-05 8.37702246e-04 -8.35175160e-04 2.52017588e-03
      9.17539175e-04 -4.78227739e-04 2.05912348e-03 1.28672807e-03
      9.51694616e-04 6.48349233e-04 -1.30717817e-03 -5.06427558e-03
      -2.96322117e-03 5.81934117e-04 4.71534237e-04 -3.35388555e-04
      1.27347710e-03 8.57636682e-04 4.71928157e-04 2.27704155e-03
      -1.12233881e-03 -3.95631971e-04 4.05689847e-04 -1.59150118e-03
      -2.73056852e-04 5.68481162e-04 1.05634250e-03 6.88395696e-04
      2.46981136e-03 2.64486880e-04 2.86528538e-03 1.01663999e-03
      -8.85458081e-04 -6.74024166e-04 -4.06369130e-04 -1.90064849e-04
      8.18258341e-05 4.80128110e-05 1.95566798e-03 -2.52868776e-04
      -1.76774641e-03 -1.60128024e-04 -2.20378418e-03 8.12844082e-04
      6.03334105e-04 -5.76753460e-04 8.19437031e-04 -9.45322972e-04
      -5.15170803e-04 -6.36899087e-04 -3.12986318e-03 -1.57332234e-03
      1.81775540e-04 6.03795284e-04 1.34002199e-04 3.10471468e-03
      2.56835995e-03 2.07521138e-03 1.41578831e-03 -1.89055665e-03
      4.78675356e-04 -3.57663317e-04 -2.39185101e-04 -1.12880778e-04
      1.62695872e-03 5.20826085e-04 1.37136842e-03 2.04531098e-04
      -3.19644576e-04 2.37109675e-03 -2.05798147e-04 -4.79236041e-05
      -1.36922186e-04 1.50347629e-03 -1.51564789e-04 2.17059767e-03
      6.19392900e-04 1.49301474e-03 4.01068857e-04 4.47408471e-04
      2.77655316e-04 -5.97204380e-05 2.37370492e-03 1.10098987e-03
      7.18909025e-04 3.95740470e-04 -4.22404788e-04 2.52929720e-04
      -1.17253757e-03 -6.28032081e-04 -1.86931225e-03 -1.77856337e-03
      -1.53481844e-03 2.08411668e-03 5.04180847e-04 -3.28138791e-04
      1.53496023e-03 1.10475149e-03 1.28826778e-03 3.25842353e-04
      -2.79773353e-03 -1.84167037e-03 -5.28576027e-04 7.14354508e-04
      6.34791795e-04 -8.25471536e-04 7.54746958e-04 7.88562931e-04
      -9.41296224e-04 2.64695060e-04 7.09067826e-05 2.00034725e-03
      2.62097269e-03 -1.77263006e-04 4.93902189e-04 1.53675326e-03
      -1.33843787e-04 -5.06622542e-04 -2.82640546e-03 -1.40863785e-03
      1.19136565e-03 4.58727125e-04 6.48697023e-05 -1.99226919e-03
      -1.08922948e-03 -1.11238798e-03 -2.78879469e-03 -4.95327520e-04
      2.10169528e-04 2.60268874e-03 1.60386832e-03 -2.69680959e-03
      -1.69014238e-04 2.13050356e-04 7.84864125e-04 -1.02589128e-03
      9.72707057e-04 -1.82696187e-03 1.54747895e-03 1.89667952e-03
      -6.23888744e-04 2.14740820e-03 8.96415731e-05 -1.40001634e-04
      -1.59147530e-04 3.94339382e-04 -2.94678204e-04 2.60021212e-03
      2.83383299e-03 3.11313779e-03 -2.70429137e-03 -1.74306496e-03
      -1.87917624e-03 -2.84580933e-03 -1.08758034e-03 -3.61196301e-03
      -7.92365696e-04 -9.26842564e-04 -2.24331138e-03 -1.12396476e-04
      -5.37205779e-04 -9.70365421e-04 -3.73140065e-04 6.88845932e-04
      -2.02376302e-03 5.99665836e-05 5.62116387e-04 -1.43028752e-04
      2.64698104e-03 1.68944441e-03 9.75097879e-04 1.67818496e-03
      2.05289037e-03 -7.06466322e-04 2.27367063e-03 1.98286516e-03
      1.35381101e-03 -1.49420847e-03 9.17044876e-04 1.93589763e-03
      1.15292298e-03 3.18252854e-03 -3.10456635e-05 1.92872982e-03
      2.14067264e-03 -1.79185090e-03 -1.63401093e-03 -1.82670046e-04
      -1.05230359e-03 -8.46704279e-05 -1.59846386e-03 -4.95545194e-03
      -3.49185173e-03 -2.53960909e-03 -1.85218314e-03 1.50467188e-03
      1.58103311e-03 1.81284838e-03 1.02893834e-03 2.74171500e-04
      -1.73562102e-03 -5.91331394e-04 5.12862694e-04 9.53426177e-04
      1.55147130e-03 2.04786123e-03 1.71596918e-03 1.93822430e-03
      1.97551702e-03 -9.06042114e-04 1.59279455e-03 2.91803922e-03
      8.95659832e-05 9.82942176e-04 1.88310212e-03 1.28384016e-03
      9.16994177e-05 -2.33090273e-03 -5.77998161e-03 -3.78394430e-03
      -1.58543536e-03 -1.39178039e-04 1.48637069e-03 1.33518572e-03
      1.34142803e-03 8.75380123e-04 2.44774157e-03 -5.17218839e-04
      1.31403795e-04 7.56871363e-04 1.34773098e-03 -2.95787788e-04
      1.28974533e-03 1.13426533e-03 6.90663001e-04 -6.89447450e-04
      -2.67085875e-03 -2.47366750e-03 -1.35951606e-03 -1.55819464e-03
      1.99086941e-03 2.26908666e-03 1.88347045e-03 1.06434210e-03
      2.42168806e-03 -2.02536513e-03 -1.35795667e-03 6.59959682e-04
      6.65024563e-04 -4.12723236e-03 1.46509544e-03 9.68490553e-04
      7.54169072e-04 2.76482594e-03 -2.43886001e-03 -1.07163680e-03
      2.41358444e-04 -4.32012416e-03 -9.73888673e-04 7.97222194e-04
      6.24002656e-04 5.88264491e-04 5.40825888e-04 -1.52089621e-03
      -1.09811826e-03 -7.83503929e-04 -2.69585173e-03 -6.02218439e-04
      8.07027274e-04 4.08781663e-04 6.05987152e-04 8.80065432e-04
      -3.01815104e-03 -1.50334788e-03 -1.55208691e-03 -2.59687100e-03
      -2.22997740e-03 1.35848694e-03 1.01952150e-03 8.68061674e-04
      1.78934250e-03 -8.48877360e-04 -7.32104090e-05 6.07415277e-04
      -2.74568214e-03 -3.13097704e-03 7.82058574e-04 1.20191008e-03
      5.44886687e-04 3.72531428e-03 2.43547582e-03 2.27307342e-03
      1.29618600e-03 -3.71797383e-03 -2.60116020e-03 1.09333068e-03
      6.60279533e-04 7.61332107e-04 -1.37030554e-03 -3.90509889e-03
      -2.38774600e-03 -2.68447539e-03 -4.00349451e-03 -1.86678686e-03
      1.04182260e-03 1.67515827e-03 1.03562558e-03 2.72695720e-03
      -9.18205478e-04 1.31422095e-03 -1.96400550e-04 -3.17434128e-03
      3.98656528e-04 1.79197450e-04 1.63871039e-06 -3.40782164e-04
      -7.57939852e-05 9.84902217e-05 1.23370695e-03 5.91252407e-04
      -6.33976655e-04 -1.18915841e-03 -2.19088943e-05 5.68039715e-04
      -1.12104020e-03 -1.03261834e-03 -2.82323128e-03 -1.28474168e-03
      -5.57537074e-04 -8.71183584e-04 -3.37865204e-03 5.95877762e-04
      8.61431647e-04 5.50384168e-04 5.35375148e-04 -2.89454637e-03
      -7.21708057e-04 -1.51784194e-03 -3.42074083e-03 2.31566769e-03
      1.44391926e-03 1.83406635e-03 2.46534310e-03 4.66583716e-03
      -3.95785581e-04 1.56026299e-03 1.21888379e-03 2.29922635e-03
      -1.56388414e-04 3.35769961e-04 -1.18758588e-03 -8.36418039e-05
      -1.65037590e-03 -1.39471015e-03 5.96799655e-04 1.28845964e-03
      5.02363488e-04 -2.69058626e-03 -1.65884267e-03 -1.83981855e-03
      -1.49536307e-03 -1.41376315e-03 -3.03037785e-04 2.75049708e-03
      3.40171368e-03 -1.95715367e-03 -7.41470023e-04 7.77037232e-04
      8.15425359e-04 1.44444488e-03 -5.61468769e-04 -1.04689144e-03
      1.04442341e-04 1.65804161e-03 1.07788197e-04 -6.12615433e-04
      2.92989949e-04 -7.74212764e-04 7.18770782e-04 -5.07255667e-04
      -8.29689496e-04 2.19952757e-03 1.00515666e-03 2.20127287e-04
      -1.39678863e-03 -1.35951524e-03 -2.09669396e-03 -1.66545471e-03
      -1.10682420e-04 -2.08134370e-04 1.99014856e-03 2.12189322e-03
      -1.53316464e-03 4.77747853e-05 9.83200516e-05 2.50381927e-05
      2.55763771e-05 -3.33718257e-04 -1.38544897e-03 6.01969718e-04
      1.59618678e-03 3.34663491e-04 -2.82639754e-04 4.80962801e-04
      -1.01562054e-03 7.11409783e-04 3.16633523e-04 -5.86155686e-04
      1.72476901e-03 1.27944106e-03 2.23733383e-04 -1.06963108e-03
      -1.17091776e-03 -1.49229716e-03 4.38094663e-04 -1.61784084e-03
      -1.63210195e-03 5.64174203e-04 4.97693080e-04 -1.73134881e-03
      1.58486934e-03 -1.92096515e-04 8.86436203e-04 2.83458594e-05
      -1.58032007e-03 -2.41133058e-03 -1.86819416e-05 1.86563772e-03
      9.91243171e-04 1.32055720e-03 1.19509024e-03 1.73592789e-03
      1.11999956e-03 8.16993183e-04 -1.31216168e-03 -2.56171887e-04
      -1.55974049e-05 7.98991532e-04 -1.60931936e-03 9.11024642e-07
      -2.23146984e-04 6.84264058e-04 -2.49900215e-04 -2.73112417e-03
      -3.24654253e-03 3.94352865e-05 -1.52469706e-03 -7.94979685e-04
      5.95581252e-04 7.40235788e-04 5.08093450e-04 -7.12309033e-04
      -1.60289893e-03 -8.68884730e-04 -1.72269903e-03 -8.14501545e-04
      2.60734279e-03 2.28057476e-03 2.29096599e-03 2.06853775e-03
      3.71071114e-03 -8.75762023e-04 -8.00475420e-04 -1.50765569e-04
      1.43117830e-03 -2.71547446e-03 9.99128562e-04 7.93716521e-04
      4.88805701e-04 -4.95518441e-04 -1.70506642e-03 -1.81697356e-03
      -3.35939531e-03 -4.19410598e-03 -1.00152940e-03 7.35317182e-04
      1.05527730e-03 6.30440074e-04 -9.15049226e-04 -2.33725109e-03
      -3.23781185e-03 -3.30931740e-03 -1.07170618e-03 -2.43329050e-05
      1.00192532e-03 1.04727817e-03 5.08638972e-04 9.06716974e-04
      -2.55551073e-04 -5.92446188e-04 -4.31374676e-04 -6.27751055e-04
      8.24117087e-05 8.20233603e-04 4.84293123e-04 6.92086294e-04
      5.05086558e-04 -1.26371568e-03 -9.29178786e-05 -7.47110578e-04
      -1.64572534e-03 -2.76724924e-04 6.47818844e-04 4.61030693e-04
      6.32486888e-04 7.70967526e-05 -2.42572837e-03 -1.78282018e-04
      -2.47074105e-03 -2.51840078e-03 5.86821581e-04 8.98470462e-04
      9.88813932e-04 6.04326488e-04 9.76120355e-04 -3.46275192e-04
      -8.81446103e-05 -1.21800927e-04 3.57389596e-04 -5.71204117e-04
      4.72863350e-04 4.62322321e-04 2.99689447e-04 -3.18032195e-04
      -1.96063216e-03 -1.48295332e-03 -1.74179242e-03 -2.50148866e-03
      -4.19564312e-05 8.86543712e-04 5.52600657e-04 5.40510053e-04
      2.92460754e-04 -2.33402615e-03 -5.63704642e-04 -9.32395225e-04
      -1.26786064e-03 1.98643334e-04 1.04756735e-03 1.31530780e-03
      4.72746557e-04 1.20185514e-03 -3.14163952e-03 -1.07414066e-03
      -6.41351449e-04 -8.28210148e-04 -7.38553819e-04 5.48318261e-04
      4.16678493e-04 1.34726914e-04 -6.85904524e-05 -2.01548426e-03
      -1.74977165e-03 -1.01483800e-03 -1.56597188e-03 -9.57861339e-05
      1.65497919e-03 1.43879163e-03 1.14123698e-03 2.13420531e-03
      -1.32761232e-03 4.67430888e-04 -9.29203001e-04 -2.36707347e-04
      -9.67878150e-04 5.14392217e-04 7.52620224e-04 1.74534929e-04
      1.79759134e-03 -1.53478945e-03 -8.50403390e-04 -1.18390890e-03
      -2.29931087e-03 -2.34618597e-03 5.75206825e-04 8.81462300e-04
      8.18699773e-04 2.60859146e-04 -4.93631931e-04 4.25218575e-04
      -1.22671379e-04 -1.76893780e-03 -1.27252901e-03 5.37808286e-04
      8.72867182e-04 6.45225926e-04 7.78538059e-04 -1.13797665e-03
      -1.64562734e-04 -1.42385275e-03 -2.09690211e-03 -2.85786344e-03
      -1.49577798e-03 1.64378237e-03 -1.65209305e-04 2.04964727e-03
      1.07255520e-03 3.29188840e-03 1.01991731e-03 -1.40574668e-03
      -1.29664596e-03 1.05011871e-03 1.28869188e-03 1.08480814e-03
      1.66233024e-03 -9.31069546e-04 2.17299545e-04 1.74535578e-03
      -1.02240383e-03 1.17305419e-04 5.23547933e-04 -1.48911422e-04
      -4.82740259e-04 -9.37772740e-04 -2.11404613e-03 -1.98538532e-04
      8.32528807e-04 -6.54250616e-05 2.35809642e-03 1.52464898e-03
      1.29836134e-03 -3.35343269e-04 2.62539019e-03 8.30878329e-04
      1.64691545e-03 2.70401803e-03 2.36414024e-03 1.73914863e-03
      1.73219224e-03 1.05030357e-03 -1.35676225e-03 -4.24394803e-03
      -2.58319126e-03 -1.49146421e-03 -1.08040939e-03 1.10645611e-04
      2.20949552e-03 1.52827322e-03 1.03036722e-03 1.44141924e-03
      2.40603986e-04 -1.37054163e-03 5.83916204e-04 5.67807409e-04
      2.43730145e-03 5.09736012e-04 -1.88789287e-04 -9.86557498e-05
      -2.05872464e-04 -9.25605360e-04 -1.40515354e-03 -4.70575178e-04
      -1.20727636e-03 -5.90755662e-04 1.49652071e-03 1.26657391e-03
      2.86847644e-04 -8.17180116e-05 -1.52658671e-03 -7.43162353e-04
      6.13981465e-05 -5.06873825e-04 9.45128151e-04 5.16340893e-04
      4.91719693e-05 -4.00664372e-04 -2.43196567e-03 -5.25371311e-03
      -1.04732427e-03 -1.83002616e-04 1.37394920e-04 6.68539200e-04
      9.37182922e-04 -2.73727695e-04 -8.92866592e-05 1.78044647e-04
      2.55813566e-03 -5.70391305e-04 -4.50898166e-04 -1.52410381e-03
      -7.07903673e-05 -8.14734434e-04 6.29806251e-04 7.57078000e-04
      7.40379735e-04 -3.84597690e-04 -1.85832148e-03 -1.99988857e-03
      -2.06774985e-03 -1.02670118e-03 1.25526707e-03 4.52338252e-04
      -4.44254518e-04 -2.32503423e-03 -3.41389817e-03 -3.25059955e-04
      -3.52176357e-05 8.70180083e-04 1.57123327e-03 7.57634174e-04
      7.34108442e-04 4.11292422e-04 9.80954501e-04 -1.22455007e-04
      -1.82616315e-03 -9.45811975e-04 4.08202526e-04 7.15564238e-04
      -3.38106649e-04 1.13737420e-03 1.32560474e-03 1.05389068e-03
      1.32490497e-03 -1.20587915e-03 -1.21113076e-03 -1.21021993e-03
      -1.01260364e-03 -3.44676111e-04 7.02599646e-04 7.19179807e-04
      5.76174352e-04 5.99106716e-04 -9.79250530e-04 -9.34994430e-04
      -6.61302183e-04 -1.18194486e-03 -2.76653399e-03 1.20582571e-03
      1.33074005e-03 9.38143639e-04 -8.16997082e-04 -4.92294086e-04
      3.11607204e-04 2.07198667e-03 -2.03424972e-03 -2.17883196e-03
      -1.65137823e-03 1.47966587e-03 1.21186196e-03 -3.46743548e-03
      -2.09675194e-03 -2.13150680e-03 -4.42194613e-03 -3.24749155e-03
      -9.90595508e-05 1.04639505e-03 1.10155134e-03 9.85310762e-04
      8.92294629e-04 -7.92688224e-04 -9.12461139e-04 -4.17695614e-04
      -9.28070338e-04 5.73329744e-04 5.29435405e-04 5.49403019e-04
      2.50007113e-04 -9.65589075e-04 -2.63179443e-03 -1.25318032e-03
      -7.18640455e-04 3.61283528e-05 -6.88494823e-04 -1.25241326e-03
      1.18891324e-03 -1.39122101e-04 -3.67969903e-03 -2.90477602e-03
      -3.03054648e-03 -4.34633391e-03 -7.66444253e-04 -1.27683661e-03
      2.33534651e-04 1.00313104e-03 -4.28384636e-04 -1.64538715e-03
      -2.97152135e-03 -2.25878367e-03 -2.37110886e-03 -1.98638299e-03
      -3.82927334e-04 7.95220723e-04 5.79423446e-04 -3.59454280e-04
      -2.44813797e-04 -1.19579467e-03 -7.45974539e-04 -1.97920352e-04
      -8.94997036e-04 -6.98377204e-04 6.98485936e-04 1.19105125e-05
      5.12027822e-04 9.00124956e-04 -1.47377432e-03 -1.98914859e-04
      -5.22704562e-04 -1.77723926e-03 8.85746966e-04 7.17844989e-04
      1.36139255e-03 8.21871217e-05 -5.76258695e-04 -2.65899440e-03
      -1.69895287e-03 -7.80682778e-04 7.09651704e-06 4.09939932e-03
      -6.82625920e-04 -1.11983181e-03 -2.01296643e-03 -1.97761017e-03
      -3.58115591e-04 -3.70192865e-05 1.33065318e-04 2.04733526e-03
      -2.12365785e-03 -8.17320950e-04 -1.39007391e-03 3.53437703e-04
      -4.63338656e-04 -1.00809115e-03 4.32470057e-04 -2.46303942e-04
      -2.12667859e-03 -2.22020037e-03 -1.94614322e-03 9.01080959e-04
      8.17936612e-04 3.67312226e-03 1.16112118e-03 3.13452259e-03
      1.71038543e-03 -1.11251127e-03 4.67676728e-04 -8.30586534e-04
      -2.20812493e-04 -8.57226958e-04 3.33384960e-04 6.52671224e-05
      5.59220091e-04 2.64342438e-04 -2.99016276e-04 1.65468990e-03
      5.38849912e-04 2.44959700e-03 3.99159128e-03 5.32819005e-03
      5.14527783e-04 1.94962707e-03 1.55631360e-03 2.31407187e-03
      1.35749334e-03 8.87314556e-04 4.64091892e-04 -1.08946103e-03
      1.50962744e-03 7.14255380e-04 2.80497596e-03 2.06935685e-03
      1.04694581e-03 -2.24101415e-04 1.02277275e-03 7.47022685e-04
      -5.44969342e-04 -5.04682818e-03 -3.04146972e-03 -1.94598036e-03
      -2.36948859e-03 -1.32987357e-03 2.20824010e-03 2.07432616e-03
      2.27379031e-03 5.74269216e-04 2.49556103e-03 2.24158377e-03
      2.23342329e-03 1.46729639e-03 8.27112526e-04 2.31916434e-03
      2.44619977e-03 2.57071410e-03 1.41678742e-04 -4.08658199e-03
      -9.78700817e-04 1.61404454e-03 1.71999855e-03 2.00661528e-03
      2.10846867e-03 1.26967288e-03 8.58084997e-04 7.96978828e-04
      -2.17123167e-03 -1.12081307e-03 6.35732489e-04 5.81042899e-04
      1.05647231e-03 3.59034771e-03 3.85881489e-04 -8.77385028e-05
      -1.53206999e-03 -5.83822187e-03 -6.81622128e-04 -2.30650534e-04
      1.23262766e-03 3.39671178e-03 3.59721831e-03 9.58277786e-04
      1.58154173e-03 -5.18494635e-04 -2.12966069e-03 3.27955437e-04
      3.05820350e-03 3.50596802e-03 4.60010814e-03 4.74253000e-04
      -5.49991382e-04 -1.27056858e-03 -7.96010951e-04 -4.11662320e-03
      -1.83280499e-03 8.95920850e-04 1.76436908e-03 4.75814770e-04
      1.05643214e-03 -9.23716289e-04 -2.43102247e-03 -5.11161750e-03
      -7.11366301e-03 -1.67127044e-04 7.60022725e-04 1.20212731e-03
      4.45355225e-04 -2.70055258e-03 7.16465409e-04 4.99958929e-04
      4.21469478e-04 -1.88300351e-03 -3.41383088e-03 -2.70329160e-03
      -6.65607295e-05 -2.96906382e-03 1.86136644e-03 2.03308999e-03
      8.71824857e-04 -1.35014509e-03 -8.14931933e-04 -3.99837503e-04
      1.91279640e-03 3.18093994e-03 1.76280446e-03 2.74080347e-04
      1.64545421e-03 6.43071471e-05 2.45804479e-03 2.41789757e-03
      -4.40847158e-04 1.52332988e-03 7.12356356e-04 6.52335468e-04
      -1.24832173e-03 7.27939187e-04 8.58089130e-04 7.37997412e-04
      -8.35844316e-04 -1.34542192e-04 4.22287412e-04 5.95175778e-04
      -2.39004265e-03 -1.25286006e-03 -5.23667586e-05 -7.15779955e-04
      3.34640717e-05 -1.72791199e-03 -2.86178733e-03 -2.53555411e-03
      -2.81051896e-03 -2.03471375e-03 -6.66129752e-04 9.79486853e-04
      2.01664094e-04 9.70643887e-04 -2.28145253e-03 -1.15480833e-03
      1.70665298e-04 -7.07609812e-04 1.04437349e-03 -1.23448204e-03
      1.17853429e-04 -1.60011742e-03 -2.55100109e-04 -4.77237813e-03
      -2.01530405e-03 -9.49429639e-04 -1.60097249e-03 -2.34494405e-03
      -3.98333912e-04 1.14712093e-04 1.36556424e-04 -8.66802366e-05
      -2.77813082e-03 -2.55516334e-03 -2.20232783e-03 -2.60347291e-03
      -1.70633534e-03 1.54924652e-04 8.38013191e-04 1.07259315e-03
      2.60164641e-04 -4.26237093e-04 -1.77578127e-03 -1.17235980e-03
      -1.42611330e-03 -6.82236452e-04 -3.55860009e-03 -2.81498884e-04
      4.57931164e-05 -7.04186969e-04 -6.33506989e-03 -5.18749049e-03
      -3.78909637e-03 -2.10247422e-03 -3.22102639e-03 -1.83378998e-03
      7.85731536e-04 8.15518200e-04 6.18826947e-04 -1.91178857e-04
      -3.30521562e-03 -2.79312814e-03 -8.73899553e-04 -2.31345720e-03
      -3.80266632e-04 3.37506681e-05 4.54380992e-04 -6.48758669e-06
      -4.36759496e-04 -2.13782303e-03 -1.74116390e-03 -1.42749376e-03
      -1.26551976e-03 6.92536414e-04 4.85581186e-05 -3.75979638e-04
      -2.77056429e-03 -5.37633337e-03 -4.28233412e-04 -2.27213546e-04
      -6.97288429e-04 -1.56224327e-04 7.40091316e-04 1.66961714e-03
      1.30408898e-03 -3.57278273e-04 -2.79081229e-04 -2.24641128e-03
      -2.80286116e-03 -2.18479522e-03 -2.84245943e-05 5.90303401e-03
      5.22425259e-03 4.22029663e-03 9.12861840e-04 7.36069342e-04
      -1.11045910e-03 -4.34698333e-04 -6.74441864e-04 3.65406461e-03
      -6.64136373e-04 -9.37824778e-04 -4.14325215e-04 -1.99571927e-03
      -1.29305536e-03 8.47333577e-04 1.44382461e-03 7.01404817e-04
      -5.91116026e-04 -7.75960158e-04 1.80921948e-03 2.78951693e-03
      3.93291889e-03 4.53621568e-03 -1.71569700e-03 1.28869608e-04
      4.92918189e-04 2.68687756e-04 3.93159455e-03 3.64730274e-03
      3.33236204e-03 4.66939411e-04 -1.14841573e-03 -8.86889233e-04
      -3.33675824e-04 7.76062443e-05 2.25560088e-03 3.02868756e-03
      3.67931137e-03 4.99460148e-03 3.99376266e-03 3.46490601e-03
      1.69192255e-03 2.97796912e-03 2.80425209e-03 3.05535644e-03
      3.97409312e-03 2.65408703e-03 2.10437807e-03 1.60187046e-04
      2.38474109e-03 1.43550977e-03 1.93329074e-03 1.51257357e-03
      2.92979344e-03 4.17387392e-03 2.09999247e-03 1.45130861e-03
      -4.06963169e-04 -5.34643792e-03 -1.74426194e-03 -5.72614153e-05
      2.72040488e-03 3.81276174e-03 3.23765934e-03 1.58022798e-03
      1.66930899e-03 1.98720401e-04 1.97328767e-03 3.08323797e-04
      9.99874756e-05 3.78264755e-04 2.83244508e-03 1.89321151e-03
      2.44879653e-03 1.66765053e-03 2.06052588e-04 -1.81377796e-03
      -2.13527260e-03 -1.34856836e-03 2.72791745e-04 1.10281794e-03
      2.96900119e-03 8.91211559e-04 -4.90231578e-05 -1.29850348e-03
      -3.32688703e-03 -1.43566437e-03 1.17105036e-03 1.62298954e-03
      2.58759968e-03 1.45856431e-03 1.54866430e-03 5.27197437e-04
      -7.62853073e-04 -4.50936658e-03 -2.70288391e-03 -1.78623523e-04
      7.83174997e-04 6.74707408e-04 2.56106444e-03 2.48963363e-03
      1.72084745e-03 -4.63237986e-04 -1.62588642e-03 -2.01690826e-03
      2.16053850e-05 6.78535493e-04 1.62526267e-03 2.13475665e-03
      1.93023426e-03 1.15121051e-03 -1.13247428e-03 -2.80052563e-03
      9.15406781e-05 1.72905030e-03 2.26960448e-03 7.12095120e-04
      -7.27584702e-04 1.94528967e-03 8.54098296e-04 -2.75873113e-04
      3.43317719e-04 -9.98790711e-06 2.25521321e-03 2.12612143e-03
      -1.13601622e-03 -2.22323288e-04 8.41938949e-04 7.86624034e-04
      2.44616810e-03 2.91425851e-03 -1.37190882e-03 1.58960302e-03
      9.32933181e-04 -4.65977682e-05 9.67949454e-04 1.79083273e-03
      9.62628284e-04 -1.21773570e-03 -1.35987427e-03 1.75302208e-04
      1.93918974e-03 3.34768230e-03 9.35613643e-04 1.82440315e-04
      1.80378766e-03 1.68852462e-03 2.75436114e-03 2.88665970e-03
      -8.72717705e-04 6.05328823e-04 1.14105188e-03 1.13503239e-03
      1.02285598e-03 1.02506566e-03 8.68080242e-04 1.69760850e-03
      3.92382179e-04 -2.20769155e-03 -1.61791424e-04 4.83124022e-04
      1.02197890e-04 -6.18511927e-04 -3.78636585e-04 -1.12429936e-03
      -8.44912487e-04 -4.93990397e-03 -3.03150387e-03 -8.88472656e-04
      -6.06962130e-04 -6.72552269e-04 2.74925004e-03 2.10134676e-04
      3.35553050e-04 1.48993370e-03 3.52719496e-03 -5.13728475e-04
      6.55775890e-04 1.45666103e-03 1.91588863e-03 2.16911011e-03
      1.13751902e-03 -3.75210002e-05 -1.91507302e-03 -2.50406866e-03
      -3.13092279e-03 -6.24944223e-04 2.52967235e-04 3.91998154e-04
      -1.21934980e-03 -5.99602427e-05 2.84443358e-05 -8.80359905e-04
      -2.13414105e-03 -2.19300785e-03 -1.67463999e-03 -4.74097615e-05
      -1.31521665e-03 -7.07491359e-04 1.29415758e-03 3.44462023e-04
      -1.93784887e-04 -1.31876569e-03 -2.70956079e-03 -3.27739352e-03
      -1.56212796e-03 -1.76299794e-03 1.87931303e-03 1.71269896e-03
      4.21613600e-04 -1.07190874e-03 -2.82851397e-03 -3.61485896e-03
      5.70284144e-04 1.06571324e-03 1.04517397e-03 1.56515068e-03
      2.81528989e-03 2.82717100e-03 2.11225217e-03 -5.13663981e-04
      -3.42768338e-03 -2.21356796e-03 -7.38577684e-04 -2.45630537e-04
      1.75185991e-03 2.57389108e-03 2.41289753e-03 6.87990396e-04
      -8.33024387e-04 -2.68824887e-03 -2.14651111e-03 -6.82836049e-04
      9.71139758e-04 4.08320175e-03 3.21294274e-03 4.24292777e-03
      1.29273499e-03 -7.22684606e-04 -1.51765766e-03 -1.01258210e-03
      -3.51171970e-04 2.61351815e-03 8.61547014e-04 1.24190107e-03
      2.26080650e-03 1.24293705e-03 -5.44278417e-03 -6.88317791e-03
      -4.44292743e-03 -4.29818686e-03 -3.34175141e-03 4.50379867e-03
      3.16969934e-03 3.96650052e-03 2.36734631e-03 1.19803660e-03
      -2.73979804e-03 -1.14995032e-03 -1.49712176e-03 1.23417901e-03
      5.60252462e-03 4.26340615e-03 4.70475806e-03 1.71689678e-03
      -1.96586852e-03 7.10601380e-05 7.04265374e-04 9.25147149e-04
      4.14964696e-03 2.18840572e-03 3.79419886e-03 4.85498365e-03
      2.37662578e-03 -5.16575063e-04 7.14928959e-04 1.36955455e-03
      1.74040976e-03 2.24420312e-03 2.45239981e-03 3.32519109e-03
      2.42778286e-03 1.29932410e-03 -3.72528192e-03 -2.47567659e-03
      -1.91534392e-03 -2.07607960e-03 7.80267947e-05 -2.09792540e-03
      1.04427955e-03 -2.59256968e-03 -4.62436862e-03 -6.96580298e-03
      2.96169979e-04 8.45648465e-05 2.35313652e-04 -1.91247778e-03
      -4.32969350e-03 2.82150431e-04 -3.21567553e-04 -3.49237205e-04
      -3.76330619e-03 -1.29836798e-03 -3.60099570e-04 -3.20593390e-04
      -5.12219034e-03 -3.37592419e-03 6.19232771e-04 9.59053868e-04
      -6.04399072e-04 5.16330940e-04 -5.36657462e-04 3.50951566e-04
      -1.02658884e-03 -4.49255994e-03 -4.18867264e-03 2.32864497e-03
      2.08696513e-03 1.10033643e-03 -2.61839572e-03 -4.04147524e-03
      -5.10674855e-03 -3.11430916e-03 -5.43369027e-03 6.57286961e-04
      2.32105493e-03 2.34460551e-03 1.25241408e-03 6.68408675e-03
      1.99483987e-03 2.27547716e-03 2.42764386e-03 5.04828407e-04
      -4.10645781e-03 -1.05721461e-04 -5.69056210e-05 6.92716334e-04
      2.54803617e-03 8.29219352e-04 -2.49304838e-04 -1.05841795e-03
      -6.04076544e-03 -7.96963461e-03 1.85638477e-04 1.44858181e-03
      1.64711184e-03 1.96495280e-03 -4.35076217e-04 -1.61651231e-03
      -1.91714184e-03 -8.29265546e-03 -2.32708582e-04 3.60552396e-04
      7.64886441e-04 5.53401420e-04 1.82822265e-03 1.17995648e-03
      4.09442792e-03 3.56424181e-03 6.14295641e-05 -3.13042221e-03
      5.77608182e-04 6.99881173e-04 4.36015427e-04 2.15008250e-03
      2.04066350e-03 3.75838275e-03 3.13324295e-03 -2.87673925e-03
      -5.11453254e-03 -6.36321201e-04 -1.10531063e-03 1.47528003e-03
      3.22235352e-03 -8.51836230e-04 -7.40395568e-04 -1.58613734e-03
      -5.99662913e-03 -4.82602604e-03 -1.22388301e-03 -5.94192534e-04
      8.18351458e-04 3.09306011e-03 1.12557656e-03 4.53676446e-04
      -5.58399224e-05 -3.65104456e-03 -2.99241557e-03 1.77105342e-03
      1.02442235e-03 6.67927146e-04 2.83619366e-03 1.59843441e-03
      2.40639504e-03 5.09572972e-04 -2.32663145e-03 -1.92266866e-03
      1.74186064e-03 5.18811168e-04 8.79517465e-04 3.07917199e-03
      8.62249173e-04 4.05666535e-04 -1.29663851e-03 -2.38263444e-03
      -3.11351684e-03 -1.03435037e-03 -8.66770642e-05 1.06358831e-03
      -1.75213243e-03 1.87821966e-03 1.22190244e-03 1.24332507e-03
      -3.53904138e-03 -3.20383301e-03 2.72507197e-04 6.23828557e-04
      3.03549779e-04 -3.09115252e-03 1.77987444e-03 1.44242519e-03
      3.92108108e-04 -3.32858204e-03 2.33965184e-04 3.84135375e-04
      4.26660292e-04 3.28076130e-04 1.53739157e-03 1.89601327e-03
      1.00084790e-03 9.76757961e-04 3.64105304e-04 -4.77718510e-04
      -1.39852636e-05 -8.27507174e-04 -8.20360438e-04 -1.10008440e-03
      1.12337782e-03 1.08847115e-03 -2.81374872e-04 -1.12542382e-03
      -1.98245049e-03 3.60966398e-04 1.18230458e-03 1.18751224e-04
      -2.14266311e-03 -1.20546429e-04 1.15051502e-04 3.08719609e-04
      -2.95840809e-03 -6.18324266e-04 1.27990858e-03 1.53256219e-03
      1.69508124e-03 1.44602067e-03 2.17236942e-04 -1.16653787e-03
      6.78327575e-04 -1.41796703e-03 -2.67936819e-04 -1.61069125e-04
      -2.27874058e-04 -1.60882564e-03 -1.98143092e-03 5.83029236e-04
      3.38151236e-04 -2.16458327e-04 -8.58940999e-04 -6.64405117e-04
      5.32734382e-04 2.47783348e-04 5.06793207e-04 1.10703532e-03
      4.92417370e-04 -1.80091069e-03 -1.90979533e-03 -2.04997399e-04
      -9.33601914e-05 6.56352378e-04 8.20809510e-04 1.08667812e-03
      1.48822623e-03 3.42834363e-04 -1.15978182e-03 7.40019779e-04
      -5.70497417e-04 1.18407316e-03 1.66529871e-03 1.65616802e-03
      5.35082421e-04 4.13513771e-04 -6.02352899e-04 -5.35990985e-04
      -9.22427280e-04 6.67160144e-04 -2.45928182e-03 9.88850879e-05
      1.29573207e-04 9.95570590e-05 -1.05535633e-04 -2.03395588e-03
      -2.81968317e-03 -2.01390218e-03 -9.53713548e-04 3.34064884e-04
      1.26911199e-03 7.34392088e-04 6.44208863e-04 5.23538001e-05
      -7.40488875e-04 -2.05209106e-03 -1.08553004e-03 -8.80336505e-04
      1.11306517e-03 7.29479478e-04 8.26771022e-04 3.01953609e-04
      2.03963649e-03 1.14004642e-05 -5.67575742e-04 -1.89013052e-04
      1.31314469e-03 1.97059944e-05 2.63203197e-04 3.52231960e-04
      1.17148156e-04 1.12779031e-03 1.04289083e-03 1.29036570e-03
      9.38969257e-04 5.09904348e-04 -2.39001936e-03 1.95096727e-04
      -1.35944763e-04 6.11536438e-04 -6.85930252e-04 8.39151908e-04
      -5.26022923e-04 1.57486089e-03 -1.72685774e-03 -1.92699488e-04
      -5.86995855e-04 -1.01667293e-03 -3.20097548e-04 1.01284566e-03
      -6.85552732e-05 -9.11572715e-04 7.31056207e-04 1.63818535e-04
      -2.17596954e-03 1.97707582e-03 2.24984321e-03 1.91312260e-03
      -9.72488371e-04 -3.52403009e-03 -5.52715361e-03 -3.73789691e-03
      -3.65267880e-03 -1.73738098e-03 1.14184637e-04 1.69071252e-03
      1.44867983e-03 5.01315715e-03 2.08509923e-03 1.77960133e-03
      1.58129993e-03 -1.79974525e-03 -6.44872431e-04 2.09627254e-03
      3.55204404e-03 3.47556453e-03 3.67158151e-04 -3.60417739e-03
      -3.94698419e-03 -3.17016756e-03 -2.48800963e-03 -5.91951306e-04
      9.44477797e-04 1.67583721e-03 1.32920395e-03 2.45363032e-03
      -2.29332037e-03 -1.50649087e-03 -1.66335842e-03 -1.13992312e-03
      -1.78371172e-03 -1.45502272e-03 2.98569590e-04 1.32689637e-03
      1.36691064e-03 1.93080015e-03 2.86438386e-03 3.44811589e-03
      -1.31485879e-03 -3.45605589e-03 9.80532612e-04 1.26908140e-04
      9.27562534e-04 1.51409244e-03 2.01563840e-03 2.77238269e-03
      2.00248370e-03 -1.87587726e-03 -1.41884678e-03 6.76804804e-04
      1.36797607e-03 1.15030201e-03 -2.41539953e-03 -4.04241029e-03
      -2.98028532e-03 -2.35270918e-03 -2.17354018e-03 6.16950041e-04
      1.09399948e-03 -4.40062810e-04 2.48349301e-04 -1.71113305e-03
      1.21531120e-04 1.38079398e-03 1.47511042e-03 1.50242075e-03
      -2.63630180e-03 3.05617251e-03 1.03600207e-03 1.45893672e-03
      2.00996641e-03 1.16081722e-03 -2.97890365e-04 1.08065875e-03
      -2.50519696e-03 -3.59976222e-03 1.35119504e-03 7.63535965e-04
      3.42415762e-04 8.96585989e-04 -1.85044203e-03 -2.78910459e-03
      -2.63644871e-03 -3.41212726e-03 -5.68276264e-05 8.49853095e-04
      3.76802171e-04 4.39960917e-04 -2.48156977e-03 -1.55808276e-03
      1.71371343e-04 5.40463720e-04 9.55517171e-04 1.92759372e-03
      1.74752250e-03 2.37021665e-03 1.70083414e-03 5.51715842e-04
      -2.61880603e-04 1.80100417e-03 2.95189209e-03 3.46411997e-03
      -8.96374113e-04 6.16912905e-04 1.14843564e-03 1.50234974e-03
      1.28398347e-03 -6.09152892e-04 -1.33785862e-03 -1.50595995e-04
      -1.34501804e-03 -2.17086473e-03 -1.01513707e-03 -1.00220460e-03
      -5.13780746e-04 -3.97212541e-04 -8.38160573e-04 -1.57738978e-03
      -1.96965062e-03 -2.33327853e-03 1.81046932e-03 1.01470004e-03
      8.63927009e-04 1.63907045e-03 2.13589030e-03 3.99042940e-04
      1.55678578e-03 2.72601983e-03 2.38727382e-03 2.17176974e-03
      8.84748064e-04 8.70531076e-04 1.99224072e-04 1.40899513e-03
      1.06652151e-03 9.04574059e-04 1.73674850e-03 2.35907012e-03
      -2.89017451e-04 -4.26099461e-04 -6.13893557e-04 -8.08229088e-04
      -6.58611301e-04 7.82422896e-04 1.77615424e-04 -4.08910739e-04
      -7.10342953e-04 -9.03264969e-04 8.45909584e-04 -1.40801785e-04
      -9.17305006e-05 -4.03962360e-04 -1.02927815e-03 -8.95987148e-04
      -1.98036944e-03 4.66464233e-04 1.42784452e-03 3.92960392e-05
      2.10241080e-04 -7.31675595e-04 -4.54417925e-04 -1.64835234e-04
      1.29165919e-03 1.47606444e-03 2.89373822e-03 7.77221110e-04
      1.09915377e-03 9.25545290e-04 3.23149317e-04 8.99291190e-04
      -3.12814450e-06 3.96873103e-04 5.61115856e-04 -1.30045883e-04
      2.49015400e-04 6.37099729e-04 2.38940149e-04 -1.08587037e-05
      8.80857930e-04 1.40807111e-04 8.85235713e-05 -6.94298884e-04
      -1.18197803e-03 -1.04103738e-03 3.00298299e-04 1.45306039e-04
      1.38213261e-04 7.64149590e-04 4.04711696e-04 -1.28945627e-03
      -2.35417159e-03 -1.66151614e-03 5.71683631e-04 6.18510356e-04
      5.24592993e-04 1.58463683e-06 2.51345057e-03 1.25300925e-04
      7.24117621e-04 6.22291933e-04 -4.12874331e-04 -9.79230506e-04
      1.40204662e-04 4.29675420e-04 3.72176873e-05 9.01902677e-04
      -9.80077166e-05 -1.60707533e-03 -1.17929524e-03 -1.85020606e-03
      -9.95893613e-04 2.92721525e-04 2.06701880e-05 3.68588459e-04
      3.88964429e-04 4.90630104e-04 -2.28962730e-04 -1.75096284e-04
      -1.25044561e-03 1.87798275e-03 -1.45650934e-04 -2.99994746e-04
      -2.20752627e-05 1.09306362e-03 -1.20522755e-05 -5.23362949e-04
      -5.56557439e-04 1.50233658e-03 -3.71943414e-03 4.69308463e-04
      1.00867474e-03 3.93069960e-04 6.16147008e-04 -9.40371887e-04
      -1.74169708e-03 -1.77148671e-04 -4.34616208e-03 1.13577500e-03
      1.22814788e-03 1.19879958e-03 9.04668239e-04 6.08151662e-04
      -8.81387386e-04 -3.68620618e-03 -3.90267698e-03 2.53184728e-04
      1.08026073e-03 2.01539509e-03 3.83546902e-03 3.68237658e-03
      1.10216276e-03 -1.70081924e-03 -6.43995358e-04 -1.13221142e-03
      -1.62309647e-04 4.63595643e-04 6.72009657e-04 7.82362593e-04
      9.38175304e-04 7.34071771e-04 -4.06565703e-03 -2.90392456e-03
      -2.52505601e-03 -8.53079197e-04 -5.90958633e-04 1.01322925e-03
      1.49322965e-03 2.75379256e-03 1.29190646e-03 -3.06487709e-05
      8.48969386e-04 3.67730972e-04 -1.70027430e-04 -3.05983564e-03
      -3.02825472e-04 -2.83557712e-03 -3.25790094e-03 -3.63602885e-03
      -2.95329839e-03 -1.63654075e-03 -1.15956878e-03 -3.48511315e-03
      1.80789165e-03 1.64763187e-03 1.55385956e-03 1.10092282e-03
      -2.43667001e-03 -3.06808925e-03 -1.50719669e-03 -1.11152534e-03
      1.94130244e-03 2.75595463e-03 2.02458134e-04 -1.03461382e-03
      -1.45520875e-03 -4.91810031e-03 -9.33838252e-04 2.58791563e-03
      3.12474067e-03 3.90529493e-03 -1.14945194e-03 -2.16794177e-03
      -5.41963195e-03 -3.44368629e-03 -4.88712545e-03 -4.75818943e-03
      -2.47701677e-03 -1.63474132e-03 -8.37108179e-04 -1.89430881e-04
      -2.24307203e-03 -3.27745616e-03 -2.57604965e-03 -5.64080058e-03
      -5.23006020e-04 2.67096050e-03 1.36247824e-03 6.56701392e-04
      3.06684431e-03 1.42478605e-03 1.39258080e-03 -5.63003632e-05
      -1.66050077e-03 -1.06689183e-03 1.90470973e-03 3.32937133e-03
      3.32335522e-03 2.76702642e-03 1.82146288e-03 2.45291670e-03
      1.87001214e-03 1.32786867e-04 -9.69935965e-04 2.08342145e-03
      2.75301468e-03 3.68253817e-03 9.95575901e-05 -9.07075882e-04
      -3.31265200e-03 -3.47402855e-03 -6.46190858e-03 -1.44377339e-03
      8.14866216e-04 2.65531911e-04 2.04904805e-04 2.10236781e-03
      1.44689553e-03 1.55421265e-03 5.63307840e-04 -7.13168643e-04
      6.98256947e-04 1.58965914e-03 1.09122810e-03 1.64422835e-03
      5.86433103e-04 3.97339789e-03 3.93666187e-03 4.03732527e-03
      3.59178474e-03 -5.84432506e-04 1.83785311e-03 2.45595654e-03
      2.27113909e-04 -1.76307012e-03 1.84345839e-03 2.03442317e-03
      -9.78833268e-05 2.74226163e-03 1.57969794e-03 1.88360282e-03
      1.99486222e-03 -1.76011515e-03 1.46651617e-03 1.14799081e-03
      1.51261559e-03 1.05839130e-03 2.89891195e-03 5.84485708e-04
      1.23092218e-03 7.36228249e-04 1.35924481e-03 1.18852139e-03
      3.90242669e-04 2.38921464e-04 1.27190229e-04 9.37645964e-04
      -3.73939809e-04 8.65386319e-05 -3.96034920e-05 1.39890879e-03
      1.67387410e-03 6.99848111e-04 6.88656582e-04 2.15799228e-05
      1.70562021e-03 -1.38750802e-05 2.23198766e-03 1.51143200e-03
      1.71532924e-03 3.38217535e-04 1.25596474e-03 1.22968480e-03
      3.67935805e-04 -3.94874811e-03 -3.89381195e-03 -3.42848338e-03
      -2.46230583e-03 -6.92586473e-04 1.28658593e-03 2.57905340e-04
      2.04421885e-04 1.32634566e-04 7.14025751e-04 3.59264959e-04
      1.18159514e-03 1.66888873e-04 1.42009894e-03 1.73459388e-03
      6.18359947e-04 5.66778588e-04 4.74264438e-04 1.12801068e-03
      8.61554348e-04 1.23080995e-03 2.00113398e-03 2.34131818e-03
      -5.85178823e-05 7.28320796e-04 5.55837876e-04 3.53366340e-05
      1.48950971e-03 -1.55583824e-04 -1.50497493e-04 -8.64511647e-04
      -1.15310797e-03 -7.15950271e-04 4.24575032e-04 2.62122630e-04
      -1.00658355e-04 -4.78191441e-03 4.38042160e-04 1.95261528e-04
      -2.00664508e-03 -2.71622324e-03 6.66302454e-04 7.97680637e-04
      7.35013629e-04 5.16483677e-04 5.26634394e-04 4.12943336e-04
      1.00704853e-03 1.11645076e-03 5.74412115e-04 1.06602418e-03
      8.19944718e-04 1.58635003e-03 1.06840220e-03 2.19115545e-03
      7.37069291e-04 2.01980071e-03 3.90310568e-04 -3.96852090e-04
      -7.26171056e-05 7.34576141e-04 1.30709622e-03 1.00289099e-03
      1.16477662e-03 1.73641209e-04 -7.34326139e-04 -1.51061383e-03
      -1.95960142e-03 7.63063435e-04 7.50028237e-04 1.43994472e-03
      8.69592768e-04 1.46461325e-03 -1.94477747e-04 -3.68020358e-03
      -3.03542940e-03 1.29970221e-03 -3.32242431e-04 4.45838959e-04
      7.31069478e-04 4.89737198e-04 1.28954032e-03 9.72794020e-04
      1.14367309e-03 2.39984656e-04 -1.02338695e-03 -2.65013496e-03
      -2.27383338e-03 -2.79346295e-03 -9.74827330e-04 -3.10063502e-03
      5.84066613e-04 -7.81070208e-04 -6.96264789e-04 -2.01760279e-03
      2.02494964e-04 2.23506562e-04 1.12578564e-03 1.03170087e-03
      2.85015667e-05 -8.00304231e-04 1.25897874e-03 6.33090211e-04
      8.85792309e-04 -2.00156961e-03 -2.68440438e-03 -4.33907844e-03
      -2.40276312e-03 -3.85131268e-03 -1.22001430e-03 1.59085699e-04
      2.60871457e-04 4.99037415e-05 3.43972351e-04 -1.86150704e-04
      -1.31060998e-03 2.09482037e-04 7.32107364e-05 1.61427690e-03
      2.46950774e-03 1.40259275e-03 1.38023472e-03 -3.69719905e-03
      -1.77513063e-03 -3.19330301e-03 -3.95169336e-04 -7.25549820e-04
      -7.15761678e-04 -9.92925721e-04 -1.67056744e-03 -1.86080299e-03
      -3.50129674e-03 -3.70880147e-03 -5.45642944e-03 -4.25412413e-03
      -3.76063981e-03 -8.78945517e-04 9.66059917e-04 4.70870204e-04
      -2.18000775e-03 -1.28699420e-03 -2.87104305e-03 -5.07574715e-03
      -2.30556005e-03 -1.42235088e-03 5.95178164e-04 2.60621961e-03
      1.64309959e-03 -5.04538242e-04 -2.28329096e-03 -1.25276786e-03
      -2.80529889e-03 -5.83196990e-04 -1.18211564e-03 -8.96955084e-04
      -6.98930991e-04 -1.49876333e-03 -1.61097222e-03 2.50470615e-03
      1.43342419e-03 3.56688470e-05 1.13864095e-04 -2.73153069e-04
      -3.53884156e-04 -2.81704939e-04 2.11710241e-04 2.11579911e-03
      2.92412355e-04 -5.64600155e-03 -6.93516480e-03 -5.09571983e-03
      -3.10669374e-03 2.44124720e-04 2.23530526e-03 2.05235253e-03
      1.58769268e-04 4.33865644e-04 9.77197546e-04 -2.47917342e-04
      2.28898221e-04 -1.21893513e-03 4.71108564e-04 7.40998890e-04
      5.95171063e-04 3.34946468e-04 2.47703912e-03 6.23939268e-04
      -3.29464005e-04 -1.21643592e-03 -6.36192271e-05 -3.05607729e-03
      -2.40551028e-03 3.72209906e-04 2.74047162e-03 1.27274112e-03
      5.16580767e-04 6.86806219e-04 4.57914721e-04 1.97421457e-03
      9.49691166e-04 9.17609257e-04 6.29845599e-04 8.58154555e-04
      2.49384763e-03 1.83511071e-03 -2.18834539e-04 1.20238296e-03
      3.12447012e-03 7.44478719e-04 8.64643662e-04 5.53107297e-04
      2.00342247e-03 9.56056872e-04 5.44206414e-05 2.04851985e-05
      1.92565258e-05 6.05455658e-04 -1.45108253e-03 -1.04728376e-03
      -1.20981666e-03 7.57714501e-04 -5.99164283e-04 4.78938658e-04
      8.40747263e-04 4.46739286e-04 3.14661255e-03 1.24256522e-03
      5.95502963e-04 2.59525550e-04 -7.35137961e-04 1.36994568e-04
      1.11190187e-04 6.51782539e-05 1.29312160e-04 8.42962298e-04
      -3.14045988e-04 -1.96679001e-04 -5.40744850e-06 1.26687679e-04
      1.06558600e-03 1.13432972e-04 1.20864213e-04 1.17010881e-04
      1.12099817e-03 -3.92751885e-04 -1.67967999e-04 -5.66156465e-04
      9.99417040e-04 2.15383410e-03 4.18276322e-04 5.64969203e-04
      5.60461020e-04 1.01883896e-03 9.57552344e-04 1.38422812e-03
      3.07649374e-03 3.19450558e-03 3.49948132e-05 9.75021758e-05
      7.94675143e-05 1.94059146e-04 1.41342205e-03 -1.10888999e-04
      -4.59086354e-04 -2.96121521e-04 -5.36407751e-05 1.68148123e-04
      2.21319700e-04 3.24206660e-04 2.04378855e-03 2.64443038e-03
      1.30882626e-03 1.66250582e-04 -2.79035681e-04 -9.97808602e-05
      2.91115744e-03 5.43315546e-04 6.98646880e-04 4.88620950e-04
      1.07828353e-03 9.43830935e-04 1.08530652e-03 1.32674747e-03
      2.72699283e-03 2.26016287e-04 8.27358046e-04 9.42393672e-04
      2.33907951e-04 1.55538716e-03 2.62676505e-03 3.37143359e-03
      2.68923264e-04 7.23860649e-05 3.27232381e-04 8.28539254e-04
      7.04854727e-04 5.15528023e-04 1.05482654e-03 7.02135847e-04
      -3.02733359e-04 -2.43054121e-04 3.44279950e-04 1.94636325e-03
      1.50323031e-03 -1.86836720e-03 -1.68824580e-03 -2.77329958e-03
      1.05512596e-03 8.54199927e-04 -1.84106484e-05 1.15130725e-03
      8.07039323e-04 9.23355925e-04 1.04322121e-03 4.47108236e-04
      -1.27712177e-04 2.34860476e-04 1.78162800e-03 9.96980816e-04
      4.63141012e-04 4.94850901e-05 2.16957822e-04 -1.03994377e-03
      -1.71053829e-03 -4.56724968e-03 2.92323122e-04 -5.06804034e-04
      1.89635044e-04 1.79502258e-05 -1.12122587e-04 6.13657699e-04
      5.58965490e-04 -7.69791543e-04 -2.64597096e-04 4.73565335e-04
      9.99726704e-04 1.71724867e-04 -4.47503844e-04 1.09800627e-03
      9.60703983e-05 1.02787616e-03 -3.55516619e-04 -2.32270177e-04
      9.78910364e-04 1.17148797e-03 9.54519550e-04 2.15928163e-03
      7.18056108e-04 2.17827357e-04 -9.76557378e-04 5.94636018e-04
      -6.37085293e-04 4.42100718e-04 1.70926563e-03 1.60996709e-03
      1.67492905e-03 -2.77420739e-03 -1.75290136e-03 -3.39061324e-03
      -1.19817839e-03 -2.87965895e-03 -1.57356367e-03 -1.62943045e-03
      -6.07045717e-04 -1.86222605e-03 6.28029811e-04 -3.79395715e-05
      6.93633629e-04 1.47265464e-03 3.76941956e-04 1.30546454e-03
      1.68189488e-03 2.76055560e-03 1.40205561e-03 -1.63154036e-03
      -1.58297748e-03 -2.80941534e-03 -1.18999020e-03 -2.30298130e-04
      -8.59118591e-04 -8.00290960e-04 6.63908548e-04 -1.24706223e-03
      -9.76035779e-04 -8.36978870e-05 -7.18896161e-04 -2.09138132e-04
      -1.96804816e-04 -3.15395271e-04 -2.36316305e-03 -1.36854593e-03
      -1.32100715e-03 6.90101355e-04 1.04841881e-03 6.78069599e-04
      2.29116529e-04 1.08855696e-04 -6.42086787e-04 -1.81557343e-03
      -1.09412917e-03 2.11459264e-04 -1.47965900e-03 -1.25710142e-03
      -2.13473616e-03 -3.49403825e-04 7.42456119e-04 1.41883094e-03
      -2.33094237e-04 9.19478945e-04 -2.26767245e-03 -4.71304357e-03
      -1.32010132e-03 -2.09682574e-03 -5.02963376e-04 -1.81508390e-03
      -4.68008075e-04 -1.74252398e-03 -6.90454384e-04 -5.14843501e-03
      2.84064747e-03 1.09909358e-03 5.94624667e-04 -4.67210397e-04
      -1.03765901e-03 -1.68254168e-03 -2.40786257e-03 1.29254797e-04
      1.68319244e-03 9.89538268e-04 9.00678686e-04 1.11008622e-03
      5.64737420e-04 1.93873653e-03 5.16828557e-04 1.97050031e-04
      2.08386860e-04 6.67458575e-04 -3.42239160e-03 -1.46089843e-03
      -2.89566652e-03 -2.20274110e-03 -6.37107482e-03 -4.12278157e-03
      -4.46972717e-03 -1.61823968e-03 -5.28262276e-03 -1.79418502e-03
      -1.32012554e-03 -1.79280632e-03 -6.09040784e-04 -7.56952388e-04
      -6.14542514e-04 -4.85576747e-04 1.35062601e-05 -1.30833301e-03
      2.05964153e-03 9.27913818e-04 1.49178412e-03 8.28785705e-04
      1.83867197e-03 -4.10622160e-04 -3.17721657e-04 -1.94880500e-04
      1.44881464e-03 6.64435094e-04 3.27739195e-04 1.43133570e-04
      3.88073240e-04 6.17934915e-04 2.40808495e-05 9.89876498e-05
      1.29028209e-04 4.07132175e-04 -2.99572013e-03 -8.60446424e-04
      -1.07966305e-03 -2.30075722e-03 -9.28286579e-04 -2.48750066e-03
      -2.73709395e-03 -8.92937882e-04 -2.15608138e-03 -4.37338743e-03
      2.10503722e-03 1.67565059e-03 9.22181178e-04 5.22207760e-04
      -8.47464951e-04 -1.24890264e-03 -1.03331497e-03 -4.83296812e-03
      3.94971808e-04 5.07243734e-04 1.95592438e-04 9.29860922e-04
      1.35149166e-03 7.57042217e-05 -2.63923459e-04 -9.79378674e-05
      1.55001562e-05 -5.87808529e-07 4.89349361e-04 6.80824742e-04
      1.16218231e-03 1.94708921e-03 1.21659017e-03 -1.12924841e-03
      4.43347322e-04 8.45059520e-04 -3.61024286e-03 1.61709136e-03
      1.57135155e-03 9.63720784e-04 -1.06752361e-03 -1.24475779e-03
      -2.38597929e-03 -2.28390913e-03 -5.73020196e-03 2.64344760e-03
      1.92480953e-03 1.98377739e-03 1.64425990e-03 3.71319475e-03
      9.37943289e-04 1.43629010e-03 1.04251178e-03 2.51931115e-03
      5.37565735e-04 7.22443394e-04 9.45290492e-04 5.44576615e-04
      7.13630056e-04 4.45589540e-04 -8.95719684e-04 -1.39218333e-04
      3.83465784e-04 3.82530212e-04 1.92170625e-03 4.64263430e-04
      1.39598123e-04 -3.71103059e-03 6.59671437e-04 -1.23076519e-04
      -2.24967207e-05 4.02376492e-04 1.49782421e-03 1.17659359e-03
      1.45429908e-03 5.76413411e-04 2.34095240e-03 4.73041029e-04
      4.69845429e-04 5.10671292e-04 1.24331890e-03 1.52828183e-03
      -1.08475960e-03 -3.29271285e-03 -5.18597197e-03 -1.43158773e-03
      8.30948469e-04 5.20264264e-04 4.71431820e-04 8.77836777e-04
      -6.86537707e-04 3.50966031e-04 -8.04913638e-04 -1.15219434e-03
      2.74773483e-04 6.04638015e-04 2.47601507e-04 -4.96478169e-04
      -6.94938703e-04 -2.48127943e-03 -6.40434388e-04 -9.08160873e-04
      -8.15551961e-04 1.13770145e-03 -1.58618181e-03 -1.20510242e-03
      -1.46168377e-03 -2.06987117e-03 1.21977588e-03 -5.79268555e-04
      -1.26539450e-03 -2.06166646e-03 8.30819074e-04 1.01952569e-03
      9.13770520e-04 5.23009396e-04 7.48392660e-04 1.47156511e-03
      -6.64650288e-04 1.68207684e-03 1.44960405e-03 2.60378793e-03
      -8.62455578e-04 5.48235897e-04 4.85877448e-04 1.06225780e-03
      -5.75210492e-04 -2.38338980e-04 1.45068322e-03 1.28958514e-03
      3.89869761e-04 5.06621262e-04 -3.75391282e-05 5.15455729e-04
      -8.08895493e-05 -1.51725067e-03 -1.43264851e-03 -8.75804399e-04
      -7.38575880e-04 -3.51635856e-03 -2.60889297e-03 -8.69796902e-04
      -4.83910553e-04 -1.72188121e-03 1.38689519e-03 1.18004822e-03
      2.21999688e-03 1.73301005e-03 4.31512110e-03 1.15196558e-03
      1.60355272e-03 1.58409588e-03 1.40214234e-03 -5.88182826e-04
      8.73029872e-04 9.85048013e-04 1.16618059e-03 2.20671587e-04
      -5.89117757e-04 -1.27980404e-03 -1.23986963e-03 -1.60020625e-03
      -1.97578711e-03 4.12593035e-05 -2.71015364e-04 2.09274571e-04
      -5.48556796e-04 3.85972962e-04 -2.53983726e-05 3.25738190e-04
      -1.46865391e-03 -1.03872875e-03 -1.91207475e-03 -3.66303208e-03
      -1.14321720e-03 -2.62096222e-03 3.70132213e-04 -1.03164057e-03
      -7.43347395e-04 -8.57430685e-04 1.74036273e-03 3.78588040e-04
      2.25244958e-06 1.46303864e-04 -5.01643692e-04 9.30800510e-04
      1.37698094e-04 4.28084488e-04 1.31758035e-03 -5.45101473e-04
      -4.47962288e-04 -1.58989907e-03 -1.99421495e-03 -3.59183713e-03
      -2.47668970e-04 3.21082975e-04 -1.26525134e-04 -2.12020779e-04
      -2.09820829e-03 -3.61302239e-03 -5.73107786e-03 -2.88727996e-03
      -4.57242690e-03 -1.41366303e-03 -1.35032600e-03 -6.40859289e-05
      -1.35477819e-03 -1.20163383e-03 -1.15709251e-03 -2.16287328e-03
      -1.48629316e-03 -3.57442826e-04 -3.60667909e-04 6.50001573e-04
      7.84365868e-04 1.29138090e-04 -4.89133992e-04 -1.15328562e-03
      -2.99252360e-03 -1.41797855e-03 1.13411259e-03 1.80361071e-03
      2.59158388e-03 1.94364262e-03 1.63918489e-03 -1.63206525e-04
      2.44211900e-04 -9.51228867e-05 -7.00508070e-04 -1.23539043e-03
      1.28462282e-03 1.56155112e-03 1.49641768e-03 9.15567158e-04
      -1.55310158e-03 -6.78464266e-06 -4.53703018e-04 -2.47354456e-03
      -1.44763640e-03 -1.59491331e-03 -1.84943565e-04 5.34128398e-04
      -1.11171103e-03 -3.81743739e-05 1.23701151e-03 1.13953929e-03
      1.79799608e-04 -8.83822446e-04 -1.61425921e-03 -1.29612105e-03
      -1.03227235e-03 -9.65013751e-04 -2.93473992e-03 -7.85521581e-04
      -1.92202989e-03 -2.11676070e-03 -1.55900070e-03 1.25487824e-03
      1.16320502e-03 7.10316162e-05 -2.08024262e-03 -2.13727308e-03
      2.04309658e-03 2.35589035e-03 1.91546744e-04 -7.83123658e-04
      -3.18159885e-03 -3.73045495e-03 -1.97546277e-03 -3.39990947e-03
      1.23011472e-03 1.30801788e-03 1.40182883e-03 2.42384995e-04
      -2.70372984e-04 -1.60423818e-03 -1.39066647e-03 -1.20788428e-03
      -2.78836000e-04 1.38810440e-03 1.17485831e-03 1.25957571e-03
      6.95053430e-04 2.65650963e-03 4.35466965e-04 8.54571350e-04
      5.45571500e-04 1.08198018e-03 -3.64141539e-03 1.63129624e-03
      1.99262588e-03 2.13150161e-05 -9.95567068e-04 -3.39639443e-03
      -4.77691228e-03 -1.96474395e-03 -3.11165606e-03 -7.01963610e-04
      2.29471480e-03 1.58404454e-03 -1.81426445e-03 -5.98649611e-04
      -1.54355727e-03 -5.81534405e-04 -6.52871153e-04 -1.55413791e-03
      8.57554667e-04 5.18159824e-04 4.89222235e-04 -1.24178216e-04
      2.50304001e-03 5.26463031e-04 8.31191835e-04 5.58622414e-04
      9.36049502e-04 4.39949275e-04 -3.97990312e-04 -1.00680406e-03
      -2.62851082e-03 8.24058021e-04 5.94898185e-04 8.41221539e-04
      7.84281408e-04 7.60139490e-04 -3.72620532e-04 5.48547483e-04
      3.68609471e-04 -9.85369319e-04 -1.21713174e-03 -3.06132110e-03
      -1.60668511e-03 -2.08647200e-03 -9.60281352e-04 1.62743335e-03
      6.88717817e-04 6.48377289e-04 -6.75846997e-04 4.86846227e-04
      3.52161791e-04 4.15258721e-04 4.28734435e-04 2.06999690e-03
      1.31507975e-03 -1.28402829e-03 -1.72837870e-03 -2.48564547e-03
      8.16516578e-04 8.82024819e-04 1.22057961e-03 1.16024469e-03
      1.50475954e-03 -1.95801072e-03 7.01398647e-04 2.56757392e-03
      4.81434952e-04 1.98478898e-04 -2.06840830e-03 2.64494796e-04
      -7.96253735e-04 -2.30032858e-03 9.51330352e-04 -1.44887410e-04
      -4.02965350e-04 -1.62884768e-03 2.41645821e-03 7.57763046e-04
      1.09488994e-03 1.34712830e-03 1.20452768e-03 3.93059745e-04
      7.08238222e-04 2.33450835e-03 2.56754085e-03 1.54817756e-03
      1.37389533e-03 3.01313098e-03 2.34266464e-03 -9.11572533e-06
      1.74183934e-03 1.27072434e-03 2.00095191e-03 1.34560571e-03
      3.16159823e-03 3.34602548e-04 1.83791714e-03 1.96637912e-03
      2.20873952e-03 -2.61892402e-03 6.79003424e-04 -1.12467213e-04
      1.78489339e-04 -2.79859616e-03 -2.42400495e-03 -2.85676541e-03
      -1.65441452e-04 -1.25735614e-03 2.37720623e-03 5.31083555e-04
      1.27612194e-03 5.16498112e-04 2.36190390e-03 5.22797054e-04
      2.59744562e-03 2.34202039e-03 2.23664241e-03 3.12724896e-03
      9.10267408e-04 1.34079158e-03 2.77374085e-04 -1.35499262e-03
      -4.54231980e-04 1.88495370e-03 2.79121660e-03 3.14993574e-03
      9.16231598e-04 1.18877651e-04 -4.26380633e-04 5.65269205e-04
      -3.39481677e-03 -6.64042018e-04 -1.89391326e-03 -1.73376175e-04
      7.23767909e-04 -1.55672675e-03 1.05784158e-04 -1.23483117e-03
      -2.11360259e-03 -3.67814302e-03 4.98764508e-04 -2.08727876e-03
      -2.37328513e-03 -9.87143023e-04 3.08652571e-03 1.65524939e-03
      1.93346234e-03 5.81666944e-04 -2.65794679e-05 7.72808678e-04
      8.33655358e-04 1.82281388e-03 3.08672711e-03 -2.83204699e-05
      1.26542943e-03 1.66252791e-03 6.57766417e-04 -2.91751302e-03
      -1.22997025e-03 -2.62582995e-04 5.13570703e-05 1.45303935e-03
      -1.45165378e-03 -6.96219679e-04 -1.28488941e-03 -2.36418610e-03
      -1.73433707e-03 7.00866163e-04 -8.69893629e-05 -3.23769957e-04
      -1.39302027e-03 -7.33202731e-04 -6.93532755e-04 -7.70928862e-04
      -1.71203853e-03 3.56987730e-05 1.54531572e-03 8.04270327e-04
      8.79376836e-04 3.27177404e-04 6.07660448e-04 -3.03045730e-04
      -2.38542110e-04 2.75792176e-04 -1.38261396e-06 -3.70855210e-04
      8.50917655e-04 1.40015024e-03 2.44228193e-03 1.23572492e-04
      -7.41010765e-04 -1.54743274e-03 -1.93921465e-03 -2.09164317e-03
      2.34354506e-04 -1.50023587e-03 -4.35716356e-04 1.20067934e-03
      -4.22867190e-04 -8.72550027e-06 -8.71497730e-04 -1.88105064e-03
      -1.76183623e-03 3.50172864e-04 2.68919946e-04 3.19251325e-04
      -8.74629710e-04 -1.65688421e-03 3.85863503e-04 7.30634376e-04
      5.19787485e-04 -1.58636458e-03 -2.06517661e-03 -2.48327642e-03
      -2.51767365e-03 -2.38200603e-03 2.82515073e-03 -7.73831780e-05
      -9.65359563e-04 -1.86750980e-03 -6.65045052e-04 -5.25302254e-04
      -2.88555538e-03 -2.06156168e-03 3.59228667e-04 1.87393336e-03
      2.20710435e-03 1.67762756e-03 -7.28636282e-04 3.04074842e-03
      1.41604035e-03 -3.49098002e-04 -5.17197535e-04 1.76651601e-03
      -1.93329365e-03 4.32339817e-04 8.14306259e-04 1.80084186e-04
      -3.63395549e-04 -2.53374223e-03 -1.42013270e-03 -1.02049159e-03
      -2.93621537e-03 5.87175464e-07 2.05059862e-03 9.26689710e-04
      -9.81781748e-04 -1.09162705e-04 -1.52837054e-03 -4.20504104e-04
      -1.17045792e-03 -5.13034873e-04 -9.63132130e-04 -1.21779833e-03
      -4.42129531e-04 3.42184620e-04 1.17401511e-03 1.07136322e-03
      1.40939141e-04 7.57659902e-04 6.21242914e-04 -5.09417441e-04
      1.94290827e-03 -5.12613997e-06 -1.18367944e-03 -1.59089384e-03
      -9.99224838e-04 -8.81793268e-04 -8.00824666e-04 -2.88764189e-04
      9.35778196e-04 2.20910623e-03 4.42697521e-04 -1.45201979e-03
      -1.27934225e-04 -2.85694259e-04 -3.10364703e-04 -8.18885339e-04
      -1.77832218e-04 1.84597087e-03 1.50034972e-03 7.72608502e-04
      -5.11419261e-04 -1.61850743e-03 2.44085299e-04 1.05388455e-04
      1.30554345e-05 1.04171631e-03 4.50766529e-04 3.39683983e-03
      4.47873230e-04 -2.07610428e-03 -3.71966464e-03 -2.04641232e-03
      -1.97013305e-03 -1.53628737e-03 -3.91210233e-05 2.23654136e-03
      3.75663908e-03 2.74729286e-03 -5.69623546e-04 -2.71395105e-03
      -1.64207455e-03 -1.11545657e-03 -2.27964809e-03 -1.56813912e-04
      -8.95458739e-04 -6.42353029e-04 -5.51987068e-05 -1.97275332e-03
      -9.68850873e-05 4.07827116e-04 6.38240817e-06 7.62599579e-04
      8.49155243e-04 1.34238170e-03 1.39369676e-03 2.29807221e-03
      2.29091593e-03 1.20566995e-03 1.00987079e-03 1.24022132e-03
      1.81442848e-03 1.37726404e-03 1.69573165e-03 2.71643815e-03
      3.35065764e-03 4.52871580e-04 -3.31115141e-03 -1.70405873e-03
      -1.35277840e-03 -1.87262869e-03 1.03964773e-03 -6.92591944e-04
      -2.80361768e-04 4.49251471e-04 -7.67295540e-04 -2.77073728e-03
      1.28824235e-04 2.34368985e-04 2.62788788e-04 -5.52051002e-04
      -2.62889988e-03 -7.76821747e-04 -2.31329422e-03 -5.80842083e-04
      -2.35943962e-03 -1.09513092e-03 -1.51777640e-03 5.21072388e-06
      -2.02209852e-03 -3.18495906e-03 2.90534546e-04 -7.49967294e-04
      2.33015991e-04 2.89714383e-03 -4.19990916e-04 -1.61859184e-03
      -1.59981730e-03 -3.42953880e-03 -4.06594621e-03 6.60959689e-04
      -5.57387539e-04 8.41644069e-04 -2.39921105e-03 -3.58478818e-03
      -3.75528005e-03 -1.95818138e-03 -3.20302462e-03 -5.64728212e-03
      2.09451347e-04 8.48975673e-04 1.51062675e-03 1.80566323e-03
      1.40323688e-03 1.82728772e-03 2.89349293e-04 -5.22427494e-03
      -3.32806469e-03 -1.09306467e-03 -2.74829357e-03 -1.81676447e-03
      -1.54268742e-03 9.24797379e-04 -6.02806627e-04 -4.91974235e-04
      -3.98094207e-03 -5.09445230e-03 -1.08134269e-03 -2.75312224e-03
      -2.30070297e-03 -2.02921848e-03 7.81244249e-04 1.24325918e-03
      1.01857795e-03 -3.66845238e-03 -2.38013756e-03 -8.62679386e-04
      -3.71109199e-04 -1.14083081e-03 -7.44461257e-04 1.89758767e-03
      3.24172666e-03 2.22898973e-03 -1.12085603e-03 -8.19567285e-05
      -4.06968116e-04 -5.82275738e-04 -7.02106743e-04 1.65739516e-03
      2.84204027e-03 4.31323517e-03 4.39941697e-03 1.87322847e-03
      -5.57118095e-03 -5.25120122e-04 -8.32851045e-04 -7.08719075e-04
      -2.25846213e-03 -4.35488211e-04 -5.42783353e-04 -4.04151710e-04
      -5.16459160e-03 -6.94621447e-03 1.61751348e-03 1.96231646e-03
      2.37166532e-03 -6.98489093e-05 -1.74558302e-03 -2.48650461e-03
      -4.20277705e-03 -6.30259654e-03 1.38488121e-03 5.99263236e-04
      -3.73096031e-04 -2.09967373e-04 1.58686761e-03 2.91133858e-03
      4.70931223e-03 4.43631317e-03 1.98652991e-03 -1.41760043e-03
      2.22113589e-03 2.36382429e-03 3.07241781e-03 2.72630411e-03
      4.52865570e-05 2.05456722e-03 1.95681956e-03 -1.19970064e-03
      -4.62242495e-03 9.63074446e-04 1.03475468e-03 2.66132434e-03
      7.03824568e-04 -1.72064791e-03 -5.18882996e-04 -2.07224814e-03
      -4.72808210e-03 -3.16567044e-03 -3.08283211e-06 6.44688116e-05
      1.71574682e-03 2.73769081e-04 -9.61233745e-04 -1.54668267e-03
      -1.34440500e-03 -2.72621890e-03 -1.18998147e-03 1.64650788e-03
      2.05910555e-03 2.23504589e-03 2.15192209e-03 2.88615498e-04
      8.90041410e-04 2.52692471e-03 -1.68567034e-03 -1.96092832e-03
      1.41025742e-03 1.32036814e-03 9.23587824e-04 -5.88943585e-05
      1.79912095e-04 -2.13169493e-04 -2.99439591e-04 -3.47526884e-03
      -5.77508181e-04 1.55920885e-03 1.22419489e-03 1.53398188e-03
      -7.77348687e-05 1.25325413e-03 -4.18619224e-04 -7.30495842e-04
      -1.33256242e-03 1.97495465e-04 2.65162351e-04 6.67250250e-04
      -1.76338493e-04 7.59167189e-04 -9.65670391e-04 -9.63893661e-04
      -1.50525209e-03 -4.90286438e-05 -1.58349634e-03 1.23341719e-03
      1.74600910e-03 5.76761318e-04 -1.59710704e-03 -3.93869501e-04
      -1.51650351e-03 -1.41130260e-03 -3.12829250e-03 -1.45781785e-03
      1.07942941e-03 1.06467796e-03 2.80831562e-04 -1.79275370e-03
      -8.97705322e-04 -8.93987366e-04 -2.12065270e-03 -1.43747125e-03
      -3.11974203e-04 -2.79290660e-04 -1.79386061e-05 -5.56028564e-04
      1.23564026e-03 -1.23968377e-04 -3.13879020e-04 -8.90342271e-05
      -3.84403480e-04 2.18047920e-04 -7.94118736e-04 -1.80252086e-04
      -7.10766290e-06 1.44116255e-03 1.37635565e-03 2.46356521e-03
      1.42958458e-03 5.64135378e-04 -2.87937210e-03 8.59560852e-04
      5.70285309e-04 1.85085853e-04 -2.84239324e-03 -2.49529281e-03
      -3.99762765e-03 -2.76540173e-03 -2.04322208e-03 -5.50091732e-04
      5.21509792e-04 8.75306025e-04 9.59586352e-04 1.21709809e-03
      1.10503042e-03 6.87034160e-04 -5.71851677e-04 7.25109072e-04
      5.28868230e-04 -1.87271711e-04 -3.05876420e-05 2.15446533e-04
      1.47765328e-03 2.85252463e-04 2.43269067e-04 6.47256209e-04
      1.46506296e-03 -1.05502295e-04 -7.20210883e-05 1.80146410e-04
      2.90231168e-04 2.06595330e-04 1.55039364e-04 1.76307838e-03
      6.55288924e-04 5.98688610e-04 2.72611855e-04 1.97860747e-04
      5.92900906e-04 5.68285584e-04 2.05033482e-03 3.01405997e-03
      1.33761181e-03 -1.07762893e-03 1.98537717e-03 4.18704207e-04
      -5.86105511e-04 4.60226729e-05 1.19303520e-04 1.41382939e-03
      1.41793862e-03 2.07270306e-04 -3.14083154e-04 1.09978981e-04
      -1.85659004e-03 9.20682331e-04 -5.59096574e-04 1.01625279e-03
      5.36393636e-05 -2.10641464e-03 -3.18448269e-03 -2.39990046e-03
      -1.91851042e-03 -2.11051689e-03 5.68296877e-04 1.10007112e-03
      8.19178880e-04 -6.86431769e-04 -3.38894286e-04 3.59160011e-04
      -9.73393966e-04 -1.61916343e-03 5.97339240e-04 1.62077043e-03
      1.57235237e-03 1.30441226e-03 2.23074830e-03 -1.45196216e-03
      -2.59723258e-03 -1.92811619e-03 -1.07715488e-04 -6.90103509e-04
      9.71694069e-04 4.77261434e-04 6.80828583e-04 -2.52509024e-03
      -2.26604043e-05 -2.70037586e-03 -3.10761156e-03 -1.20691338e-03
      -1.27207197e-03 -1.74068206e-04 -5.54541824e-04 -1.66429055e-03
      -3.62265564e-04 1.38277921e-03 2.37396965e-03 1.52177829e-03
      -1.31991191e-03 2.15730257e-03 -2.31202794e-04 -6.76919415e-04
      -1.17859439e-04 2.85761547e-04 2.63729761e-03 4.94519761e-03
      4.81261173e-03 3.03752441e-03 -5.02319250e-04 9.05574590e-04
      -1.60931988e-04 -2.82372377e-04 -4.32751607e-03 -3.81197967e-03
      -2.79373885e-03 -4.66387998e-03 -1.96200190e-03 2.82838289e-03
      1.99231156e-03 1.23715238e-03 1.54169844e-04 -2.25774408e-03
      -9.93687281e-05 1.02045794e-03 8.65903450e-04 2.53186421e-03
      -8.67261784e-04 -3.91731650e-04 1.07413123e-03 3.99472483e-05
      4.32308356e-04 1.15040387e-03 2.89239408e-03 3.23596876e-03
      1.23085163e-03 -5.09731332e-03 7.05588318e-04 2.29172152e-03
      1.81962131e-03 1.60908175e-03 -1.09942793e-03 7.86993129e-04
      1.48185843e-03 -4.38823877e-03 1.65888597e-03 5.15317370e-04
      9.42168466e-04 -8.69313837e-04 -4.60682297e-03 7.51998377e-05
      2.51560193e-03 7.73321663e-04 1.41772593e-03 1.58364978e-03
      1.21042307e-03 1.38032995e-03 1.01615698e-03 3.29755363e-03
      1.19392562e-03 3.96462949e-03 2.38948315e-03 1.24592590e-03
      -6.42376253e-04 2.79670721e-03 5.77905495e-03 3.62205529e-03
      2.54407269e-03 3.15186713e-04 1.70499342e-03 2.08109361e-03
      -1.21802872e-03 -3.56658292e-03 1.52701337e-03 1.36520236e-03
      2.34768275e-04 -7.45034078e-04 -1.65759260e-03 -2.55100639e-03
      -1.81454490e-03 -4.62077977e-03 1.33139384e-03 1.85884349e-03
      2.53798184e-03 2.14151596e-03 -1.42423564e-03 1.21034996e-03
      2.62619485e-03 2.33156630e-03 1.37760979e-03 1.91383308e-03
      1.58342870e-03 1.07672031e-03 -9.20521561e-05 3.59319441e-04
      -7.46114936e-04 9.40177357e-04 1.30533753e-03 2.23917817e-03
      -2.57579755e-04 2.01845937e-03 8.25433468e-04 -2.00425915e-04
      -6.54035306e-04 -5.37747168e-04 -1.52656180e-03 -1.12798088e-03
      -1.50455069e-03 -7.63618504e-04 7.70696439e-04 8.99394217e-04
      3.87236185e-04 -1.74842484e-03 -1.33826723e-03 -9.88868182e-04
      -1.02455693e-03 -1.92078762e-04 1.13842078e-03 1.66591885e-03
      2.92380195e-04 -5.98107290e-04 -9.29424597e-04 -2.50263256e-04
      1.11343921e-03 7.33707566e-04 1.54120033e-03 1.27788470e-03
      1.34489930e-03 1.26981153e-03 5.76421153e-04 -3.81927472e-04
      -1.68044108e-03 -9.18135047e-04 -5.80825668e-04 -1.47894025e-04
      -1.01055554e-03 -1.70805550e-04 -1.33333902e-04 4.83470512e-06
      -2.70963367e-03 -1.26388366e-03 -1.18742592e-03 -1.22928538e-03
      -1.49730337e-03 -1.33704643e-05 7.35236026e-05 4.65422403e-04
      7.01151730e-04 5.19182999e-04 2.22936491e-04 -2.80038621e-05
      -1.17759861e-03 1.16479071e-03 -1.66766916e-03 1.40354503e-03
      1.33688748e-03 5.19838766e-04 -5.25070063e-04 -3.11719277e-03
      -1.30262517e-03 -2.15253769e-03 -1.95289869e-03 -1.56556233e-03
      5.87988878e-04 1.83101778e-03 8.66119226e-04 2.59442185e-03
      1.46469218e-03 4.95786371e-04 9.96428076e-04 -1.27271295e-03
      -1.32625143e-03 -6.33178919e-04 -4.53766086e-04 1.52476845e-04
      8.28737509e-04 1.54083082e-03 7.19973468e-04 -4.78024478e-04
      -1.09226140e-03 -4.13201888e-05 -6.12168573e-04 -3.65529791e-04
      -2.01847943e-04 2.96015898e-03 2.39463057e-03 1.47592579e-03
      -2.77073152e-04 8.22450034e-04 -1.10064226e-03 4.43142024e-04
      1.25133863e-03 1.06152940e-04 6.70773035e-04 3.61663151e-05
      -1.05774112e-03 -1.17692386e-03 -1.60213013e-03 -1.91734463e-04
      5.15661901e-04 1.07507175e-03 8.02727940e-04 2.64825020e-03
      1.95449335e-03 2.07051029e-03 -1.09844469e-03 -1.23409764e-03
      3.69279267e-04 1.21218897e-03 2.10002880e-03 1.62137486e-03
      3.74179333e-03 2.59022607e-04 -5.22219052e-04 4.15006070e-05
      -2.59861641e-04 -1.12912175e-03 9.83664766e-04 5.90212585e-04
      5.36765365e-05 -2.23117112e-03 -2.09154049e-03 -6.96291216e-04
      -2.11693952e-03 -1.21974549e-03 -2.30897148e-03 -3.18123530e-05
      4.57811781e-04 1.09973515e-03 4.06872900e-03 2.31655571e-03
      2.27089413e-03 1.42142794e-03 -9.88159445e-04 -3.39504401e-03
      -2.36426829e-03 -2.55493936e-03 -1.45636778e-03 -6.94413437e-04
      -1.77554670e-03 -1.67601020e-03 -7.85740383e-04 -3.52141913e-03
      2.27008155e-03 1.45275588e-03 1.36623660e-03 4.89038299e-04
      -4.24293615e-03 -2.62867101e-03 -1.46900932e-03 -1.18764967e-03
      1.35646958e-03 2.67632818e-03 6.42835104e-04 9.98369767e-04
      -1.87385449e-04 -3.99302738e-03 -1.18596456e-03 9.60503239e-05
      9.67544154e-04 2.95242830e-03 -9.46780667e-04 -2.22915714e-03
      -3.85063887e-03 -2.10191775e-03 -3.86070693e-03 -2.37961533e-03
