<?xml version="1.0"?>
<opencv_storage>
<my_svm type_id="opencv-ml-svm">
  <svm_type>C_SVC</svm_type>
  <kernel><type>LINEAR</type></kernel>
  <C>1.0000000000000001e-01</C>
  <term_criteria><epsilon>1.1920928955078125e-07</epsilon>
    <iterations>1000</iterations></term_criteria>
  <var_all>17640</var_all>
  <var_count>17640</var_count>
  <class_count>2</class_count>
  <class_labels type_id="opencv-matrix">
    <rows>1</rows>
    <cols>2</cols>
    <dt>i</dt>
    <data>
      -1 1</data></class_labels>
  <sv_total>1</sv_total>
  <support_vectors>
    <_>
      -5.77829173e-03 -3.45067191e-03 -2.71409494e-03 -5.46438433e-03
      -6.55527553e-03 -3.51340999e-03 -1.89571339e-03 4.80784918e-04
      -3.76940100e-03 -5.49415546e-03 6.58555003e-03 4.05944278e-03
      1.28933194e-03 -9.84687824e-04 -6.54192362e-03 -4.30284161e-03
      -1.27271676e-04 -6.79681031e-03 -3.73813906e-03 8.87085125e-03
      7.41949584e-03 1.37503271e-03 8.96053039e-04 -2.74666981e-03
      1.07177626e-03 1.02195621e-03 -4.75412048e-03 1.13848671e-02
      1.46750221e-02 8.46884865e-03 -6.54037460e-04 9.88018815e-04
      -8.41358327e-04 4.98365611e-03 7.51096662e-03 5.48444688e-03
      -2.75598420e-03 6.30532950e-03 7.93940015e-03 1.75211218e-03
      2.68476142e-04 -7.18278112e-03 -4.12442628e-03 -1.12832570e-03
      -4.44657542e-03 -8.77098821e-04 4.42418829e-03 5.16112475e-03
      -2.64710118e-03 -9.59923398e-03 -8.92345514e-03 -4.34892485e-03
      -3.48379184e-03 -3.02250567e-03 2.69601285e-03 6.32564863e-03
      7.81560782e-03 -2.54825293e-03 -5.67344809e-03 -4.25003329e-03
      7.73613283e-05 6.03371998e-03 4.15600050e-04 6.69958186e-04
      1.17726410e-02 8.66831653e-03 -4.26406553e-03 -1.89211424e-02
      -7.44428299e-03 -6.09090226e-03 6.14984310e-04 7.62713680e-05
      5.78318303e-03 8.27779621e-03 7.63626397e-03 -3.11421137e-03
      -7.47745857e-03 -6.85706036e-03 -3.48959048e-03 -3.06036323e-03
      1.87444873e-03 8.40844866e-03 4.77681542e-03 -1.93181774e-03
      -7.31523009e-03 -9.97650810e-03 -3.17085418e-03 3.68707697e-03
      6.72613457e-03 1.09774955e-02 2.42893235e-03 7.68429507e-03
      4.21275431e-03 -4.37799143e-03 -1.25675555e-02 -4.20693401e-03
      -5.75725455e-03 -3.91570036e-04 1.13774382e-03 2.24525618e-04
      -2.01980327e-03 -3.89026222e-03 -1.01922974e-02 -1.34769743e-02
      -7.90636230e-04 -3.53587605e-03 7.55544577e-04 7.37477047e-03
      1.01148952e-02 6.57249847e-03 1.57479313e-03 -8.61883443e-03
      -7.25905225e-03 -2.24408042e-03 1.32314896e-03 6.14324166e-03
      1.21545233e-02 1.28043781e-03 8.54700897e-03 -6.47408946e-04
      -9.04048420e-03 -1.91703148e-03 -3.43875354e-03 7.61728093e-04
      5.51600102e-03 2.73870584e-03 -3.61605990e-03 -4.07178188e-03
      -6.49080193e-03 -9.51934233e-03 -9.27312952e-03 5.11833793e-03
      3.33817024e-03 4.04150225e-03 5.52863767e-03 -5.98465232e-03
      -4.71331459e-03 -5.70903393e-03 -7.42307631e-03 -4.03101509e-03
      -1.18978310e-03 1.54130091e-03 1.43564641e-04 -4.68316022e-03
      2.85537587e-03 9.46996175e-03 7.84936885e-04 -5.71294734e-03
      -8.61220155e-03 -4.15422954e-03 3.17307352e-03 9.88484174e-03
      4.38341824e-03 7.85686169e-03 1.13055827e-02 3.23518249e-03
      -1.59493543e-03 -7.10998604e-04 -7.67855067e-03 -5.06337592e-03
      -4.37897909e-03 4.28508734e-03 -3.55203450e-03 -1.07173801e-04
      -1.71616476e-03 -3.67064890e-03 -5.15756384e-03 -2.48614675e-03
      -4.36209695e-04 -4.05127037e-04 -2.77235173e-03 -5.07868174e-03
      3.16287187e-04 1.56058895e-03 4.10439388e-04 -3.07635963e-03
      -2.92517757e-03 -5.32591762e-03 -4.59207362e-03 -7.76251452e-03
      2.13673362e-03 1.95731875e-03 -5.60443259e-05 9.48624569e-04
      5.09465626e-03 -6.03709323e-03 -4.69312491e-03 -3.33213829e-03
      -1.15157373e-03 3.25074256e-03 1.63434329e-03 1.54816301e-03
      2.86183483e-03 9.65464860e-03 4.80993511e-03 6.73004007e-03
      4.06468892e-03 7.88710779e-04 -6.29412709e-03 -3.89228895e-04
      1.49549579e-03 -6.06482972e-05 -2.44811852e-03 -5.66228712e-03
      -5.82078379e-03 -5.56493644e-03 -8.84296652e-03 -3.12319957e-03
      2.48142681e-03 1.80857512e-03 9.61335259e-04 3.42638441e-03
      -2.16783420e-03 3.07516847e-03 1.64391345e-03 -1.36414589e-03
      1.48264080e-04 1.87258085e-03 1.28843077e-03 1.77267008e-03
      7.23957410e-03 4.18696320e-03 6.17102860e-03 5.33105666e-03
      4.83538862e-03 -1.20433874e-03 -1.54224585e-03 -1.76323822e-03
      -1.21035264e-03 2.01240834e-03 -4.00132936e-04 3.59757757e-03
      6.31646998e-03 5.95158385e-03 -4.15994506e-03 2.55698315e-03
      1.91049674e-03 3.33471544e-04 3.52328923e-03 -3.41012026e-03
      -1.66767964e-03 2.89487140e-03 -1.73092110e-03 -4.31571528e-03
      -9.55952972e-04 -7.38785951e-04 -1.07908156e-03 1.66531967e-03
      1.89206112e-04 7.99401756e-03 7.86678586e-03 2.83734570e-03
      -4.01870348e-03 1.21675143e-02 1.14386203e-02 4.46645869e-03
      -1.15537154e-03 -4.26559988e-03 2.95380387e-03 -5.09862788e-04
      -9.12487600e-03 3.95986903e-03 1.17684714e-02 9.92674381e-03
      1.67468621e-03 -1.51889550e-03 6.40053442e-03 1.41147561e-02
      1.20847300e-02 -9.40364320e-04 -2.79984641e-04 8.91815964e-03
      1.08386725e-02 3.99039825e-03 1.17132277e-03 -3.00543266e-03
      2.42548133e-03 -1.64134183e-03 -4.29575285e-03 -2.99030147e-03
      1.09129604e-02 -1.13822101e-03 2.19603826e-04 -1.12538002e-02
      -2.96647334e-03 5.51822886e-04 2.13935110e-03 -6.73570298e-03
      8.36172234e-03 1.77446026e-02 1.34494891e-02 5.04256925e-03
      -3.32317548e-03 -2.62222486e-03 1.54210150e-03 4.46179695e-03
      2.49644276e-03 5.73925488e-03 8.89519509e-03 3.15064634e-03
      -5.16384421e-03 -2.08949223e-02 -4.78821155e-03 -6.34838408e-03
      5.27610886e-04 5.25093451e-03 7.58588780e-03 6.70070807e-03
      4.29570035e-04 -7.10383942e-03 -1.47804487e-02 -1.01771746e-02
      -3.76453390e-03 6.55820884e-04 4.27527074e-03 2.22827587e-03
      4.08720132e-03 7.86094926e-04 -3.07903066e-03 -2.35354025e-02
      -2.33198027e-03 1.42705941e-03 3.98977613e-03 8.74958409e-04
      1.33857911e-03 8.65018275e-03 3.41162225e-03 -3.61076533e-03
      -2.44024545e-02 -2.35120300e-03 -3.85899260e-03 1.15592161e-03
      5.29034987e-05 -5.99781517e-03 1.34418497e-03 1.01584627e-03
      -7.84281269e-03 -9.71525908e-03 -7.94250285e-04 -4.65349946e-03
      1.60386626e-04 -6.68177940e-03 6.11704355e-03 6.83099078e-03
      5.56280557e-03 1.17979699e-03 -1.33005679e-02 2.41762120e-03
      5.43005997e-04 5.40462835e-03 5.24308067e-03 -4.66531981e-03
      5.95142556e-05 -2.37371353e-03 -4.66743950e-03 -5.76960761e-03
      -7.34327361e-04 -2.21547717e-03 1.01407070e-03 -3.27750202e-03
      -6.29073009e-03 -6.87534548e-03 -5.19501604e-03 -8.78353883e-03
      -1.32939899e-02 5.12680830e-03 -1.32349448e-03 5.19256922e-04
      1.78750744e-03 -5.61009906e-03 -1.83713448e-03 -3.58764152e-03
      -5.47060836e-03 -4.76162275e-03 -5.29537327e-04 1.98092847e-03
      2.31544767e-03 -3.98653792e-03 -5.03116334e-03 -2.29630247e-03
      -2.32144282e-03 -2.02189316e-03 -7.45583605e-03 2.97572953e-03
      -3.04950401e-03 2.43727685e-04 -2.81912275e-03 -5.78012143e-04
      2.78276770e-04 -1.96341332e-03 -3.29078292e-03 -4.15599672e-03
      -1.74926943e-03 7.54778739e-04 9.21028724e-04 1.16819388e-03
      -5.32284891e-03 -2.43124808e-03 -6.06229482e-03 -8.10272992e-03
      -1.18407747e-02 -3.28750844e-04 2.68885214e-03 1.51212292e-03
      -3.51820444e-03 -4.42352425e-03 -8.74683261e-04 -3.98983510e-04
      2.52287020e-04 -9.48535092e-03 -9.73303523e-03 -7.05424976e-03
      -9.49670747e-03 -8.21473170e-03 -3.30261630e-03 9.35775228e-04
      -7.84342119e-04 -2.32809852e-03 -4.03548311e-03 -1.19025004e-03
      1.91535964e-03 8.20575049e-04 -1.19222328e-03 1.27542054e-03
      2.08315998e-03 1.92936766e-03 1.33139477e-03 -1.26156327e-03
      -1.12646562e-03 4.49829065e-04 -5.53352234e-04 -1.34210626e-03
      -2.66770390e-03 1.71009591e-03 1.88449351e-03 1.13226543e-03
      -6.66584261e-03 -2.96560139e-03 -2.87311221e-03 -5.69837634e-03
      -7.71008851e-03 -2.64916057e-03 1.68397103e-03 1.61979196e-03
      3.63644271e-04 -2.68872478e-03 9.92409419e-04 1.55951697e-02
      7.10155070e-03 -5.60861034e-03 -4.13067685e-03 1.86841702e-03
      1.15044671e-03 9.43250547e-04 2.31017289e-03 -1.49916089e-03
      1.03894982e-03 1.29029120e-03 -5.40797506e-03 -4.12426190e-03
      1.79911242e-03 5.47376694e-04 1.71039312e-04 4.66225576e-03
      -3.99325276e-04 2.36169691e-03 7.50214560e-04 -7.66913360e-03
      -5.95000852e-03 1.42881274e-03 3.08604067e-04 -1.07681972e-03
      9.70322290e-04 -1.99473300e-03 1.35341962e-03 5.01661748e-03
      -4.11129324e-03 -2.81859306e-03 7.80399132e-04 5.09644684e-04
      -1.18254009e-03 1.58974377e-03 2.35631433e-03 7.00870389e-03
      9.81126353e-03 2.11973814e-03 -6.71258103e-03 5.99148625e-04
      3.98077565e-04 -1.15818388e-04 1.67905504e-03 8.42444948e-04
      3.12409364e-03 4.19361843e-03 -7.20751146e-03 -3.33055854e-03
      4.01427178e-03 6.89226761e-03 5.13577415e-03 9.92628513e-04
      -7.75275659e-03 5.57072414e-03 2.32192711e-03 -2.75817933e-03
      -4.55136271e-03 6.45417720e-03 1.48244028e-03 2.52081663e-03
      3.13852192e-03 1.59577932e-03 6.15504850e-03 4.20126272e-03
      -7.65860500e-03 2.86571652e-04 8.10520200e-04 1.59127358e-03
      -4.93015302e-03 -1.11158621e-02 -2.40444811e-03 -1.22045749e-03
      3.52437119e-03 4.20884200e-04 -5.66462660e-03 8.40118900e-03
      8.81124288e-03 2.04634573e-03 3.76138603e-03 5.32437488e-03
      3.62772658e-03 4.16191528e-03 -6.50727004e-03 5.04480908e-03
      6.02890505e-03 1.69673283e-03 3.19525530e-03 -7.19914539e-03
      4.89718877e-06 -8.82709981e-04 3.70152015e-03 -2.85585248e-03
      5.39343152e-03 2.08862778e-03 -1.15385372e-03 -1.01296101e-02
      -1.67330541e-02 -6.65001338e-03 -2.89793545e-03 3.43318773e-03
      3.33240582e-03 3.60981002e-03 4.98787127e-03 2.60965363e-03
      3.65102460e-04 -1.87059753e-02 -2.30026431e-03 -2.18541967e-03
      7.69475591e-05 2.01508112e-04 1.08406954e-02 6.62388792e-03
      4.96323965e-03 -2.93152043e-05 -1.41542340e-02 2.18851026e-03
      1.30171597e-03 6.79593626e-03 7.27966148e-03 7.07949139e-03
      8.43333919e-03 6.86799176e-03 3.56659200e-03 -6.70972792e-03
      5.79630723e-04 4.01328923e-03 4.79991082e-03 5.03511028e-03
      2.49971775e-03 5.78650972e-03 6.66237762e-03 6.11015828e-03
      -9.75624938e-03 -1.23666273e-03 1.70668936e-03 -2.17482317e-04
      -1.39621098e-03 -5.18080220e-03 3.22472188e-04 -2.43109628e-03
      -1.11640117e-03 -5.56274410e-03 -2.78985011e-03 -7.13548390e-04
      -1.49896438e-03 -5.95876807e-03 9.44296457e-03 6.28646137e-03
      7.96454586e-03 6.86847139e-03 -6.22915523e-03 4.02638502e-03
      4.60382551e-03 4.91097709e-03 6.83199288e-03 9.44808475e-04
      1.86748034e-03 8.92047770e-04 6.13984012e-04 -1.05774018e-03
      -1.55602326e-03 -5.42942609e-04 -1.32592977e-04 4.54686990e-04
      -1.07754590e-02 -6.72849407e-03 -4.76906309e-03 -2.21900875e-03
      -9.71687667e-04 7.30951375e-04 6.76438154e-04 2.30671093e-03
      -9.47258901e-03 -2.28110584e-03 -8.05311312e-04 -1.61887321e-03
      -3.93079873e-03 -4.58610523e-03 -1.83885545e-03 7.10821594e-04
      1.76385674e-03 -1.31834485e-03 6.31812378e-04 2.22699530e-03
      -8.23464477e-04 1.41866168e-03 2.46458687e-03 -5.44589362e-04
      7.70838291e-04 -1.09649950e-03 5.47698641e-04 -1.55947215e-04
      4.48078936e-04 6.83903927e-04 1.74911358e-04 -4.56054520e-04
      -2.27636518e-03 -2.49453937e-03 -2.61062360e-03 -3.22678679e-04
      -1.53746863e-03 1.29954235e-04 9.11114097e-04 -2.31366651e-03
      -6.27625082e-03 -1.16957308e-04 1.04890298e-03 1.82834209e-03
      -3.78038530e-05 1.82765434e-04 1.36861810e-03 9.47192253e-04
      6.67636923e-04 -2.36149551e-03 -2.61864439e-03 -1.70627644e-03
      -4.73479787e-03 -6.42140163e-04 -1.38130970e-04 3.22450243e-04
      4.59292671e-04 -6.49393696e-05 -1.81553059e-03 -3.16075236e-03
      -1.64948136e-03 -1.31574948e-03 -3.37231222e-06 -1.20996509e-03
      -3.15358309e-04 -1.55881615e-04 -2.08421305e-04 3.48611647e-04
      -1.34366495e-03 6.01753534e-04 9.44810687e-04 -1.42003130e-03
      -2.74878182e-03 9.08053247e-04 1.52051356e-03 1.42733415e-03
      2.49066885e-04 -2.11954978e-03 1.12961268e-03 -6.01608190e-04
      -2.85093812e-03 -1.85360387e-02 2.21952621e-04 2.50381720e-03
      1.07611250e-03 7.59378215e-03 8.54268845e-04 2.01945100e-03
      2.90702702e-03 -2.10452899e-02 -2.05154228e-03 -1.06356660e-04
      5.77914296e-04 6.08000148e-04 7.38520990e-04 -8.50171840e-04
      -5.97911829e-04 -5.54711442e-04 -2.37442669e-03 -1.78064627e-03
      5.03084809e-03 6.40344899e-03 3.36775300e-03 1.07339807e-02
      3.12112574e-03 3.37281870e-03 -7.70306448e-04 -2.69307266e-03
      -5.82316518e-03 -5.63546608e-04 5.68793504e-04 -2.95758917e-04
      2.62937299e-03 2.31621554e-03 3.76565824e-03 3.19175282e-03
      -5.69160795e-03 1.69536658e-03 1.45480677e-03 9.12947394e-03
      5.80027979e-03 -4.82119620e-03 -5.43204788e-03 -4.84305667e-03
      5.49022981e-04 3.47115961e-03 -4.31524217e-03 7.40456686e-04
      3.98899987e-03 2.66290340e-03 3.91477393e-03 1.43595517e-03
      9.39975434e-04 -1.48854233e-04 -3.05412617e-03 3.06431646e-03
      4.37340653e-03 1.45203145e-02 1.51072796e-02 -3.32576991e-03
      -9.74218734e-03 -7.32145226e-03 1.85553764e-03 2.98325438e-03
      -1.52981328e-03 7.42574548e-03 9.04693827e-03 4.79914108e-03
      5.34921559e-03 1.08816673e-03 -2.05748179e-03 5.33783692e-04
      -3.14919394e-03 4.20674682e-03 8.91954172e-03 7.50579964e-03
      3.18585453e-03 -5.51334582e-03 -1.04711810e-03 -3.71607323e-03
      -1.99470134e-03 -2.12278939e-03 -8.10422935e-03 9.49002244e-03
      9.72053315e-03 3.83657636e-03 -6.10088278e-03 -6.68151677e-03
      -3.99970450e-03 -7.73985451e-03 -9.68628470e-03 -4.20480780e-03
      6.21667318e-03 5.05529298e-03 2.30550184e-03 -6.39405753e-03
      -7.04122195e-03 -9.02898237e-03 -6.09033788e-03 -8.92044697e-03
      4.63324087e-03 4.46402701e-03 4.37885243e-03 6.81705365e-04
      -8.35238770e-03 6.23235421e-04 -1.22881739e-03 -1.34836184e-03
      -4.29542456e-03 4.63150768e-03 4.98742424e-03 3.49982083e-03
      1.88578197e-05 -4.88402846e-04 1.76081885e-04 2.50719418e-03
      2.29196087e-03 1.38115697e-03 -4.84331371e-03 4.13096184e-03
      1.99755142e-03 -2.94287107e-03 -1.16069298e-02 -1.13519579e-02
      -1.23195415e-02 -1.20236492e-02 -9.29471292e-03 2.37786397e-03
      4.77158930e-03 3.61106405e-03 7.48132647e-04 3.60442186e-03
      4.49135061e-03 2.53230776e-03 2.80412915e-03 2.19898671e-03
      3.31284991e-03 6.28522830e-03 3.98884015e-03 1.14581268e-03
      -3.40267667e-03 4.10215784e-04 7.95887463e-05 2.63659749e-03
      1.87291892e-03 -7.30869593e-04 3.62599827e-03 1.44678715e-03
      -6.26727415e-04 -5.07020950e-03 -3.15372180e-03 -4.02640505e-03
      -2.54872302e-03 -1.37576484e-03 6.65636174e-03 4.38247155e-03
      5.08944970e-03 5.17155183e-03 2.48821126e-03 1.22558251e-02
      3.10419593e-03 5.40837646e-03 7.65946088e-03 2.62733840e-04
      1.54320232e-03 2.27626949e-03 3.74596822e-03 2.74692196e-04
      3.01141012e-03 -1.77480991e-03 1.92158695e-04 1.74353400e-03
      5.25578798e-04 4.17352375e-03 1.19693694e-04 -1.61295291e-03
      -7.73853576e-03 2.13279505e-03 -3.20936274e-03 -1.15500891e-03
      2.24307441e-04 -1.91102491e-03 7.55590620e-04 1.31642690e-03
      7.20095064e-04 -7.23198289e-04 -4.83092759e-03 -4.50109830e-03
      -4.51696012e-03 -2.05963268e-03 -6.15600124e-03 8.71258846e-04
      4.54286998e-03 4.77798609e-03 -7.56563910e-04 6.28071232e-03
      -2.51513720e-03 4.39834170e-04 -5.73360175e-03 1.22470164e-03
      2.66850722e-04 4.66770376e-04 5.74467354e-04 -8.17211752e-04
      -1.24383962e-03 -1.30665512e-03 -3.81318067e-04 6.48856396e-04
      1.53026474e-03 1.24604488e-03 1.62374577e-03 7.50996769e-05
      -1.98806706e-03 -1.36971544e-03 -1.99114927e-03 -1.03642372e-03
      1.68912730e-03 1.34838722e-03 6.36170851e-04 2.05394975e-03
      -8.98505241e-05 3.13335215e-03 6.70882524e-04 3.13705462e-03
      3.49904830e-03 1.70952140e-03 -1.44460809e-03 -2.18001333e-06
      -6.04330053e-05 9.02404208e-05 6.70599635e-04 -4.20829863e-04
      -1.23057433e-03 -9.29558300e-04 -1.96147105e-03 2.56577245e-04
      2.09334935e-03 4.85961931e-03 3.37439909e-04 3.89296608e-03
      2.03960226e-03 2.49660062e-03 4.53733024e-04 -7.91936996e-04
      1.29868533e-03 4.86269273e-04 1.89917139e-03 3.69624293e-04
      9.04991000e-04 -2.20112124e-04 4.31259949e-04 2.04808055e-03
      2.53844913e-03 1.73076557e-03 1.13571680e-03 4.82200133e-03
      2.71275057e-03 6.00449648e-03 2.27307878e-03 3.40976566e-03
      -1.53844623e-04 1.09890744e-03 4.26201615e-04 1.46259204e-03
      2.92284950e-03 7.09458836e-04 3.50672496e-03 1.41477375e-03
      1.37078739e-03 9.43736057e-04 3.05738242e-04 9.12399776e-03
      1.16841253e-02 1.32432841e-02 8.91908258e-03 2.24542506e-02
      3.48808523e-03 3.82907153e-03 4.61759372e-03 7.11605744e-03
      -1.40608964e-03 1.54123863e-03 4.94228583e-03 3.28581221e-03
      5.24435565e-03 1.05667685e-03 2.19896063e-03 1.97612424e-03
      -2.37364392e-03 -1.06149549e-02 2.71260971e-03 1.24853738e-02
      1.15938429e-02 -1.59940065e-03 -1.50143225e-02 -1.29245874e-02
      -9.35276691e-03 -1.06900753e-02 3.93675454e-03 5.18275890e-03
      6.76108524e-03 6.56704698e-03 7.72265391e-03 7.01926067e-04
      2.45662383e-03 2.86837621e-03 3.12744174e-03 -1.52715882e-02
      5.90985874e-03 1.52305728e-02 1.24176247e-02 1.24933766e-02
      -2.26004428e-04 4.70536062e-03 2.51601683e-03 -1.24587324e-02
      -1.23570429e-03 9.93000902e-03 7.50928093e-03 2.15541292e-03
      -2.95870914e-03 -2.88993632e-03 2.18480243e-03 -7.34129164e-04
      -7.28636049e-03 -1.35801872e-03 5.69012947e-03 5.56065142e-03
      -1.50616208e-04 -1.13150841e-02 -7.88365677e-03 -7.44384481e-03
      -4.21891687e-03 -5.12967585e-03 1.02391746e-03 7.84586277e-03
      5.10725379e-03 6.78016804e-03 1.65936223e-03 -4.79313685e-03
      -1.29539031e-03 -1.23334036e-03 1.58080726e-03 -1.53375824e-03
      5.15786326e-03 5.87903569e-03 5.65651385e-03 -9.90415458e-03
      -1.09608276e-02 -1.20401876e-02 -8.19576159e-03 -4.92877979e-03
      -3.91262816e-03 -2.96965870e-03 -3.39999865e-03 -9.49088298e-03
      -6.80590095e-03 -7.89491273e-03 -5.63612673e-03 -2.64239381e-03
      -5.45762433e-03 4.10117581e-03 4.20388347e-03 6.25303062e-03
      1.60058809e-03 7.56294420e-03 7.13265361e-03 6.22046692e-03
      3.21401376e-03 1.88422971e-03 -1.07898773e-03 5.86828857e-04
      7.19311135e-03 4.08702763e-03 -1.54961599e-02 -1.57143343e-02
      -1.45824756e-02 -1.15410099e-02 -4.23104968e-03 4.70028463e-04
      4.96146595e-03 8.42624530e-03 5.38551668e-03 -3.41319537e-04
      -2.00979575e-03 -5.29005410e-05 -1.60860387e-03 -5.13100123e-04
      7.83114415e-03 2.84511410e-03 1.53123739e-03 2.11981568e-03
      9.86499153e-03 1.00333299e-02 6.75918255e-03 4.85141156e-03
      7.44986860e-03 -1.90990453e-03 4.70231258e-04 1.16682949e-03
      1.93783687e-03 -2.78537790e-03 1.77220104e-03 4.61430638e-04
      1.32151088e-03 3.53521755e-04 1.56074297e-03 2.77463160e-03
      7.82994274e-03 5.15768584e-03 -1.80849619e-02 6.18961081e-03
      8.36312654e-04 -7.49473274e-03 5.43694659e-05 2.33368110e-03
      1.58229913e-03 3.29441018e-03 1.95311499e-03 6.57666521e-03
      1.56472577e-03 4.94623976e-03 2.47942028e-03 3.70381749e-03
      -9.32248496e-03 1.49962411e-03 3.88814253e-03 4.17055981e-03
      -2.91441800e-03 3.41766118e-03 -7.58463866e-04 6.19581086e-04
      -9.19438060e-03 -5.76217368e-04 2.78149586e-04 4.91006824e-04
      2.04050928e-04 -9.75679432e-04 -1.61906064e-03 -1.70468178e-03
      -1.57706963e-03 -1.14339427e-03 -1.55473375e-04 4.41852678e-03
      6.56147068e-03 4.64484049e-03 1.47104394e-02 7.07675098e-03
      8.09813570e-03 3.77372303e-03 3.36455589e-04 5.14066592e-03
      7.64927827e-03 8.17819778e-03 6.69973949e-03 1.32345026e-02
      1.05702260e-03 2.44725635e-03 2.37744628e-03 4.42784745e-03
      -8.86749942e-04 -2.12797895e-04 -9.68996392e-05 -6.71819635e-06
      9.01129330e-04 -4.38862626e-04 -1.22488465e-03 -5.79009939e-04
      -1.13626895e-03 -5.28869685e-04 1.32841850e-03 3.29252565e-03
      5.33719664e-04 2.57628900e-03 1.19107880e-03 2.54278467e-03
      7.34202258e-05 -6.36710844e-04 -3.10718128e-03 4.41201124e-03
      3.70007870e-03 1.59958855e-03 6.46796543e-03 3.15848715e-03
      2.15717615e-03 2.96177831e-03 -4.27481811e-03 3.29990662e-03
      5.39582130e-03 7.32149789e-03 4.06876113e-03 8.87622871e-03
      1.75070483e-03 4.57472308e-03 5.21971751e-03 1.78842328e-03
      -2.40643694e-05 1.95326190e-03 3.44264554e-03 1.00885588e-03
      2.92155240e-03 9.04584071e-04 2.18099006e-03 5.38966502e-04
      -4.57812042e-04 2.65531940e-03 6.85169874e-03 8.92247260e-03
      4.61745448e-03 1.00358641e-02 1.98853971e-03 2.30400637e-03
      2.63768877e-03 3.12894071e-03 -5.03005087e-03 3.19071260e-04
      3.01348907e-03 3.63684422e-03 4.72651096e-03 -6.19899714e-04
      6.25044527e-03 5.27042244e-03 -4.86675883e-03 5.49072982e-04
      1.80567950e-02 2.23779045e-02 2.20851600e-02 2.71737780e-02
      3.64338607e-03 8.29934329e-03 5.74161438e-03 -5.04339951e-05
      4.85566212e-03 8.53578001e-03 9.69844870e-03 8.49332754e-03
      1.15087843e-02 1.62650004e-03 4.00754111e-03 3.07481154e-03
      3.18124657e-03 -1.40317855e-02 7.60864699e-03 1.10133765e-02
      -5.69722441e-04 -1.47429423e-03 -5.17537352e-03 1.02129467e-04
      2.92782835e-03 -1.39123928e-02 3.94604448e-03 1.10236453e-02
      1.62406117e-02 1.02990596e-02 1.61553938e-02 4.93658427e-03
      6.83853263e-03 4.91828891e-03 2.17540492e-03 -1.30886333e-02
      7.77650159e-03 -1.09243265e-03 -9.62585025e-03 -1.33361453e-02
      -2.27537076e-03 6.01693057e-04 4.08411771e-03 -1.32020162e-02
      2.98521668e-03 6.92024687e-03 5.37852570e-03 4.92985453e-03
      1.94689710e-04 -6.71669794e-03 -1.60610629e-03 1.26451964e-03
      -1.27390539e-03 -6.34533761e-04 6.21135067e-03 6.25676196e-03
      4.83250665e-03 -1.39501002e-02 -1.83960758e-02 -1.76847894e-02
      -1.31088588e-02 -8.97023268e-03 -1.15912501e-03 9.19683091e-03
      8.21771938e-03 5.66230668e-03 7.94354361e-03 -3.67621612e-03
      1.22890482e-03 5.99665241e-03 5.05068805e-04 -3.21257906e-03
      5.63512789e-03 3.21755768e-03 1.77644368e-03 -8.28519650e-03
      -1.26311751e-02 -8.89362954e-03 -2.58647400e-04 -4.34299605e-03
      -3.75899137e-03 6.46641199e-03 1.11315427e-02 7.75839016e-03
      -2.42412183e-03 -1.34036411e-02 -1.40454974e-02 -7.62425922e-03
      -9.77274869e-03 2.05104967e-04 5.90127939e-03 1.24576958e-02
      6.99299434e-03 1.15083414e-03 -3.65969213e-03 -3.12928902e-03
      -1.89649919e-03 -1.56389852e-03 -3.70458729e-04 6.73984643e-03
      5.34959324e-03 -3.57697997e-03 -1.77025271e-03 -1.01645440e-02
      -1.47201568e-02 -6.19726069e-03 -5.16979350e-03 -4.40570526e-03
      5.24366321e-03 6.72125723e-03 5.13640419e-03 -6.61605923e-03
      -1.17585985e-02 -8.15803930e-03 -9.55305994e-03 -9.11405124e-03
      -1.93989975e-03 1.59396592e-03 6.84444793e-03 5.95320109e-03
      1.24756189e-03 -2.33965297e-03 -3.69753665e-03 -2.71449354e-03
      -2.80011818e-03 3.89556139e-04 -7.08651933e-05 3.02084023e-03
      1.55147933e-03 9.28779971e-03 2.22306349e-03 4.23600385e-03
      2.15592072e-03 1.09286630e-03 -6.80687977e-03 6.06700964e-03
      9.88354906e-03 5.45933284e-03 -2.11515892e-02 -1.87888667e-02
      -1.44806989e-02 -1.80737898e-02 -1.49652781e-02 1.55781722e-03
      7.96578079e-03 1.02116531e-02 5.44246240e-03 5.89756807e-03
      1.45364949e-03 3.50402761e-03 1.96936377e-03 -1.54980388e-03
      4.91890998e-04 2.04731594e-03 5.04997559e-03 3.94929713e-03
      9.94378235e-03 2.39100726e-03 3.23873945e-03 2.16669776e-03
      1.02297556e-04 7.82778370e-04 3.14413547e-03 3.50904814e-03
      3.10780131e-03 6.73007499e-03 3.22631589e-04 -1.67098094e-03
      -4.83902841e-04 -2.86436261e-04 -7.19613442e-03 7.75245018e-03
      1.03321718e-02 6.37563597e-03 4.42979299e-03 3.97904962e-03
      5.42484690e-04 4.64317435e-03 -6.86060637e-03 4.41403082e-03
      -1.70353203e-04 -2.96649220e-03 2.31758016e-03 4.61009331e-03
      2.29635253e-03 1.87105371e-03 3.08804889e-03 3.62197962e-03
      1.68480806e-03 2.15246342e-03 2.17343611e-03 2.31705583e-03
      5.83390146e-03 1.85441296e-03 -1.57583458e-03 6.12643373e-04
      9.26845416e-04 -1.62126881e-03 -1.66312660e-04 1.82995026e-03
      2.85898335e-03 5.05181868e-03 1.18178548e-03 3.04136402e-03
      2.24794657e-03 -1.60910259e-03 4.20639850e-03 -5.33471117e-04
      1.03029702e-03 1.06625841e-03 8.00596923e-03 2.75450293e-03
      2.04139203e-03 2.95622181e-03 5.67825744e-03 2.35988968e-03
      7.92953186e-04 3.45901377e-03 2.58128485e-03 2.35688221e-03
      5.77722385e-04 1.77259580e-03 8.81235173e-04 6.12482755e-03
      -4.33793385e-03 7.50654668e-04 3.79494391e-03 6.81761047e-03
      6.13667350e-03 9.99294571e-04 5.11430111e-03 2.19712825e-03
      -3.43379029e-03 -2.71203951e-03 5.22097806e-03 1.43578248e-02
      1.07766036e-02 1.50172357e-02 5.18290373e-03 7.55896606e-03
      2.24709697e-03 -5.72439237e-03 -1.04297104e-03 -3.12551111e-03
      3.92875820e-03 3.36226239e-03 3.20985200e-05 -1.15773780e-03
      2.69626547e-03 -5.42056281e-04 -6.41355640e-04 -1.05139725e-02
      -9.99248773e-03 -4.58223221e-04 -5.68044651e-03 1.09235635e-02
      1.53816561e-03 3.06711812e-03 -2.49679876e-03 -1.70838945e-02
      8.98121158e-04 1.21113313e-02 2.02566236e-02 1.58874709e-02
      2.24651266e-02 5.46157779e-03 6.29387842e-03 1.39811728e-03
      -4.45694337e-03 -1.00020249e-03 5.65468054e-03 -4.65129269e-03
      -6.06984692e-03 -1.66456879e-03 6.16702251e-04 4.88349190e-03
      3.76711483e-03 -1.43854553e-03 -2.69680424e-03 5.64280432e-03
      7.68234441e-03 8.51165224e-03 1.17177283e-02 2.60914472e-04
      -5.72900521e-04 -6.50401460e-03 -9.15133953e-03 -1.88284740e-02
      -1.81864668e-02 -1.98211297e-02 -2.08792631e-02 -8.60010274e-03
      9.05700726e-04 -9.76677751e-04 -2.53079692e-03 -1.54423974e-02
      4.70740597e-05 6.69750758e-03 7.55724171e-03 3.38804792e-03
      6.71938108e-03 -2.53681559e-03 1.03228763e-02 6.54002605e-03
      3.43100459e-04 -8.80443491e-03 5.66737680e-03 1.22587231e-03
      -9.59630648e-04 -1.10644093e-02 -1.46258296e-02 -1.23411734e-02
      -1.07099228e-02 -1.33070583e-02 3.35347303e-03 1.72957964e-03
      2.55912356e-03 1.66809466e-03 2.73816055e-03 1.01128372e-03
      5.03859064e-03 3.34303128e-03 4.66849236e-03 4.61821817e-03
      1.22704636e-03 1.17763516e-03 5.50368219e-04 1.53137371e-03
      -2.69060838e-03 5.21293655e-03 8.70463904e-03 7.41403410e-03
      1.82667386e-03 3.08850268e-03 3.42500350e-03 5.39632747e-05
      -3.29029560e-03 -7.33564887e-03 -3.54761607e-03 1.62373751e-03
      8.08853365e-04 -5.91868069e-03 3.79225239e-03 5.78506803e-03
      4.13454650e-03 -1.00651886e-02 -1.35661485e-02 -8.24320596e-03
      -1.17298560e-02 -1.13112768e-02 2.71181948e-03 -7.22923549e-04
      2.09823088e-03 -2.52281752e-04 2.33870163e-03 1.23856752e-03
      8.47835187e-03 1.11978194e-02 5.28623769e-03 -3.65620153e-03
      -6.11184456e-04 3.71239008e-03 2.92710145e-03 -3.86275025e-03
      -4.78341570e-03 5.13457414e-03 -4.09890054e-04 -9.09863878e-03
      -3.18455463e-03 4.52315388e-03 5.60178282e-03 3.07937013e-03
      -1.56227741e-02 -1.19203068e-02 -8.05901922e-03 -6.44906797e-03
      -9.30519309e-03 -1.23564707e-04 6.78766891e-03 1.04654655e-02
      4.74135252e-03 5.99027239e-03 7.03413039e-04 1.08641724e-03
      1.63837534e-03 -1.09786564e-03 -1.38289086e-03 -3.34643130e-03
      3.09548457e-03 3.87927145e-03 -4.03906405e-03 -1.24532497e-02
      -8.13989621e-03 -1.10902283e-02 -9.73059051e-03 9.58144665e-03
      1.59193203e-02 1.85693279e-02 9.61770304e-03 1.94288080e-03
      -8.69634096e-03 -4.91828332e-03 -3.82686779e-03 5.96902845e-03
      2.52583181e-04 5.39765740e-03 9.03414376e-03 3.59639968e-03
      9.94935259e-03 1.13403192e-03 1.91770622e-03 2.67724507e-03
      -5.51912399e-06 3.15214298e-03 1.69026444e-03 2.39810231e-03
      2.48149445e-04 3.96164833e-03 1.98491127e-03 3.59343621e-03
      2.14621122e-03 2.50667892e-03 1.00312289e-02 1.35370158e-02
      1.45096509e-02 4.67941491e-03 1.80528536e-06 -1.58436336e-02
      -8.26660637e-03 -2.23923801e-03 7.64630316e-03 4.72171558e-03
      -7.88411126e-03 -4.25168267e-03 -1.15418788e-02 -7.38006132e-03
      -8.03056639e-04 5.64287603e-03 6.34070439e-03 3.96195846e-03
      3.16796266e-03 1.76871149e-03 2.24570790e-03 3.43544595e-03
      5.33161219e-03 1.83745846e-03 2.78554531e-03 1.27393415e-03
      2.38744752e-03 2.91020912e-03 -2.39802594e-03 2.39460333e-03
      2.38864310e-03 5.71912341e-03 1.59410678e-03 2.14677374e-03
      1.13432808e-03 2.58457009e-03 2.81361351e-03 -3.79796978e-03
      -3.90193146e-03 -3.82848992e-03 -4.42975172e-04 -1.01978006e-03
      6.81594340e-03 5.70330443e-03 4.44650045e-03 -8.61053541e-03
      -6.78123534e-03 -4.94983979e-03 -7.25371949e-03 -8.69074278e-03
      8.99461913e-04 1.73531473e-03 6.88553206e-04 -3.11374594e-03
      2.18261662e-03 1.09488552e-03 8.05512257e-03 5.47974557e-03
      4.20860201e-03 -2.43242644e-03 -2.05674488e-03 -9.05002584e-04
      3.58740659e-03 -1.52292103e-03 3.18460190e-03 5.73294424e-03
      1.42151956e-03 4.69062105e-03 -1.65327766e-03 -8.72615201e-04
      -1.70374964e-03 -2.40954760e-04 -1.36963162e-03 -9.00230953e-04
      -1.68190920e-03 -3.15905572e-03 2.80064950e-03 -3.99188837e-03
      -1.93994073e-03 -6.25254121e-04 5.60381450e-04 -8.68480839e-03
      -5.84458886e-03 1.49812649e-06 -9.78365913e-03 2.57371948e-03
      -5.70652029e-03 -4.80614416e-03 -3.92810395e-03 -5.72399376e-03
      -4.97851893e-03 1.20990304e-02 9.74875968e-03 9.86362714e-03
      2.09119264e-02 1.71141652e-03 -7.98707944e-04 -3.54041439e-03
      -6.69354852e-03 -1.39637524e-02 -1.12562850e-02 -9.05397814e-03
      -1.31942900e-02 -4.71049780e-03 -3.18178027e-05 -2.13949825e-03
      -3.06027126e-03 -7.93431513e-03 -1.15069253e-02 -2.66155275e-03
      -8.83804169e-04 -3.70784127e-03 6.33725384e-03 -7.38716510e-04
      -1.65041233e-03 -2.13685585e-03 -6.25967886e-03 -1.33522097e-02
      -1.46110980e-02 -1.74015556e-02 -1.37238223e-02 -6.65894011e-03
      3.88613669e-04 -1.82539534e-05 -1.23130053e-03 -7.47566810e-03
      -1.43428170e-03 -2.33938056e-03 -4.98143816e-03 -4.00879275e-04
      -6.24881359e-04 -1.21783710e-03 -3.83809814e-03 -2.10842397e-03
      -4.67116898e-03 2.26276461e-03 6.49617519e-03 4.96105943e-03
      4.63551283e-03 -9.66575055e-04 -8.89844785e-04 -2.63273832e-03
      -5.47507219e-03 -2.73867697e-03 -5.77782094e-03 2.79001216e-03
      3.16543062e-03 2.46809190e-03 4.32018051e-03 1.31561339e-03
      -2.77923117e-03 -5.24360407e-03 -8.83044582e-03 -2.53307330e-03
      4.45145974e-03 7.17515079e-03 3.40001122e-03 -1.36879887e-02
      4.65271622e-03 -1.63755438e-03 -4.44757007e-03 -4.86387080e-03
      5.01626078e-03 5.49881114e-03 4.52704588e-03 -1.74742623e-03
      -3.59711540e-03 -3.75451893e-03 -2.26931600e-03 -3.40533000e-03
      9.13097814e-04 -3.60001577e-03 8.61234730e-04 6.11939933e-04
      -3.33568337e-03 -5.22350054e-03 -4.50753723e-05 2.67739920e-03
      -4.05778759e-04 -3.20434966e-03 -2.66465195e-03 -2.39611557e-03
      -1.33373693e-03 -5.01054979e-04 -3.11493478e-03 -3.83626623e-03
      -2.02127756e-03 -1.02041033e-03 -4.29708418e-03 -5.24125807e-03
      -4.05193120e-03 -5.21884067e-03 -6.40843576e-03 -7.83143286e-03
      -1.87857030e-03 2.27762386e-03 -7.30869826e-04 -3.77198961e-03
      -1.67127408e-03 1.35670672e-03 -4.95704776e-03 -4.97075589e-03
      5.50027005e-03 1.99796446e-03 5.81878144e-03 3.56825441e-03
      1.20918162e-06 5.77574130e-03 7.26890657e-03 -2.04187632e-03
      -8.06747284e-03 -6.59667421e-03 -2.28559971e-03 -9.84498067e-04
      -1.05932821e-03 4.97111958e-03 -4.64259554e-03 1.09328073e-03
      -6.65989658e-03 -7.45220482e-03 -1.08589707e-02 -2.01973901e-03
      -3.18972440e-03 -4.92602470e-04 -3.64078698e-03 1.02173164e-03
      -3.48001304e-05 -3.80823878e-03 -4.82720416e-03 -6.05057646e-03
      1.72694947e-03 -6.15362893e-04 -1.98156311e-04 3.47270072e-03
      6.07128488e-03 8.73107091e-03 -9.55766940e-04 -9.52203758e-03
      -1.31754372e-02 -5.53114573e-03 -5.27497660e-03 -2.24393187e-03
      3.05959187e-03 4.97582136e-03 8.96806456e-03 4.58739419e-03
      -2.28215940e-03 -2.00122828e-03 -4.36939253e-03 -3.97338532e-03
      6.04335684e-04 4.23464132e-03 4.70122136e-03 3.11869266e-03
      -1.89094339e-04 -5.88889513e-03 -1.08335325e-02 -1.83790666e-03
      -3.59400315e-03 -1.87741849e-03 5.07032778e-03 1.42463949e-03
      5.14715118e-03 3.02654644e-03 1.48174865e-03 -1.13809237e-03
      -1.32937136e-03 -2.74553616e-03 -9.43334599e-04 -5.21626440e-04
      2.93272524e-03 2.32163677e-03 8.01017275e-04 -1.78944797e-03
      6.50034752e-03 -8.89964867e-04 1.17731979e-03 4.69895871e-03
      6.94500224e-04 2.39959755e-03 6.62145531e-03 4.81570931e-03
      1.09519962e-04 1.14802271e-02 -9.86246625e-04 -7.00436940e-04
      4.47266875e-03 7.57640984e-04 -4.27969149e-04 2.78306124e-03
      1.54031208e-03 2.90145166e-04 9.15354758e-04 -2.67685391e-03
      -3.26111005e-03 -2.26666383e-03 -2.27325596e-03 -3.75856832e-03
      1.66037015e-03 5.35787622e-05 -3.78613651e-04 1.81992748e-03
      1.93816004e-03 4.68121230e-04 6.83262188e-04 -5.37860906e-03
      4.47406061e-03 1.03984596e-02 6.11953018e-03 2.15529231e-03
      6.54538628e-03 -1.29506248e-03 -3.78877483e-03 2.14532809e-03
      -9.12457290e-06 4.73455479e-03 9.87805612e-03 1.02678197e-03
      -3.86421406e-03 3.99647513e-03 -1.67208980e-03 6.56706281e-03
      8.49614479e-03 1.40755263e-03 -3.83721036e-03 1.86307600e-03
      6.96287956e-04 -1.22992104e-04 1.03975844e-03 3.85438534e-03
      6.04266487e-03 1.71766535e-03 -6.13769842e-03 -6.39874768e-03
      -3.66198859e-04 -3.80159914e-03 4.19858916e-05 -4.29969560e-03
      -2.58698477e-04 -2.76877498e-03 -3.40436120e-03 -9.63019673e-03
      9.72829061e-04 3.47535033e-03 -1.29727938e-03 -1.39393285e-03
      1.06601499e-03 2.23398348e-03 8.11591186e-03 6.57978514e-03
      1.26473443e-03 -1.18189969e-03 8.32709411e-05 1.94560067e-04
      -4.15035553e-04 2.72815069e-03 -9.99164069e-04 6.84568333e-03
      1.12896515e-02 3.18896607e-03 -7.81040452e-03 7.97242217e-04
      -8.75604455e-04 2.99752387e-03 2.71049998e-04 -1.27789285e-03
      4.49599372e-03 1.36284230e-04 -7.51588261e-03 -9.68216825e-03
      -1.22346077e-03 -8.74832331e-04 1.69336668e-03 -1.97620783e-03
      -1.24457106e-03 -1.47992876e-04 -7.86332763e-04 -7.74458796e-03
      -9.07562207e-03 6.12380402e-03 6.52136980e-03 2.69411970e-03
      4.49279929e-03 3.26992897e-03 -1.04973640e-03 -5.76161267e-03
      -9.46813822e-03 -4.41462686e-03 1.26054953e-03 5.91379777e-03
      3.19916126e-03 -5.40321274e-03 7.10796192e-03 2.49204785e-03
      -3.47542716e-03 -8.21837690e-03 1.98780256e-03 8.07942078e-03
      3.40637914e-03 5.12594823e-04 4.53331182e-03 4.15118737e-03
      5.74756088e-03 2.26227497e-03 -4.38858464e-04 -3.03275604e-03
      4.41100309e-03 4.25259722e-03 -9.08300863e-04 -9.67166759e-03
      8.33241269e-04 2.83162692e-03 1.23691547e-03 -6.40544202e-03
      -6.59470586e-03 -3.69188911e-03 1.49022311e-03 5.37830871e-03
      -1.85023804e-04 -1.89403992e-03 -1.96495233e-03 -1.96387456e-03
      -8.88463575e-03 -3.13184434e-03 -4.16713348e-03 -5.20748040e-03
      -7.06419256e-03 -1.12221781e-02 6.91561785e-04 -3.98586184e-04
      -8.45835893e-04 -4.07433044e-03 6.55836007e-03 5.44429105e-03
      3.96246556e-03 -6.11479045e-04 -8.13399442e-03 7.62872514e-04
      2.62291433e-04 4.59452346e-03 6.77956920e-03 8.15913081e-03
      2.19439017e-03 -1.41119480e-03 -9.29516507e-04 -8.63395166e-03
      -1.57685147e-03 -4.08408092e-03 -2.60411319e-03 3.01215309e-03
      -6.29449642e-05 -6.17481815e-03 -1.08017521e-02 -1.15430811e-02
      -1.47682689e-02 -3.45170440e-04 -5.77982189e-03 -2.07454781e-03
      1.92180893e-03 3.21480515e-03 2.72070803e-03 -3.47640878e-03
      -4.33009304e-03 -6.68237591e-03 -2.33005174e-03 -4.17823577e-03
      -2.44086375e-03 3.76530574e-03 9.74206440e-03 1.35060248e-03
      -3.97002697e-03 -4.73484863e-03 -6.13133330e-03 -1.96282426e-03
      -5.07159485e-03 -5.05208457e-03 5.14217233e-03 1.03125104e-03
      1.92175343e-04 -1.42131827e-03 -1.43072079e-03 6.99268596e-04
      4.60054987e-04 -2.84551806e-03 -1.92368543e-03 1.55252055e-03
      -2.78776558e-03 -4.07240994e-04 -4.32230765e-03 -8.48168042e-03
      -1.89754565e-03 -3.85026517e-03 -3.94474063e-03 -4.18168679e-03
      9.90101369e-04 2.23736119e-04 2.39602057e-03 3.19795683e-03
      6.24519715e-04 -5.32320468e-04 -5.53857861e-03 -2.87488382e-03
      -9.00994288e-04 -1.42903207e-03 -1.63487252e-03 5.64678339e-04
      1.25466054e-03 1.60006096e-03 -4.21724748e-03 -1.46676495e-03
      5.28586621e-04 -6.98542397e-04 -1.81354908e-03 -1.25199056e-03
      1.17824867e-03 2.89345765e-03 3.61889397e-04 -3.55226541e-04
      -3.44741857e-03 -2.42226734e-03 -8.66444025e-04 -1.97674683e-03
      5.72411343e-04 6.17852062e-03 5.97709976e-03 1.04446500e-03
      -1.64627947e-03 -8.32481019e-04 3.83985171e-04 2.27116654e-03
      7.31202366e-04 6.03243825e-04 2.09322060e-03 8.97619873e-04
      6.91792869e-04 -3.52645118e-04 3.83341988e-03 2.15387996e-03
      -2.12501362e-03 1.38756455e-04 -3.41676734e-03 9.35138029e-04
      1.00375852e-03 -1.57068600e-03 2.89194658e-03 -2.77956203e-03
      2.27875760e-04 1.52853003e-03 -9.15431010e-04 -9.55086900e-04
      2.23937584e-03 7.23412435e-04 4.09078231e-04 -1.38284336e-03
      3.27983696e-04 7.17530784e-04 1.26730104e-03 9.22133113e-05
      -4.69272910e-03 3.73483286e-04 -4.79066803e-04 -1.73603199e-04
      -1.81503198e-03 1.32781547e-03 3.80518427e-03 -3.28043359e-03
      -8.97285249e-03 -1.14174495e-02 1.52948032e-05 -1.81529892e-03
      8.14915576e-04 -5.33853937e-03 -6.40735542e-03 1.56317299e-04
      -4.78329137e-03 -1.21120941e-02 -1.21966447e-03 2.08170060e-03
      5.45939838e-04 1.11990119e-03 1.43777719e-03 6.37514400e-04
      2.09771586e-03 1.63474598e-03 -7.68542173e-04 -1.46387902e-03
      -2.66989111e-04 -1.16069417e-03 1.37622491e-03 1.29418040e-03
      5.46972640e-03 1.00138271e-02 3.27527989e-03 -1.87637878e-03
      -7.47790979e-03 5.72753488e-04 -2.02639122e-03 1.63016305e-03
      5.53796359e-04 2.94604269e-03 3.91072873e-03 -1.64061179e-03
      -1.06332544e-02 -1.82647840e-03 4.83122931e-05 -2.30047561e-04
      1.25237228e-03 1.73637981e-03 2.05354323e-03 -3.14923789e-04
      1.36738573e-03 -4.26094187e-03 1.67009281e-03 -1.76167523e-03
      -1.14585552e-03 -4.07561805e-04 5.37077449e-06 4.72084619e-03
      4.62167198e-03 6.08822610e-03 2.75317603e-03 1.47005438e-03
      -1.49839185e-03 1.43602607e-03 -1.77840295e-03 1.37768115e-03
      -4.44271602e-03 -3.91775230e-03 -6.05404726e-04 1.49499020e-03
      2.32436671e-03 6.83179451e-03 2.38941819e-03 -1.72145735e-03
      4.15712968e-03 3.23631102e-03 3.73578444e-03 4.63848031e-04
      -2.30556107e-04 1.04426534e-03 7.62514723e-03 4.42786468e-03
      3.23174580e-04 -1.04503883e-02 -3.28621478e-03 -1.71333633e-03
      -1.06033811e-03 2.17203004e-03 9.35096818e-04 7.29051372e-03
      7.58722983e-03 3.12733185e-03 1.05418451e-03 9.35168413e-04
      -1.21771707e-03 -7.88086734e-04 -3.02611897e-03 -4.74104425e-04
      1.94980681e-03 4.48842067e-03 3.30295321e-03 -1.12493178e-02
      -7.01195374e-03 -4.40347660e-03 -8.49133183e-04 -3.91240930e-03
      2.89493846e-03 3.19685973e-03 2.77670636e-03 -2.77028349e-03
      -8.05347878e-03 -3.01156379e-03 -2.89213774e-03 1.67555362e-03
      3.90706700e-04 4.83389478e-03 2.34615686e-03 -3.03844619e-03
      -3.08047544e-04 -4.61885380e-03 -2.04420020e-03 -1.86863786e-03
      -5.52914513e-04 1.55141589e-03 1.73320086e-03 5.16199879e-03
      5.01689094e-04 2.01036665e-03 -8.92976113e-03 -6.47385791e-03
      -5.37162693e-03 4.11687652e-04 -7.64728349e-04 9.26307216e-03
      1.85417361e-03 -1.19591481e-03 -1.53469935e-03 -4.90851793e-03
      -1.19453808e-03 9.20149090e-04 3.67038907e-03 8.53451714e-03
      9.50845238e-03 1.66714867e-03 -2.20362027e-03 -1.56376278e-03
      -5.98450797e-03 -1.73306174e-03 -7.50397751e-03 -1.12039223e-03
      7.16025336e-03 6.22307509e-03 2.43890705e-03 -8.29345430e-04
      -4.38337185e-04 -2.12731422e-03 6.70202833e-04 -1.77471281e-03
      2.19111040e-04 4.72209277e-03 1.03232153e-02 2.53232406e-03
      -4.39161481e-03 -3.72704165e-03 -6.02833461e-03 1.76767167e-03
      2.34464067e-03 5.44287357e-03 7.31311087e-03 7.40127056e-04
      2.29648896e-03 -8.55078455e-04 3.58243997e-04 -1.42538047e-03
      -2.10665911e-03 -6.12034521e-04 -5.49735734e-04 3.16278420e-05
      9.35175736e-03 8.60770233e-03 6.17874973e-03 2.77500041e-03
      -4.44654562e-03 -2.88400659e-03 -9.99229087e-05 1.40091626e-03
      7.44411023e-03 -4.40926338e-03 3.53537238e-04 2.64622597e-03
      3.13899684e-04 -1.06446550e-03 -4.28295694e-03 -1.84380927e-03
      -2.43127462e-03 -3.38686816e-03 2.32974952e-03 3.04937805e-03
      2.86683813e-03 2.74518435e-03 -2.49312929e-04 -9.54217277e-04
      4.26372222e-04 1.21576863e-03 1.06922537e-03 -1.58168652e-04
      6.50925154e-04 6.23805972e-04 6.67654618e-04 -2.90771597e-03
      -3.43096326e-03 -2.03170674e-03 -2.23181979e-03 -1.88829307e-03
      -7.41958199e-03 1.79246519e-04 1.59442646e-03 -3.49021330e-03
      1.99569832e-03 -4.69681481e-03 2.67092459e-04 9.23034211e-04
      -3.91496532e-03 8.30720935e-04 3.86899221e-03 1.70521741e-03
      3.09523835e-04 -1.83005270e-03 2.26598844e-04 1.77460804e-03
      3.63016664e-03 9.50715446e-04 -1.78045174e-03 -3.01989276e-05
      -4.02622158e-04 -3.62204592e-04 7.95599888e-04 -2.55837967e-03
      -2.13715923e-03 -1.99815887e-03 -2.37293052e-03 -3.12858610e-04
      -1.04889844e-03 -1.87811989e-03 -1.16096006e-03 -2.03047835e-04
      -1.68721264e-04 -1.65751291e-04 9.87481399e-05 -4.50543419e-04
      -5.23917901e-04 3.26578785e-03 2.02608714e-03 1.65796850e-03
      2.36979919e-04 -4.51262487e-04 8.76550330e-05 1.49900897e-03
      -1.20988989e-03 -3.06497631e-03 -6.51397859e-04 2.74918682e-04
      1.15065975e-03 3.54882376e-03 9.64052137e-03 5.04366122e-04
      6.34849817e-03 -1.63115014e-03 1.20624849e-04 -1.78081740e-04
      3.39576305e-04 1.84050630e-04 -3.29781976e-03 -2.22199969e-03
      -2.83976179e-03 -1.01845467e-03 -2.38089662e-04 4.10570670e-03
      5.20473998e-03 1.75647577e-03 5.06404554e-03 -1.77145167e-03
      1.35846820e-03 5.33777010e-03 5.80304768e-03 3.84961138e-03
      -1.06726110e-03 -2.48431833e-03 -9.69682937e-04 -9.92924557e-04
      5.51387711e-05 3.44512286e-03 5.82620595e-03 7.81598035e-03
      1.49968045e-03 -4.07200865e-03 3.26004694e-04 4.46531503e-03
      1.88451435e-04 -5.42111974e-03 -9.68156289e-03 -6.12006523e-03
      -2.33050366e-03 -6.40472071e-03 1.94620609e-03 1.27387978e-03
      3.28749622e-04 2.64258566e-03 3.87552870e-03 2.30265781e-03
      6.78543560e-03 7.14556221e-03 3.88031825e-03 8.45981855e-03
      7.92821683e-03 1.05996607e-02 1.09829223e-02 2.76689813e-03
      -2.58454215e-03 1.65196299e-03 6.14739303e-03 7.05660833e-03
      4.42344043e-03 8.07263516e-03 9.89876408e-03 3.59076099e-03
      4.02405532e-03 1.90613221e-03 1.06011506e-03 1.97062874e-03
      2.21388834e-03 1.54424272e-03 5.52348001e-03 1.75377249e-03
      -5.19803318e-04 -9.22925770e-03 -5.93533972e-03 -7.55046168e-03
      -5.46057569e-03 -1.29301753e-03 2.15487974e-03 1.80674123e-03
      3.35106626e-03 2.73232860e-03 3.36284726e-03 3.07660596e-03
      4.84369136e-03 1.52348028e-03 7.89347570e-04 -4.49792948e-03
      -2.34441808e-03 -1.60330697e-03 -9.05421935e-03 -8.57551675e-03
      -4.38941363e-03 -6.97109755e-03 -7.67029170e-03 -7.37245707e-03
      3.61168082e-03 5.11962222e-03 2.57696770e-03 2.90157530e-03
      -9.91628133e-03 -5.46352286e-03 -6.13968866e-03 -2.90026143e-03
      2.03903159e-03 2.16551800e-03 3.39735020e-03 1.12400053e-03
      -3.19329643e-04 -1.03768567e-02 -1.52234698e-03 5.00153925e-04
      4.04593674e-03 3.00709740e-03 -3.99032375e-03 8.03995354e-04
      2.77723838e-03 -3.97415459e-03 -6.52763899e-03 -7.90773146e-03
      -5.56820072e-03 -2.45872536e-03 -1.83725962e-03 -1.45623588e-03
      1.92975067e-03 7.19037256e-04 -2.26437231e-03 -1.77475456e-02
      -2.84762983e-03 -2.31263670e-03 2.53006001e-03 -2.22739218e-05
      4.88502346e-03 1.53802393e-03 -5.01872366e-03 -4.51981649e-03
      -1.20376348e-02 -7.35745707e-04 3.82790633e-04 5.42842364e-03
      3.05658672e-03 3.37913423e-03 4.30483837e-03 2.55416194e-03
      -4.34226560e-04 -1.78784539e-03 -3.69187305e-03 -1.88093109e-03
      -1.13241421e-03 4.48481733e-04 -2.93909106e-03 -2.36778273e-04
      8.39362794e-04 -4.50977823e-04 -7.77490251e-03 3.31047078e-04
      -7.19498750e-03 3.97302629e-03 -2.19645182e-04 1.39684693e-04
      1.24133343e-03 2.51254230e-03 -6.45652704e-04 -7.14848749e-04
      -9.89501248e-04 -1.78180053e-03 1.64095283e-04 -3.15746584e-04
      6.68414356e-03 7.48248119e-03 3.33294109e-03 1.46875600e-03
      9.96197294e-03 -1.98947382e-03 -1.57698942e-03 8.07146193e-04
      4.01825132e-03 1.70244381e-03 8.60915403e-04 1.11691852e-03
      8.22953647e-04 -2.02510855e-03 -3.72504420e-03 -2.90553365e-03
      -2.45820056e-03 4.50152671e-04 3.12727294e-03 1.00424897e-03
      -1.57002229e-04 -3.85666091e-04 5.08621708e-03 -1.06759521e-03
      -7.40842486e-04 -6.64358609e-04 2.63082725e-03 -1.10983697e-03
      1.01826896e-04 5.16948094e-05 2.79456654e-05 -3.61492479e-04
      -9.84053826e-04 -1.11812260e-03 -1.02120044e-03 -1.71137170e-03
      -3.04461166e-04 -6.02313958e-04 -1.26445689e-03 -5.18033339e-04
      2.49886932e-03 -2.48690043e-03 -3.30683915e-03 -2.74724560e-03
      -9.75432340e-04 4.23268066e-04 -2.21662153e-03 -3.26329959e-03
      -1.59307267e-03 7.69937353e-04 -1.32541219e-03 -2.01946823e-03
      1.61193995e-04 1.52101705e-03 -7.78886431e-04 -7.81324925e-05
      -1.56257971e-04 2.83767913e-05 2.90331991e-05 -1.10790294e-04
      -6.26838068e-04 -8.25872528e-04 -1.07706129e-03 1.28152897e-03
      2.30383757e-03 2.86150817e-03 2.79066083e-03 -6.99070655e-03
      -2.53983453e-04 -4.40527132e-04 -5.52072423e-04 7.07126979e-04
      3.52225313e-03 9.60633697e-05 7.26526254e-04 3.38277314e-04
      -3.94239463e-03 -1.20284152e-03 -1.52628869e-03 -3.82716418e-04
      3.41124786e-03 4.66269534e-03 2.30369926e-03 4.02953196e-03
      1.26249273e-03 -5.98646700e-03 2.45517120e-03 2.55301641e-03
      3.52015882e-03 6.25888631e-03 8.31520127e-04 9.79609322e-04
      2.58919736e-03 1.19863614e-03 1.98725332e-03 -2.91079836e-04
      -2.16356930e-04 -9.27028072e-04 2.93839927e-04 5.95557364e-03
      2.68507586e-03 5.73231746e-03 2.33132485e-03 -4.75334935e-03
      2.62955175e-04 1.36826676e-03 -5.34923805e-04 5.38032502e-03
      -8.08341953e-04 1.29225163e-03 1.84384338e-03 1.89676951e-03
      2.09203502e-03 1.88667479e-03 5.60236396e-03 3.88443866e-03
      1.33143796e-03 -3.92645132e-03 1.48723018e-04 7.87327718e-03
      7.15870131e-03 3.63774714e-03 -4.04242845e-03 -2.74732220e-03
      9.01276246e-03 7.03943253e-04 -4.94676363e-03 -2.46106205e-03
      3.53086600e-03 8.43530637e-04 -3.18129826e-03 1.31171453e-03
      2.18952936e-03 1.09934609e-03 -1.48880889e-03 -9.66129079e-03
      -1.27093197e-04 7.44642830e-03 6.55999826e-03 2.53811781e-03
      -9.02012340e-04 3.00059863e-03 5.76670934e-03 -6.58391230e-03
      -3.16122128e-03 -2.97941361e-03 -5.63316932e-03 -4.61710035e-04
      6.17893646e-03 -3.30665353e-04 -1.10556209e-03 1.29681500e-03
      -6.54624309e-04 -1.87901838e-03 -2.64676055e-03 -7.20911846e-03
      -6.64518122e-03 -5.79817081e-03 -6.90886145e-03 -7.92562403e-03
      -2.08560470e-03 1.77222610e-04 4.91254032e-04 -6.35614037e-04
      -2.03173095e-03 4.85986099e-03 7.50731537e-03 -1.92845007e-03
      1.12312008e-03 2.23928434e-03 1.89347286e-03 5.21105668e-03
      9.63729806e-03 6.00267528e-03 1.34083070e-03 -2.70993495e-03
      -7.66502507e-03 -9.48616862e-03 -9.49035224e-04 1.88456720e-03
      -7.79392850e-03 1.59721239e-03 2.62218132e-03 -8.91925395e-03
      -1.29137374e-02 -8.95979814e-03 -1.08988965e-02 -2.63615977e-03
      -7.70799117e-03 -5.18401386e-04 -8.39096203e-04 1.15132352e-04
      -5.05395420e-03 -9.91101749e-03 -1.25603902e-03 -2.13440647e-03
      2.83500366e-03 1.89663749e-03 8.83614086e-03 1.07503338e-02
      7.96411373e-03 3.05976300e-03 -1.01193208e-02 -1.42510291e-02
      -1.60414856e-02 -1.06473011e-03 3.95870861e-03 2.70624668e-03
      5.51111531e-03 8.96073598e-03 2.44406774e-03 9.86865489e-04
      -9.47227294e-04 -1.32440624e-03 4.08513518e-03 4.21802560e-03
      -6.23358926e-03 -1.29705830e-03 2.24489416e-03 -1.63832924e-03
      3.62646271e-04 -2.32050684e-03 -4.89459373e-03 3.25386762e-03
      -2.32966081e-03 -5.90413576e-03 1.56390527e-03 2.64430256e-03
      1.40581935e-04 1.84159994e-03 -1.03873760e-03 -1.11580221e-03
      3.80736950e-04 -4.48830985e-03 3.59100173e-03 5.79410093e-03
      6.29602605e-03 1.96023425e-03 2.23149033e-03 -6.70503941e-04
      3.45166889e-03 6.96598692e-03 5.86175406e-03 6.99176337e-04
      -1.04021368e-04 1.20448135e-03 -1.76288377e-04 6.85491506e-03
      1.55069993e-03 1.96038443e-03 3.88981774e-03 4.20022942e-03
      -6.25591865e-03 1.02406426e-03 1.52855949e-03 2.19735055e-04
      4.66087274e-03 -1.05277495e-03 -8.85452482e-06 -2.52837199e-04
      -6.11188868e-03 -2.08243262e-03 1.13698807e-04 7.35932845e-05
      -5.84683448e-06 -5.80159016e-04 -2.56332482e-04 -4.98500594e-04
      -3.22217331e-03 -5.46283601e-03 3.55717214e-03 -1.82330306e-03
      2.11387975e-04 8.15003950e-05 2.79684947e-03 7.40158313e-04
      2.96252081e-03 4.82960371e-03 5.58865815e-03 -1.95224478e-03
      2.67504738e-03 8.32208607e-04 -1.55249459e-03 6.12106454e-03
      -1.07897457e-03 -1.24994281e-03 -4.75619949e-04 -3.89704853e-03
      -2.76420498e-03 8.62660381e-05 6.19932616e-05 9.03990367e-05
      -2.65875459e-03 1.09621105e-04 -8.48094933e-05 -2.58545537e-04
      -2.59226910e-03 -1.34441641e-03 1.36269559e-03 3.12718633e-03
      1.13298267e-03 -4.87035111e-04 -1.74261362e-03 -3.15535028e-04
      -1.62317045e-03 -1.78883830e-03 -4.55404306e-03 5.45311440e-03
      7.90119357e-03 3.09789495e-04 1.80133129e-03 -2.98384664e-04
      -5.21077728e-03 -6.99687237e-03 -7.98547361e-03 7.88119063e-03
      1.19415028e-02 1.21787116e-02 1.05478652e-02 5.13445819e-04
      3.56394309e-03 8.53035541e-04 1.33912161e-03 6.85843639e-03
      1.24146591e-03 1.55222556e-03 3.14845727e-03 1.18239073e-03
      2.94358470e-04 2.54783168e-04 2.16030676e-04 -3.72324808e-04
      2.45373114e-04 1.00554083e-03 -3.45072011e-04 2.70201708e-03
      -2.55052582e-03 -2.83258129e-03 1.29270717e-03 1.17754236e-04
      1.08410744e-03 1.23945443e-04 4.21143603e-03 6.01804210e-03
      4.81864251e-03 1.71473844e-03 2.61251023e-03 1.98736158e-03
      -2.81685381e-04 -1.05110812e-03 6.33310934e-04 3.55923269e-03
      3.58598400e-03 6.16475195e-03 5.46941487e-03 1.08779455e-02
      1.49891785e-05 1.50130771e-03 3.15433252e-03 6.45406032e-03
      1.28623634e-03 1.10298069e-03 3.43494443e-03 1.30454381e-03
      3.67876462e-04 2.68328050e-03 3.07393703e-03 2.47996277e-03
      2.89551704e-03 -7.51223229e-03 3.78949405e-03 7.86051899e-03
      2.16343743e-03 2.83950381e-03 -2.66429363e-03 1.08249362e-04
      3.28792748e-03 -4.64796321e-03 1.90127618e-03 3.20212869e-03
      3.80475726e-03 -1.41637225e-03 1.80210674e-03 -1.34369161e-03
      9.83437174e-04 2.35191826e-03 2.55745440e-03 -1.06238378e-02
      4.54442482e-03 5.32248802e-03 6.20197039e-04 4.85687098e-03
      3.68874660e-03 4.32298658e-03 3.82215809e-03 -9.81859490e-03
      -1.32732361e-03 2.81534740e-03 1.92399661e-03 1.64251670e-03
      -6.75334886e-04 -2.72447616e-03 -3.02432175e-03 -5.81347710e-03
      -5.64431166e-03 3.49521125e-03 1.13063930e-02 8.42615589e-03
      5.66787133e-03 -9.35912132e-03 -1.07134338e-02 -1.53078409e-02
      -8.91570468e-03 -1.26711803e-03 1.40298146e-03 9.85704595e-04
      2.24298169e-03 2.02189200e-03 -1.25997153e-03 -4.37492318e-03
      -3.79830482e-03 -9.02430434e-03 -1.60857325e-03 1.64304383e-03
      7.30866985e-03 6.92323223e-03 5.65008493e-03 -1.18976263e-02
      -1.17591508e-02 -1.39427949e-02 -7.50802225e-03 -2.54642731e-03
      1.91603834e-03 1.37457484e-02 1.53204259e-02 7.50637800e-03
      -1.94415431e-02 -8.61015543e-03 -1.03504267e-02 -5.04597789e-03
      -1.18496385e-03 2.73142476e-03 6.57698698e-03 1.21111535e-02
      5.10463072e-03 4.09433385e-03 -2.85599357e-03 -2.23123282e-03
      3.55354999e-03 2.65013031e-03 4.00329567e-03 6.41813455e-03
      1.22527126e-02 3.60517832e-03 -2.94268746e-02 -1.14285136e-02
      -7.81256147e-03 -2.18471698e-03 2.26518046e-03 -1.27025787e-03
      3.41356383e-03 1.18797133e-02 1.39471667e-03 -5.01573831e-03
      -3.56772891e-03 -8.13446168e-05 -7.37464812e-04 -3.32264812e-03
      -3.78742069e-03 5.75065205e-04 7.08845863e-03 -3.54873715e-03
      -5.13390347e-04 -2.59209919e-04 -1.60474458e-03 -4.92673367e-04
      -3.91521398e-03 -4.33129678e-03 1.18488923e-03 4.28573368e-03
      1.46905577e-03 7.43797002e-03 2.65842443e-03 3.79490806e-03
      4.44123335e-03 -6.00186409e-04 8.51740886e-04 3.91359488e-03
      8.96646082e-03 7.11009721e-04 -5.68955252e-03 -7.21810386e-03
      -1.79773208e-03 -2.28434638e-03 -6.64533814e-04 4.15643724e-03
      4.07521613e-03 5.21632936e-03 6.44220179e-03 5.30609116e-03
      1.09697424e-03 3.01708211e-03 5.83870476e-03 7.37959566e-03
      4.61061718e-04 1.70363009e-03 1.25793985e-03 8.18135974e-04
      3.74276307e-03 2.26859935e-03 2.19671661e-03 3.22859152e-03
      8.42383073e-04 1.00673339e-03 4.42119315e-03 1.62358896e-03
      -2.40100664e-03 -6.18957158e-04 -8.74839548e-04 -1.23761862e-03
      -1.49623611e-05 -1.65660609e-03 -4.11074579e-04 3.06176441e-03
      6.33088779e-03 5.63286105e-03 -9.53565526e-04 4.72840946e-03
      2.46308465e-03 6.07164344e-03 -5.56197250e-04 -5.02957636e-03
      9.98990145e-03 6.71545882e-03 7.59203592e-03 4.82188398e-03
      1.90287712e-03 2.56553409e-03 2.47956812e-03 -7.41935149e-03
      1.52751303e-03 3.62473796e-03 4.91672475e-03 6.93162961e-04
      2.70992867e-03 -1.15282106e-04 -1.58380053e-03 4.47080616e-04
      -5.86992246e-04 3.51932831e-03 3.61273484e-03 3.67880566e-03
      5.62465098e-03 3.60132521e-03 2.74051609e-03 -1.46810908e-03
      7.17375427e-04 2.64477264e-03 1.29796134e-03 3.86272208e-03
      5.18603483e-03 2.03502178e-03 5.85094281e-03 6.20459300e-03
      6.73299981e-03 5.58310002e-03 -1.68964919e-03 8.49512056e-04
      2.05630995e-03 1.57741876e-03 8.10416322e-03 1.17522236e-02
      3.83325177e-03 -1.88837724e-03 -5.35402680e-04 -3.38545186e-04
      4.35451465e-03 4.73006396e-03 4.02279478e-03 4.81096935e-03
      6.80813426e-03 2.81469035e-03 -6.92948699e-04 3.74456373e-04
      3.16050276e-03 4.51336760e-04 5.42349089e-03 9.84493364e-03
      8.82892869e-03 8.91944859e-03 3.09188850e-03 5.91926975e-03
      1.47128431e-03 3.48443020e-04 -4.08135634e-03 7.23336649e-04
      3.05607170e-03 1.87701965e-03 1.03046736e-02 4.64426540e-03
      1.11979793e-03 -1.77800702e-03 -5.40535571e-03 -8.76331795e-03
      2.88748438e-03 -3.20221484e-03 -2.14980775e-03 7.51216710e-03
      6.86476892e-03 4.51891590e-03 -2.01457576e-03 -8.93862639e-03
      9.48423613e-03 7.27074919e-03 5.37113007e-03 4.78070229e-03
      7.34910183e-03 -1.77660593e-04 3.27838236e-03 2.25057127e-03
      7.15486892e-03 3.04217590e-03 5.01260953e-03 6.37280988e-04
      -2.47809500e-03 -3.95837193e-03 3.29568866e-03 3.18141794e-03
      3.63291218e-03 2.65914993e-03 -1.06416002e-03 1.48849352e-03
      5.92118595e-03 5.48768369e-03 9.33900883e-04 5.00505278e-03
      2.37461831e-03 -1.78071600e-03 -1.81605446e-03 -9.93889663e-03
      -8.63276236e-03 -1.91790294e-02 -1.44483000e-02 -1.33683421e-02
      2.48501170e-03 3.55707924e-03 1.63784937e-03 -7.39305792e-03
      5.93311479e-03 -4.38214396e-04 -4.47860127e-03 -1.79043249e-03
      2.48919521e-03 -6.48352492e-04 8.08048993e-04 2.12118099e-03
      6.48963312e-03 9.14871786e-03 4.52537369e-03 4.44399007e-03
      1.11454027e-03 -8.06828123e-03 -1.02432407e-02 -4.05825628e-03
      1.59847783e-03 9.18017142e-03 -1.48009555e-03 -9.02980391e-04
      -5.41266892e-03 -2.24384991e-03 -1.83276378e-03 -5.33938222e-03
      -6.11247495e-03 -3.08215502e-03 -2.58855987e-03 -9.11440933e-04
      -3.28498776e-04 7.98577603e-05 1.35671056e-03 -1.23179881e-04
      -2.81312992e-03 -8.97733436e-04 1.11903483e-03 1.10549340e-03
      3.75374593e-03 5.29239327e-03 6.31961413e-03 2.34625046e-03
      -7.93049112e-03 -5.37938718e-03 3.01089254e-03 2.65190797e-03
      3.98231205e-03 -1.48692844e-03 4.37940098e-03 7.06953183e-03
      2.10672515e-05 1.96658913e-03 -2.09341617e-03 3.39405518e-03
      -6.06169691e-04 -3.43063846e-03 -3.14685935e-03 3.26548517e-03
      2.72909791e-04 8.67324008e-04 1.56921381e-03 -2.17626500e-03
      -4.27251309e-03 -2.45947973e-03 -3.40409880e-03 -7.18963332e-03
      9.36244789e-04 2.31714593e-03 -7.50023522e-04 5.87862730e-03
      8.00190901e-06 -3.41185252e-04 -3.49262264e-03 -1.02814287e-02
      2.40504349e-04 4.67775669e-03 3.94986011e-03 -4.85527416e-04
      -9.59714176e-04 -1.75825681e-03 -8.86990747e-04 -6.11148571e-05
      -3.35262623e-03 4.99314023e-03 4.50595981e-03 5.85748395e-03
      3.87970312e-03 4.55152476e-03 7.85587705e-04 2.18646065e-03
      2.56479927e-03 2.10569915e-03 -1.22531513e-02 2.04528961e-03
      5.90076018e-03 8.43151298e-04 7.60376547e-03 -8.82761902e-04
      -2.38228496e-03 -5.87247172e-03 -1.23434924e-02 -2.50642863e-03
      3.85377556e-03 7.13440869e-03 1.00043081e-02 6.26320066e-03
      -3.37806577e-03 -4.59227525e-03 -1.06460415e-03 -1.65560225e-03
      2.38036434e-03 1.98988919e-03 1.33834768e-03 3.82863870e-03
      3.14522738e-04 5.90754615e-04 4.64091543e-04 1.76088419e-03
      3.65578220e-03 2.91815423e-03 5.49833896e-03 3.15363961e-03
      2.19209283e-03 -1.35902595e-03 1.47163414e-03 1.99677213e-03
      9.82608530e-04 2.80238595e-03 7.69378385e-03 9.15968884e-03
      1.36628924e-02 6.89731073e-03 -1.06412079e-02 -9.63545591e-03
      -1.62218977e-02 -8.15590099e-03 3.15352925e-03 7.15335784e-03
      4.82647354e-03 7.90289417e-03 2.30103382e-03 -2.81683891e-03
      2.85006361e-04 9.39504884e-04 5.08001354e-03 6.72714459e-03
      1.41790032e-03 5.59058506e-03 6.04672870e-03 2.93492386e-03
      6.19627023e-03 1.75539707e-03 2.36248015e-03 1.71123154e-03
      2.78473832e-03 2.24893074e-03 1.84926402e-03 3.70954396e-03
      1.52194744e-03 5.05582569e-03 1.58115558e-03 -1.05187506e-03
      -2.11904966e-03 -8.27789772e-04 4.42839088e-03 6.05738303e-03
      8.89704190e-03 -5.57661697e-04 -4.96391614e-04 -1.12830370e-03
      7.66342710e-05 3.77964880e-03 5.35657862e-03 -5.84380003e-03
      -6.44618040e-03 -2.60757469e-03 -1.28905699e-02 -1.05685955e-04
      4.26767673e-03 2.97085062e-04 -5.58852218e-04 -3.81489191e-03
      3.56730446e-03 5.79825277e-03 1.03379264e-02 3.96460900e-03
      6.98046293e-03 2.15548906e-03 -5.49568387e-04 -2.94196396e-03
      -3.28121423e-05 -2.38281582e-03 2.78103305e-03 2.60930764e-03
      2.47995602e-03 7.77691836e-03 3.27487709e-03 1.16241525e-03
      -1.76463975e-03 -2.29616952e-03 -2.91807367e-03 3.87052563e-03
      -3.52229486e-04 -4.16282937e-03 -1.72971224e-03 3.28320381e-03
      3.01260152e-04 -5.30160032e-04 -2.11735675e-03 -1.17624020e-02
      -8.38603079e-03 -9.64938942e-03 -1.62404925e-02 -1.72124093e-03
      2.97717750e-03 6.67321947e-05 1.01617398e-03 -6.12071808e-03
      -3.13301338e-03 2.36981636e-04 3.28196934e-03 6.82446966e-03
      2.16580252e-03 4.30058641e-03 1.98901934e-03 -2.13298923e-03
      -1.68252143e-03 -4.49053338e-03 -4.82100993e-03 -1.31184040e-02
      -1.16225854e-02 -5.70739247e-03 1.45795906e-03 2.22223601e-03
      3.81084828e-04 1.10247999e-03 -7.74130551e-03 -5.80850337e-03
      -1.28232129e-03 -6.13778690e-03 3.63739533e-03 2.54286360e-03
      1.31332001e-03 2.99422885e-04 -2.36086105e-03 -6.92247320e-03
      -4.56267269e-03 -7.42735621e-03 -8.66804644e-03 -4.10438050e-03
      2.02068104e-03 1.76091201e-03 6.29419519e-04 -2.06605112e-03
      -1.38443778e-03 2.01483534e-04 -1.83208275e-03 -4.12905542e-03
      -2.56682327e-03 8.38661916e-04 -3.05287016e-04 9.71811241e-04
      1.91512911e-04 2.71851290e-03 3.61709506e-03 -1.47438375e-03
      -5.26591204e-03 -4.48719459e-03 4.49735019e-03 7.31934980e-03
      3.09954770e-03 3.52616445e-03 8.51429650e-04 3.94313503e-03
      3.29957367e-03 5.82206878e-04 7.55306028e-05 -3.70477297e-04
      3.73659626e-04 -1.51825068e-03 -3.40197771e-03 1.80288020e-03
      -3.00385198e-03 2.94184405e-03 5.15988504e-04 -1.28977699e-02
      2.17112992e-03 5.38337161e-04 -1.38961594e-03 2.91479216e-03
      4.67356341e-03 5.34009561e-03 2.68090516e-04 -3.55303637e-03
      -9.70773090e-06 3.02881678e-03 5.84505452e-03 2.81942170e-03
      4.40889690e-03 -2.34790007e-03 1.76215239e-04 -5.18825231e-03
      -1.19896280e-03 -1.12340064e-03 1.58627005e-03 1.45492190e-03
      1.24051631e-03 -3.51892621e-03 2.18483340e-03 -3.27321072e-03
      -2.95893289e-03 -5.65503724e-03 -7.07598822e-03 1.33906619e-03
      4.57257824e-03 2.20768875e-03 4.68133221e-04 -3.62841506e-03
      -5.70830563e-03 -7.71879964e-03 -9.02606174e-03 -7.10202847e-03
      1.77522120e-03 2.56555364e-03 1.24903908e-03 -2.10661488e-03
      -1.51990535e-04 2.17459141e-03 -1.17987010e-03 -6.42726023e-04
      -7.11129629e-04 -1.07649213e-03 -2.23018113e-04 2.69155786e-03
      -2.66614719e-03 2.75602611e-03 6.44443138e-03 1.16070919e-03
      -4.24337713e-03 -6.07105484e-03 -4.26618988e-03 -2.92180432e-03
      1.06605503e-03 -1.52743218e-04 -1.22377253e-03 -2.98473309e-03
      -5.60716260e-03 -6.51744334e-03 -1.69953611e-03 4.46025108e-04
      3.84142622e-04 1.45609351e-03 2.99446663e-04 -1.29765140e-05
      -5.34865598e-04 -5.08373370e-03 -4.84936684e-03 -1.65775535e-03
      -9.19148093e-04 -4.75266809e-03 -1.23751885e-03 -2.84424098e-03
      -1.24063590e-04 1.97508303e-03 -3.23665468e-03 -6.87171752e-03
      -1.27767595e-02 -2.06294074e-03 -3.36713390e-03 -8.61855515e-05
      1.82862417e-03 6.98171416e-03 4.63874312e-03 1.70861639e-03
      -7.00655975e-04 -3.90800834e-03 -2.15954334e-03 -1.75155106e-03
      1.68253342e-03 5.85035048e-03 1.90300099e-03 2.14574300e-03
      -1.31633494e-03 -4.96559916e-03 -5.13597904e-03 -1.21723348e-03
      -3.95228947e-03 -1.99123169e-03 -1.42653170e-03 -9.92050045e-04
      4.73745540e-03 3.77155840e-03 1.90262496e-03 6.33935095e-04
      -1.62209733e-03 -4.88029281e-03 -4.13600774e-03 -3.89450486e-03
      -2.07014324e-04 9.08256415e-03 3.17014474e-03 -1.68201898e-03
      1.18177361e-03 -2.66752765e-03 -2.00592374e-04 3.11893411e-03
      -7.70240265e-04 4.42692917e-03 7.57103134e-03 7.64608290e-03
      1.47875829e-03 7.02279713e-03 -4.86932928e-03 4.83331131e-03
      -1.75166671e-04 1.00652280e-03 -3.19006271e-03 3.03578819e-03
      3.45082115e-03 1.65385671e-03 2.42058979e-03 -6.41466526e-04
      -4.17658919e-03 -4.04072879e-03 -5.26487082e-03 -3.77310417e-03
      6.61568702e-05 1.92652445e-03 8.43040820e-04 4.46387520e-03
      2.47767985e-05 -1.51253596e-03 -1.73180841e-03 -6.57379162e-03
      5.99521725e-03 4.59990930e-03 3.84814432e-03 4.69812629e-04
      6.98072603e-03 -3.62146134e-03 -1.13815768e-03 -1.41068141e-03
      4.25559096e-03 4.17779433e-03 1.06924237e-03 -2.12499523e-04
      -1.00348087e-03 8.62981752e-03 1.61538378e-03 -2.97495979e-03
      -1.27151643e-03 5.88192744e-03 -5.52252308e-03 -1.00534188e-03
      3.46419110e-04 1.89291488e-04 3.63102090e-03 -2.97369232e-04
      -2.22687097e-03 -1.91651343e-03 -7.60546839e-03 -7.89217558e-03
      -3.43439984e-03 -2.86756526e-03 9.94320842e-04 4.56623733e-03
      7.88498437e-04 -5.43646223e-04 -1.66826393e-03 -1.09036220e-02
      -2.00898713e-03 -3.22006247e-03 -3.72777740e-03 -9.83552774e-04
      6.28207065e-03 5.16605470e-03 6.40468439e-03 3.79549060e-03
      4.24484402e-04 -7.94004300e-04 -2.68584641e-04 -1.01503602e-03
      -7.50024396e-04 1.55543233e-03 1.06670300e-03 5.92614710e-03
      5.13895135e-03 1.10545964e-03 -7.33148167e-03 8.15527819e-05
      -1.73133926e-03 1.17671807e-04 3.48357786e-03 -6.20229519e-04
      4.73869266e-03 -1.50935404e-04 -8.69235396e-03 -7.00507779e-03
      3.94647388e-04 -1.19210454e-03 -1.09365166e-04 -2.07357667e-03
      -7.18179811e-03 -5.10985148e-04 -2.82688555e-03 -9.83564276e-03
      1.09821442e-03 6.86309254e-03 4.56887297e-03 3.15731950e-03
      6.81732083e-03 5.95569378e-04 -1.08970259e-03 -1.32022193e-04
      -5.67009207e-03 3.02431756e-04 -4.89346603e-05 3.40827578e-03
      -1.17601734e-03 -1.13031594e-02 2.99430708e-03 -3.27899936e-03
      -3.12861963e-03 -2.40762788e-03 3.11415386e-03 6.44111028e-03
      4.69136937e-03 1.83244841e-03 1.21540427e-02 3.98807740e-03
      3.67346476e-03 4.61831456e-03 7.14121503e-04 -5.23473718e-04
      5.01119252e-03 1.37021602e-03 -4.75511741e-04 -1.05710644e-02
      9.79295117e-04 6.90100016e-04 1.87125057e-03 -3.03186500e-03
      2.07811152e-03 7.51320506e-04 2.13662279e-03 -5.15904231e-03
      -5.66553976e-03 2.16061366e-04 6.96705072e-04 -4.23428253e-04
      -1.68110372e-03 -1.60378893e-03 -4.70574154e-03 -6.80500455e-03
      -6.04951568e-03 -8.21686164e-03 -1.05342944e-03 2.49739911e-04
      1.91618316e-03 -4.14000032e-03 5.19094011e-03 4.95489081e-03
      -3.65266413e-03 -3.30861239e-03 -1.26311379e-02 -1.56261449e-04
      1.30669563e-03 1.07286335e-03 5.02351578e-03 2.59136572e-03
      1.72846904e-03 -1.66806462e-03 -3.03442823e-03 -9.07677971e-03
      -9.52913892e-04 -1.60015468e-03 -4.01010877e-03 -1.92428671e-03
      3.35297221e-03 -1.59892981e-04 -3.43344896e-03 -6.08038157e-03
      -8.48028809e-03 -1.93355640e-03 6.86112035e-04 -3.09743430e-03
      3.29966133e-04 -1.38333905e-03 -8.40764667e-04 -5.44819329e-03
      -4.58218344e-03 -1.25316408e-04 4.08031861e-04 -4.84582735e-03
      -4.37706755e-03 -4.86355694e-03 1.65095646e-03 1.46085315e-03
      -3.95264057e-03 -3.99031537e-03 -1.02073187e-02 -2.70400173e-03
      -1.03451265e-03 -5.68600046e-03 -1.85984522e-04 -1.68410875e-03
      -3.34924203e-03 -6.55382825e-03 -1.06167991e-03 8.43529881e-04
      2.52700131e-03 9.06242582e-04 -3.29678343e-03 -2.57191015e-03
      2.20472677e-04 2.24180217e-03 -7.42481602e-03 -4.96708229e-03
      5.23291761e-04 9.23709944e-04 -8.72989837e-03 -9.62683372e-03
      -4.39296523e-03 -6.17616763e-03 3.20613245e-03 1.31574657e-03
      1.17148005e-03 -1.21006696e-03 -2.83650844e-03 -7.66508654e-03
      -9.26992390e-03 -8.61657038e-03 -5.95096964e-03 -5.14825713e-03
      -8.18371773e-03 -2.08333181e-03 5.45314001e-03 5.84948296e-03
      -2.02111341e-03 -3.65331094e-03 -5.63144265e-03 -1.83659227e-04
      -9.27718764e-04 -1.96551532e-03 -1.57104246e-03 -2.20135180e-03
      -1.59686594e-03 -1.64618215e-03 -1.34271639e-03 -7.68261729e-04
      -2.10470357e-03 4.77718888e-03 -1.62115833e-03 -4.52633854e-03
      -3.60731618e-03 -2.46630423e-03 -3.14760581e-03 -3.86204943e-03
      -4.00173198e-03 4.26617824e-03 -5.73449768e-04 1.22015108e-03
      8.07813019e-04 -2.28530145e-04 9.16444231e-04 -9.20867838e-04
      -1.61919161e-03 1.86573598e-03 -5.32400794e-04 7.01554527e-04
      -2.37193075e-03 -2.56027584e-03 -1.77457894e-03 -2.13418459e-03
      -1.33660086e-03 -2.14760378e-03 -1.35566725e-03 5.74001169e-04
      2.11862475e-03 1.25755777e-03 -9.75569827e-04 1.17279775e-03
      7.69512320e-04 -1.08203079e-04 -1.42918536e-04 1.08347449e-04
      -2.04671803e-03 -6.21267420e-04 -3.55863129e-04 -1.53758847e-05
      2.67942809e-03 -1.94023989e-04 -2.01167888e-03 1.03057933e-03
      -3.60851525e-03 -9.94351506e-03 -2.77237385e-03 -3.21770762e-03
      2.72971723e-04 1.22790853e-03 -1.01334332e-02 -1.35277223e-03
      2.93980888e-03 -1.25648966e-02 8.15617605e-05 3.04774236e-04
      -3.64349398e-04 -1.61949557e-03 1.00383186e-03 1.19416439e-03
      2.33599823e-03 2.51236721e-03 2.81534049e-05 -1.06252579e-03
      -6.76388299e-05 -4.29485313e-04 4.80272778e-04 4.94694663e-03
      2.28072726e-03 5.79859409e-03 1.78683305e-03 -5.93206729e-04
      -6.31565554e-03 -5.78378560e-04 -2.28215684e-03 -1.27463706e-03
      9.20046121e-04 -1.28584146e-03 4.05916898e-03 -1.64373859e-03
      -7.94981699e-03 -1.15050806e-03 2.26854533e-03 6.01511507e-04
      -7.77459354e-04 -6.45324960e-03 -7.02647911e-03 -5.24484087e-04
      -8.45999573e-04 -3.31476703e-03 -4.92590661e-05 4.30974440e-04
      4.71136125e-04 8.72255361e-04 4.42242390e-03 2.56724586e-03
      4.10052948e-03 3.77294631e-03 1.49899232e-03 2.96243280e-03
      3.10550584e-03 -4.11248271e-04 3.65441083e-03 8.37749569e-04
      -1.70459284e-03 -4.79750684e-04 3.27428896e-03 7.68306432e-03
      -1.63723459e-03 4.57307231e-03 2.63461354e-03 1.90851034e-03
      9.79937054e-03 4.06633411e-03 2.99248891e-03 4.74296417e-03
      -2.21142499e-03 -1.77492236e-03 1.49611500e-03 -1.58185372e-03
      -1.07537396e-03 -9.19693732e-04 2.03455056e-04 4.85551514e-04
      1.56006427e-03 -9.14680772e-04 -2.83798552e-03 3.57023091e-03
      -3.55326891e-04 1.57938513e-03 5.03747864e-03 2.76443409e-03
      4.61350102e-03 -6.11695694e-04 -4.36957786e-03 -7.55087053e-03
      -3.22338380e-03 -1.60199567e-03 2.33111030e-04 -7.10921886e-04
      -3.47016193e-03 -1.03456872e-02 -1.06879873e-02 -1.24183428e-02
      -3.66859604e-03 -2.91652558e-03 -4.49866429e-03 -2.86688842e-03
      -8.39780550e-03 6.70148933e-04 -1.05287402e-03 -3.91649257e-04
      -1.47410913e-03 2.81811412e-03 7.50092382e-04 -5.22830198e-03
      -2.14199349e-03 -7.84133468e-03 -8.52750149e-04 2.96044542e-04
      -1.44745992e-03 2.71521253e-03 -3.38804978e-03 -4.27659228e-03
      -5.45273721e-03 -3.42920772e-03 -3.47087393e-03 -4.82132519e-03
      -8.39798991e-03 -5.83078107e-03 -5.01822634e-03 1.64039014e-03
      -8.16027969e-05 -4.22818260e-03 -5.13913762e-03 -6.46510115e-03
      -2.90885288e-03 2.08785641e-03 1.24692381e-03 2.10003089e-03
      4.83321445e-03 -1.24839856e-03 -3.72244394e-03 -3.77030531e-03
      -7.04909675e-03 -2.01887614e-03 -7.47380836e-05 -6.68433821e-03
      1.91445649e-03 -9.06486006e-04 -3.69697390e-03 -5.34215104e-03
      -2.58966582e-03 4.50594723e-03 1.35591734e-04 1.36537489e-03
      -5.57514885e-03 -3.10332887e-03 5.12857083e-03 1.06216315e-03
      -3.22407600e-03 -4.54730913e-03 -9.42368340e-03 -2.54919566e-03
      1.00438064e-03 -1.15518982e-03 3.90856899e-03 1.16223609e-03
      -1.21593347e-03 -2.16466584e-03 -5.13022496e-06 4.79586748e-03
      -8.77406506e-04 1.05667347e-03 -2.10312754e-03 -2.92064738e-04
      3.08683229e-05 -1.22585949e-02 -1.04201874e-02 -1.19914848e-03
      1.15290028e-03 4.69540805e-03 4.16224916e-03 -2.28068884e-03
      -2.86497455e-03 -4.48187254e-03 -1.73156545e-03 -3.84850567e-03
      -7.31512788e-04 -2.40335567e-03 -1.60226168e-03 -1.61908776e-03
      -1.48616778e-03 -3.09149385e-03 5.19146677e-04 -5.58850763e-04
      -5.66276605e-04 7.16380193e-04 3.10086273e-03 -3.09375301e-03
      -1.74808153e-03 -3.43382289e-03 -1.05113676e-03 6.75014977e-04
      2.13803389e-04 9.47653243e-05 1.62638549e-04 -1.29041739e-03
      -1.41542195e-03 -7.54931360e-04 -5.09578909e-04 7.78307556e-04
      -6.54776953e-03 -1.46402128e-03 -2.97310343e-03 -3.33009614e-03
      -3.89363640e-03 -6.09659401e-06 -4.52507084e-04 -5.10045094e-04
      -3.16658197e-03 -1.53462985e-03 1.73038186e-03 2.48294277e-03
      -8.97541933e-04 9.88673419e-04 1.79844897e-03 7.64601864e-04
      -6.05065143e-04 -1.89161790e-03 6.49249181e-04 7.85426586e-04
      9.68105218e-04 7.19390402e-04 -9.98567790e-04 -1.25460303e-03
      -9.04325512e-04 -7.13060959e-04 -2.04671815e-04 -4.97457164e-04
      2.54413637e-04 8.05260672e-04 5.93198696e-04 1.06511929e-04
      -8.16117099e-04 1.37620782e-05 -7.66044323e-05 -7.99535774e-04
      -1.32012577e-03 1.36107346e-05 1.06427318e-03 -2.43161106e-03
      -1.05303293e-03 4.33669862e-04 1.54979050e-03 5.64019356e-05
      -9.19436803e-04 -3.73464805e-04 1.50181862e-04 -3.03813868e-04
      8.75644328e-04 1.75090171e-02 6.26364490e-03 -5.05084114e-04
      -1.02375040e-03 -1.18769670e-03 -7.83920870e-04 2.68027419e-04
      4.19184420e-04 3.23149521e-04 -9.55478463e-04 -6.16214704e-04
      5.43919778e-05 -3.45625594e-05 -9.18830861e-04 3.34461755e-03
      1.86510588e-04 -2.19621302e-06 -2.68541160e-03 7.48469820e-03
      2.99867382e-03 4.11137100e-03 2.61064223e-03 1.79572881e-03
      -9.07832466e-04 3.83595179e-04 -7.08901207e-04 1.14322512e-03
      3.40440823e-03 5.30551653e-04 1.96279259e-03 4.08742251e-03
      1.14949618e-03 2.80669145e-03 -1.33427500e-03 -1.28061895e-03
      -1.23070076e-03 -3.35551891e-03 2.06364226e-03 -3.52272252e-03
      2.73904949e-03 4.53737378e-03 8.29079479e-04 -7.00589808e-05
      -4.34183312e-05 1.38908136e-03 4.02196590e-03 3.39913997e-03
      3.74408788e-03 3.56012792e-03 1.00860349e-03 6.31329184e-03
      -3.67447617e-04 4.63785185e-03 9.56193823e-03 -1.44376198e-03
      -2.38115410e-03 -1.72733841e-03 2.11309572e-03 5.42779593e-03
      -3.58837191e-03 3.08579556e-03 5.09307021e-03 2.68988870e-03
      7.06137205e-03 1.05871761e-03 1.52648496e-03 -1.52277667e-03
      -7.36066559e-03 -6.75193500e-03 2.56767962e-03 5.09322435e-03
      -1.33336242e-03 -2.48192274e-03 -6.93929708e-03 -1.17906770e-02
      -1.26117961e-02 -1.33624328e-02 7.85762072e-03 5.21794241e-03
      8.08472559e-03 6.43364061e-03 8.57001822e-03 -8.30357254e-04
      -1.68815779e-03 -1.62280130e-03 -6.72406386e-05 9.17748723e-04
      9.24178027e-03 5.71622327e-03 6.49729045e-04 -3.64145986e-03
      -5.87084563e-03 -7.89269246e-03 -6.55962666e-03 -7.13021029e-03
      -3.14097409e-03 2.38962215e-03 5.00788214e-03 -2.57645792e-04
      -4.29133233e-03 -6.69920398e-03 -1.03354985e-02 -8.95055663e-03
      -8.76871590e-03 -1.13779027e-03 3.79619523e-05 -9.12568474e-04
      -4.69812751e-03 -4.84842621e-03 -4.42060735e-03 -8.09649297e-04
      -7.58433482e-04 -2.16334639e-03 3.10915732e-03 8.42772424e-03
      2.58130534e-03 -2.75995024e-03 -4.47422359e-03 -1.02234045e-02
      -9.56667587e-03 -7.66392192e-03 -1.85764872e-03 -1.35980756e-03
      2.92811939e-03 2.49120616e-03 -1.79943730e-04 -9.21076816e-03
      -3.84232355e-03 -2.88513373e-03 -1.06196792e-04 -2.32955324e-03
      -2.58339616e-03 -6.20919373e-03 -1.33161165e-03 -4.77013458e-03
      -6.19321479e-04 -1.18911476e-03 2.43301573e-03 3.33142607e-03
      9.69565473e-04 2.98533565e-03 9.73493268e-04 2.40187184e-03
      2.01487169e-03 4.87614842e-03 -1.03571685e-03 1.34415494e-03
      2.91565011e-05 2.59800861e-03 1.00435002e-03 1.56757643e-03
      -3.03927518e-04 1.54019240e-03 -2.00740416e-02 -5.18182199e-03
      -8.54972226e-04 -1.07210176e-03 -1.27440074e-03 -1.30176067e-03
      1.64386153e-03 3.11262044e-03 2.65662814e-03 1.58031890e-03
      -7.97038025e-04 -1.81134918e-03 -2.19150167e-03 -3.59610654e-03
      3.30963382e-03 3.50297755e-03 6.94782659e-03 6.79228734e-03
      9.29458160e-03 -7.82189716e-04 1.16929717e-04 -6.69279078e-04
      3.13244155e-03 2.21874856e-04 1.08492000e-04 6.33758318e-04
      6.92859830e-05 1.59548126e-05 -8.81612767e-04 -4.41495562e-04
      -5.02117677e-04 -6.84339378e-04 -3.23791848e-03 1.48733007e-03
      2.47994275e-03 -8.77926359e-05 9.17402003e-03 1.54420733e-03
      -4.05893894e-03 -4.92666382e-03 -3.91867338e-03 -2.74871383e-03
      1.44984268e-04 -3.97668482e-05 -1.67999839e-04 -3.26801999e-03
      -2.95073329e-03 -2.73611257e-03 -2.84352363e-03 -4.38456284e-03
      1.78290275e-03 0. 3.54932825e-04 6.05390058e-04 -1.36231747e-03
      -1.52812956e-03 -1.93214204e-04 -2.58099812e-04 9.63040744e-04
      1.37642957e-03 1.30267290e-04 9.40275029e-04 8.53681471e-04
      6.69565750e-04 -1.97604211e-04 7.27186736e-04 9.54124029e-04
      1.34496647e-03 -5.71938464e-03 1.48862280e-04 8.17769251e-05
      3.82751386e-05 -4.33339924e-03 -3.62439733e-03 -3.47783603e-03
      -3.53007717e-03 -5.92411682e-03 -1.66804262e-03 1.57698744e-03
      -1.54298614e-03 -1.22160956e-04 -4.34320467e-03 -1.54589186e-03
      -6.92297763e-04 -1.29173021e-03 -3.73576046e-03 3.05165799e-04
      2.02968906e-04 1.36642985e-03 1.25605322e-03 3.29937931e-04
      -1.11975020e-03 -4.91302751e-04 -5.19120309e-04 -6.61212325e-05
      -1.32953434e-03 8.03358969e-04 -1.10189151e-03 -1.10931159e-03
      7.05860183e-03 3.61112365e-03 5.18636545e-03 3.57780443e-03
      -5.31064055e-04 -1.05663421e-05 -1.00988534e-03 2.85283255e-04
      1.82033415e-04 9.36482509e-04 -3.55297787e-04 1.11341331e-04
      2.61816778e-04 1.32748531e-03 -6.03888044e-03 -5.67300420e-04
      -2.98491376e-03 -7.84109812e-03 1.17028113e-02 1.67483988e-03
      1.59485987e-03 2.54205172e-03 2.01944355e-03 1.02719838e-04
      3.09924741e-04 1.36566930e-03 -2.73021200e-04 3.14632966e-03
      3.45229334e-03 4.42923279e-03 2.22547003e-03 -7.94816355e-04
      1.16102584e-03 1.91093155e-03 7.38713844e-03 1.09807467e-02
      -1.06761539e-02 -6.80040754e-03 -2.77531403e-03 -3.48822773e-03
      -7.79778464e-04 -2.82657309e-03 -2.02981522e-03 -2.35249870e-03
      3.83817038e-04 4.79276385e-03 1.38879626e-03 2.64391466e-03
      2.06336685e-04 -6.86596031e-04 -7.89025985e-03 7.26494333e-03
      1.40889147e-02 1.48778101e-02 -3.49405408e-03 -2.22905772e-03
      1.36408766e-04 -6.53230818e-04 -5.38579980e-03 1.05110547e-02
      1.26601662e-02 1.08132437e-02 1.08654853e-02 1.02623357e-02
      -7.17275427e-04 -1.73728296e-03 -6.06646354e-04 5.29491063e-03
      3.67092062e-03 4.33828728e-03 -3.24740238e-03 -3.46552464e-03
      -1.42507059e-02 -5.74593805e-03 -7.30889849e-03 -3.20169539e-03
      -2.89402483e-03 5.12259197e-04 3.01723671e-03 3.77796940e-03
      7.32097682e-03 7.23254308e-03 1.07944000e-03 1.45785825e-03
      2.86520552e-03 -8.40816065e-04 3.14892875e-03 -9.50709818e-06
      -2.46967282e-03 -2.09943182e-03 -1.98162664e-02 -7.89451785e-03
      -8.16764403e-03 -4.60679550e-03 -7.22581695e-04 8.51348916e-04
      5.43583324e-03 -3.86838568e-03 -3.74164665e-03 -1.53570818e-02
      -6.80846209e-03 -6.75636251e-03 -3.51305027e-03 -4.19296836e-03
      -4.21948684e-03 1.48638594e-03 -6.69472793e-04 -2.37462996e-03
      -1.02474680e-02 -2.60255649e-03 -2.34511704e-03 4.91371728e-04
      -4.11037588e-03 -3.05558345e-03 -1.32973364e-03 -3.29674245e-03
      -2.56414921e-03 -1.52628338e-02 -7.39600649e-03 -6.81651942e-03
      -5.63897612e-03 -5.95526956e-03 1.75489625e-03 5.21302829e-03
      5.50847314e-03 6.45500404e-05 -3.58328200e-03 -7.28323415e-04
      1.05340779e-03 4.05616779e-03 3.81192751e-03 4.63171571e-04
      2.64799013e-03 -8.17777182e-04 -2.83468887e-03 -1.93213224e-02
      -4.54094959e-03 -3.28569161e-03 -8.36465741e-04 -3.17218294e-03
      -1.61194406e-03 1.56131631e-03 3.07937688e-03 2.11778772e-03
      8.32009071e-04 -2.75698886e-03 -3.32736294e-03 -3.98924388e-03
      -4.00273502e-03 3.01450887e-03 3.36447521e-03 6.13677641e-03
      -3.94464610e-03 -1.40123777e-02 1.91572169e-03 6.60053315e-03
      5.51273348e-03 3.38496384e-03 -3.01981065e-03 -3.73839936e-03
      -4.60171839e-03 -6.68926351e-03 -6.91487594e-03 1.09758950e-03
      2.40770471e-03 1.85612566e-03 1.26622224e-04 7.62065290e-04
      6.81533711e-04 1.70620182e-03 -5.46307943e-04 -4.59276838e-04
      1.15565979e-03 -3.04334704e-03 -3.06148920e-03 1.53422239e-04
      -3.93134588e-03 4.96168912e-04 2.06309211e-04 -4.35229509e-07
      -4.74121282e-03 -3.99343902e-03 -3.70721100e-03 -3.73656279e-03
      -4.34974814e-03 -1.16473502e-02 -4.35245689e-03 -2.82591092e-03
      -4.40261839e-03 -3.43725947e-03 2.76738266e-03 1.16699084e-03
      2.73638894e-03 -1.03413938e-02 -7.95791298e-03 4.20100521e-03
      5.92374243e-03 5.43575967e-03 3.92218615e-04 -1.51563378e-03
      -4.63391328e-03 -5.67639899e-03 -9.98848397e-03 -1.72340288e-03
      3.31529533e-04 5.86142531e-04 3.03848239e-04 -3.31582315e-03
      -2.27033743e-03 -2.46716873e-03 -2.23308988e-03 -2.56210123e-03
      -4.73473978e-04 1.68729387e-03 5.73063793e-04 -1.40153035e-03
      -1.42457627e-03 -1.28482748e-03 -5.62546600e-04 -7.25731079e-04
      -5.54364640e-04 -6.46609301e-03 5.29226894e-03 7.26221316e-03
      5.24250604e-03 -3.90921393e-03 -2.42713117e-03 -3.44091677e-03
      -4.49584238e-03 -9.57281981e-03 2.75234506e-03 5.89508517e-03
      5.38449362e-03 4.04087408e-03 4.43641702e-03 9.74958763e-04
      1.60031323e-03 -8.29847297e-04 3.66395642e-03 -1.88074214e-03
      8.75256155e-05 -1.07359083e-04 -1.77974405e-03 -1.71494600e-03
      -5.90490177e-04 3.53789277e-04 2.27954224e-04 -8.54449638e-04
      -4.87046177e-03 -5.80130424e-03 -3.87833640e-03 -4.20817407e-03
      3.20040830e-03 3.08334408e-03 2.89523229e-03 2.31091119e-03
      4.56274458e-04 4.34396463e-03 3.64753348e-03 3.74734774e-03
      1.75352849e-03 -1.96555676e-03 3.61394673e-03 5.39382827e-03
      2.66499445e-03 3.84585443e-03 -3.95126920e-03 4.49894788e-03
      5.46655897e-03 2.46831216e-04 2.96676299e-03 4.20784578e-03
      2.32680002e-03 2.01752223e-03 -2.82630534e-03 -5.02561778e-03
      -3.47497896e-03 1.44617120e-03 -7.22010445e-04 4.68096416e-03
      2.11938727e-03 2.41536833e-03 6.91025867e-04 -3.92548129e-04
      -1.64410584e-02 4.44621732e-03 8.10218882e-03 9.27178655e-03
      5.06494008e-03 1.27918564e-03 1.17209752e-03 2.13249959e-03
      -1.34781022e-02 -2.74162274e-03 5.39564295e-04 3.82167241e-03
      4.69128508e-03 6.74913358e-03 1.09711767e-03 1.10813405e-03
      5.89080679e-04 -1.41550705e-03 -1.93120999e-04 9.67978407e-03
      5.90291200e-03 2.94089154e-03 7.41756661e-03 7.40632601e-03
      8.51878244e-03 4.40003723e-03 -1.72771933e-03 -3.55104241e-03
      -8.99174251e-04 2.76568835e-03 3.17104487e-03 5.13127865e-03
      1.60425331e-03 2.73403130e-03 2.42485781e-03 -5.55061130e-03
      1.01059827e-03 2.69989995e-03 -5.18455461e-04 1.57689687e-03
      -1.26784602e-02 -1.09252920e-02 -9.79956798e-03 -9.23913624e-03
      -2.32438161e-03 -3.02422937e-04 4.02523158e-03 4.67689941e-03
      3.62375285e-03 5.18132932e-03 6.26800722e-03 5.48149971e-03
      4.74514905e-03 -1.22664904e-03 1.16614264e-03 8.56259651e-03
      3.23739648e-03 1.66046305e-03 -5.99327404e-03 -7.48767192e-03
      -5.29550668e-03 -3.03845596e-03 -8.34796752e-04 1.60167948e-03
      -2.10973364e-03 -2.77572544e-03 -3.40767275e-03 -1.25570791e-02
      -7.02063646e-03 -6.26618601e-03 -3.59082036e-03 -1.57555239e-03
      -2.53757671e-03 4.93828766e-03 3.45520373e-03 -1.67049631e-03
      -4.22971509e-03 -1.22605870e-03 7.92070990e-04 4.00717603e-03
      2.81507178e-04 8.70336592e-03 1.03817964e-02 4.84277913e-03
      8.12873186e-04 -6.30208245e-03 -6.79309480e-03 -3.52814188e-03
      -3.81432241e-04 3.52706900e-03 -1.39644917e-03 2.66699702e-03
      2.56848498e-03 3.65688442e-03 1.43881538e-03 -7.46876141e-03
      -3.57466470e-03 -8.43793896e-05 -1.37613690e-03 -7.62337819e-03
      5.74749029e-05 4.81036259e-03 -6.93297433e-03 -8.74946173e-03
      2.32982030e-03 3.44264670e-03 3.65483342e-03 6.99452416e-04
      3.78956844e-04 -1.29266863e-03 -3.28674307e-03 -5.53716579e-03
      -4.71863989e-03 1.98571803e-03 3.31436307e-03 2.98670609e-03
      1.06277561e-03 -4.62358305e-03 2.27534515e-03 1.25173049e-03
      4.13646502e-03 2.91301613e-03 5.27709315e-04 -6.72412105e-03
      -4.41484107e-03 -4.28607687e-03 3.64721497e-03 5.38927816e-05
      -2.26066587e-03 -3.78830521e-03 4.28548967e-03 5.83239249e-04
      3.26437899e-03 4.80626570e-03 -1.27770088e-03 -1.45508256e-03
      -1.55127270e-03 -3.41977482e-03 -3.83367972e-03 -3.77582968e-03
      1.31851342e-03 2.62297131e-03 3.32422135e-03 -1.68127473e-03
      -5.28327562e-03 7.11578934e-04 4.96567320e-03 7.41180032e-04
      -2.06246413e-03 -1.69798208e-04 -4.56565787e-04 -3.27800983e-03
      -1.02641732e-02 -7.02134287e-03 -1.76940078e-03 -5.51092206e-03
      2.90595839e-04 3.67230619e-03 1.23782654e-03 4.18185070e-03
      7.85298180e-03 -9.26235691e-03 4.04320098e-03 3.19070579e-03
      6.54979190e-03 5.93737746e-03 7.79926684e-03 1.99732254e-03
      3.64586734e-03 1.77104957e-03 -1.86402770e-03 -1.49662932e-03
      3.06189200e-03 6.63414132e-03 2.13188934e-03 -6.98244385e-03
      -1.60449732e-03 -1.43991341e-03 -3.37481871e-03 -7.44970096e-03
      6.09194860e-04 2.65181530e-03 3.22899455e-03 2.53294269e-03
      -1.99596211e-03 -4.92299092e-04 -2.57962238e-05 -1.64384162e-03
      6.89061766e-04 2.52918201e-03 -2.38199384e-04 1.56324368e-03
      7.54496141e-04 -2.61816807e-04 1.34847709e-03 1.84731546e-03
      5.85847301e-04 -3.17192893e-03 1.47516346e-02 8.10141023e-03
      1.31427599e-02 1.16674099e-02 -4.68090409e-03 -6.84739905e-04
      1.33215892e-03 6.49336260e-04 1.34997359e-02 2.23664474e-03
      1.73205056e-03 3.68421501e-03 2.05135276e-03 -1.07324345e-03
      1.41832326e-03 2.19203415e-03 1.28059136e-03 2.10485631e-03
      -3.80856101e-03 2.58782692e-03 1.02315666e-02 4.45197336e-03
      1.89171976e-03 2.00139964e-03 -1.62235997e-03 -4.37206763e-04
      -2.61413096e-03 5.49492100e-03 5.00881393e-03 9.33753327e-03
      9.19925328e-03 -6.16429432e-04 1.00499345e-03 1.79370213e-03
      5.04712283e-04 6.30971231e-03 4.51348431e-04 6.68090186e-04
      -4.15757764e-03 -5.49153192e-03 -1.94517965e-03 -1.52061589e-03
      -6.71729271e-04 -1.91329629e-03 -4.63991752e-03 -7.18243234e-03
      8.25523306e-03 1.49113992e-02 1.15678851e-02 8.15319736e-03
      2.51698634e-03 -1.57384109e-03 -4.38182877e-04 -9.04059224e-03
      3.04012815e-03 8.97322875e-03 1.46263372e-02 7.93212466e-03
      8.03081598e-03 4.62899450e-03 4.40916140e-03 1.41814235e-03
      7.55182642e-04 -1.67787180e-03 4.05749213e-03 8.92062380e-04
      2.52681272e-03 -2.80687981e-03 -5.26023470e-03 -5.70349814e-03
      -3.81655036e-03 -2.32572644e-03 -1.23964995e-02 -5.23258792e-03
      -4.11987567e-04 -2.63474742e-03 -1.66750327e-03 -2.07694946e-03
      -2.17336375e-04 -1.75042509e-03 -9.53260809e-03 2.74847634e-03
      5.20582031e-03 2.79599079e-03 9.59159224e-04 -5.93837351e-04
      6.14093337e-03 6.88770507e-03 8.75701383e-03 5.09069208e-03
      3.72079900e-03 1.10698799e-02 6.76977914e-03 1.43923576e-03
      -1.88617781e-02 -1.63773857e-02 -1.31839160e-02 -4.53187339e-03
      3.99137847e-03 3.71594564e-03 1.77542912e-03 2.88735889e-03
      5.16549160e-04 -3.87521321e-03 1.52463617e-03 -2.86492286e-03
      1.93181599e-03 3.11772013e-03 1.88378303e-03 1.37910864e-03
      1.94727979e-03 2.47175992e-03 -9.64283827e-05 -1.15420297e-03
      -6.93699438e-03 3.02716531e-03 1.45221199e-03 4.25266102e-03
      9.26202908e-03 4.66539618e-03 8.01375892e-04 -4.42003692e-03
      -6.57515740e-03 -5.66601800e-03 -1.40196597e-03 2.05706665e-03
      -5.75668132e-03 -3.03312601e-03 -2.42534839e-03 3.79129313e-03
      4.97759180e-03 -7.81485718e-03 -1.21921592e-03 -2.73965159e-03
      -6.85440470e-03 3.21758162e-05 -4.08362970e-03 -7.84133747e-03
      6.13382319e-04 3.98261938e-03 7.76951347e-05 8.17914843e-05
      1.47004938e-03 -2.60192854e-03 -6.46292744e-03 -4.83838096e-03
      -3.75435688e-03 1.65236206e-03 7.22030457e-03 -2.88736960e-03
      1.70658319e-03 4.76172613e-03 -5.95706562e-03 -6.61516702e-03
      -2.26086192e-03 -1.81697088e-03 3.34498007e-03 9.81586054e-03
      -3.74535937e-03 2.76812323e-04 -2.39601871e-03 -7.40064075e-03
      -3.21742101e-03 -4.14782204e-04 -2.91553908e-03 1.16456370e-03
      1.72053208e-03 -8.96322366e-04 -1.86926767e-03 -2.15238146e-03
      -6.32999418e-03 -4.62673418e-03 -6.24588132e-03 -5.93476510e-03
      2.79379566e-03 1.43537959e-02 -1.05638313e-03 7.45332474e-03
      9.29352175e-03 -2.16217013e-03 -2.57821102e-03 7.19248643e-03
      1.14413886e-03 7.00234901e-04 -7.04789627e-03 -1.12176454e-02
      -1.10816127e-02 -7.22855516e-03 -4.90401918e-03 5.02700859e-04
      -7.69440303e-05 -2.99623678e-03 2.08837935e-03 -2.56942725e-03
      -2.38008378e-03 1.88305406e-04 -1.08471292e-03 -1.85788714e-03
      5.46625676e-03 -7.67259218e-04 7.10303662e-04 2.17259373e-03
      5.37955528e-03 1.21973024e-03 3.73348081e-03 2.12642504e-03
      4.17717826e-03 -5.68464340e-04 7.32636359e-03 3.11976695e-03
      4.56467224e-03 -2.01220717e-02 -1.83960944e-02 -1.80730876e-02
      -1.45524470e-02 -3.81877669e-03 6.07131654e-03 7.21202651e-03
      7.29642902e-03 4.93111787e-03 -1.57745974e-03 -2.59139109e-03
      4.77574504e-04 -9.45495325e-04 6.41575176e-03 4.29700175e-03
      1.18043402e-03 1.20984868e-03 3.26423789e-03 6.01934269e-04
      4.55134752e-04 2.56842026e-03 1.62532367e-03 3.62457894e-03
      4.62461030e-03 4.18122113e-03 5.40752616e-03 3.42867197e-03
      1.83076656e-04 1.29171938e-03 3.13912355e-03 2.22800951e-03
      6.07269770e-03 1.57240906e-03 5.89958718e-03 7.16595259e-03
      1.18443579e-03 -5.50809596e-03 -5.91102475e-03 1.81710755e-03
      -2.18239333e-03 -1.05368008e-03 3.73378303e-03 2.32536183e-03
      2.81092105e-03 2.23737257e-03 -5.59214968e-03 1.08724204e-03
      6.78640185e-03 8.44978634e-03 1.90301542e-03 5.93989762e-03
      5.07482328e-03 8.37379228e-03 5.90554625e-03 -1.61177362e-03
      1.68790214e-03 3.14401183e-03 2.10247305e-03 6.90783467e-03
      7.28305988e-03 3.92151205e-03 -3.29659134e-03 4.77683905e-04
      6.27521193e-04 -6.94643124e-04 1.31793029e-03 8.15609412e-04
      5.85832819e-03 3.26338666e-03 -3.83158738e-04 -1.61344802e-03
      -7.50973355e-04 -6.27579167e-03 2.86896550e-03 8.76318011e-03
      1.03212893e-02 7.22715212e-03 1.93699682e-03 -1.39595689e-02
      -1.52380075e-02 -1.81692075e-02 -1.04752705e-02 1.04156684e-03
      2.95269606e-03 3.16605996e-03 5.38558327e-03 6.27962779e-03
      5.90142747e-03 4.34638793e-03 4.18823073e-03 8.25130846e-03
      -4.29693144e-03 -2.35666591e-03 -2.84037646e-03 2.05855398e-03
      -5.63860545e-03 -5.16381348e-03 3.15039681e-04 -2.29902356e-03
      2.92220036e-03 -2.66879727e-03 -1.77032012e-03 -3.59851075e-03
      -2.20730738e-03 3.27514741e-03 -6.58361660e-03 -8.16998631e-03
      -7.35437637e-03 -3.57893109e-03 -4.98361362e-04 -2.27994999e-04
      3.68363602e-04 3.60127678e-03 -5.95544744e-03 -2.75901379e-03
      -4.45648097e-03 -4.62226244e-03 2.65764003e-03 -7.56515074e-04
      -2.99980212e-03 -4.00783960e-03 -3.87794361e-03 2.68979790e-03
      4.51745372e-03 3.63364536e-03 -7.80825445e-04 6.30476791e-03
      3.85736092e-03 -4.64095239e-04 -5.67905023e-04 3.59390955e-03
      4.58059460e-03 2.93761701e-03 -2.34588096e-03 -1.26206886e-03
      7.86378793e-03 3.35358642e-03 9.37330711e-04 4.09220532e-03
      5.89670055e-03 1.37039705e-03 3.61286639e-03 8.28075456e-04
      2.74341030e-04 1.00403037e-02 6.41831942e-03 4.16777621e-04
      -2.59508751e-03 2.17809621e-03 2.92584463e-03 -1.44179823e-04
      -8.78913153e-04 -6.14493666e-03 6.75383210e-03 3.63942608e-03
      -1.58707774e-03 1.72626262e-03 3.61576863e-03 4.14416473e-03
      2.86779110e-03 -4.94872872e-03 -2.07249213e-05 -2.17802450e-03
      2.31689264e-04 2.77176080e-03 4.69974941e-03 6.91390038e-03
      5.04556578e-03 1.00887759e-04 -5.59547218e-03 -5.73679572e-04
      -4.15555993e-03 1.56413845e-03 -7.25001853e-04 6.17539336e-04
      4.38593142e-03 8.84307839e-04 -1.39035936e-03 -4.86475881e-03
      -4.73219436e-03 -6.64214883e-03 2.90409708e-03 1.51144597e-03
      2.02821870e-03 5.33116399e-04 -1.36442378e-03 -8.02216679e-03
      -1.27143404e-02 -7.71036837e-03 -1.19837690e-02 3.21555580e-03
      -9.03415552e-04 -7.91413058e-03 -2.56270496e-03 1.02075259e-03
      7.50008272e-04 -2.88491510e-03 -3.25582363e-03 -8.40845343e-04
      6.93145965e-04 -1.12915400e-03 3.31460079e-03 3.94323515e-03
      1.42758724e-03 3.47934081e-03 1.82820053e-03 -1.99647690e-03
      4.62241442e-04 -6.68206252e-04 -2.93099409e-04 3.70494468e-04
      5.92689076e-03 -2.36451160e-03 -3.49293021e-03 -7.29127927e-03
      -2.97647971e-03 -3.22724646e-03 3.42176226e-03 -4.31232294e-03
      -5.08740824e-03 -3.58891673e-03 -4.82103368e-03 1.75372732e-03
      3.69113608e-04 1.85072695e-05 -4.84562712e-03 6.73887611e-04
      -2.94797053e-03 -2.22600438e-03 -6.55859755e-03 2.99824984e-04
      1.41687901e-03 2.00077984e-03 -2.09829165e-03 3.22977081e-03
      -2.05721101e-03 -3.42268450e-03 -5.02721732e-03 4.80362214e-04
      -8.08352511e-03 -2.87953764e-03 -2.30342499e-03 1.23762595e-03
      5.30992821e-03 -1.24778599e-03 3.45868524e-03 3.46811209e-03
      -8.78130645e-03 -5.71069168e-03 4.83943440e-04 -2.89803138e-03
      -2.07140445e-04 -5.95580973e-03 -1.94798398e-03 -3.20470682e-03
      -1.29988883e-03 -2.94872513e-03 -1.18678156e-03 2.57523893e-03
      1.75580604e-03 4.08296211e-04 3.18037608e-04 1.56038045e-03
      1.31109066e-03 3.70745407e-03 -2.11972930e-03 -1.07464120e-02
      -2.96862354e-03 -2.53367733e-04 1.12460833e-03 5.06356079e-03
      6.36688274e-05 3.83191067e-03 5.35728037e-03 -9.86842345e-03
      -7.95777980e-03 8.40591453e-03 2.73910468e-03 -7.66235869e-04
      1.07854314e-03 -5.69741428e-03 3.92086618e-03 9.89920576e-04
      -6.41115895e-03 1.86276506e-03 1.88087451e-03 1.15625316e-03
      -7.86411169e-04 7.83101888e-04 2.29353856e-04 -5.87193499e-05
      2.39297422e-03 -1.15150360e-04 1.74168643e-04 3.13897408e-03
      2.69904826e-03 4.55050002e-04 -4.28901549e-04 -1.23278727e-03
      -1.70828588e-03 -1.46015850e-03 -8.73116544e-04 3.80283780e-03
      5.81795489e-03 6.19020429e-04 -1.14736042e-03 1.34191627e-03
      -2.74022087e-03 -1.79613091e-03 -6.87522208e-03 -1.68030709e-03
      -3.19400104e-03 2.45136931e-03 1.34944479e-04 -7.10883236e-04
      -4.37288312e-03 -7.11589353e-03 4.18234442e-04 -1.50865351e-03
      -8.47901800e-04 -3.09177372e-03 1.75679242e-03 5.63920476e-04
      -7.53077911e-05 -2.52068985e-05 -2.15192884e-03 1.04338978e-03
      -9.36309923e-04 -4.36879368e-03 -4.32194583e-03 1.36051839e-03
      4.64447017e-04 6.80449361e-04 -1.28307706e-03 -6.31363317e-03
      3.62159451e-03 6.38764817e-03 -5.30546473e-04 -7.34213088e-03
      -1.29424594e-03 -2.87007005e-03 -9.06463902e-05 -3.72989592e-03
      -4.60172771e-03 4.08304017e-03 2.96588987e-03 -1.01340245e-02
      -4.60702879e-03 5.98155602e-04 4.43514233e-04 8.39301792e-04
      -1.41537958e-03 3.65370797e-04 -2.86944769e-03 -3.42177600e-03
      -9.74912290e-03 -2.54408200e-03 1.12719112e-03 -5.19889814e-04
      -1.33041787e-04 2.66386615e-03 7.43139186e-04 7.03066727e-03
      5.55259967e-03 6.41243823e-04 -5.02887298e-04 1.89584529e-03
      1.62992871e-03 1.27307168e-04 -4.69860947e-03 -4.77899704e-03
      -1.24756119e-03 -2.42710626e-03 -4.03070031e-03 -1.62002258e-03
      -2.79468542e-04 9.42749437e-04 -6.67405257e-04 1.07342936e-02
      7.05343345e-03 2.13404652e-03 -1.52953633e-03 -2.60652136e-03
      1.81209005e-03 -2.06389860e-03 -8.89897870e-04 -3.90202296e-03
      4.76600835e-03 -7.34726025e-04 -2.98725266e-04 1.22277252e-03
      3.91585566e-03 2.70611420e-03 4.99970804e-04 4.61150287e-03
      2.67798291e-03 1.36425616e-02 6.00116421e-03 9.45108663e-03
      7.31868017e-03 4.99944156e-03 2.98381725e-04 4.45067370e-03
      1.11044431e-03 -4.16663534e-04 3.83467088e-03 3.79499816e-03
      5.30835567e-03 4.57010558e-03 -7.14760390e-04 -8.68957140e-04
      -9.31526592e-04 -1.08875753e-03 -5.26951998e-03 7.43263285e-04
      5.33308368e-03 2.93330080e-03 1.07841799e-03 -3.29909008e-03
      -5.17417770e-03 -3.23526328e-03 -9.50821023e-03 -8.92517623e-03
      -1.01064937e-02 4.08699317e-03 -2.41242629e-03 -8.27101804e-03
      -1.06622102e-02 1.13526927e-02 4.56313835e-03 -9.03563341e-04
      -4.46710503e-03 -3.70133552e-03 7.84763228e-03 8.18668678e-03
      8.33000802e-03 1.07177142e-02 6.95128459e-03 7.34198198e-04
      -1.15800994e-02 -1.08121056e-02 -1.32870190e-02 -2.30588089e-03
      3.06794100e-04 -1.33096764e-03 5.46929706e-03 -9.65229422e-03
      -4.43174178e-03 -6.58130739e-03 -7.97052775e-03 -6.30188733e-03
      2.75322609e-03 -5.75398852e-04 -6.03592908e-03 -1.10411663e-02
      -5.53625496e-03 -1.20104779e-03 5.03038173e-04 1.34510337e-03
      -7.66156288e-03 -2.42816843e-03 -5.84312947e-03 -2.02999823e-03
      -5.64371375e-03 5.44571038e-03 8.84808949e-04 -3.09975212e-03
      -5.35710342e-03 1.16733625e-03 -5.55907376e-04 4.28802939e-03
      2.53112731e-03 5.47129009e-03 1.41089680e-04 -2.70585320e-03
      -4.32268903e-03 -4.04682569e-03 -2.14069081e-03 -9.01461870e-04
      1.06292556e-03 -4.78026050e-05 5.94529614e-04 -6.69489149e-03
      -2.76293210e-03 -3.80138680e-03 -4.55029483e-04 -6.96764421e-03
      -1.98063743e-03 -5.93013223e-03 -9.50038549e-04 -9.18908138e-03
      -1.16304983e-03 1.08333095e-03 4.64091427e-05 -1.43811383e-04
      -8.90072202e-04 1.59867702e-03 2.37710934e-04 3.84113844e-03
      -1.04388339e-03 4.00047470e-03 -2.61254143e-03 -8.14912934e-03
      -4.84170299e-03 -6.39975676e-03 1.62262982e-03 1.27240957e-03
      -4.03410755e-04 1.20272569e-03 2.54225126e-03 8.21161899e-04
      -2.08490225e-03 -9.97393043e-04 -8.83277331e-04 2.85992748e-04
      8.19038076e-04 1.80273200e-03 3.96487024e-03 5.23309503e-03
      -9.57044947e-04 -3.58741893e-03 -3.38922115e-03 -4.17120103e-03
      -2.54002400e-03 -1.60445564e-03 3.28458520e-03 3.37728485e-03
      2.45925708e-04 1.38711603e-03 1.23534549e-03 2.90056283e-04
      8.59012420e-04 -1.31461257e-03 -2.39436491e-03 -2.29019229e-03
      -5.86771639e-04 3.26640601e-03 1.21416082e-03 -4.12909919e-03
      -1.70474139e-03 -9.89453518e-04 -1.92829070e-03 -2.90032243e-04
      2.72981334e-03 3.36313900e-03 3.59267183e-03 3.10776685e-03
      2.01204442e-03 1.78210076e-03 -1.89926955e-04 2.33569343e-04
      1.95390335e-03 2.46743136e-03 2.94205733e-03 -4.27039945e-03
      9.03962355e-04 5.43895818e-04 6.48242829e-04 -7.09123618e-04
      -1.14877836e-03 2.47453665e-03 1.75663398e-03 -7.28666410e-03
      -1.99115602e-03 6.02522283e-04 -8.15050793e-04 -1.82600855e-03
      -3.85720772e-03 2.46269116e-03 7.00869644e-03 2.45999079e-03
      3.19014629e-03 2.45166058e-03 1.58830837e-03 1.31886138e-03
      1.68133229e-05 1.10552071e-04 3.62734805e-04 2.20263284e-03
      2.84019182e-03 2.01162626e-03 -8.21409281e-04 1.41783804e-03
      1.15378725e-03 -2.76844366e-03 4.93426342e-04 -2.86288350e-03
      4.64267517e-03 2.64596147e-03 -1.84009059e-05 -4.01003845e-03
      7.76558009e-04 -1.20126223e-03 -6.75625692e-04 7.46803649e-04
      -3.64663691e-04 4.88696806e-03 6.17370708e-03 -2.78758141e-03
      -5.73727256e-03 1.25435716e-03 1.95605704e-03 -2.01802701e-03
      -1.05979349e-02 -7.31973676e-03 -4.11021814e-04 4.76835121e-05
      -6.54504681e-03 -2.17445707e-03 1.87935235e-04 -2.97254999e-03
      -9.70271823e-04 4.74035554e-03 3.41211772e-03 6.79280283e-03
      2.81647709e-03 -1.70642778e-03 -6.59241667e-03 -1.64902990e-03
      2.90012802e-03 -1.03357795e-03 -3.89320019e-04 -2.53222743e-03
      4.72839503e-03 3.51444422e-03 -3.28176829e-05 2.32033432e-03
      -6.81033649e-04 1.84700591e-03 1.96700403e-03 8.49172566e-03
      4.15752968e-03 6.18660031e-03 3.92330205e-03 3.11376341e-03
      3.61953839e-03 1.05960434e-03 2.22036964e-03 2.39313929e-03
      2.51243915e-03 2.26095528e-03 4.47077490e-03 4.51287488e-03
      3.44355777e-03 -1.97308208e-03 1.33016627e-04 2.65462161e-03
      4.81711095e-03 1.21446429e-02 5.53070940e-03 4.87185502e-03
      4.39665455e-04 -3.46960383e-03 -7.61717604e-03 -8.03780276e-03
      -3.58074741e-03 6.85065892e-03 1.51465391e-03 2.92013516e-03
      2.92116893e-03 -5.14775980e-04 -9.83599480e-03 -1.14215643e-03
      3.95310955e-04 3.29364301e-03 -1.10167591e-03 2.01814226e-03
      2.96078878e-03 4.11100406e-03 3.49489832e-03 1.37943064e-03
      2.20008940e-03 -5.92865108e-05 -6.92059239e-03 -7.37787224e-03
      -6.98252395e-03 -4.21781698e-03 -5.84189183e-05 1.68882136e-03
      2.71704397e-03 -2.72071688e-03 -5.99288056e-03 -4.47368762e-03
      4.37760353e-03 -2.25079898e-03 3.89546680e-04 2.53838859e-03
      1.51338172e-03 -2.53529777e-03 -1.83416379e-03 -5.79287391e-03
