<?xml version="1.0"?>
<opencv_storage>
<my_svm type_id="opencv-ml-svm">
  <svm_type>C_SVC</svm_type>
  <kernel><type>LINEAR</type></kernel>
  <C>1.0000000000000001e-01</C>
  <term_criteria><epsilon>1.1920928955078125e-07</epsilon>
    <iterations>1000</iterations></term_criteria>
  <var_all>17640</var_all>
  <var_count>17640</var_count>
  <class_count>2</class_count>
  <class_labels type_id="opencv-matrix">
    <rows>1</rows>
    <cols>2</cols>
    <dt>i</dt>
    <data>
      -1 1</data></class_labels>
  <sv_total>1</sv_total>
  <support_vectors>
    <_>
      6.99097873e-04 8.79938190e-04 1.65224343e-03 -1.90147912e-04
      -1.06468110e-03 2.85374772e-05 8.65447626e-04 7.71706866e-04
      7.78372400e-04 -8.46972864e-04 -9.69395507e-04 -7.71959196e-04
      -3.84830113e-04 -1.35261996e-03 -1.90493811e-05 5.19723981e-04
      5.20599948e-04 -9.85196442e-04 6.19191094e-04 5.57722116e-04
      -3.38081009e-05 -6.92995731e-04 -3.96009797e-04 1.65944468e-04
      2.88393727e-04 8.81536340e-04 4.85269848e-04 3.15954094e-03
      1.98497856e-03 1.56034413e-03 7.38058239e-04 1.05800177e-03
      -1.14043301e-03 -5.66995761e-04 -5.98350132e-04 1.81806192e-03
      -2.69397657e-04 -4.68833750e-04 -1.08284969e-03 3.53813724e-04
      8.48585449e-04 -2.98473369e-05 -4.64605837e-04 -7.17574963e-04
      -4.29392443e-04 1.28614495e-03 2.04661139e-03 2.27681966e-03
      2.23005679e-03 5.30284084e-03 2.20950576e-03 1.29753549e-03
      -1.84718141e-04 6.36278070e-04 1.89915881e-03 1.44082098e-03
      1.12342229e-03 1.29202357e-03 1.04618480e-03 -1.43041252e-03
      -2.32437765e-03 -5.83327841e-04 1.12118339e-03 2.43739760e-03
      3.96631705e-03 4.93521849e-03 3.57912621e-03 4.30197828e-03
      6.96098839e-04 -6.71288406e-04 -2.24488394e-04 3.91255540e-04
      2.42864527e-03 1.88527897e-03 2.32464494e-03 1.92128541e-03
      4.72505903e-03 1.66640326e-03 1.06643362e-03 -1.13256239e-04
      1.43985206e-03 3.99802858e-03 1.94489351e-03 1.95281638e-03
      2.76631070e-03 6.51777815e-03 2.78289081e-03 1.72005955e-03
      2.99475132e-03 4.42428049e-03 2.80764629e-03 2.68114451e-03
      3.12557374e-03 1.99421798e-03 -4.41701093e-04 1.50524336e-03
      -6.68031629e-04 -1.35482627e-03 1.90844003e-03 8.30333331e-04
      2.34753336e-03 2.50488659e-03 1.55636284e-03 3.60865192e-03
      1.18705025e-03 -6.22422493e-04 -6.05268753e-04 -8.71211931e-04
      4.25620424e-03 2.57576443e-03 2.25399970e-03 1.86554180e-03
      3.74449207e-03 2.45594676e-03 3.38971103e-03 4.27292986e-03
      4.86647245e-03 5.01043489e-03 2.49553029e-03 1.75824505e-03
      1.62948936e-03 2.21848674e-03 1.59129931e-03 1.76262949e-03
      4.00491990e-03 4.84116189e-03 -4.23247024e-04 1.85124448e-03
      1.93604978e-03 7.95823871e-04 2.76450440e-03 1.89323456e-03
      -2.21439311e-03 -2.61762063e-03 -3.64879472e-03 2.39212927e-03
      1.28036144e-03 1.54538406e-03 8.03234812e-04 6.71213435e-04
      6.02277345e-04 -6.85398001e-04 4.25938342e-04 9.13731405e-04
      5.11154672e-03 2.25896318e-03 1.99876330e-03 1.49715075e-03
      -1.05016958e-03 1.19163573e-03 2.85355351e-03 3.21783149e-03
      5.54810604e-03 4.09779837e-03 7.02423044e-04 5.48502256e-04
      -1.22030498e-04 -5.30954171e-03 -1.22026051e-03 6.52017538e-04
      2.62777437e-03 4.13424149e-03 1.97814289e-03 9.24334803e-04
      1.29706354e-03 6.49369496e-04 -1.63814181e-03 2.07919115e-03
      1.02779409e-03 -1.04434439e-03 -1.39001326e-03 2.53802328e-03
      1.45574950e-03 1.84426876e-03 1.46418903e-03 -5.42813772e-03
      -3.24521353e-03 -1.56257197e-03 4.37133276e-04 2.57941475e-03
      2.11388781e-03 6.49242211e-05 -2.40049092e-04 -5.36448963e-04
      -6.06578542e-03 -1.76261133e-03 1.43238669e-03 3.18678608e-03
      3.04986862e-03 2.66652415e-03 -1.01576137e-04 -3.27323191e-03
      -3.18197859e-03 -1.02046123e-02 1.16831914e-03 1.70966797e-03
      4.80620237e-03 5.05633233e-03 2.62044859e-03 1.03523280e-03
      7.08865351e-04 2.60030443e-04 -8.44508782e-03 -1.97690888e-03
      -5.05614153e-04 1.40250195e-03 3.12928273e-03 2.22729659e-03
      9.61640326e-04 -4.48987470e-04 -5.83137386e-04 -9.41524468e-03
      6.57177356e-04 2.20203935e-03 2.15992657e-03 3.52768158e-03
      1.48775161e-03 5.74101796e-05 -1.89947104e-03 -1.74984511e-03
      -8.57314002e-03 -4.78712100e-05 6.27505418e-04 3.60038318e-03
      3.37125827e-03 8.22946313e-04 2.84956011e-04 6.91668247e-05
      1.74717638e-06 -5.80345374e-03 -1.25392422e-03 -1.24896981e-03
      2.17053239e-04 1.03608216e-03 3.36935651e-03 1.23367750e-03
      6.00478321e-04 2.01959789e-04 -9.28010792e-03 1.56518596e-03
      -1.76182063e-03 1.90691568e-03 4.41132812e-03 1.40329858e-03
      9.51064227e-04 -5.99133666e-04 -3.21198022e-05 -3.15176370e-03
      1.96464389e-04 -3.44507367e-04 1.50534557e-03 1.86937035e-03
      -2.87126197e-04 1.04961649e-03 6.36231794e-04 6.09950628e-04
      1.03296305e-03 5.14364627e-04 1.57478542e-04 8.26716539e-04
      -5.57206920e-04 -1.33749505e-04 1.30366872e-03 1.16201874e-03
      4.71037521e-04 -1.36157125e-03 -1.12742046e-03 -1.36019220e-03
      -8.52080993e-04 -6.55719195e-04 -1.31087005e-03 -7.47165584e-04
      -2.04666983e-03 1.22114120e-03 1.78196514e-03 1.75988209e-03
      -7.89945843e-05 9.82276397e-04 -2.37593916e-03 -4.34956606e-03
      -2.30303081e-03 -1.97571982e-03 -8.80774809e-04 3.21697240e-04
      1.71821026e-04 -3.19980597e-03 -2.45674746e-03 -3.63231497e-03
      5.91548451e-04 1.74083770e-03 2.17031455e-03 1.48003025e-03
      -8.38795968e-04 -1.09451474e-03 -1.24669878e-03 -1.66356156e-03
      -4.15590708e-04 1.64794258e-03 2.47260765e-03 2.79908627e-03
      2.22417153e-03 1.96341611e-03 1.10497838e-03 2.77395739e-04
      1.25918200e-03 1.03053951e-03 -7.11568445e-03 -1.95935136e-03
      -3.12235752e-05 -5.74382255e-04 -1.00289355e-03 -9.47073975e-04
      -4.18354431e-03 -3.82809178e-03 -7.03704124e-03 -4.39621741e-03
      2.42958008e-03 4.20486555e-03 1.60633447e-03 1.18099246e-03
      3.56549252e-04 -9.03485692e-04 -2.33537517e-03 -4.33205208e-03
      2.49495148e-03 3.85363190e-03 3.91787337e-03 3.12404521e-03
      1.89244200e-03 2.42053400e-04 -2.51901103e-03 -1.58458875e-04
      6.15781581e-04 2.01565330e-03 2.18287925e-03 2.12128391e-03
      9.12931049e-04 3.18069221e-03 1.11357914e-03 -1.75134963e-04
      1.01067023e-07 2.82816589e-04 -3.87353403e-03 2.20159395e-03
      3.22378124e-03 1.13648060e-03 8.10390688e-04 6.19719794e-04
      -2.54632835e-03 -4.16097790e-03 -4.45094472e-03 -3.09958798e-03
      3.55041097e-03 4.74273786e-03 1.45254738e-03 9.65877378e-04
      1.55196816e-04 -4.48093517e-03 -7.42007000e-03 -5.62809268e-03
      4.38389089e-03 3.85474227e-03 3.10155354e-03 1.06345711e-03
      4.62772883e-03 2.16639577e-03 1.19571523e-04 1.49972760e-03
      2.95129395e-03 2.98081897e-03 9.49958689e-04 1.78848382e-03
      3.58138728e-04 1.50856387e-03 1.38489180e-03 4.38357325e-04
      4.53494751e-04 2.40620924e-03 -3.52144730e-03 1.99320982e-03
      2.73905206e-03 1.53530191e-03 1.05167890e-03 1.89007478e-04
      -4.92500095e-03 -5.19247493e-03 -5.91912307e-03 -6.69272058e-03
      -6.09484594e-03 -3.41161294e-03 -7.75323482e-04 1.56853301e-03
      1.38075603e-03 -2.32392759e-03 -4.03301790e-03 -7.32582062e-03
      1.84853235e-03 7.47439102e-04 1.54323049e-03 4.56810900e-04
      5.33268147e-04 3.22457956e-04 9.31874558e-04 1.29569264e-03
      2.46170931e-03 3.92608950e-03 3.11315031e-04 -6.15614932e-04
      -8.23341892e-04 -3.21291015e-03 -3.75944161e-04 2.35496927e-03
      3.52211948e-03 4.40205773e-03 -7.09572574e-03 -5.74914319e-03
      -3.43710720e-03 -1.04892941e-03 -2.14421685e-04 6.66467764e-04
      -1.03455444e-03 -1.20387191e-03 -3.78524489e-03 -5.58229117e-03
      -5.19143557e-03 -5.46265021e-03 -3.65223153e-03 -4.28440701e-03
      8.67011957e-04 -1.48422155e-03 -2.47631338e-03 -3.53407324e-03
      2.05875840e-03 5.66737668e-04 -4.18072130e-04 -8.41196976e-04
      -6.28825882e-03 -1.14919909e-03 -6.30613824e-04 7.02493533e-04
      2.74601788e-03 2.34900718e-03 1.43755600e-03 9.77268326e-04
      2.22884017e-04 -4.88894433e-03 1.84712396e-03 4.00903448e-03
      2.37875525e-03 3.28678358e-03 -1.74605439e-03 -2.96014850e-03
      -4.73752059e-03 -2.48859753e-03 -6.01477595e-03 1.68884685e-03
      2.23326916e-03 1.22207229e-03 -7.90128950e-04 -3.97028896e-04
      -2.78015214e-04 -2.87743169e-03 -7.74323300e-04 -6.87484397e-03
      -4.23253485e-04 -1.98512076e-04 1.23330299e-03 -1.21631841e-04
      8.59192281e-04 1.11307402e-03 1.08169671e-03 6.56123913e-04
      -6.08841935e-03 -1.76437650e-04 7.73908570e-04 5.88138137e-05
      7.69208244e-04 7.66584242e-04 7.95624801e-04 -7.74764980e-04
      -4.04693768e-04 -1.84838998e-03 -2.71734807e-05 -1.91984058e-03
      6.37799501e-04 1.11026550e-03 2.62192660e-03 1.28706347e-03
      -5.38397580e-04 4.51081287e-04 -5.30048693e-03 -3.90569941e-04
      -5.31970174e-04 1.24142563e-03 1.22612459e-03 1.73084717e-03
      6.70318434e-04 -7.58126436e-04 -1.17047410e-03 -2.44065328e-03
      -9.20619932e-04 -2.55964114e-03 -1.01577083e-03 1.79490168e-03
      -1.93536398e-03 1.22775626e-03 1.01675536e-03 1.81806472e-03
      1.83343806e-03 1.50293345e-03 -9.25602741e-04 6.40291022e-04
      -3.22017702e-03 -1.91556069e-03 -3.99350334e-04 -6.59294077e-04
      9.74400391e-05 1.86577148e-03 1.01891370e-03 -2.60375580e-03
      -1.83795160e-03 -2.52485974e-03 -2.64098635e-03 2.12570303e-03
      2.60096812e-03 3.50775779e-03 1.48831910e-04 1.13944360e-03
      -2.46829912e-03 -2.31875945e-03 -4.73699253e-03 -1.17237330e-03
      1.29199866e-03 7.19836331e-04 5.06518292e-04 -1.45010033e-03
      -5.32355392e-04 -4.19443613e-03 -3.13831773e-03 -3.38442111e-03
      -5.21936826e-03 -2.06366694e-03 -6.29245944e-04 -1.15429296e-03
      1.27751450e-03 -4.53891407e-04 -3.68889491e-03 -3.12533695e-03
      -4.27050842e-03 -3.08595947e-03 1.82501390e-03 3.17132706e-03
      1.49739222e-04 -1.29971857e-04 -3.99091165e-04 -1.11126387e-03
      -1.91695860e-03 -3.69639136e-03 -1.19791913e-03 7.66781683e-04
      -4.80279923e-05 3.69180634e-04 -1.78447878e-03 8.13436171e-04
      -1.86018436e-03 -1.47213612e-03 -1.67293672e-03 -1.47169863e-03
      1.19109056e-03 1.23514270e-03 2.75277562e-04 1.72947621e-04
      7.78654648e-04 -9.16278746e-04 -8.67623370e-04 -2.18011462e-03
      -8.32724269e-04 4.39827237e-03 5.11924597e-03 1.95067772e-03
      -2.18223711e-03 -3.83465784e-04 -1.85886351e-03 -2.94182962e-03
      -1.64920103e-03 -2.43529119e-03 3.45174223e-03 3.94974137e-03
      1.13677152e-03 4.91339422e-04 3.13627912e-04 -3.92199494e-03
      -4.69225366e-03 -8.70914478e-03 -9.01943946e-04 1.28892309e-03
      1.44823280e-03 -1.49243526e-04 -3.87034554e-04 1.55083137e-04
      -7.26006576e-04 -1.98924867e-03 -2.73447041e-03 -1.76768377e-03
      3.98055825e-04 5.85122965e-04 1.03127175e-04 3.65368353e-04
      3.99277400e-04 -4.77176043e-04 -1.33905106e-03 -2.87260907e-03
      -9.37120756e-04 2.81395880e-03 3.63291032e-03 2.65000947e-03
      3.02603841e-03 3.99448763e-04 -6.18686248e-03 -4.24968684e-03
      -2.25254754e-03 -6.17380626e-03 -4.21136990e-03 -1.44701521e-03
      4.09282686e-04 2.43325601e-03 1.11359206e-03 -2.71771452e-03
      -3.48804845e-03 -5.17416419e-03 -3.37290415e-03 -8.90849333e-04
      -1.97890258e-04 5.27622295e-04 1.58078747e-03 2.49019213e-04
      -2.19482929e-04 -1.78047689e-03 -4.31156997e-03 -6.38242671e-03
      -3.17122787e-03 -2.05348409e-03 -1.30086992e-04 6.05567824e-04
      1.94368855e-04 -7.79347494e-04 -1.10665581e-03 -5.81318792e-03
      -6.41206885e-03 -5.72128221e-03 -4.29856637e-03 -3.98880919e-04
      -3.53009498e-04 2.82683264e-04 -3.44844593e-04 -6.05493376e-04
      -4.58158646e-03 -5.23617957e-03 -6.91948878e-03 -6.35189796e-03
      -2.73547112e-03 -6.75578427e-04 1.24542846e-03 -5.99239720e-04
      -8.00478156e-04 -1.54597126e-03 -5.51359635e-03 -3.75432521e-03
      -3.33163119e-03 -4.08232561e-04 -6.17955287e-04 1.41917058e-04
      5.59128181e-04 2.16182932e-04 -3.68287950e-03 -1.18555094e-03
      -1.14643457e-03 -8.39357963e-04 -1.35297596e-04 4.55216679e-04
      8.50430661e-05 4.74619475e-04 -5.76516555e-04 -7.54935027e-04
      -4.87047667e-03 -7.49597559e-03 -7.87327439e-03 -3.55496397e-03
      -5.37985889e-03 7.95102795e-04 7.29075982e-04 -6.68871740e-04
      -3.38263996e-03 -2.16467865e-03 -1.37324212e-03 -2.77601089e-03
      -1.05621664e-04 2.07858466e-04 -6.81066886e-04 -1.99556627e-04
      8.48158030e-04 -3.18218768e-03 -5.45751653e-04 -7.56289810e-04
      -7.62971526e-04 3.38645565e-04 6.10204355e-04 1.92410516e-04
      4.46593855e-04 -2.48000259e-04 -3.11937154e-04 1.45363575e-03
      6.98946591e-04 4.51932079e-04 8.72520439e-04 1.51820865e-03
      -4.15756978e-04 7.57254602e-04 2.12680735e-03 1.95472315e-03
      1.09008944e-03 5.98686398e-04 -1.14998629e-03 -7.93254148e-05
      -4.21686750e-03 -8.21415510e-04 -4.90326318e-04 1.15919241e-03
      1.11051428e-03 2.65350053e-03 2.66027986e-04 -1.20066316e-03
      -3.30918445e-03 -1.79234566e-03 -2.27671140e-03 -1.43991574e-03
      6.72558555e-04 2.80483416e-03 2.14514020e-03 9.68102424e-04
      1.10465230e-03 3.30609764e-04 -1.27625430e-03 -1.49232778e-03
      3.32920172e-04 2.53687496e-03 2.53617810e-03 6.83328370e-04
      -5.54712198e-04 -2.57554377e-04 -1.44566107e-03 -2.31027079e-04
      -3.47071630e-03 -2.78425473e-03 1.44123135e-03 1.68479828e-03
      -1.59601157e-03 1.71613961e-03 3.52639239e-03 4.77922289e-03
      2.75611208e-04 8.54485334e-05 -2.48051528e-03 -2.50664144e-03
      -3.80598917e-03 -1.81968871e-03 2.16898654e-04 -1.12499937e-03
      -4.67391976e-04 -3.01184016e-03 -2.47186981e-04 -3.27101280e-03
      -2.63200956e-03 -3.81816365e-03 -4.86657862e-03 -3.21949855e-03
      -1.36833405e-03 1.69883459e-03 1.35433205e-04 1.09097506e-04
      7.98127148e-04 5.01136295e-04 -3.58727667e-03 -4.14349372e-03
      -2.43217102e-03 -3.58101446e-03 -1.20062870e-03 -3.29695363e-03
      5.97396051e-04 8.13227904e-04 7.70123617e-04 -2.33963621e-03
      2.88953132e-04 -1.93372671e-03 -4.37465729e-03 -1.91332272e-03
      -7.31514068e-03 -2.14807945e-03 -4.02949844e-03 -3.86034814e-03
      -1.40259054e-03 -3.31545511e-04 3.25601250e-05 4.55435191e-04
      -3.64220439e-04 2.27120603e-04 1.29704422e-03 -2.42281333e-03
      -2.54525058e-03 -8.88621900e-04 -2.84496986e-04 -2.66762730e-03
      -5.25979837e-03 -1.43718661e-03 -4.68719332e-03 1.59714906e-03
      1.83225842e-03 8.73936864e-04 -5.00551650e-05 1.01607549e-03
      -3.97692129e-05 7.20182958e-04 7.00123201e-04 2.06241477e-03
      1.48614449e-03 7.93170882e-04 -1.00826449e-03 9.31576302e-04
      -5.27356868e-04 1.88585982e-05 8.71895754e-04 -1.55638019e-03
      -9.23832355e-04 1.00519450e-03 -2.01715482e-03 -2.65824702e-03
      -1.22169615e-03 -3.64362122e-03 4.09063126e-04 3.37793521e-04
      -6.62137987e-04 -1.26863504e-03 -3.94073984e-04 3.07826558e-04
      1.10154552e-03 -3.29122646e-03 4.52761924e-05 -9.00658953e-04
      4.62523109e-04 4.65724850e-04 2.93336553e-03 1.56485150e-03
      4.13343194e-04 -1.00129878e-03 3.76462587e-04 1.02869305e-03
      4.42117074e-04 3.96366435e-04 -1.55384943e-04 -4.30162298e-04
      2.39959641e-04 5.78189502e-04 5.15923777e-04 1.28938304e-03
      -6.16567116e-03 -3.04375018e-04 -2.43794711e-04 1.12983421e-03
      8.01411865e-04 5.15211665e-04 1.53372553e-03 3.86368512e-04
      -5.90954488e-03 -6.68124156e-03 -1.35129981e-03 -3.12322722e-04
      1.95228247e-04 8.32241029e-04 3.55898548e-04 1.98775888e-04
      -2.89241434e-04 -5.93135459e-03 1.45193771e-03 1.42407976e-03
      1.44777028e-03 8.96264217e-04 1.12062995e-03 1.13819703e-03
      1.81725586e-03 1.04098534e-03 2.04415945e-03 2.94773374e-04
      4.68617771e-04 5.99716557e-04 5.99731342e-04 8.55534628e-04
      4.64404693e-05 4.26059596e-05 1.86913931e-05 1.36433300e-04
      -8.39483086e-03 -3.67522356e-04 -2.81540502e-04 2.27123150e-04
      -3.79219418e-03 1.58068229e-04 3.28611815e-04 -4.90384409e-05
      -8.12650006e-03 -3.31392279e-03 1.80503965e-04 3.90001980e-04
      3.07502458e-04 8.72520381e-04 1.15775510e-04 1.48704986e-03
      1.39749295e-03 -2.60143331e-03 1.68794388e-04 2.81588698e-04
      3.51113820e-04 3.59798811e-04 3.66629713e-04 5.62515106e-06
      1.67676189e-05 1.62091292e-05 8.78795618e-05 2.65685638e-04
      3.15308134e-04 3.59798811e-04 3.42667510e-04 6.30438793e-04
      5.86656233e-06 6.01890315e-05 1.22274650e-04 2.44906725e-04
      -2.14571808e-03 1.15919847e-03 1.00235129e-03 7.39747717e-04
      9.47761699e-04 2.85865186e-04 1.06346584e-03 8.96777317e-04
      -1.90881663e-03 1.60036283e-03 1.64113345e-03 2.04350357e-03
      1.14269333e-03 -1.51932356e-03 -2.01719441e-03 1.62231061e-03
      3.64821567e-03 2.59195687e-03 2.53138336e-04 2.25767988e-04
      2.18100002e-04 1.11151130e-04 1.76048634e-04 4.19310782e-05
      6.21473228e-05 1.48089835e-04 2.97200779e-04 9.49634879e-04
      1.13737688e-03 1.36542390e-03 1.50296546e-03 -1.53815618e-03
      9.85752326e-04 3.26316687e-04 8.52642348e-04 1.17824017e-03
      1.56923756e-03 1.29061635e-03 1.53672253e-03 3.99172393e-04
      -7.91723782e-04 -1.01481809e-03 -4.00714489e-04 1.71473890e-03
      2.11321888e-03 -2.86938506e-03 -1.66290469e-04 8.57057967e-05
      -1.98302069e-03 -2.20859307e-03 -3.76694929e-03 -8.19737616e-04
      -1.38528191e-03 -2.10254150e-03 4.26979415e-04 5.46874944e-04
      4.39554482e-04 2.62113637e-04 -7.40803662e-04 4.99491056e-04
      4.04965649e-05 4.83269279e-04 7.67824589e-04 1.21169502e-03
      1.15824398e-03 2.32199687e-04 -2.82811932e-04 2.01714761e-03
      1.47451914e-03 4.31279477e-04 -3.79463425e-04 8.09630554e-04
      -3.95156676e-03 -2.86425580e-03 -1.91271363e-03 1.94108195e-03
      1.47958740e-03 3.05753958e-04 -1.50193795e-04 -1.09835586e-03
      -2.21090810e-03 -3.21472809e-03 -1.59220747e-03 -1.36915490e-03
      -6.83296588e-04 -1.73100154e-04 1.36283867e-03 7.62154174e-04
      -2.34444626e-04 -2.49965349e-03 -2.66785198e-03 -1.69750955e-03
      -1.09206652e-03 9.15281998e-06 2.65826914e-03 2.86150118e-03
      -1.66091614e-03 -1.75554014e-03 -2.01135734e-03 -4.03524050e-03
      -2.56936508e-03 -2.85351672e-03 -3.50286951e-04 9.23899759e-04
      1.27765781e-03 -3.30181909e-04 -6.59308804e-04 -3.86105035e-03
      -1.93087023e-03 -3.86271975e-03 -2.67878687e-03 -2.38065235e-03
      -2.05310108e-03 9.12184129e-04 2.30774283e-04 -2.06476048e-04
      -2.81644030e-03 1.18029490e-03 2.64467148e-04 1.31045410e-03
      1.29741430e-03 2.72098719e-03 1.31078856e-03 1.40418822e-03
      2.93991034e-04 7.85396493e-04 -4.21821512e-03 -9.50366841e-04
      -2.43912404e-03 -6.51641574e-04 2.26540049e-03 1.09769916e-03
      -2.98244390e-03 -2.08854838e-03 -2.87415111e-03 -4.63726791e-03
      2.76717794e-04 -1.13109716e-04 7.87648751e-05 1.01312576e-03
      9.04357410e-04 -1.31399941e-03 -3.57438170e-04 -3.65318195e-03
      7.19198957e-04 -1.24933012e-03 4.88241058e-04 9.76208365e-04
      2.01630197e-03 8.58354324e-04 1.60643031e-04 -7.89928134e-04
      1.15718530e-03 3.70450114e-04 1.96996443e-05 1.80739647e-04
      -3.52909236e-04 -2.41697708e-04 2.43815521e-04 3.23557324e-04
      1.71926848e-04 3.99533281e-04 -4.09177598e-03 5.92729077e-04
      1.92893785e-04 1.76156682e-04 -2.41216365e-03 1.35185604e-03
      -1.13212736e-03 -3.20306909e-03 -3.55715281e-03 -8.62224784e-04
      1.38607773e-03 1.08621852e-03 1.52361157e-04 -2.02662591e-03
      2.22178380e-04 5.08351950e-04 -1.07611634e-03 -1.99709064e-03
      3.06615257e-03 7.26091268e-04 9.25882545e-04 4.23053105e-04
      -6.32161333e-04 8.72832665e-04 7.58559036e-04 1.14998431e-04
      3.23189981e-03 1.21426448e-04 2.07446094e-04 4.28182771e-04
      1.88522929e-04 5.75750833e-04 2.10487924e-05 2.03536274e-05
      1.00104153e-05 4.15008581e-05 -4.11015842e-03 1.25669187e-03
      1.00028096e-03 6.87274296e-05 -5.38610714e-03 2.21783132e-03
      2.08993768e-03 1.86324841e-03 -4.26580617e-03 1.69793231e-04
      6.26975030e-04 6.30882685e-04 2.39850167e-04 5.82644308e-04
      1.18396631e-04 1.67543374e-04 1.58642230e-04 -2.61629393e-05
      1.58001014e-04 3.04010027e-04 4.56244539e-04 4.21536912e-04
      4.72565414e-04 4.70605812e-07 4.18898907e-08 3.46559523e-06
      5.02030998e-05 3.90253146e-04 1.16048912e-04 1.89021128e-04
      1.92830237e-04 4.23151563e-04 2.01222133e-06 3.37151562e-07
      8.77930870e-06 3.28079739e-04 4.75484325e-04 7.24205223e-04
      7.15001661e-04 2.82293273e-04 1.25540420e-03 4.76815840e-05
      8.06851604e-05 8.26510222e-05 3.47115216e-04 2.37580156e-03
      2.27410696e-03 2.40285438e-03 2.00889353e-03 2.25855806e-03
      6.89713706e-05 4.54376022e-05 7.45551442e-05 1.24115369e-03
      2.71516095e-04 3.69096000e-04 6.66492269e-05 7.28716783e-04
      9.97437863e-04 2.23821971e-05 1.17518248e-05 2.45606971e-05
      9.55603100e-05 5.36644890e-04 6.69309287e-04 7.74596003e-04
      2.22368340e-04 -3.14060575e-03 8.68933625e-04 6.71495975e-04
      6.21308398e-04 6.86841959e-04 1.83032814e-03 2.20202119e-03
      1.49493199e-03 3.80998623e-04 4.43314086e-04 6.97645519e-05
      1.39042904e-05 4.64682162e-05 7.51631218e-04 4.19264613e-03
      1.03226968e-03 -1.28488417e-03 -1.96227338e-03 -5.66754304e-03
      7.80697796e-04 7.02671648e-04 6.00376283e-04 4.74065309e-03
      6.00904459e-04 6.77363365e-04 2.78896099e-04 2.36202570e-04
      -2.63567723e-04 2.85344140e-04 2.81672023e-04 4.42192359e-05
      3.95022653e-04 -1.07203831e-03 8.07253120e-04 7.49541039e-04
      -1.09406270e-03 -1.72968686e-03 4.99665257e-05 -6.91099849e-04
      -6.10931544e-04 -1.77688012e-03 1.87882723e-03 7.24617101e-04
      1.44927690e-05 -4.56290436e-04 4.88460297e-04 3.84982763e-04
      5.28149190e-04 7.13358866e-04 2.02162727e-03 1.82603463e-03
      -4.33824898e-04 2.86702765e-03 -2.77024054e-04 -7.11353961e-04
      -3.96166492e-04 3.66526307e-04 9.04794666e-04 1.96152204e-03
      -2.88694887e-03 -2.94663734e-03 -2.42969627e-03 -9.25902685e-04
      1.43067795e-03 1.84129737e-03 1.00343612e-04 4.67597449e-04
      -2.79001216e-03 -4.77099931e-03 -2.76422873e-03 -2.48586177e-03
      -4.66210651e-04 1.23487529e-03 2.58264388e-03 7.46741891e-04
      8.22405331e-04 -4.03891550e-03 -2.25869194e-03 -3.51093407e-03
      -2.43741367e-03 -2.45068106e-03 3.12018790e-04 3.03056557e-03
      1.32205850e-03 -9.93943904e-05 -9.20358347e-04 -6.90467795e-03
      -5.25284465e-03 -4.10945574e-03 -2.89844070e-03 -1.50136446e-04
      1.75254443e-03 9.29164293e-04 -3.56234377e-04 -4.97477688e-03
      -5.61831286e-03 -1.80115399e-03 -1.93945004e-03 -3.85490159e-04
      5.95261634e-04 9.14540724e-04 -8.66201764e-04 -4.41512791e-04
      -5.12234354e-03 -2.87604146e-03 -3.48868023e-04 -7.84659991e-04
      1.04028135e-04 1.05134700e-03 2.08233506e-03 1.86987614e-04
      5.93317905e-04 -1.80826383e-03 -6.35283580e-03 -4.56790021e-03
      -2.96748267e-03 -1.57404167e-03 2.18175747e-03 2.72873626e-03
      3.67769389e-03 2.94335885e-04 -4.99433419e-03 -6.97131082e-03
      -3.72030446e-03 -2.19569448e-03 -2.71285156e-04 1.84716331e-03
      2.07949337e-03 6.48432237e-04 -8.64680915e-04 -6.64498238e-03
      -1.79081329e-03 2.25528667e-04 2.48320517e-04 -2.14184212e-04
      -1.21510436e-03 1.35724247e-03 -4.98322945e-04 -8.78067687e-04
      -1.83392456e-03 2.81342684e-04 5.74807054e-04 5.21550013e-04
      8.16681204e-05 -6.55969256e-04 9.61587008e-04 4.38902498e-04
      1.73538283e-04 -9.65233776e-05 -5.59070799e-03 -6.46765949e-03
      -2.98095983e-03 -1.77281629e-03 -2.36404478e-03 1.60407089e-03
      -7.07427273e-04 -4.47235582e-03 -4.23832843e-03 -2.16179504e-03
      -1.23067724e-03 -9.94117116e-04 -1.23829790e-03 -4.00857581e-03
      2.34598527e-04 -1.84062937e-05 -6.10118324e-04 -3.07606230e-03
      5.84240304e-04 4.47405037e-04 5.55689388e-04 3.54057382e-04
      -4.81361477e-03 2.37962704e-05 -6.41192601e-04 5.86179201e-04
      1.31033442e-03 7.14055961e-04 6.70522277e-04 9.25453845e-04
      9.10900781e-05 3.49601993e-04 1.08256390e-04 1.08588327e-04
      1.61839795e-04 5.64787886e-04 7.14653288e-04 -3.04587331e-04
      -1.19980134e-04 -2.91909301e-03 -1.22515652e-02 -2.56086211e-03
      4.37954557e-04 2.20260466e-03 1.69117365e-03 3.07401712e-03
      7.15191010e-04 -9.38571990e-04 1.90061820e-03 4.54943301e-03
      9.07221402e-04 1.74259022e-03 9.51279711e-04 1.80268614e-03
      1.18606002e-03 9.60480189e-04 1.26107654e-03 4.71527223e-04
      1.02954113e-03 2.68504209e-05 8.82480745e-05 9.81194316e-05
      1.06495351e-03 1.24445243e-03 1.54864229e-03 1.79619121e-03
      6.00817206e-04 6.11054478e-04 9.61594633e-05 9.47682929e-05
      1.16199502e-04 7.67276506e-04 9.94174625e-04 9.98583157e-04
      -2.55654013e-04 1.39165123e-03 2.59123859e-03 1.41615863e-03
      2.22041458e-03 8.92072858e-04 6.95234572e-04 -1.08236820e-03
      -4.90413629e-04 -1.64021202e-03 1.75089575e-03 3.59292445e-03
      5.82447392e-04 1.30017230e-03 -8.69098527e-04 -1.80498476e-03
      1.60632620e-03 1.99336512e-03 2.20836094e-03 5.86406153e-04
      4.85065335e-04 2.01835981e-04 1.41679324e-04 1.30095184e-04
      6.61581696e-04 2.54058233e-03 1.29108911e-03 1.39303808e-03
      3.39972612e-04 4.81017923e-04 5.90200070e-04 7.78167858e-04
      7.77893758e-04 2.16018665e-03 -2.32125097e-03 -3.31806339e-04
      6.23766900e-05 1.14384282e-03 2.36602896e-03 1.09293999e-03
      3.56248929e-03 8.81602638e-04 -2.05035671e-03 -3.44668049e-03
      -1.59832661e-03 -2.03570444e-03 1.41360378e-03 1.30273274e-03
      -2.54119368e-04 4.66118887e-04 2.97065679e-04 -3.88088776e-03
      2.14314158e-03 6.01092528e-04 1.40850621e-04 -4.24355181e-04
      3.40227096e-04 -2.58769840e-04 6.04325498e-04 6.73591450e-04
      2.63127964e-03 -8.16361746e-04 5.34568448e-04 2.06624600e-03
      1.42646604e-03 -2.08759797e-03 4.49741434e-04 2.02823459e-04
      1.07782008e-03 -8.73365032e-04 -2.22250423e-03 -1.46704377e-03
      -1.20800629e-03 7.51893327e-04 5.81375265e-04 -8.50533601e-04
      -4.30103770e-04 -1.52594395e-04 -1.28031126e-03 -3.53683298e-03
      -7.95760861e-05 1.73672941e-03 1.28609256e-03 -4.85541904e-03
      -3.52005911e-04 -4.38247109e-04 -1.81024938e-04 -4.24104976e-03
      -3.38515174e-03 -9.30915703e-04 -6.42493775e-04 -7.00299104e-04
      -1.92957954e-03 1.09275861e-03 -4.55795671e-04 -2.58847442e-03
      -3.10590095e-03 -6.25127228e-03 -5.19087585e-03 -3.50194960e-03
      -1.61421008e-03 -6.39924430e-04 1.84414932e-03 -8.13356892e-04
      -2.74144090e-03 -5.12738619e-03 1.45931801e-04 1.81927724e-04
      6.32925832e-04 1.58363866e-04 -2.09856880e-04 8.55656748e-04
      2.12404499e-04 8.06343232e-05 -3.04050427e-05 -5.78225590e-03
      -2.04004999e-03 -1.57498627e-03 -4.15628165e-04 -1.47108233e-03
      -2.13189330e-03 -1.65118207e-03 -1.15854060e-03 -4.71433625e-03
      -5.94442058e-03 -4.12206491e-03 -1.66866055e-03 -7.35358626e-04
      -7.55344343e-04 6.94158953e-05 5.94721932e-04 -1.63673438e-04
      -4.54981998e-03 -3.80576332e-03 -3.92562570e-03 -3.29010445e-03
      -9.76236479e-04 2.12552329e-03 2.07030959e-03 1.38520531e-03
      1.89503538e-03 -3.42191127e-03 -4.82120225e-03 -1.82180665e-03
      -7.42709613e-04 2.71686469e-04 -9.61999875e-04 -1.02008448e-03
      -1.31302886e-03 -3.93418486e-05 -3.43427993e-03 -1.30970124e-03
      -2.68220343e-03 -1.79919612e-03 -2.97502906e-04 -1.74322759e-03
      -1.75673189e-03 -5.50972531e-04 8.24847666e-04 -5.27507276e-04
      -5.24220942e-03 -4.92156716e-03 -3.46539053e-03 -2.21543200e-03
      -2.19654618e-03 4.81951982e-04 -1.07687563e-04 -3.72682480e-05
      -4.55473969e-03 -1.50587584e-03 -1.47981721e-03 -1.74442155e-03
      -8.38705862e-04 -2.70163437e-04 1.60150905e-03 1.96660031e-03
      1.75937614e-03 -5.08115219e-04 4.28292755e-04 -3.13409953e-03
      -2.87134410e-03 -1.61567482e-03 -2.55427975e-03 -1.73739216e-03
      2.64089642e-04 5.77446423e-04 1.73789461e-03 -2.30015808e-04
      -2.67784577e-03 -2.31851661e-03 -1.03608461e-03 3.25677451e-04
      1.66454667e-03 1.03859545e-03 1.53954502e-03 3.12623661e-03
      5.19368041e-04 1.21521814e-04 2.70391494e-04 9.62464255e-05
      1.63871923e-03 1.51074585e-03 2.78725848e-03 1.62727199e-03
      1.30879588e-03 -6.78782875e-04 -6.74228882e-04 -3.70173162e-04
      1.09640125e-03 2.50573107e-03 9.65597574e-04 1.48460327e-03
      1.16473949e-03 -2.89413088e-04 -2.92970403e-03 -6.18354604e-03
      -5.01967035e-03 6.10960851e-05 3.47677339e-03 2.70908838e-03
      2.44619581e-03 2.49642553e-03 -1.07616384e-03 -5.23391506e-03
      -3.63437249e-03 -4.27017314e-03 7.00301782e-04 2.30767927e-03
      1.17876567e-03 -3.48808942e-04 -6.44344327e-05 -4.03639534e-03
      -9.02475382e-04 4.19488963e-04 -2.06518496e-04 1.61856262e-03
      2.49980506e-03 7.21139775e-04 1.18266838e-03 3.52667208e-04
      -8.49295757e-04 -1.63937965e-03 -7.67357196e-05 -2.51338381e-04
      1.00334117e-03 1.89852237e-03 6.90833142e-04 1.32501672e-03
      -2.98325351e-04 -1.45137601e-03 -6.13585487e-03 -1.27135240e-03
      -2.10225116e-03 1.04243506e-03 4.98105166e-03 2.15021102e-03
      4.99954505e-04 -8.37204803e-04 -4.95731877e-03 -5.36194863e-03
      6.64703781e-04 5.90179479e-06 2.72221444e-03 7.05239922e-03
      1.08242710e-03 -8.89392744e-04 -3.37933819e-03 -5.63652534e-03
      -2.01974483e-03 -6.14563323e-05 4.05292347e-04 1.83881226e-03
      2.83075217e-03 5.31043625e-04 1.65537512e-03 4.17991978e-04
      -2.18245899e-03 -4.44042403e-03 -1.73614488e-03 -8.87451984e-04
      1.28055899e-03 2.04830896e-03 7.88386842e-06 4.60331939e-04
      1.60642070e-04 -4.36767470e-03 -6.22559758e-03 -1.20627473e-03
      -5.99881518e-04 2.09101685e-03 4.80507687e-03 1.42051606e-03
      5.52012178e-04 -2.18109833e-03 -5.79131814e-03 -1.73680682e-03
      3.07607185e-03 2.85443570e-03 3.74133210e-03 3.62325949e-03
      1.71500884e-04 -7.43727607e-04 -3.04053398e-03 -2.83061829e-03
      -4.64568799e-03 -3.14076804e-03 -2.78746081e-03 3.12548690e-03
      2.57184310e-03 -5.18382585e-04 -2.59993103e-04 -1.33270369e-04
      -3.80460522e-03 -1.49510673e-03 -2.13532802e-03 -3.21189803e-03
      1.33580551e-03 -1.64653466e-03 -1.45377591e-04 -6.22461201e-04
      -4.97019268e-04 -6.74523006e-04 -9.74473776e-04 2.13764748e-03
      2.05521286e-03 2.75874394e-03 2.16586562e-03 2.36469219e-04
      1.70885411e-04 -4.32512665e-04 -1.90812279e-03 -1.27125066e-03
      -1.83751562e-03 -8.09452613e-04 -2.78046617e-04 -8.54729617e-04
      2.25675976e-04 -1.46053135e-05 -5.12514125e-05 -1.14211021e-03
      2.41257646e-03 2.26356019e-03 2.20279675e-03 6.25715300e-04
      1.27771508e-03 7.27847044e-04 1.01865642e-03 1.12573453e-03
      1.87627680e-03 -1.66257762e-03 -2.59571621e-04 -7.71103252e-04
      -9.77005111e-04 1.50280062e-03 3.00779153e-04 5.43506059e-04
      2.61494308e-03 5.13388484e-04 2.98971689e-04 -3.82140832e-04
      -9.45444699e-05 1.31130603e-03 1.79159557e-04 1.15088944e-03
      1.45850540e-03 1.44169235e-03 7.63978926e-04 -7.14503549e-05
      5.51106757e-04 7.33352615e-04 2.93681631e-03 2.07644724e-03
      -1.63070648e-03 -1.99277839e-03 8.11421778e-05 2.97630759e-04
      -1.01841544e-03 8.64348549e-04 9.47663037e-04 2.62372050e-04
      2.17358916e-04 4.76946123e-04 1.26404408e-03 1.65131013e-03
      -2.57793989e-04 -2.34549574e-04 1.74126669e-03 2.18067202e-03
      1.47946517e-03 2.61525880e-03 1.49538298e-03 1.48647139e-03
      8.69191368e-04 7.41849712e-04 -1.31333515e-03 1.24135951e-03
      3.41748499e-04 1.17484538e-03 1.01946629e-04 -6.86796266e-04
      -7.63364078e-04 6.97283540e-04 -1.45980215e-03 1.04800100e-03
      1.24004669e-03 1.38177536e-03 1.44865457e-03 1.92430883e-03
      1.40522514e-03 1.27317442e-03 2.57065333e-03 8.23186885e-04
      1.22637535e-03 1.85327197e-03 2.40824977e-03 2.03761831e-03
      2.79710535e-03 9.42020502e-04 1.46133697e-03 1.25983357e-03
      9.96715040e-04 3.09898867e-03 2.34325556e-03 2.36961921e-03
      1.23676518e-03 4.15092846e-03 4.79506125e-04 4.41832381e-04
      2.56216619e-03 3.08101298e-03 3.20583559e-03 4.51883971e-04
      1.03872421e-03 6.71500282e-04 5.85490547e-04 2.70472694e-04
      -1.72944984e-03 4.79371840e-04 7.60917843e-04 1.68379012e-03
      -1.51758668e-05 8.71091732e-04 4.79245064e-04 2.07174569e-03
      6.45150780e-04 -1.60903158e-03 1.51901203e-03 1.89756940e-03
      3.39398533e-03 1.72165874e-03 2.42562499e-03 1.52962212e-03
      4.17919783e-03 1.03720196e-03 3.04359966e-03 3.42246564e-03
      4.44055675e-03 4.79854317e-03 1.66534795e-03 1.60574316e-04
      -8.12216196e-04 -1.86559709e-03 -9.56369389e-04 2.27065966e-03
      4.18458367e-03 5.09961881e-03 5.12806175e-04 9.89652122e-04
      1.46089459e-03 8.29151017e-04 1.75343151e-03 5.90223181e-06
      -1.55241776e-03 -2.74658287e-05 -1.94031789e-04 8.63787311e-04
      1.06222497e-03 1.32063497e-03 7.57897564e-04 -2.22750683e-03
      9.05869747e-05 4.90659324e-04 2.10300926e-03 1.78991607e-03
      4.98177903e-03 2.14067055e-03 6.90242276e-04 -3.59770929e-04
      -9.66211781e-04 -4.78249713e-04 1.11669383e-03 2.33204290e-03
      5.45300683e-03 4.87734983e-03 1.03252847e-03 -6.98107120e-04
      -7.73622596e-04 -4.34321165e-03 4.24398197e-04 2.49357335e-03
      2.75595835e-03 4.76544816e-03 -6.39125588e-04 7.87962752e-04
      8.10579862e-04 2.31277372e-04 -1.05040462e-03 1.76610367e-03
      -1.02999818e-03 -5.45541581e-04 -4.56331996e-04 2.11759238e-03
      1.35584141e-03 1.21872639e-03 4.13880509e-04 -4.20196541e-03
      -1.65870786e-03 -1.51142114e-04 9.99438635e-05 1.16125413e-03
      2.60082935e-03 8.35667830e-04 -5.07024117e-04 -5.13614272e-04
      -6.92723598e-03 -3.33802775e-04 1.00786670e-03 2.19475757e-03
      3.82672483e-03 2.36785668e-03 5.61202818e-04 -2.11288803e-03
      -1.84169284e-03 -7.88970850e-03 5.59143024e-04 2.70464877e-03
      3.22636194e-03 3.25751049e-03 2.08997750e-03 9.87367472e-04
      2.44114402e-04 -6.42812112e-04 -9.83602926e-03 -8.63125664e-04
      1.17578497e-03 5.47225587e-04 2.61052302e-03 2.30633561e-03
      8.35656712e-04 -2.32645683e-03 -2.43148115e-03 -8.38495884e-03
      3.17093625e-04 1.23021935e-04 1.32330344e-03 2.87353713e-03
      1.73088221e-03 5.95226011e-04 -2.23504263e-04 -3.65091371e-04
      -7.55824335e-03 -7.06735707e-04 1.85897714e-03 1.65405020e-03
      2.50898744e-03 8.80506297e-04 3.54500487e-04 8.12584243e-04
      1.24334993e-05 -5.96802216e-03 -4.03046433e-04 2.73517333e-04
      9.62579215e-05 9.24868800e-04 -5.15412074e-04 5.67204494e-04
      3.32718773e-05 -1.95182336e-04 -9.22208466e-03 3.35016084e-04
      1.76687096e-03 2.60592205e-04 -1.21431600e-03 1.34321558e-03
      3.46004817e-04 9.04266606e-04 4.06649138e-04 -4.38685389e-03
      4.26418061e-04 -2.19547874e-05 3.01224674e-04 1.59467338e-03
      -1.02920749e-03 -9.53413837e-04 -3.17745755e-04 7.01916870e-04
      3.36586568e-03 2.16770358e-03 2.37868400e-03 1.04854675e-03
      -4.84739547e-04 -1.99862965e-03 2.23239083e-04 3.90199042e-04
      1.77889853e-03 1.87157025e-03 -4.65623481e-04 -1.69432582e-03
      -1.90613791e-03 -2.86761671e-03 -5.09742694e-03 -4.18074103e-03
      -3.60652362e-03 9.00334038e-04 1.86509127e-03 1.96847273e-03
      1.88158447e-04 -1.00095687e-03 -4.87074349e-03 -3.11023393e-03
      4.42465098e-04 5.29335754e-04 1.40460767e-03 8.47766816e-04
      -4.41670854e-04 -4.83907433e-03 -4.33563301e-03 -3.85915837e-03
      -1.17023813e-03 1.65224192e-03 1.56167045e-03 1.47540285e-03
      1.75077701e-03 -1.70770640e-04 -1.99434836e-03 -6.00473781e-04
      -2.45790230e-03 2.53148633e-03 8.62776302e-04 7.24718906e-04
      4.71365376e-04 9.35741235e-04 1.20373827e-03 1.42980658e-03
      3.16770189e-03 1.77275552e-03 -3.73630854e-03 5.81187254e-04
      1.44026685e-03 1.28930993e-03 1.93682057e-03 -9.75014773e-05
      -4.17221524e-03 -4.23223572e-03 -5.63882664e-03 -5.10150660e-03
      -1.00980792e-03 -1.98886730e-03 5.69588970e-04 -1.73666034e-04
      -6.46539498e-04 -2.69158604e-03 -3.40621429e-03 -4.78195166e-03
      3.67773883e-03 1.94269570e-03 1.94774708e-03 1.99034088e-03
      9.31812450e-04 5.74803678e-04 -1.77530409e-03 1.08610792e-03
      3.54837370e-03 2.64729327e-03 1.86472421e-03 8.76421807e-04
      5.32198988e-04 1.82365708e-03 1.26784260e-03 -4.76773312e-05
      4.60767129e-04 1.73805957e-03 -4.83662728e-03 4.65116056e-04
      -1.63252378e-04 7.97746005e-04 -8.41136731e-04 -9.00191138e-04
      -6.03021588e-03 -4.59509064e-03 -4.11341293e-03 -3.79756466e-03
      2.41969945e-03 1.95380091e-03 8.92707962e-04 3.10345582e-04
      2.58479442e-04 -4.05475404e-03 -3.60613642e-03 -4.05889750e-03
      3.23101040e-03 1.85931136e-03 1.56913279e-03 1.09628984e-03
      1.45609141e-03 9.73196118e-04 -6.27847505e-04 2.04239879e-03
      3.81552684e-03 2.02007475e-03 1.45812321e-03 1.27460156e-03
      8.49296048e-04 9.68746434e-04 9.75250034e-04 1.28311210e-03
      2.25505838e-03 2.89384834e-03 -4.49399138e-03 1.30253681e-03
      5.30577498e-04 5.63650741e-04 7.66868689e-05 -1.43727841e-04
      -5.16837323e-03 -3.42871272e-03 -5.96625824e-03 -5.59962215e-03
      -2.61542434e-03 -2.05606362e-03 -1.88401376e-03 -1.12834910e-03
      -2.67518451e-04 -6.93034963e-04 -1.53115997e-03 -4.96388460e-03
      2.00703810e-03 1.20022194e-03 1.01046916e-03 7.23014819e-04
      -1.79627025e-03 4.13451489e-04 1.24468736e-03 2.11625989e-03
      2.87948782e-03 1.84871734e-03 5.00714632e-05 3.58882971e-05
      -8.98501487e-04 -3.44241527e-03 2.42337142e-03 2.57096789e-03
      9.44723084e-04 2.54440936e-03 -4.85993270e-03 -4.23645694e-03
      -3.22392024e-03 -1.33551867e-03 -2.20289105e-03 7.47583515e-04
      1.35939929e-03 -7.62957614e-04 -1.85823254e-03 -3.98843968e-03
      -4.25276440e-03 -3.84075707e-03 -2.97505991e-03 -2.70519592e-03
      1.21295056e-03 -1.19876117e-03 5.56056970e-04 -1.30138337e-03
      1.65893347e-03 -2.26182201e-05 -7.02800753e-04 -2.03611725e-03
      -8.06482602e-03 1.08142856e-04 1.08623790e-04 -1.00816957e-04
      2.42404127e-03 2.95482832e-03 1.32171053e-03 -5.72444929e-04
      -1.16351305e-03 -5.66220563e-03 2.63026613e-03 1.93856028e-03
      9.89225926e-04 2.44149612e-03 -8.99835606e-04 -2.95712100e-03
      -4.87332093e-03 -4.08652006e-03 -6.31897757e-03 1.16144854e-03
      9.28375171e-04 7.24633981e-04 1.62021650e-04 2.88854353e-04
      4.06376086e-04 -2.26882962e-03 -1.74193876e-03 -2.69593485e-03
      1.28133723e-03 1.79323647e-03 -1.09897228e-03 -6.11861833e-06
      2.67285010e-04 1.22504367e-03 6.21839019e-04 2.89795978e-04
      -6.05357951e-03 6.34536962e-04 8.73681041e-04 -1.92131847e-03
      -9.36506083e-04 2.77425279e-04 1.06654072e-03 1.73928007e-03
      1.21914106e-03 -3.98315256e-03 -1.28626137e-03 -2.59228842e-03
      -9.20361548e-04 1.11476817e-04 2.83724070e-03 1.65633310e-03
      8.10724217e-04 4.86041768e-04 -4.84070182e-03 1.45682786e-03
      1.35962199e-03 -5.46727446e-04 2.06480990e-03 1.01457792e-03
      2.04791338e-03 2.48512696e-03 1.96959404e-03 -4.21436597e-03
      -2.90997466e-03 -1.88214297e-03 -3.44899163e-04 3.35103570e-04
      -8.49936681e-04 4.03223297e-04 -2.63436785e-04 1.47011725e-03
      -6.58377467e-05 -8.23673268e-04 -2.79430673e-03 -1.64586736e-03
      -2.57494347e-03 -1.87069515e-03 1.04911334e-03 1.57940609e-03
      1.13427080e-03 -3.09801777e-04 -7.48285325e-04 -4.29894449e-03
      -3.99363926e-03 -3.63832409e-03 1.26144371e-03 3.85192642e-03
      1.87561323e-03 2.04094383e-03 -9.15963203e-04 -2.33880710e-03
      -3.76029173e-03 -2.49655568e-03 -3.36900208e-04 -2.97687761e-03
      2.81210477e-03 2.33416958e-03 4.79203038e-04 -3.00489739e-03
      -8.99992476e-04 -5.83904563e-03 -3.83813772e-03 -3.66050238e-03
      -4.20283666e-03 1.82537024e-03 3.52482405e-03 2.80919136e-03
      2.35051592e-03 -6.55193639e-04 -3.86223104e-03 -4.12035082e-03
      -5.50326938e-03 -4.80636489e-03 -1.61471951e-03 -2.14701775e-03
      2.64876551e-04 -3.93034657e-04 -3.84512503e-04 -2.80321087e-03
      -3.12499958e-03 -3.85000790e-03 -1.68250198e-03 1.75905076e-03
      8.20775225e-04 -3.95936688e-04 -1.21487561e-03 -5.28823934e-04
      -4.70416620e-03 -3.04951146e-03 -2.89854943e-03 -2.37653241e-03
      7.46200967e-04 7.05676444e-04 -1.94094027e-04 6.41818857e-04
      -8.52571742e-04 -5.31791709e-04 -5.95409983e-06 -1.40175014e-03
      -5.17276954e-03 -5.88795752e-04 -1.72544445e-03 6.55956857e-04
      -2.38231663e-03 -2.03025364e-03 -4.62891161e-03 -4.24782140e-03
      -4.78241546e-03 -2.61190324e-03 2.40678899e-03 2.23996653e-03
      8.30395613e-04 1.09902023e-04 -6.15142111e-04 -2.62668589e-03
      -3.50067439e-03 -2.26559164e-03 -1.30549865e-03 1.70407104e-04
      6.22538908e-04 -5.51129167e-04 -1.50024905e-04 -1.86338369e-03
      -1.32922054e-04 -2.17150518e-05 -2.18257005e-03 -2.07342347e-03
      1.67705803e-04 1.17213721e-03 4.90345119e-04 1.25030207e-03
      9.90204062e-05 -2.22140530e-04 -2.04702280e-03 -2.83133029e-03
      -1.52728369e-03 2.31052143e-03 1.84356957e-03 1.17422186e-03
      9.81311663e-04 -1.52090070e-04 -3.19993123e-03 -2.27499940e-03
      -2.31206184e-03 -4.10466921e-03 -1.33020326e-03 -1.36317487e-03
      -1.16651435e-03 -1.76317198e-03 -9.78908269e-04 -2.04031216e-03
      -1.31394307e-03 -4.25181957e-03 -3.28052905e-03 -1.34858734e-03
      4.28377854e-04 4.07985441e-04 1.54148485e-03 2.62785266e-04
      -3.09464842e-04 -1.36317010e-03 -3.87606607e-03 -4.88912035e-03
      -1.13179465e-03 -9.18471080e-04 -1.76450194e-04 6.15539844e-04
      4.28537052e-04 -1.32583966e-03 -9.65870509e-04 -5.24598174e-03
      -5.01532014e-03 -4.03705891e-03 -3.27036390e-03 -2.82745436e-03
      -8.56460072e-04 5.47782634e-04 -1.66365167e-03 -1.73530402e-03
      -4.25789785e-03 -3.02482466e-03 -2.95239571e-03 -2.87097087e-03
      -2.38429708e-03 -1.91119005e-04 1.55683351e-03 -1.28529372e-03
      1.19547604e-03 -3.12865363e-04 -4.61743586e-03 -1.86687650e-03
      -1.64733152e-03 -6.38308586e-04 2.26163993e-05 5.13094128e-04
      -3.88439570e-04 1.48080144e-04 -3.55349900e-03 -1.46093557e-03
      -3.69330315e-04 -7.31673499e-04 1.58363946e-05 3.54438991e-04
      6.67043088e-04 7.63034448e-04 1.89052269e-04 -3.01485881e-04
      -5.03511447e-03 -7.12295622e-03 -7.94471148e-03 -6.70374278e-03
      -4.97805886e-03 1.82411561e-04 4.35283058e-04 2.67679919e-04
      -2.85245944e-03 -1.29151624e-04 -1.19520910e-03 -2.03431514e-03
      -2.44551245e-03 -4.36340109e-04 -1.03665132e-03 2.25801277e-03
      4.10436274e-04 1.28971471e-03 -1.27676860e-04 -1.11705005e-04
      -5.72405930e-04 -3.75700511e-05 -1.73451059e-04 5.14562649e-04
      1.16037880e-03 4.79146198e-04 2.52571102e-04 1.51029113e-03
      5.80298831e-04 2.28366349e-04 -1.60874712e-04 7.15045666e-04
      -7.28314626e-04 1.25883974e-03 2.67402478e-03 2.26057367e-03
      1.68620027e-03 1.49815658e-03 1.19044026e-03 5.12116880e-04
      -1.96876214e-03 -1.30132539e-03 1.08121464e-03 1.27529760e-03
      1.45609456e-03 -3.23840446e-04 1.52502197e-03 2.13849870e-03
      1.80124887e-03 -3.44074308e-03 -1.04986620e-03 -1.90108572e-03
      1.44793210e-03 -3.40663479e-04 1.73261994e-03 8.35865969e-04
      1.17275270e-03 2.12464016e-04 7.88461824e-04 -2.50160210e-05
      2.50700582e-03 3.18292761e-03 2.20491993e-03 -8.60089960e-04
      -2.53838807e-04 -1.33165182e-03 1.73532080e-05 -4.25864942e-03
      -9.16173449e-04 -1.32885366e-03 -1.70995889e-04 -8.95444071e-04
      8.08733574e-04 3.82231525e-03 2.87911738e-03 3.30878887e-03
      1.71726162e-03 -2.25706535e-04 -2.32109567e-03 -8.21159570e-04
      -1.47247105e-03 -1.80600502e-03 5.03514195e-04 -1.57775183e-03
      -6.62350445e-04 -2.08450854e-03 1.64158264e-04 -4.69321618e-03
      -1.30168058e-03 -3.22562736e-03 -4.56321007e-03 -4.56977636e-03
      -3.23521486e-03 8.34911771e-04 3.76347057e-03 2.71623814e-03
      2.57934351e-03 1.77044212e-03 -2.64713052e-03 -4.07487666e-03
      -2.64701690e-03 -4.80392529e-03 -8.61451204e-04 -6.14908116e-04
      2.82550289e-04 -1.71259523e-03 -9.31673392e-04 -3.78889381e-03
      -2.90058088e-03 8.59174179e-04 -1.84059865e-03 -2.52521387e-03
      -3.18001281e-03 -1.89443573e-03 -6.52527530e-03 -2.96452781e-03
      -3.16711259e-03 9.76838055e-04 2.30327644e-03 8.42491922e-04
      1.59855267e-06 6.94022689e-04 -1.21849531e-03 -1.11210730e-03
      6.65225147e-04 5.65513561e-04 -2.33459566e-03 -2.26057461e-03
      -4.02408186e-03 -1.56119792e-03 -4.25446546e-03 1.06296728e-04
      -2.63243075e-03 -5.78644744e-04 -2.52544321e-03 2.86543393e-04
      9.11578711e-04 -2.89514574e-04 -2.13087173e-04 8.70697491e-04
      -1.17468924e-04 -1.11060927e-03 -2.50842975e-04 2.00602910e-04
      -1.00061123e-03 -5.35882369e-04 -4.59757197e-04 -2.99916044e-03
      -1.54244667e-03 -4.10391577e-03 -1.12824619e-03 2.13795598e-03
      -9.32357972e-04 -2.77306768e-04 7.60633324e-04 7.81051407e-04
      2.31732396e-04 -2.02565963e-04 -5.47624310e-04 -2.70605931e-04
      7.48182181e-04 -6.14027784e-04 2.69570160e-06 6.83668244e-04
      -1.22375437e-03 -1.42794696e-03 1.06070866e-03 2.47599644e-04
      -2.56911066e-04 8.25920550e-04 2.09554157e-04 7.21573655e-04
      4.31849621e-04 2.57485226e-04 -4.89628583e-04 -1.17696624e-03
      -3.02184199e-04 5.86134323e-04 8.90774711e-04 9.16970661e-04
      -3.97456251e-03 -1.51716219e-03 2.13004346e-03 9.36592289e-04
      3.96552682e-03 2.88959447e-04 1.97586021e-04 -3.23460874e-04
      -4.33442090e-03 -6.53018523e-03 -3.31903662e-04 -4.52838984e-04
      -1.69075895e-04 1.07466895e-03 4.82385745e-04 -9.76936077e-04
      -6.21617655e-04 -6.33468432e-03 8.58508516e-04 7.97400135e-04
      1.14125526e-03 9.93944413e-05 5.96000464e-04 2.14647123e-04
      7.41853204e-04 1.14180194e-03 1.18163240e-03 4.64638462e-04
      5.22574119e-04 5.36213571e-04 2.17915163e-04 8.16065061e-04
      4.27315652e-04 2.05896577e-04 1.07834348e-04 3.16870341e-04
      -7.00851670e-03 -6.04223809e-04 -4.08054009e-04 -2.01379240e-04
      -3.82891187e-04 3.15403740e-04 -1.11633213e-04 5.54213111e-05
      -6.77737175e-03 8.17232009e-04 -3.87509863e-05 -1.20296070e-04
      -2.50634330e-05 8.10475496e-04 8.56731436e-04 1.61463337e-03
      1.38674944e-03 1.07550959e-03 2.30458958e-04 2.82747817e-04
      3.72826849e-04 1.70688290e-04 3.45211884e-04 2.57456675e-04
      1.03572631e-04 7.17288931e-05 1.97469533e-04 3.38491693e-04
      2.56573054e-04 3.52505536e-04 1.93270855e-04 3.77183896e-04
      1.57318224e-04 2.02667972e-04 2.28936042e-04 3.21252475e-04
      1.63130008e-03 3.52104224e-04 -1.57999079e-04 -7.39829033e-04
      -1.14736555e-03 1.91247091e-04 8.05786985e-04 3.92502378e-04
      1.63319160e-03 1.89405517e-03 2.54187151e-04 -2.13760461e-04
      -1.07797341e-05 -1.60436204e-03 -1.16291654e-03 3.97401716e-04
      2.73465994e-03 4.20564041e-03 3.40690749e-04 1.48595776e-04
      2.64079863e-04 1.33835434e-04 1.60579511e-04 2.07918365e-05
      9.94222282e-05 1.32042624e-04 3.29722941e-04 6.51501934e-04
      1.21776859e-04 1.09236222e-04 2.16275686e-04 3.54104978e-03
      1.16543449e-03 2.30764505e-03 1.59404438e-03 9.55526892e-04
      1.12692406e-03 8.61709355e-04 8.99419771e-04 4.64637589e-04
      1.36739865e-03 -9.75638250e-05 1.05908979e-03 1.60428986e-03
      1.54881633e-03 -1.89639896e-03 -1.49583037e-04 -1.66009052e-03
      -1.51789270e-03 -2.96885008e-03 -6.95394585e-04 -1.25065772e-03
      -1.66600547e-03 -1.45257101e-03 -4.57441965e-05 1.47064748e-05
      -7.89689802e-05 1.10775864e-05 2.48850114e-03 1.43424096e-03
      2.19641486e-03 1.60740898e-03 7.13511370e-04 -1.97928515e-03
      -2.55271653e-03 -3.48538486e-03 -5.50544774e-03 -3.05633934e-04
      2.67804344e-03 6.78226934e-05 1.31979561e-03 -5.24678500e-04
      -4.37482120e-03 -4.04201448e-03 -1.41480670e-03 1.39249640e-03
      3.51566193e-03 5.49152319e-04 -7.23019126e-04 1.83389042e-04
      -3.31213465e-03 -3.89101845e-03 -1.73944328e-03 -2.63157696e-03
      -1.79189927e-04 1.28875879e-04 8.26617295e-04 -6.26314722e-04
      -1.13137656e-04 -2.49112956e-03 -1.72304665e-03 -3.04775313e-04
      -7.38067378e-04 1.18078920e-03 2.76101357e-03 5.57576481e-04
      -1.82703231e-03 -8.79483123e-05 -2.06940249e-03 -2.39027315e-03
      -6.78256270e-04 -1.20217737e-03 7.41648430e-04 1.43124128e-03
      1.95944076e-03 -1.24061841e-03 -2.19846074e-03 -2.38534040e-03
      -2.66971160e-03 -1.17438077e-03 -2.75570876e-03 -9.88190804e-05
      -2.66675930e-03 -1.47701753e-03 -4.33966657e-03 -1.64456049e-03
      -3.44109931e-03 -1.04914384e-03 4.06337407e-04 -8.85894347e-04
      -2.20807400e-04 1.27841823e-03 4.88561695e-04 -1.58287189e-03
      -6.89599779e-04 -1.58775446e-03 -2.17854348e-03 -3.92701550e-05
      -1.10116892e-03 4.97002678e-04 1.38698262e-03 1.34927733e-03
      -1.32509309e-03 -3.19919520e-04 -1.88669539e-03 -3.48511821e-04
      1.56487135e-04 -2.75148515e-04 4.02413716e-04 5.96285914e-04
      4.27398307e-04 -7.43662764e-04 2.88732292e-04 3.46039858e-04
      -1.74784486e-03 -2.01992039e-03 -2.75954348e-03 -2.74961651e-03
      2.09404985e-04 -3.23172571e-04 -1.85973779e-03 -9.29124071e-04
      -1.35510252e-03 -6.07691356e-04 7.15327187e-05 1.33000140e-04
      -9.48008907e-04 -1.32695853e-03 3.59604346e-05 5.65737020e-04
      4.72322659e-04 -6.65810483e-04 1.38938823e-03 -1.54417547e-04
      1.77611306e-04 4.55009795e-05 -1.26835925e-03 1.85755547e-03
      8.88738665e-04 1.94573018e-03 3.26240505e-03 2.66516930e-04
      7.93620944e-04 1.06587843e-03 2.79290980e-04 -9.22930893e-04
      8.73739133e-04 7.61957606e-04 1.10158732e-03 3.62224004e-04
      -5.49128454e-04 2.99839121e-05 6.86702726e-04 -6.58684468e-04
      -4.68912156e-04 8.10096972e-05 7.86020595e-04 7.57742266e-04
      -9.02607499e-05 4.15240298e-04 3.50239861e-04 4.90695471e-04
      1.18967866e-04 5.28330973e-04 9.29780290e-05 2.40477293e-05
      1.43680945e-05 3.38063401e-04 -5.57015592e-04 1.09980465e-03
      8.93974095e-04 2.46405980e-04 -2.62561324e-03 7.96172651e-04
      1.14458287e-03 3.82254785e-03 1.87316531e-04 6.31851959e-04
      5.49683406e-04 4.91227082e-04 1.26782077e-04 3.98414762e-04
      1.03804319e-04 3.16123478e-04 1.95474538e-04 5.01975475e-04
      2.58599117e-04 4.10542532e-04 4.10542532e-04 3.00591375e-04
      3.89165740e-04 2.48521013e-04 3.56910095e-05 4.92314175e-05
      1.58607072e-04 2.73825397e-04 3.11726995e-04 3.59950762e-04
      1.66069542e-04 3.86017200e-04 1.30573404e-04 1.17108793e-04
      2.02481722e-04 2.35826374e-04 1.17579522e-03 1.24401960e-03
      7.00937759e-04 2.11515377e-04 5.27900760e-04 1.53388683e-04
      3.46024142e-04 1.82603253e-04 7.33952853e-04 1.87972642e-03
      1.83838862e-03 1.35129492e-03 2.68734177e-04 5.54718426e-04
      2.86157272e-04 2.73823862e-05 4.46530204e-04 1.86390372e-03
      9.20845487e-05 3.45480075e-05 2.24926072e-04 2.13965701e-04
      1.16026471e-03 1.24668131e-05 2.36296637e-05 2.91222223e-05
      7.68819154e-05 1.72223325e-03 3.62698309e-04 2.70802237e-04
      3.19858926e-04 3.28649930e-03 2.34200573e-03 3.51492548e-03
      3.50712868e-03 1.86679699e-03 1.27418723e-03 1.34944962e-03
      5.51021833e-04 7.61045158e-05 4.33900539e-04 7.42366828e-04
      7.70032493e-05 7.02156278e-04 9.44145024e-04 -5.72139490e-03
      -6.73299830e-04 -6.58696459e-04 3.56164499e-04 1.09473919e-03
      2.85902672e-04 2.63032969e-04 1.48521460e-04 7.66235695e-04
      2.48683762e-04 3.36133846e-04 9.46738655e-05 1.56868380e-04
      1.17914344e-03 1.02900527e-03 1.73227873e-03 9.15823970e-04
      6.98066084e-04 2.97647482e-03 -1.39105774e-03 -2.53976928e-03
      -2.05080956e-03 -7.32566521e-04 3.01022548e-03 5.26765885e-04
      3.92096629e-03 4.71291970e-03 -4.66556055e-04 3.83868202e-04
      -5.19125431e-04 2.17542794e-04 -5.95697493e-04 1.79166062e-04
      4.57765505e-04 1.83844299e-04 -2.87513576e-05 -1.41373836e-03
      -2.24060216e-03 -8.89984134e-04 -2.65921885e-03 -6.70890277e-03
      1.92476611e-04 -1.84376130e-03 1.41714409e-03 3.06580565e-04
      -1.64025649e-03 8.11850405e-05 -8.73621786e-04 -3.48637579e-04
      -1.20215947e-04 1.11188309e-03 -1.03875855e-03 -2.01291157e-04
      -2.02748203e-03 -4.26675007e-03 -4.38019895e-04 -1.28594378e-03
      4.60283103e-04 -1.37022487e-03 3.05587868e-03 -2.08149431e-03
      -2.63906457e-03 -4.14452748e-03 -4.29980544e-04 5.90746175e-04
      -8.12282437e-04 -1.21395302e-03 2.58117536e-04 1.41302648e-03
      -1.13336206e-03 3.13776167e-04 -1.40145433e-03 -1.67877087e-03
      1.81010269e-04 -1.18250854e-03 2.35603598e-04 -2.16658320e-03
      2.11320119e-03 1.48315652e-04 1.37476425e-03 -9.22600506e-04
      -2.51047057e-03 -1.92200672e-03 -2.82026641e-03 -1.61156618e-06
      -2.72951345e-03 -2.32529073e-05 -1.32833887e-03 -1.52381090e-03
      -2.60416651e-03 -4.05597355e-04 -9.55962983e-04 -1.47359376e-03
      -6.70022273e-05 -7.05350947e-04 9.08863789e-04 2.03698291e-04
      1.48552179e-03 9.99430893e-04 -1.79885735e-03 -2.06479756e-03
      -2.73924693e-03 -1.12880698e-04 -2.37562088e-03 3.17977136e-03
      8.44290422e-04 2.13134405e-03 1.41065975e-04 -5.28392242e-03
      -2.29941006e-03 -3.94782564e-03 2.37240558e-04 -4.86835401e-04
      -2.02142310e-05 -3.39094928e-04 2.28300400e-04 -3.77996382e-03
      2.06011187e-04 -6.55604003e-04 -1.02116945e-04 -4.85890196e-04
      -2.01019947e-03 9.36491357e-04 4.33121982e-04 9.29087459e-04
      5.44966373e-04 -3.73871968e-04 2.24602933e-04 8.71948781e-04
      2.66795196e-05 1.75687717e-04 1.42144260e-03 1.72319205e-03
      1.41986960e-03 3.23511020e-04 -2.91226199e-03 -3.04592680e-03
      -5.55191934e-03 -2.31077801e-03 -2.27289088e-03 -4.01391764e-04
      -3.03304149e-03 -1.55024044e-03 -2.20364844e-03 -2.33397307e-03
      -1.51435772e-04 3.04591231e-04 1.80975276e-05 -4.58340481e-04
      1.72948348e-03 1.01369806e-03 3.50287824e-04 -1.92248914e-03
      -1.29984238e-03 7.49192375e-04 8.49781965e-04 3.70363327e-04
      2.95867048e-05 1.84144452e-03 1.86506694e-03 1.40401779e-03
      -9.01707623e-04 5.42912807e-04 6.01660227e-04 7.16183742e-04
      1.59289848e-04 6.80270430e-04 1.11245929e-04 3.19152867e-04
      1.95916873e-04 3.18799546e-04 -1.93677458e-03 4.57788847e-04
      1.74731575e-03 -2.35438391e-04 -2.78565567e-03 2.05362518e-03
      2.93555739e-03 9.98135190e-04 -2.16891407e-03 -1.43587575e-04
      2.90842727e-04 1.71756197e-03 1.91312551e-03 2.72363611e-03
      2.65381241e-04 2.29107216e-03 2.02377234e-03 -6.24717140e-05
      7.92109699e-04 1.03177852e-03 1.03247527e-03 4.61797288e-04
      9.15057608e-04 1.54744121e-05 1.56663431e-04 2.07762088e-04
      5.86306502e-04 1.06863421e-03 9.97789088e-04 7.38685252e-04
      3.38225625e-04 7.46960926e-04 4.72511601e-05 5.02711518e-05
      1.56880793e-04 7.20091572e-04 -1.51239359e-03 2.34668711e-04
      2.30596750e-04 1.10732112e-03 2.75648758e-03 -7.68368307e-04
      2.46648141e-03 2.26061395e-03 -2.00311944e-04 -3.53975105e-03
      -3.08145257e-03 -2.01464840e-03 -3.36605386e-04 -1.17701665e-03
      1.45304002e-04 -2.57284031e-04 4.44797799e-04 -4.05010767e-03
      9.80521203e-04 8.55107559e-04 7.77425652e-04 4.68009763e-04
      8.65056121e-04 1.70247891e-04 7.01166864e-05 2.54210347e-04
      1.08837150e-03 -1.84207121e-04 -6.67011947e-04 -2.06230965e-04
      -4.19560150e-04 2.69969052e-04 -5.09347883e-05 9.80747791e-05
      -2.56927779e-05 -1.27848944e-05 -4.80192667e-03 -1.53749902e-03
      -1.50005810e-03 -5.38024833e-05 2.00483573e-05 2.78375868e-04
      -6.72969691e-06 1.80867035e-04 -3.77754332e-03 -2.26316950e-03
      -9.16171120e-04 -4.20854922e-04 1.32259808e-03 3.12706013e-03
      -1.77515481e-04 1.07494256e-04 -1.30966626e-04 -2.23516719e-03
      3.09285562e-04 -7.20833719e-04 -2.25424592e-04 7.32732471e-04
      -4.75855806e-04 -1.63261517e-04 1.44448873e-04 2.08691388e-04
      7.45029130e-04 -1.37799059e-03 -1.42890948e-03 -2.63840891e-03
      9.82212252e-04 -4.19646641e-03 -4.20210708e-04 -1.46814086e-03
      6.39361315e-05 -9.55044175e-04 -4.63509641e-04 -2.94957659e-04
      5.35817351e-04 7.63434800e-04 1.83651646e-04 -6.32015348e-04
      -1.05838721e-04 2.10155049e-04 -4.35092021e-04 2.05351179e-03
      1.43206294e-03 -1.73377129e-03 2.48565990e-03 -2.04018620e-03
      -1.88937190e-03 -4.01488645e-03 -3.57575947e-04 7.39572162e-04
      -4.67612379e-04 1.39140221e-03 4.83684562e-04 6.88410655e-05
      -1.30557816e-03 9.45491076e-04 -1.46336213e-03 9.15636265e-05
      -1.30143133e-03 -2.04680278e-03 -4.22530895e-04 -1.17537694e-03
      -6.35449076e-04 -5.79264574e-03 2.58428836e-03 8.54874728e-04
      1.16802379e-03 -1.00511243e-03 -3.62121325e-04 1.36106054e-03
      1.37499662e-03 2.39548972e-04 7.08374602e-04 1.04328210e-03
      -7.86646269e-04 -8.55241728e-04 -1.05268159e-03 -3.71218123e-03
      -7.50606065e-04 -7.37439492e-04 -6.82827376e-04 9.67777392e-04
      1.82284217e-04 -7.48468854e-04 -1.28280523e-03 -3.19211558e-03
      -2.88516353e-03 -1.50075555e-03 -1.57214433e-03 -5.45252697e-04
      -7.97401124e-04 2.30897087e-04 -4.82197618e-04 7.32757850e-04
      -2.74331379e-03 -4.26979922e-03 -1.69068179e-03 -2.94210529e-03
      -4.93132218e-04 -1.33200301e-04 -2.62701302e-04 1.53473089e-03
      1.71325996e-03 -1.70249946e-03 -3.87568213e-03 -1.21444114e-03
      -1.59459026e-03 1.05860810e-04 5.19963622e-04 1.13574183e-03
      -2.64520408e-04 3.42413288e-04 -2.73670768e-03 -5.31514548e-03
      -7.44814635e-04 -9.31847084e-04 -5.40719600e-04 -2.33517028e-03
      -7.36415503e-04 -8.65621842e-04 1.04212796e-03 -3.79497441e-03
      -4.59462358e-03 -1.33582100e-03 -2.98830844e-03 -1.49795762e-03
      -2.92299525e-03 -5.41187066e-04 -4.42996912e-04 3.15197307e-04
      -3.56171140e-03 3.46289744e-06 9.89423832e-04 2.85100279e-04
      3.94872855e-04 1.10819447e-03 2.18913029e-03 1.64442766e-03
      1.80913939e-03 -2.83845176e-04 -2.84922030e-03 -7.50517240e-04
      -1.46075070e-03 -1.97212794e-03 -2.78508128e-03 -1.60984707e-03
      -2.38476801e-04 1.39364065e-03 -1.72140065e-03 -2.27438007e-03
      7.89184531e-04 2.64689414e-04 2.56162230e-03 -3.08176503e-04
      -6.84654573e-04 2.14013876e-03 2.52136262e-03 -1.82011502e-03
      2.99270963e-04 4.23672522e-04 2.49562028e-04 -1.14898612e-05
      8.77628278e-04 5.49498596e-04 1.81031402e-03 1.87484210e-03
      2.52475467e-04 -7.73231906e-04 -1.40333999e-04 -3.73938004e-04
      4.87157056e-04 1.31630944e-03 7.33865658e-04 2.06910030e-04
      1.88283972e-03 1.89973303e-04 -3.57880211e-03 -1.89690094e-03
      -2.25762068e-03 8.79411469e-04 6.55984739e-04 1.01605698e-03
      3.57047492e-03 4.09516320e-03 -1.49263581e-03 -5.57032740e-03
      -5.95984701e-03 -6.45923009e-03 -2.31826591e-04 2.52499268e-03
      1.47814874e-03 1.15308270e-03 2.59403768e-03 -4.20056330e-03
      -2.01072637e-03 -8.26389354e-04 -8.48684402e-04 9.14202537e-04
      1.39514788e-03 5.37417538e-04 2.25666998e-04 1.23916869e-03
      -1.91368640e-03 -4.15779836e-03 -1.14503293e-03 -9.81660560e-04
      1.50324591e-03 1.15841173e-03 2.32369319e-04 -3.51669616e-04
      3.48741887e-04 -3.93165182e-03 -4.14125901e-03 -5.77010633e-03
      -6.64194953e-03 1.70694941e-04 4.40089218e-03 2.65858136e-03
      1.24945049e-03 1.28816254e-03 -3.40513978e-03 -4.23977338e-03
      -1.41203357e-03 -3.71946371e-04 2.08535721e-03 5.84502798e-03
      7.48291088e-04 -1.76152855e-03 -1.92759070e-03 -4.39316919e-03
      -3.41911404e-03 -1.08212198e-03 -1.14613131e-03 7.64436496e-04
      7.03236728e-04 1.35003429e-04 -1.10919389e-03 3.19013867e-04
      -4.14531818e-03 -2.48811534e-03 -1.25603087e-03 3.45548615e-04
      5.20878297e-04 7.64561526e-04 -3.57365585e-04 -3.91101610e-04
      2.03206539e-04 -1.24237896e-03 -6.17231382e-03 -1.12689415e-03
      -1.99114162e-04 1.07135042e-03 2.30701128e-03 5.33007609e-04
      -1.52444339e-03 -3.04166018e-03 -7.85807706e-03 2.29913648e-03
      2.09506880e-03 2.47846055e-03 3.58964899e-03 5.15660085e-03
      -7.85092998e-04 -1.66997034e-03 -1.39404915e-03 2.16967333e-03
      -3.09613673e-03 -2.24590627e-03 -7.98560330e-04 1.56497455e-03
      1.42236461e-03 -9.15066339e-04 1.34744143e-04 5.77565166e-04
      -2.09544343e-03 1.08983647e-03 5.05016418e-04 -1.91021920e-03
      1.88748469e-03 -2.02410785e-03 -8.37512562e-05 7.00051751e-05
      8.22740898e-04 8.81208107e-05 4.69253544e-04 1.24540820e-03
      1.45225649e-05 2.44959537e-03 2.74529052e-03 -2.59350025e-04
      -2.14041839e-03 3.90915447e-05 1.67419159e-04 1.02902362e-04
      -9.11468407e-04 -1.36802392e-03 -3.43399370e-05 -2.45319796e-04
      1.19416695e-03 1.57695636e-03 1.24154217e-03 -1.54817698e-03
      5.15900028e-04 1.72162196e-03 1.20577379e-03 3.90035129e-04
      -2.28926470e-03 1.00924633e-04 2.97448278e-04 6.86912506e-04
      7.91022612e-04 1.59172446e-03 3.60216782e-03 2.64398940e-03
      1.49772270e-03 2.08812626e-03 -9.61149635e-04 -1.06745574e-03
      -4.70412662e-04 1.53760659e-04 3.46249755e-04 1.64308038e-03
      3.61815980e-03 1.64376805e-03 1.93028396e-03 3.01702472e-04
      -1.03690079e-03 -7.49219966e-04 -7.59590126e-04 1.33745940e-04
      3.32412100e-03 3.25116958e-03 2.74811778e-03 3.93713638e-03
      7.50451291e-05 -2.03029951e-03 -1.27641857e-03 -1.83570432e-03
      1.35814562e-03 3.54804564e-03 3.15048802e-03 2.10764562e-03
      1.66164245e-03 -7.12617591e-04 -8.93128919e-04 5.44092472e-05
      5.22215152e-04 1.48286275e-03 2.43038149e-03 2.80510937e-03
      1.29663700e-03 1.61196094e-03 -3.22503038e-04 6.04941742e-05
      -2.73147234e-05 1.21477374e-03 6.48937421e-04 1.87149202e-03
      2.66282819e-03 1.81598437e-03 1.88416231e-03 -7.13494665e-04
      7.04072008e-04 7.69522507e-04 -5.54790080e-04 4.38112882e-04
      1.21315813e-03 1.12185092e-03 6.49082707e-04 1.46532533e-04
      -1.94420561e-03 1.69307852e-04 5.24776289e-04 -4.00525576e-04
      2.53477949e-03 2.70559709e-03 2.73087760e-03 1.84988976e-03
      2.23647128e-03 -8.36544568e-05 5.70243981e-04 -4.92229941e-04
      1.21860520e-03 2.96163163e-03 1.82600203e-03 2.54824432e-03
      5.62355213e-04 5.63823292e-03 6.62673265e-04 6.75226620e-04
      1.28905079e-03 1.86595507e-03 1.07636384e-03 6.00208878e-04
      8.47421878e-04 4.36651404e-04 -5.70120115e-04 -2.93933816e-04
      -2.92578305e-04 5.61728957e-04 -3.19145358e-04 3.76470806e-03
      1.49720337e-03 1.82011852e-03 1.54570630e-03 4.10878891e-03
      1.29058911e-03 1.07744278e-03 9.14175354e-04 3.08243535e-03
      2.89277895e-03 1.28278765e-03 1.40908873e-03 7.77994166e-04
      3.53561551e-03 5.10496029e-04 8.91290023e-04 1.41703873e-03
      1.94261561e-03 4.60396800e-03 1.81324268e-03 5.45806310e-04
      3.98560689e-04 -1.37132686e-03 1.81922887e-03 2.52325507e-03
      2.94427830e-03 4.44874400e-03 3.72177735e-03 1.16917898e-03
      1.48580805e-03 1.10270176e-03 2.59444700e-03 2.04930361e-03
      7.44136341e-04 1.06645527e-03 1.33143272e-03 7.32906337e-04
      8.76373553e-04 8.95602629e-04 1.65080559e-03 -6.39892183e-03
      8.23422568e-04 -8.45873787e-04 -2.29970668e-04 4.67422709e-04
      4.19030292e-03 1.72079098e-03 1.21380122e-04 5.27542026e-04
      -2.13239552e-03 2.26236437e-03 1.73471554e-03 1.67871173e-03
      4.52627055e-03 4.72250301e-03 7.68779602e-04 -7.65777600e-04
      5.91696182e-04 -7.90479314e-03 2.92911718e-04 1.53848622e-03
      1.50507747e-03 5.39690908e-03 -1.45171245e-03 5.64661925e-04
      2.23537980e-04 4.97685396e-04 -1.68217102e-03 1.21083297e-03
      -1.07698573e-03 -6.24805863e-04 -7.94211810e-04 1.91633590e-03
      7.92248698e-04 -8.69374082e-04 -5.07640187e-04 -7.21334340e-03
      -2.89618511e-05 -3.47719854e-03 -3.39654362e-05 2.34080479e-03
      3.81805282e-03 7.28656945e-04 4.70605562e-04 7.82594492e-04
      -6.39893441e-03 -5.91826974e-04 -2.41101399e-04 1.44128024e-03
      4.31205658e-03 3.51509708e-03 1.33696490e-03 1.30762695e-03
      8.51523189e-04 -3.91382212e-03 -1.00646610e-03 -2.75788916e-04
      3.48776783e-04 3.62555333e-03 2.63104541e-03 8.54081009e-04
      3.36808152e-04 2.40454014e-04 -7.58128799e-03 4.21115546e-04
      -3.52669926e-03 3.78392666e-04 3.90863372e-03 -2.59240158e-03
      1.46684912e-03 1.32403208e-03 1.29313045e-03 -2.19500181e-03
      -1.22644589e-03 1.28396752e-03 -7.87258497e-04 -3.05428915e-03
      1.64747192e-03 1.35041610e-03 1.30920135e-03 1.08433212e-03
      -9.00285726e-04 -1.27893616e-03 -3.86535306e-03 -5.53300604e-04
      1.61992118e-03 1.02251710e-03 9.65136162e-04 1.00090436e-03
      3.50470247e-04 6.35322867e-05 -8.88647861e-04 -2.38085911e-03
      -4.37073701e-04 1.00900920e-03 -3.04082729e-04 -9.00586834e-04
      -3.89465160e-04 3.73638351e-04 -1.78963412e-03 1.78186153e-03
      -4.26878425e-04 -3.00593837e-03 -9.72573122e-04 -2.75448733e-03
      -2.33696727e-03 -2.75840214e-03 -1.14820036e-03 1.25117440e-04
      3.98247532e-04 -1.16990984e-03 -3.22678010e-03 -2.94377701e-03
      -8.32083344e-04 2.24744645e-03 4.77456953e-03 3.57052148e-03
      3.21168476e-03 1.38726074e-03 -9.42956598e-04 -1.15803629e-03
      -1.48311711e-03 -9.42211831e-04 1.99053111e-03 2.97362870e-03
      2.00098450e-03 2.20308849e-03 1.39740063e-03 -1.21082808e-03
      -1.57567253e-03 -2.52681249e-03 -5.05875377e-03 -1.49442872e-03
      -1.64229714e-03 2.50122603e-03 3.67144193e-03 9.16023331e-04
      -1.66229031e-03 -4.14499926e-04 -4.71275300e-03 -3.52537981e-03
      -1.26015581e-03 -5.70778095e-04 4.24206664e-04 3.87630425e-04
      -4.80776449e-04 -3.89917451e-03 -3.25793005e-03 -4.33421135e-03
      8.74464866e-04 3.55783105e-03 3.77375982e-03 2.45529413e-03
      6.17314409e-03 6.16746911e-05 -9.19389247e-04 -6.47125242e-04
      2.74836086e-04 7.18149706e-04 1.41684970e-04 3.36880039e-05
      -1.92745720e-04 -3.27727292e-04 -2.26009681e-04 1.44234422e-04
      -1.51785134e-04 6.68582972e-04 -6.51067682e-03 -3.33225529e-04
      -7.07426807e-04 -1.95360451e-04 7.01897603e-04 -4.05315659e-04
      -4.69204038e-03 -3.49637587e-03 -6.50461344e-03 -5.64275403e-03
      -1.02025014e-03 -6.87909545e-04 -9.09722527e-04 8.63339053e-04
      5.84699621e-04 -1.94466533e-03 -2.75118044e-03 -4.71153762e-03
      6.91900728e-04 1.69005260e-04 -8.31717975e-04 -1.26492942e-03
      3.01832188e-04 -4.85873636e-04 -3.87064967e-04 -1.40210695e-03
      -8.68384144e-04 3.36138858e-03 1.71910750e-03 1.71544100e-03
      7.00762845e-04 1.75966718e-03 2.40842043e-03 3.43573978e-03
      2.32604379e-03 2.45017698e-03 -6.73666270e-03 -1.17393909e-03
      -1.01521565e-03 -1.42026960e-03 5.07319171e-04 1.63853092e-05
      -3.49374721e-03 -3.36953951e-03 -6.63534785e-03 -4.10752231e-03
      9.76212206e-04 8.08837591e-04 1.53816445e-03 1.05148868e-03
      8.13077320e-04 -1.91057648e-03 -1.33605464e-03 -4.38670209e-03
      1.77133130e-03 1.95401860e-03 2.56069959e-03 1.74522551e-03
      1.99891906e-03 1.44392066e-03 -8.32242949e-04 6.92071844e-05
      9.36661032e-04 -1.57269510e-03 1.06488774e-03 9.51489434e-04
      1.08705612e-03 2.21221009e-03 1.98424840e-03 6.81976788e-04
      5.29754092e-04 -9.51752707e-04 -4.87914076e-03 -9.71968111e-04
      4.11762558e-05 9.20657418e-04 2.39780219e-03 7.70668557e-04
      -1.09749683e-03 -6.11370546e-04 -4.90123359e-03 -5.37958369e-03
      -5.50293503e-03 -3.96807678e-03 -9.81340185e-04 7.66152516e-04
      1.68175797e-03 -1.10007438e-03 -6.53619587e-04 -5.43021969e-03
      1.41494049e-04 9.97402123e-04 -6.46232627e-04 1.21231969e-04
      -7.70052604e-04 1.73474790e-03 5.92205788e-06 7.77071109e-05
      1.11303394e-04 1.75488007e-03 -4.71439562e-04 -2.61667487e-03
      -2.60650204e-03 -1.79339049e-03 1.60423503e-03 -2.57336331e-04
      5.17237233e-04 2.74212472e-03 -2.41794460e-03 -2.28127069e-03
      -3.13248252e-03 -1.20149751e-03 -4.48301813e-04 1.99893443e-03
      -1.01906317e-03 -1.08216505e-03 -2.07553408e-03 -2.61220546e-03
      -2.43494892e-03 -5.09324064e-03 -3.32819135e-03 -1.03559333e-03
      1.45975372e-03 -1.54577091e-03 -2.47320789e-03 -1.76203845e-03
      1.11830281e-03 -6.28699083e-04 -2.55438220e-03 -3.27333552e-03
      -5.17639006e-03 7.58820446e-04 2.06103199e-04 1.05970648e-04
      1.38630113e-03 1.36122841e-03 1.22141454e-03 6.83363643e-04
      -4.87006153e-04 -1.18797540e-03 4.28737112e-04 1.43707311e-03
      -1.36768329e-03 -1.18562377e-04 -7.94905587e-04 -1.02117343e-03
      -3.18060699e-03 -3.79974372e-03 -1.24147348e-03 2.66490551e-03
      2.10230751e-03 -1.38254522e-03 -2.06376368e-04 -1.08585658e-03
      1.65305543e-03 -1.07334439e-04 -1.43039925e-03 1.34000392e-03
      2.27233442e-03 3.24334105e-04 -1.82810798e-03 -1.51450676e-03
      4.83302829e-05 1.25554419e-04 4.29561798e-04 -3.61492479e-04
      -6.15388853e-04 6.55139411e-06 -4.09471599e-04 -2.80814990e-03
      1.40288146e-04 -2.68288888e-03 -9.39809252e-04 -6.71421352e-04
      -8.64302972e-04 3.69316054e-04 9.77275427e-04 -2.05435930e-03
      -2.59618601e-03 -2.56561744e-03 1.09951980e-04 8.20247296e-05
      4.70672967e-04 -7.83803524e-04 9.86123341e-04 1.88209862e-03
      -1.75342375e-05 4.08655149e-04 -4.08859662e-04 -9.22006555e-04
      -3.49928814e-06 2.72459496e-04 -2.07095509e-04 -1.89417752e-03
      -1.62451691e-03 -2.85174185e-03 -2.56212871e-03 -1.09424791e-03
      -3.96789890e-03 3.13297816e-04 -2.57945707e-04 3.52081284e-03
      3.52216256e-03 1.91582702e-04 -2.39716470e-03 -6.33350573e-05
      -3.18786968e-03 -3.90165485e-03 -6.39771606e-05 -7.57244299e-04
      2.06893776e-04 -3.39386286e-04 -4.53796587e-04 -4.94520320e-03
      -2.52171024e-03 -5.04444400e-03 6.16825186e-04 -2.83334579e-04
      -1.02331105e-03 1.36135751e-03 1.04672147e-03 3.02396744e-04
      -3.07847839e-03 -1.87360361e-04 -5.39006491e-04 8.91337986e-04
      4.34499874e-04 -1.02446892e-03 4.90211096e-05 -2.56506098e-03
      -1.23933097e-03 -2.90845754e-03 -4.86150209e-04 -5.00591123e-04
      -6.47139968e-03 -4.98262991e-04 -7.78528105e-04 -2.63666559e-04
      -1.40000033e-04 -6.88950648e-04 -6.47453498e-03 -3.83314863e-03
      -6.39632391e-03 -6.20428706e-03 -1.47879613e-03 -7.39383104e-04
      -1.58326922e-03 2.00996222e-03 3.63333093e-04 -6.61828090e-04
      -9.40783531e-04 -5.07833902e-03 -4.83657233e-04 2.11056811e-03
      1.42865209e-03 9.29849397e-04 1.83016542e-04 2.98942934e-04
      -4.49166895e-04 6.05052686e-04 -1.14227703e-03 -9.56090924e-04
      1.50340854e-03 5.72744058e-04 8.80669511e-04 1.19361200e-03
      3.89794499e-04 4.69026185e-04 7.19882722e-04 -1.13430817e-03
      -5.37832081e-03 -1.78945798e-03 -1.22942613e-03 -1.91014761e-03
      9.50714340e-04 1.01394288e-03 -2.28980629e-04 -3.21080181e-04
      -5.25195338e-03 -4.49393969e-03 1.16039871e-03 1.29453326e-03
      1.19186111e-03 -1.44762438e-04 -3.11445387e-04 -1.45078497e-03
      -1.65808585e-03 -4.63604648e-03 -9.08603077e-04 1.27544533e-03
      4.71593026e-04 6.75124524e-04 6.48519272e-05 3.24133696e-04
      -6.13911310e-04 -4.98456066e-05 -7.61267031e-04 -2.02178350e-03
      4.92786814e-04 4.79611888e-04 7.41440803e-04 1.33369700e-03
      1.23196491e-03 3.16323130e-04 3.78023833e-04 -2.31152656e-03
      -2.80302763e-03 2.10335653e-04 6.22982159e-04 2.18127039e-03
      1.68496743e-03 9.37047647e-04 -1.54436880e-03 -8.01548827e-04
      -2.95857270e-03 -3.48542328e-03 -4.67466889e-03 -2.80923233e-03
      -2.59436638e-04 3.33722169e-03 2.50606542e-03 -5.98171027e-03
      -4.25574835e-03 -2.80224043e-03 -2.56148493e-03 -3.35193239e-04
      -4.24654718e-04 6.59676443e-04 1.69010810e-03 9.52769245e-04
      1.32871035e-03 9.42466577e-05 -2.91646109e-03 -2.36614444e-03
      -6.58465491e-04 -1.41215266e-03 1.84592747e-04 9.67135245e-04
      6.20455714e-04 5.63008769e-04 3.05926835e-04 -1.39468058e-03
      -2.65608425e-03 -3.35999299e-03 -3.82297882e-03 -1.66565948e-03
      -6.29312301e-04 1.65166042e-04 -3.56401363e-03 -1.48162013e-03
      -3.64483567e-03 -4.06373199e-03 -2.81648408e-03 -4.66103433e-03
      -1.78121938e-03 1.93211343e-03 1.62232411e-03 -2.11225287e-03
      -2.59754481e-03 -1.94002572e-03 -6.72917231e-04 -4.98184643e-04
      -2.03628186e-03 1.32197922e-04 6.85346778e-04 3.76708951e-04
      1.83177272e-05 -4.91735300e-05 -3.64199164e-04 1.08897965e-03
      -2.17249239e-04 -1.42651639e-04 5.19597554e-04 1.30456779e-03
      5.96665195e-04 1.11891015e-03 2.62759102e-04 6.79713965e-04
      -6.93619577e-03 -4.88509238e-03 -8.27053469e-03 -6.35350915e-03
      -4.26898478e-03 3.98730073e-04 8.36611580e-05 -2.04954227e-03
      -4.47838474e-03 -4.66995843e-04 1.33706548e-03 -3.38635204e-04
      -3.59736267e-04 2.38829711e-03 2.04171054e-03 1.99922640e-03
      -3.39363469e-04 -1.05876848e-03 8.91151954e-04 -1.97251502e-04
      -4.69724822e-04 4.83961659e-04 1.69757323e-03 7.13727437e-04
      1.44257059e-03 1.07398746e-03 1.01732265e-03 1.78001146e-03
      2.26280186e-03 1.83653971e-03 1.82098232e-03 3.76763567e-03
      1.20295642e-03 2.80256756e-03 2.89376802e-03 1.54273328e-03
      -3.09323776e-04 1.12670450e-03 1.03536353e-03 -1.76314177e-04
      -1.36017799e-04 1.25244865e-03 8.34743201e-04 1.13462855e-03
      -2.76100676e-04 -1.12040911e-03 6.78867218e-04 1.08385873e-04
      -2.07717239e-04 -3.15389829e-03 -2.90762889e-03 -4.01510298e-03
      -2.81137368e-03 -1.75060669e-03 2.17940169e-03 1.50476617e-03
      1.30372867e-03 1.15870708e-03 2.67867814e-03 1.78777881e-03
      3.53802415e-03 2.96432199e-03 1.84325082e-03 -1.71873195e-04
      9.58739722e-04 1.43979583e-03 1.51785894e-03 -2.49036076e-03
      1.45070648e-04 -1.19299075e-04 1.22054492e-03 4.35402064e-04
      -3.19715531e-04 -8.77787999e-04 -2.76275142e-03 -1.26212684e-03
      -2.39289046e-04 -2.35779844e-05 -2.44897068e-03 -2.76875240e-03
      -1.73958961e-03 1.30601390e-03 6.47427572e-04 3.81299091e-04
      3.83605424e-04 -2.30725831e-03 -9.39598598e-04 -1.17834390e-03
      -1.03400403e-03 -7.59677438e-04 -1.25143561e-03 -1.64857716e-03
      -3.79338977e-03 -5.14105486e-04 2.98201805e-03 3.20722861e-03
      6.64901978e-04 6.82542857e-04 -1.15921139e-03 -7.36167131e-04
      -1.31503301e-04 7.05386046e-04 4.11150308e-04 1.00854330e-03
      5.47250151e-04 9.23283980e-04 -1.60056850e-04 -1.92081393e-03
      2.19432241e-03 2.95967865e-03 5.79506624e-04 1.98749403e-04
      -4.13418934e-03 -8.69683747e-04 -2.66962219e-04 1.41637240e-04
      9.15975193e-04 2.34259234e-04 1.37372233e-03 2.23328039e-04
      5.88668510e-04 6.88026252e-04 2.23938667e-04 2.51358899e-04
      6.88385568e-04 -2.29222263e-04 -1.11833366e-03 5.99828898e-04
      9.94335511e-04 -4.16544644e-04 1.38926879e-03 7.60688388e-04
      -7.91120634e-04 -3.89494840e-03 -2.51182076e-03 -9.98693518e-04
      -1.00924028e-03 -6.03592256e-04 -5.37996093e-05 3.75208736e-04
      1.88503356e-04 -8.66645190e-04 -5.96069556e-04 -3.99788405e-04
      2.12562634e-04 5.67113108e-04 -7.46981066e-04 -7.27469218e-04
      6.43854495e-04 1.18869511e-05 2.21604860e-04 1.20574806e-03
      1.06467621e-03 -1.17378659e-03 8.79846804e-04 1.05646567e-03
      1.12884823e-04 1.57221129e-05 7.42864562e-04 9.92005225e-04
      1.58081995e-03 -1.12847076e-03 -1.05128158e-03 -1.84882653e-03
      -2.19703279e-03 -7.87095458e-04 -1.08792400e-03 2.92940415e-04
      -2.99893818e-05 6.75044197e-04 5.22509159e-04 1.14777370e-03
      6.05108449e-04 6.52478018e-04 6.28732014e-05 -2.30763340e-04
      5.31082856e-04 1.04429200e-03 1.24702905e-03 1.36937632e-03
      -2.95656407e-03 1.39353902e-03 2.16166954e-03 5.61460212e-04
      2.82500405e-04 1.54378009e-03 1.91328814e-03 1.88312563e-03
      -2.94410367e-03 -2.38870922e-03 6.99496712e-04 4.28385625e-04
      6.58253266e-05 1.56375335e-03 1.72722284e-04 4.87686455e-04
      1.24628842e-03 -2.33533350e-03 1.35453243e-03 9.88428597e-04
      1.20033871e-03 7.34975154e-04 1.65449723e-03 1.31231011e-03
      8.65657174e-04 1.12881255e-03 1.31923403e-03 2.73260492e-04
      2.17343899e-04 2.07599893e-04 1.07800697e-04 2.28892459e-04
      4.79518785e-05 2.12683895e-04 1.61013508e-04 1.85928206e-04
      -3.62089672e-03 -2.32190956e-04 -9.30626902e-06 -1.05529987e-04
      7.40284624e-04 1.53255358e-04 4.27943480e-04 3.74455558e-04
      -3.62691609e-03 -4.40719974e-04 1.69796345e-04 4.18357755e-04
      3.18402337e-04 3.30103911e-03 8.13129707e-04 1.76401332e-03
      2.32276879e-03 -4.45405953e-04 3.55252996e-04 2.04067081e-04
      2.75631755e-04 1.81662748e-04 2.85349117e-04 9.03305845e-05
      2.07901932e-04 2.25173164e-04 3.22534645e-04 6.06900605e-04
      4.54380643e-04 4.54489375e-04 2.55749590e-04 3.88519169e-04
      2.34865511e-04 4.56851791e-04 4.38821677e-04 5.78011444e-04
      -3.28462396e-04 2.08272031e-04 4.14818351e-04 8.65315611e-04
      1.60567043e-03 5.19731839e-04 1.41196081e-03 5.35483938e-04
      -4.12961119e-04 2.91628786e-03 1.76696794e-03 1.90859823e-03
      1.08279090e-03 3.97044607e-03 3.98605829e-03 3.48971854e-03
      3.44996061e-03 2.34943884e-03 5.08601079e-04 3.75021016e-04
      4.82035190e-04 1.57719813e-04 3.33038013e-04 5.82452994e-05
      1.94201755e-04 1.37173556e-04 4.74117900e-04 4.31764754e-04
      4.93831176e-04 6.54878968e-04 5.45360206e-04 2.42690486e-03
      1.03706319e-03 1.54203502e-03 9.79085104e-04 5.60057815e-04
      1.09734060e-03 1.26594002e-03 9.92679619e-04 7.93096784e-04
      2.28996226e-03 1.45514484e-03 3.15737538e-03 2.56781257e-03
      1.49003509e-03 -3.65370139e-03 4.49782092e-04 1.42110628e-03
      2.08978727e-03 -3.56267486e-03 -9.97129246e-04 -3.94615578e-04
      -3.32958112e-03 -2.53922096e-03 1.48891311e-04 4.65241988e-04
      8.19201698e-04 8.04658455e-04 2.32235459e-03 1.55068969e-03
      2.19788030e-03 1.18923967e-03 2.94263795e-04 2.24520965e-03
      1.00500602e-03 2.49009579e-03 2.81058461e-03 3.19473445e-03
      3.17368447e-03 4.52223513e-03 2.96078646e-03 2.27320683e-03
      -2.46619503e-03 -1.80339103e-03 -1.44104462e-03 8.01003305e-04
      2.08696513e-03 1.23000785e-03 -3.82113503e-04 -9.28968348e-06
      -2.75116344e-03 -1.80736720e-03 -7.25661463e-04 1.04134393e-04
      1.88311780e-04 2.18143826e-03 1.19553308e-03 -9.02080094e-04
      -2.26559423e-04 -2.07885867e-03 -1.76280318e-03 -1.13841880e-03
      -1.42124161e-04 8.03421426e-05 1.01499457e-03 2.56061694e-03
      -5.05175376e-06 1.98859652e-03 -2.12954637e-03 -3.92836006e-03
      -1.26172905e-03 -1.08418975e-03 -1.08690292e-03 4.00361232e-03
      2.93236831e-03 -7.79038644e-04 -2.06991099e-03 -3.30230477e-03
      7.46924634e-05 -2.91266071e-04 4.32378642e-04 -1.78983097e-03
      5.63818205e-04 -8.14285959e-05 -5.89048839e-04 -8.16210231e-04
      -1.31458743e-04 -1.79976414e-04 -1.02146075e-03 -5.59973647e-04
      4.08713167e-05 8.00211797e-04 3.33757489e-04 -6.45899912e-04
      -3.83363746e-04 2.88373267e-04 -4.59501985e-03 -3.08207632e-03
      -1.96126406e-03 -1.39517349e-03 6.22211816e-03 3.50367697e-03
      -5.98136452e-04 -9.19467362e-04 -3.35548865e-03 -4.21105744e-03
      -4.79723589e-04 3.03198729e-04 -1.18697444e-05 -4.14615584e-04
      -1.67518959e-03 -3.19831632e-03 -2.19623209e-03 -3.87899880e-03
      -1.78186782e-03 -2.22170749e-03 -2.60897703e-03 -1.45943766e-03
      -1.64518587e-03 -2.41158661e-04 -9.89499385e-04 -8.55088758e-04
      -1.14762539e-03 -7.90797698e-04 3.21465748e-04 3.25388275e-04
      5.39363500e-05 -1.49620872e-04 4.66637430e-04 7.12289242e-04
      4.49010753e-04 -4.64322395e-04 -4.52765590e-03 -2.18355723e-04
      3.71145492e-04 -3.79275240e-04 -3.38738225e-03 -3.02469102e-03
      -4.97149164e-03 -1.39817211e-03 -4.12837509e-03 -4.01963160e-04
      2.92731798e-04 3.39850783e-04 -1.16005904e-04 -3.67126777e-04
      2.44198396e-04 1.17789407e-03 6.42033818e-04 -6.37261779e-04
      2.58264947e-03 7.33051042e-04 6.97021547e-04 6.93841255e-04
      4.77892900e-04 6.81554491e-04 9.44950501e-04 5.57020481e-04
      2.99598067e-03 4.30011365e-04 9.75421353e-05 1.08450848e-04
      4.84677694e-05 4.20671044e-04 5.42991220e-05 4.22880294e-05
      2.41956426e-04 4.87306621e-04 1.26873166e-03 5.44258510e-04
      5.93363249e-04 1.65538382e-04 -6.30021188e-03 6.17350859e-04
      1.20307761e-03 4.33257082e-04 1.21052493e-03 3.08238232e-04
      1.52447465e-04 1.18914744e-04 7.01656027e-05 4.57728776e-04
      1.75127352e-04 1.53240078e-04 2.35890664e-04 3.54100746e-04
      1.70055820e-04 1.37715338e-04 1.46574530e-04 1.40439559e-04
      2.28720310e-04 6.43859385e-05 9.06163477e-05 2.07732926e-04
      1.43713565e-04 4.59365052e-04 3.16202611e-04 3.36273923e-04
      1.54552908e-04 3.96434771e-04 2.57208478e-04 4.37802286e-04
      4.37802286e-04 4.37802286e-04 1.62147766e-03 3.50025832e-04
      1.52319379e-04 5.12080842e-05 2.75133352e-04 9.77590389e-05
      2.73245911e-04 3.53531243e-04 1.40824635e-03 2.17024446e-03
      1.27291726e-03 8.53583857e-04 1.92350446e-04 3.11344600e-04
      5.36922707e-05 2.77880928e-04 2.27009499e-04 2.20603636e-03
      4.25517501e-04 2.09445308e-04 4.00085934e-04 2.37949542e-04
      5.13428822e-04 7.42875491e-05 3.31323652e-04 2.83931324e-04
      4.12967434e-04 2.75847793e-04 2.88040581e-04 4.98094130e-04
      5.73762984e-04 4.17415332e-03 7.45445606e-04 1.28641282e-03
      6.38842932e-04 4.24455851e-04 8.22511327e-04 5.44091337e-04
      3.39644961e-04 1.91625557e-04 3.66966909e-04 3.21582665e-05
      2.73226644e-04 2.10904647e-04 8.04676150e-04 -2.10335362e-03
      2.47581425e-04 1.06089760e-03 1.31049100e-03 2.76934146e-03
      4.65577585e-04 8.10256461e-04 6.33434043e-04 -2.46107555e-03
      2.22160568e-04 7.30679778e-04 9.55961354e-04 1.13560073e-03
      2.14509573e-03 7.88188889e-04 1.46490138e-03 5.63284557e-04
      2.90124299e-04 4.41254815e-03 1.18943339e-04 2.51779740e-04
      1.48736592e-03 3.75927705e-03 2.81746732e-03 3.90434288e-03
      2.39873398e-03 4.42553312e-03 5.77292813e-05 6.39509992e-04
      1.21088466e-03 8.91917269e-04 1.19912135e-03 5.97449020e-04
      9.23505111e-04 4.70620726e-04 1.95579880e-04 -4.68282262e-03
      -5.21979900e-03 -1.69621909e-03 -2.95739132e-03 -7.09680514e-03
      -1.95074058e-03 -7.62119715e-04 -4.21600911e-04 -3.95711698e-03
      -1.46411697e-03 -9.17855941e-04 -1.04894186e-03 -1.70322543e-04
      1.95878651e-03 2.41485867e-03 1.31973228e-03 1.29686587e-03
      -1.36256975e-03 -4.09884704e-03 -1.18563720e-03 -1.71993568e-03
      -1.00888952e-03 5.12487115e-03 3.90706770e-03 5.41651621e-04
      -8.44552182e-04 -2.15136819e-03 -1.92546623e-03 -1.16010735e-04
      -2.24174699e-03 -4.20815399e-04 9.47942899e-05 1.14826858e-03
      -7.64864148e-04 -1.37643178e-03 -1.77728839e-03 -5.59879746e-03
      -2.22372869e-03 -3.46202403e-03 -1.14496169e-03 1.73425593e-03
      1.44200842e-03 9.28828842e-04 -1.20756566e-03 -4.32703411e-03
      -3.36368405e-03 -1.96787715e-03 -1.33243063e-03 -1.36736827e-03
      2.68998044e-03 1.10050431e-03 -1.29559473e-03 -6.58113859e-04
      -2.63331179e-03 -1.53445976e-03 -9.73489368e-04 -1.28299755e-03
      -2.66383402e-04 1.57578412e-04 -5.70169650e-04 -1.29041367e-03
      -3.03052977e-04 -1.44986098e-03 -6.47991244e-03 -2.15918920e-03
      -2.26318324e-03 -1.17354910e-03 2.99613806e-03 2.99393991e-03
      1.93632441e-03 9.38432000e-04 -4.50664898e-03 -4.59704502e-03
      -2.06811586e-03 -3.17727402e-03 -1.24638737e-03 -2.10857950e-03
      -6.82506768e-04 1.96448760e-03 5.49289223e-04 -3.11460788e-03
      -1.53307093e-03 -1.80901145e-03 -1.51231990e-03 -2.33153594e-04
      -1.62985083e-03 -2.55242107e-03 -2.99441745e-03 -8.41372763e-04
      -1.68290397e-03 -4.52112436e-04 -7.83872892e-05 3.27664238e-05
      2.85543996e-04 5.76857419e-04 3.57868557e-04 6.63940737e-04
      6.20971317e-04 -3.09524039e-04 -2.42432975e-03 -3.71271023e-03
      -5.06623508e-03 -2.53032241e-03 -4.34581470e-03 -2.90936767e-03
      1.03146723e-03 1.26679998e-03 -2.13293679e-04 1.05461793e-03
      5.87672461e-04 6.43683597e-04 -7.04493548e-04 -3.79452482e-04
      5.88243165e-05 6.42854837e-04 2.31714710e-03 1.16281083e-03
      2.80818698e-04 2.68127682e-04 2.06131663e-04 1.09155269e-04
      -3.09470133e-03 5.06954850e-04 3.29911330e-04 3.31161456e-04
      3.72091017e-04 4.02678357e-04 3.77829449e-04 3.65588960e-04
      1.65792182e-04 5.73846686e-04 2.14310290e-04 2.01572475e-04
      1.76491361e-04 3.33989010e-04 1.93845294e-03 1.29969174e-03
      -3.40987375e-04 -2.05124752e-03 -2.36950605e-03 3.94641946e-04
      1.43629080e-03 2.27157120e-03 1.78628939e-03 1.91990763e-03
      5.31898229e-04 3.82952829e-04 1.88571436e-03 3.91759584e-03
      5.13347215e-04 1.80391839e-03 1.30722125e-03 9.46090906e-04
      5.14352694e-04 5.31359226e-04 5.08461613e-04 2.35177344e-04
      5.13718056e-04 9.50439644e-05 1.67899285e-04 1.56293652e-04
      4.17817122e-04 8.91244446e-04 8.34297505e-04 6.73511997e-04
      5.19484747e-04 6.55942946e-04 1.04142724e-04 1.41474564e-04
      5.77649298e-05 5.38458000e-04 1.71091955e-03 -1.73560693e-03
      -1.27368351e-03 1.09746133e-03 8.43383605e-04 7.70793995e-04
      1.37419661e-03 1.20498624e-03 2.25914665e-03 -1.41903909e-03
      -2.73364945e-03 -1.42226671e-03 -4.16633848e-04 -2.51407060e-03
      6.31606730e-04 -3.42294021e-04 -8.03810195e-04 -1.57809828e-03
      7.55484798e-04 7.99365924e-04 2.29727535e-04 4.09757835e-04
      5.70818316e-04 6.15991157e-05 1.19950753e-04 7.95559245e-05
      6.20513281e-04 -5.07706078e-04 -8.28002667e-05 3.26085807e-04
      6.36082550e-04 1.56249118e-03 2.22097195e-04 1.61234129e-04
      4.58858820e-04 -1.34822738e-04 -1.65038160e-03 -1.78696355e-03
      -1.60919724e-03 -6.84345549e-04 4.77458467e-04 3.23824992e-04
      -1.43594702e-03 -1.25331618e-03 -1.61833840e-03 -2.94308388e-03
      -1.70824421e-03 1.52819336e-03 7.99139205e-04 -9.95173832e-05
      6.54004922e-04 -1.29606365e-03 -9.92589747e-04 -3.13940388e-03
      -7.51228770e-04 -6.76372612e-04 3.51512805e-04 6.63176412e-04
      1.84149912e-03 5.28317294e-04 6.43452571e-04 6.48669666e-04
      -1.75062130e-04 -2.87355995e-03 -3.11456015e-03 -3.28543683e-04
      -1.06544222e-03 1.80112768e-03 -6.30963652e-04 9.84306171e-05
      -1.46372520e-04 4.31299326e-04 -3.99276987e-03 -3.05365631e-03
      -1.19099335e-03 2.65156996e-04 2.98851752e-04 1.88609047e-04
      -3.05967173e-04 -1.51109532e-04 -2.70280219e-03 -4.35098819e-03
      -4.62366827e-03 -4.99693619e-04 2.66526942e-03 2.47385236e-03
      -2.08294881e-03 -9.16593359e-04 -2.55546905e-03 -2.73603154e-03
      -3.16356821e-03 -4.14474198e-05 -1.26989838e-03 5.28962002e-04
      -7.09341548e-04 1.54251844e-04 -2.71713384e-03 -1.73370133e-03
      -3.66552221e-03 -4.08186344e-03 -2.48680916e-03 -4.09692479e-03
      -1.17116573e-03 6.55707321e-04 2.64009601e-03 1.50665850e-03
      1.02947280e-03 -3.67015973e-03 -9.15064767e-04 8.34285922e-04
      1.20367669e-03 6.30358292e-04 1.15019130e-03 1.26610079e-03
      6.54101721e-04 -7.40948526e-05 -1.92137959e-03 -2.78554042e-03
      -1.88436965e-03 -2.15645763e-03 -8.53208709e-04 -3.10937734e-03
      -1.55197910e-03 2.29093115e-04 -3.33207980e-04 -3.20255687e-03
      -2.82570440e-03 -1.32944540e-03 -2.01031775e-03 -1.12987589e-03
      -6.86910818e-04 -7.83266441e-04 1.32018817e-03 -5.87658491e-04
      -2.52960692e-03 -3.05180438e-04 -2.36584619e-03 -4.38510068e-03
      -1.75085093e-03 -2.38382211e-03 1.40963006e-03 1.47954433e-03
      1.76816212e-03 1.21614977e-03 -8.93840843e-05 -2.03953660e-03
      -2.51838495e-03 -1.93200982e-03 -1.09805155e-03 -1.54703530e-03
      -9.34937969e-04 -7.66354380e-04 1.05188228e-04 -6.56193588e-04
      -2.40395847e-03 -4.27988637e-03 -2.56539788e-03 -2.78713740e-03
      -1.46726670e-03 -6.94299641e-04 -3.99141136e-04 -1.98893777e-05
      -9.05059394e-04 -1.44669379e-03 -2.22448655e-03 -1.47472508e-03
      -3.51010589e-03 -6.55589101e-04 9.67608648e-04 1.44787668e-03
      7.09784101e-04 2.48017465e-03 9.47323104e-04 5.87702729e-04
      -9.24008666e-04 1.20062567e-03 9.89990891e-04 2.21139542e-03
      2.00044457e-03 2.42024101e-03 -3.23755341e-03 -1.21370330e-03
      -3.10170860e-03 -1.62123935e-03 -3.09637305e-03 -2.27844156e-03
      -1.34097668e-03 -1.32408447e-03 -7.50160776e-04 6.02619490e-04
      1.13913219e-03 -7.21996301e-04 -1.78243310e-04 -7.35505484e-04
      1.01724616e-03 2.23835325e-03 -6.48131478e-04 7.49876606e-04
      1.25260348e-03 3.77883727e-04 1.89413142e-04 -4.56413138e-04
      1.28600444e-03 5.05463919e-04 2.03489908e-03 1.95854646e-03
      2.04402604e-03 1.52831053e-04 -1.14645821e-03 -5.76347928e-04
      6.46735076e-04 1.99911487e-03 5.60863002e-04 1.99746271e-03
      1.83668884e-03 -5.04434225e-04 -2.02346500e-03 -3.88846733e-03
      -5.65957185e-03 -1.36128219e-03 2.56261235e-04 1.40559848e-03
      3.24162957e-03 2.86938506e-03 5.25613665e-04 -4.24932037e-03
      -6.78110356e-03 -6.76236441e-03 2.58288375e-04 4.44648694e-03
      1.85225776e-03 3.41334799e-03 3.28537938e-03 -3.86232883e-03
      -4.59176896e-04 -1.59761833e-03 -1.25894311e-03 1.08153664e-03
      1.86029926e-03 7.04914390e-04 1.00102415e-03 8.20521615e-04
      -9.93391848e-04 -1.97791541e-03 -1.38524803e-03 -5.90613752e-04
      3.84226092e-04 1.37165061e-03 5.49024669e-04 1.33668786e-04
      -5.53078717e-04 -1.93447189e-03 -1.73684640e-03 -2.94699706e-03
      -1.21139246e-03 9.50606132e-04 5.53060696e-03 1.50133588e-03
      8.35117651e-04 1.95955904e-03 -1.95873622e-03 -5.16651897e-04
      -9.59419995e-04 7.22916215e-04 3.50614078e-04 3.65782506e-03
      1.26518810e-03 -2.56284466e-03 -2.67645088e-03 -1.67043728e-03
      -1.91747723e-03 -1.65742007e-03 -1.60185550e-03 -4.14500100e-05
      1.55766250e-03 3.11146170e-04 -1.97429559e-04 -8.86320369e-04
      -2.11343472e-03 -2.61851866e-03 -1.53300888e-03 -1.04600238e-03
      -2.80491731e-05 2.77684769e-04 3.02608387e-04 -4.36009694e-04
      -9.25569911e-05 -2.59438367e-03 1.55413325e-03 7.80477014e-04
      1.18909380e-03 4.36166622e-04 -1.66235981e-03 -1.88850460e-03
      -5.11743641e-03 -4.89877490e-03 -6.97709154e-04 2.27863737e-03
      3.97889689e-03 3.30068194e-03 3.94136598e-03 4.07365384e-03
      1.55627844e-03 8.00072390e-04 3.62108636e-04 7.19721429e-04
      -2.95742555e-03 -1.99059630e-03 -1.68285239e-03 -8.28617558e-05
      1.23994454e-04 3.56181350e-04 -1.17710466e-03 -8.81855784e-04
      -3.35612474e-03 -4.25193645e-03 -3.33512737e-03 -1.87969615e-03
      2.39303772e-04 -2.00714497e-03 -1.63176283e-03 -2.49289471e-04
      -1.92806590e-03 -3.80320824e-03 5.24837698e-04 3.22748744e-03
      4.06272709e-03 2.11935421e-03 3.15570855e-03 1.00117177e-03
      6.52829651e-04 7.04262522e-04 -4.96575958e-04 8.91577452e-04
      2.33836402e-03 3.37058469e-03 1.24487065e-04 -1.84260833e-03
      1.98280322e-04 2.94445897e-04 -1.87069469e-04 6.01667503e-04
      -2.59817578e-04 7.10990746e-04 -2.77343235e-04 6.04707398e-04
      -3.92087077e-06 5.34396211e-04 7.75779830e-04 4.15318500e-04
      1.84061399e-04 -5.64232236e-04 5.52195008e-04 -1.24155369e-03
      1.37375901e-04 2.12732120e-03 1.60445878e-03 1.64369238e-03
      5.67987678e-04 -4.81982366e-04 -7.88716017e-04 1.62258174e-03
      9.11569223e-04 -1.10152550e-05 -3.18720158e-05 4.86013101e-04
      -3.47585854e-04 -8.09609541e-04 -7.02817284e-04 1.28095585e-03
      2.80484487e-03 7.18648371e-04 1.65054842e-03 1.90588995e-03
      7.97644607e-04 4.40351694e-04 -1.38287421e-03 1.63899836e-04
      -1.08271561e-04 1.62489957e-03 2.10865313e-04 1.52291066e-03
      3.77418241e-03 1.44959529e-04 -1.03084266e-03 -3.74511525e-04
      -2.17117180e-04 2.79920409e-03 2.23492202e-03 1.15505571e-03
      1.41550228e-03 2.17632344e-03 -5.29249781e-04 -6.73566014e-04
      4.87497637e-05 2.05649645e-03 2.81470199e-03 2.13006861e-03
      2.02638656e-03 1.41850987e-03 1.72590779e-03 2.69749900e-04
      -8.50108394e-04 -7.45532161e-04 2.14153784e-03 3.23123042e-03
      2.08376767e-03 9.54842253e-04 1.67182658e-03 2.63966201e-03
      6.04409142e-04 -1.04981067e-03 -6.76734271e-05 2.04378809e-03
      2.74065020e-03 1.60568999e-03 6.98891177e-04 1.32080854e-03
      3.11911898e-03 7.07244966e-04 -9.64073406e-04 1.46584492e-03
      1.96463033e-03 1.60420674e-03 1.64496934e-03 6.00781990e-04
      -3.77509685e-04 2.90435390e-03 3.04850191e-03 4.00298182e-03
      2.64403317e-03 1.88877143e-03 1.45994767e-03 5.63986658e-04
      -4.22317898e-05 6.93732582e-04 1.48432946e-03 1.07006601e-03
      -1.20612839e-03 -7.06963183e-04 5.93800723e-05 1.24945585e-03
      1.21848658e-03 3.71784787e-04 -1.25473234e-04 1.32126280e-03
      2.08249595e-03 2.71487079e-04 1.54990412e-03 1.21293240e-03
      2.66440492e-03 1.82740355e-03 1.90204033e-03 5.27689001e-04
      2.59785657e-03 2.48545897e-03 3.39165423e-03 2.00983253e-03
      2.47077271e-03 3.43204453e-03 5.74746286e-04 -4.97747315e-05
      -1.46774750e-03 1.02483202e-03 1.10166729e-03 2.64097936e-03
      2.17859400e-03 3.30218370e-03 2.72513367e-03 1.38716621e-03
      2.19109375e-03 1.03154394e-03 9.99734038e-04 8.11473932e-04
      -1.78215187e-03 -1.03827077e-03 2.65220506e-03 1.82840123e-03
      -2.38621244e-04 -7.50646112e-04 -1.87606527e-03 -3.02023999e-03
      -1.38821779e-03 -1.07448036e-03 1.35742489e-03 1.65242760e-03
      2.42339890e-03 5.09957492e-04 -4.94251901e-04 -6.69097761e-04
      -5.12461760e-04 2.02062097e-03 2.46101804e-03 1.71123748e-03
      2.48605083e-03 1.97441597e-03 -6.49229041e-04 -3.38215264e-03
      -2.73031741e-03 -1.40028261e-02 -7.98395340e-05 9.86818690e-04
      2.13097152e-03 2.29732483e-03 3.57317808e-03 3.30107054e-04
      -2.04183569e-04 -1.01571972e-03 -3.37055116e-03 1.71971007e-03
      3.44247581e-03 6.40513329e-03 3.77121987e-03 2.05574324e-03
      7.00556731e-04 6.23978325e-04 -2.68997275e-04 -1.38173858e-02
      -2.60241446e-03 -1.83683820e-03 2.55821925e-03 2.81729409e-03
      1.95708335e-03 1.21993558e-04 -2.38194899e-03 -2.41614343e-03
      -1.09010059e-02 -2.47829687e-03 -2.58044049e-04 1.68241689e-03
      2.24159448e-03 2.13252334e-03 9.66866617e-04 -1.08037028e-03
      -8.04785639e-04 -8.66381265e-03 -2.19427329e-03 -7.09650572e-04
      1.41299365e-03 2.46728514e-03 3.74428742e-03 1.35953713e-03
      6.21564570e-04 8.64435453e-04 -7.68294977e-03 -1.09355699e-03
      1.16248196e-03 2.84683006e-03 3.74770258e-03 1.89728546e-03
      1.51808024e-03 1.00221753e-03 2.10690498e-03 -8.06786306e-03
      -7.38155970e-04 -2.11089943e-03 1.56432041e-03 2.50845123e-03
      9.86756291e-04 8.52677622e-04 1.57089016e-04 1.14750839e-03
      -7.14910915e-03 -2.93970481e-03 -2.22708425e-03 6.93235197e-04
      1.13769097e-03 7.17531191e-04 3.86936241e-04 2.55882769e-04
      9.10133589e-04 -4.43492178e-03 -9.45786596e-04 -7.93353305e-04
      1.19467622e-05 1.46182708e-03 2.36392720e-03 1.20187900e-03
      5.39943809e-04 1.44656235e-03 -6.19848678e-03 -2.22096965e-03
      -7.46739889e-03 4.58808267e-04 1.96398236e-03 9.06541885e-04
      7.59786519e-04 7.47321057e-04 9.65923769e-04 -2.64141685e-03
      6.97440002e-04 -2.63941474e-04 -4.60659903e-05 1.62529526e-03
      -4.08470514e-04 2.42125127e-03 2.57929042e-03 1.80747511e-03
      1.46293256e-03 4.32910805e-04 -2.11605034e-03 -7.91505969e-04
      -1.89954284e-04 -1.01793127e-03 2.04193988e-03 2.34943256e-03
      9.97630996e-04 2.84597772e-04 1.71576306e-04 -2.21510790e-03
      -1.65871857e-03 -1.64159236e-03 -1.66486087e-03 2.22612638e-03
      2.76045455e-03 1.59996783e-03 1.97550078e-04 1.08446949e-03
      -4.99229529e-04 1.23659777e-03 -1.49369135e-03 -2.19448959e-03
      -1.26601907e-03 -1.44727819e-03 1.39870949e-03 3.98677454e-04
      -1.05957757e-03 -5.02203498e-03 -4.10551857e-03 -3.97834321e-03
      1.65605149e-03 3.16950656e-03 3.39294900e-03 2.34900671e-03
      8.93535384e-04 3.30237410e-04 -1.55598333e-03 -1.06732571e-03
      4.63532720e-04 1.82422146e-03 1.65057264e-03 1.46117283e-03
      6.25989691e-04 1.29000924e-04 1.00939034e-03 2.29882236e-04
      2.38098600e-03 2.08390411e-03 -6.06784550e-03 -1.53962569e-03
      -2.80525303e-03 7.60877563e-04 -7.39274372e-04 -8.22594855e-04
      -4.26762085e-03 -4.58041439e-03 -5.85391279e-03 -5.42704202e-03
      2.82087480e-04 -2.07595876e-03 4.07397718e-04 5.69761905e-04
      1.87153448e-04 -2.78920494e-03 -9.49015724e-04 -3.83116235e-03
      3.53534939e-04 1.52553886e-03 9.03401815e-04 1.57670525e-03
      1.34726742e-03 5.09098463e-04 -2.30057212e-03 8.82096239e-04
      -1.18460266e-04 3.00011248e-03 1.72810466e-03 1.40678696e-03
      4.41659329e-04 1.55174895e-03 1.96663663e-03 -9.73577087e-04
      6.43918873e-04 2.45047431e-03 -4.71241074e-03 1.34260999e-03
      1.83570432e-04 1.58371389e-04 -1.04648250e-04 4.25141159e-04
      -2.92712287e-03 -1.40151998e-03 -3.55495326e-03 -3.96875525e-03
      2.57023756e-04 6.34397729e-04 2.33387109e-04 1.60832726e-03
      9.96892457e-04 -3.27277021e-03 -2.45662662e-03 -4.02884185e-03
      2.29784939e-03 3.08564119e-03 2.61312630e-03 1.33865129e-03
      2.13740929e-03 1.21844979e-03 -2.16742919e-05 1.58205978e-03
      1.68048544e-03 2.76564481e-03 1.37124839e-03 8.59386520e-04
      -3.42181331e-04 -1.17406331e-03 5.78140956e-04 -7.03149766e-04
      2.09982344e-03 1.97687070e-03 -3.21315276e-03 9.45549458e-04
      7.49787141e-04 -2.42800437e-04 8.55614897e-04 1.09969301e-03
      -3.04379663e-03 -3.68014886e-03 -3.88919818e-03 -5.00822207e-03
      -2.02236045e-03 -3.80225782e-03 -1.82308163e-03 -2.49560317e-03
      -1.20054476e-03 -3.08253313e-03 -2.62777950e-03 -5.07586217e-03
      2.26892228e-03 1.11955719e-03 -1.48445260e-05 -9.21678322e-04
      -3.60166538e-03 2.63866765e-04 -2.14460684e-04 2.88548297e-03
      2.64065806e-03 2.55705300e-03 8.86339694e-04 -6.46430053e-05
      -1.12361717e-03 -5.69264917e-03 -3.16494668e-04 -6.18533697e-04
      2.77145556e-03 3.26310215e-03 -3.94257251e-03 -6.26824913e-04
      -4.11470095e-03 -1.97709375e-03 -3.12267127e-03 -1.18266547e-03
      8.04051524e-04 1.19000062e-04 -1.89271639e-03 -2.66159629e-03
      -2.15302757e-03 -6.81889197e-03 -2.87290802e-03 -4.01315698e-03
      1.31812086e-03 6.97137963e-04 3.68599338e-03 -9.17845697e-04
      2.26085377e-03 1.19944045e-03 2.10360406e-04 -4.75217930e-05
      -7.68646551e-03 1.11631771e-05 -1.15614582e-03 1.55338773e-03
      2.68921000e-03 2.39076698e-03 1.25884323e-03 1.22925115e-03
      1.26291893e-03 -5.52779995e-03 5.55620354e-04 -2.32659469e-04
      2.87374062e-03 2.76351254e-03 8.13143619e-04 -8.62385787e-04
      -5.45128435e-03 -2.86778016e-03 -5.43303834e-03 3.28309112e-03
      2.21976964e-03 3.51988408e-03 2.77757226e-03 2.03637569e-03
      5.49551391e-04 -2.59581930e-03 -2.20010732e-03 -2.43322947e-03
      -1.33489855e-04 -1.83824310e-03 -8.68045376e-04 1.11261487e-03
      6.96816307e-04 7.39117095e-04 3.22414504e-04 2.36979075e-04
      -2.43615452e-03 -1.97527464e-03 -4.02069837e-03 -9.61053243e-04
      8.77388404e-04 3.31308489e-04 1.10858877e-03 6.40954357e-04
      7.50554667e-04 -4.49565065e-04 -7.06452411e-04 -4.21521021e-03
      -2.67131324e-03 7.66176439e-04 1.27342879e-03 1.26790733e-03
      2.12980923e-03 2.44009992e-04 -1.05531386e-03 -1.44157477e-03
      -1.94752950e-03 -1.71370956e-03 1.63113698e-03 1.16775779e-03
      1.35894970e-03 9.82729485e-04 8.34897684e-04 -1.07880216e-03
      -3.59777408e-03 -5.49516361e-03 -2.88381940e-03 -9.35217249e-05
      1.44021458e-03 3.89186293e-03 3.26240552e-03 2.15693587e-03
      -3.89454828e-04 -7.53461718e-05 -1.57926849e-03 1.08882831e-03
      5.32044447e-04 -2.47953902e-03 8.32695630e-04 4.03390673e-04
      5.55966748e-04 -1.48991088e-03 -1.08379533e-03 -4.31326637e-03
      -3.34703876e-03 -3.75167979e-03 -5.74345002e-04 9.17699188e-04
      -9.24662570e-04 -1.88081700e-03 -1.06538471e-03 9.15856217e-04
      -1.77308638e-03 -1.00210391e-03 -1.98808080e-03 -1.94019114e-03
      4.47097300e-05 -2.82137160e-04 -1.06299599e-03 -3.44145461e-03
      -9.73097049e-04 -2.74234568e-03 -1.35061366e-03 -2.11765198e-03
      -4.45177266e-03 -1.50905445e-03 -1.71501795e-03 1.74818083e-03
      1.55008020e-05 -1.01111550e-03 -4.70837625e-03 -3.95469554e-03
      -4.56142332e-03 -4.82234638e-03 -1.45664450e-03 -2.95079150e-03
      -8.66436982e-04 -1.56958879e-03 -5.75403043e-04 -1.36059744e-03
      -1.12994803e-05 -3.70691414e-03 -2.61124573e-03 1.14883156e-03
      6.68101246e-04 2.24091156e-04 2.38482913e-04 3.68218840e-04
      -1.50630786e-03 -5.96787606e-04 -2.61870958e-03 -1.95747288e-03
      1.40923494e-03 2.14871397e-04 -3.20534127e-05 7.63842894e-04
      3.76225915e-04 4.36464266e-04 1.08908594e-03 -1.58805179e-03
